svm_type epsilon_svr
kernel_type rbf
gamma 2.59590500327345
nr_class 2
total_sv 510
rho 0.0471687482120517
SV
0.432180636771559 1:0.0267854517474878 2:-0.067450452901023 3:0.067450452901023 4:0 5:0.0265315573895215 
0.432180636771559 1:-0.067450452901023 2:0.067450452901023 3:0 4:0.0265315573895215 5:0.0393316778066661 
-0.432180636771559 1:0 2:0.0265315573895215 3:0.0393316778066661 4:0.102260079239134 5:0.0374044543568255 
-0.432180636771559 1:0.0393316778066661 2:0.102260079239134 3:0.0374044543568255 4:-0.0374044543568255 5:-0.0125800586926358 
0.432180636771559 1:0.102260079239134 2:0.0374044543568255 3:-0.0374044543568255 4:-0.0125800586926358 5:-0.0253310176552811 
-0.432180636771559 1:0.0374044543568255 2:-0.0374044543568255 3:-0.0125800586926358 4:-0.0253310176552811 5:0.112226725118302 
-0.432180636771559 1:-0.0374044543568255 2:-0.0125800586926358 3:-0.0253310176552811 4:0.112226725118302 5:-0.0868957074630209 
0.432180636771559 1:-0.0253310176552811 2:0.112226725118302 3:-0.0868957074630209 4:-0.102729267246347 5:0 
-0.432180636771559 1:0.112226725118302 2:-0.0868957074630209 3:-0.102729267246347 4:0 5:0.14030108435532 
0.432180636771559 1:-0.0868957074630209 2:-0.102729267246347 3:0 4:0.14030108435532 5:-0.114263144522403 
0.432180636771559 1:-0.102729267246347 2:0 3:0.14030108435532 4:-0.114263144522403 5:0.0892713861060652 
-0.432180636771559 1:0 2:0.14030108435532 3:-0.114263144522403 4:0.0892713861060652 5:0.0743156487703851 
0.160662768330206 1:0.14030108435532 2:-0.114263144522403 3:0.0892713861060652 4:0.0743156487703851 5:-0.0369111944135595 
0.432180636771559 1:-0.114263144522403 2:0.0892713861060652 3:0.0743156487703851 4:-0.0369111944135595 5:0.0246614665583253 
-0.432180636771559 1:0.0892713861060652 2:0.0743156487703851 3:-0.0369111944135595 4:0.0246614665583253 5:0.0965288190044179 
-0.432180636771559 1:0.0743156487703851 2:-0.0369111944135595 3:0.0246614665583253 4:0.0965288190044179 5:-0.121190285562743 
0.432180636771559 1:-0.0369111944135595 2:0.0246614665583253 3:0.0965288190044179 4:-0.121190285562743 5:-0.126675840462891 
0.432180636771559 1:0.0246614665583253 2:0.0965288190044179 3:-0.121190285562743 4:-0.126675840462891 5:0.101795157994402 
-0.432180636771559 1:0.0965288190044179 2:-0.121190285562743 3:-0.126675840462891 4:0.101795157994402 5:0.13418535209371 
0.432180636771559 1:0.101795157994402 2:0.13418535209371 3:-0.0846432030668956 4:0 5:-0.0246614665583253 
0.432180636771559 1:0.13418535209371 2:-0.0846432030668956 3:0 4:-0.0246614665583253 5:0.0612509855882686 
0.432180636771559 1:0 2:-0.0246614665583253 3:0.0612509855882686 4:0.0952962965945983 5:0 
-0.432180636771559 1:-0.0246614665583253 2:0.0612509855882686 3:0.0952962965945983 4:0 5:0.125950252722708 
0.432180636771559 1:0.0952962965945983 2:0 3:0.125950252722708 4:-0.0679966639179717 5:0 
0.432180636771559 1:0 2:0.125950252722708 3:-0.0679966639179717 4:0 5:0.134380605719227 
-0.432180636771559 1:0.125950252722708 2:-0.0679966639179717 3:0 4:0.134380605719227 5:0.138648374587178 
0.432180636771559 1:-0.0679966639179717 2:0 3:0.134380605719227 4:0.138648374587178 5:0.010386128233833 
-0.432180636771559 1:0 2:0.134380605719227 3:0.138648374587178 4:0.010386128233833 5:0.141498778974491 
-0.432180636771559 1:0.134380605719227 2:0.138648374587178 3:0.010386128233833 4:0.141498778974491 5:-0.0397036209800889 
-0.432180636771559 1:0.138648374587178 2:0.010386128233833 3:0.141498778974491 4:-0.0397036209800889 5:-0.133069878302406 
0.432180636771559 1:0.010386128233833 2:0.141498778974491 3:-0.0397036209800889 4:-0.133069878302406 5:-0.128715015079 
-0.432180636771559 1:0.141498778974491 2:-0.0397036209800889 3:-0.133069878302406 4:-0.128715015079 5:0.128715015079 
0.432180636771559 1:-0.128715015079 2:0.128715015079 3:-0.128715015079 4:-0.0554287092352613 5:-0.0910343112299016 
0.432180636771559 1:0.128715015079 2:-0.128715015079 3:-0.0554287092352613 4:-0.0910343112299016 5:0.135464741688163 
0.432180636771559 1:-0.128715015079 2:-0.0554287092352613 3:-0.0910343112299016 4:0.135464741688163 5:0.139713293856 
0.432180636771559 1:-0.0554287092352613 2:-0.0910343112299016 3:0.135464741688163 4:0.139713293856 5:0.0927949626275146 
-0.432180636771559 1:-0.0910343112299016 2:0.135464741688163 3:0.139713293856 4:0.0927949626275146 5:0.128828962374808 
-0.432180636771559 1:0.135464741688163 2:0.139713293856 3:0.0927949626275146 4:0.128828962374808 5:-0.088554046699916 
0.432180636771559 1:0.139713293856 2:0.0927949626275146 3:0.128828962374808 4:-0.088554046699916 5:-0.133069878302406 
0.432180636771559 1:0.128828962374808 2:-0.088554046699916 3:-0.133069878302406 4:0.143048706509431 5:0.0882438234345432 
-0.432180636771559 1:-0.088554046699916 2:-0.133069878302406 3:0.143048706509431 4:0.0882438234345432 5:0.141158901814524 
-0.432180636771559 1:-0.133069878302406 2:0.143048706509431 3:0.0882438234345432 4:0.141158901814524 5:-0.0369518019668945 
0.432180636771559 1:0.143048706509431 2:0.0882438234345432 3:0.141158901814524 4:-0.0369518019668945 5:-0.133313688097209 
0.432180636771559 1:0.0882438234345432 2:0.141158901814524 3:-0.0369518019668945 4:-0.133313688097209 5:0.142597472221499 
0.432180636771559 1:0.141158901814524 2:-0.0369518019668945 3:-0.133313688097209 4:0.142597472221499 5:0.135683671829778 
0.432180636771559 1:-0.0369518019668945 2:-0.133313688097209 3:0.142597472221499 4:0.135683671829778 5:0.13782763744409 
0.432180636771559 1:-0.133313688097209 2:0.142597472221499 3:0.135683671829778 4:0.13782763744409 5:0.139366975103377 
0.432180636771559 1:0.142597472221499 2:0.135683671829778 3:0.13782763744409 4:0.139366975103377 5:0.140372170648767 
-0.432180636771559 1:0.13782763744409 2:0.139366975103377 3:0.140372170648767 4:0.140909509169687 5:0.0924804793568639 
0.432180636771559 1:0.140372170648767 2:0.140909509169687 3:0.0924804793568639 4:-0.0565485565586481 5:0.0495421490268126 
0.432180636771559 1:0.140909509169687 2:0.0924804793568639 3:-0.0565485565586481 4:0.0495421490268126 5:0.143572923824846 
-0.432180636771559 1:0.0924804793568639 2:-0.0565485565586481 3:0.0495421490268126 4:0.143572923824846 5:0.130212238087404 
-0.432180636771559 1:-0.0565485565586481 2:0.0495421490268126 3:0.143572923824846 4:0.130212238087404 5:-0.0643490028912183 
-0.402170707706661 1:0.143572923824846 2:0.130212238087404 3:-0.0643490028912183 4:-0.133313688097209 5:0.0136207487635003 
-0.432180636771559 1:0.130212238087404 2:-0.0643490028912183 3:-0.133313688097209 4:0.0136207487635003 5:0 
-0.432180636771559 1:-0.0643490028912183 2:-0.133313688097209 3:0.0136207487635003 4:0 5:-0.132154006009519 
0.432180636771559 1:-0.133313688097209 2:0.0136207487635003 3:0 4:-0.132154006009519 5:-0.131229892469628 
0.432180636771559 1:0.0136207487635003 2:0 3:-0.132154006009519 4:-0.131229892469628 5:0.138343132250765 
0.432180636771559 1:0 2:-0.132154006009519 3:-0.131229892469628 4:0.138343132250765 5:0.138595554691011 
-0.0978524438709114 1:-0.132154006009519 2:-0.131229892469628 3:0.138343132250765 4:0.138595554691011 5:0.138497567316461 
0.432180636771559 1:-0.131229892469628 2:0.138343132250765 3:0.138595554691011 4:0.138497567316461 5:-0.00644202435672752 
0.432180636771559 1:0.138343132250765 2:0.138595554691011 3:0.138497567316461 4:-0.00644202435672752 5:0.138408608065632 
0.432180636771559 1:0.138595554691011 2:0.138497567316461 3:-0.00644202435672752 4:0.138408608065632 5:0.143572923824845 
0.432180636771559 1:0.138497567316461 2:-0.00644202435672752 3:0.138408608065632 4:0.143572923824845 5:0.108659422235394 
-0.432180636771559 1:0.138408608065632 2:0.143572923824845 3:0.108659422235394 4:0.142170238580019 5:0.0528139884963401 
-0.432180636771559 1:0.143572923824845 2:0.108659422235394 3:0.142170238580019 4:0.0528139884963401 5:-0.133951795554088 
-0.432180636771559 1:0.108659422235394 2:0.142170238580019 3:0.0528139884963401 4:-0.133951795554088 5:-0.123425373153232 
-0.432180636771559 1:0.142170238580019 2:0.0528139884963401 3:-0.133951795554088 4:-0.123425373153232 5:-0.135132939643249 
-0.432180636771559 1:0.0528139884963401 2:-0.133951795554088 3:-0.123425373153232 4:-0.135132939643249 5:-0.135663739846716 
-0.432180636771559 1:-0.133951795554088 2:-0.123425373153232 3:-0.135132939643249 4:-0.135663739846716 5:-0.135934745982806 
-0.432180636771559 1:-0.123425373153232 2:-0.135132939643249 3:-0.135663739846716 4:-0.135934745982806 5:-0.135903310900149 
-0.432180636771559 1:-0.135132939643249 2:-0.135663739846716 3:-0.135934745982806 4:-0.135903310900149 5:-0.135522286343398 
-0.432180636771559 1:-0.135522286343398 2:-0.134740050748611 3:-0.133500734663984 4:-0.131744709161805 5:-0.129409410504826 
-0.432180636771559 1:-0.134740050748611 2:-0.133500734663984 3:-0.131744709161805 4:-0.129409410504826 5:-0.135683671829778 
0.432180636771559 1:-0.129409410504826 2:-0.135683671829778 3:-0.13286160728423 4:-0.0788519283292562 5:-0.0811378070577482 
-0.321186100706159 1:-0.13286160728423 2:-0.0788519283292562 3:-0.0811378070577482 4:0.861272882791165 5:-0.0766913274134294 
-0.0661267711551734 1:-0.0788519283292562 2:-0.0811378070577482 3:0.861272882791165 4:-0.0766913274134294 5:-0.0788519283292562 
0.432180636771559 1:-0.0811378070577482 2:0.861272882791165 3:-0.0766913274134294 4:-0.0788519283292562 5:-0.0811378070577482 
0.432180636771559 1:-0.0766913274134294 2:-0.0788519283292562 3:-0.0811378070577482 4:0.0489643683771271 5:-0.0820897058417817 
-0.432180636771559 1:-0.0788519283292562 2:-0.0811378070577482 3:0.0489643683771271 4:-0.0820897058417817 5:0.0820897058417817 
-0.432180636771559 1:-0.0811378070577482 2:0.0489643683771271 3:-0.0820897058417817 4:0.0820897058417817 5:-0.0489643683771271 
-0.432180636771559 1:0.0489643683771271 2:-0.0820897058417817 3:0.0820897058417817 4:-0.0489643683771271 5:-0.0750910163123523 
-0.432180636771559 1:-0.0820897058417817 2:0.0820897058417817 3:-0.0489643683771271 4:-0.0750910163123523 5:-0.0771611651564501 
-0.432180636771559 1:0.0820897058417817 2:-0.0489643683771271 3:-0.0750910163123523 4:-0.0771611651564501 5:-0.0793486997117786 
0.432180636771559 1:-0.0489643683771271 2:-0.0750910163123523 3:-0.0771611651564501 4:-0.0793486997117786 5:-0.0816638964019297 
0.432180636771559 1:-0.0750910163123523 2:-0.0771611651564501 3:-0.0793486997117786 4:-0.0816638964019297 5:0.0816638964019297 
0.432180636771559 1:-0.0771611651564501 2:-0.0793486997117786 3:-0.0816638964019297 4:0.0816638964019297 5:0.0793486997117786 
0.432180636771559 1:-0.0793486997117786 2:-0.0816638964019297 3:0.0816638964019297 4:0.0793486997117786 5:0.0771611651564501 
0.432180636771559 1:-0.0816638964019297 2:0.0816638964019297 3:0.0793486997117786 4:0.0771611651564501 5:0.083311457896286 
0.432180636771559 1:0.0816638964019297 2:0.0793486997117786 3:0.0771611651564501 4:0.083311457896286 5:0.0809032720249345 
0.432180636771559 1:0.0793486997117786 2:0.0771611651564501 3:0.083311457896286 4:0.0809032720249345 5:0.0786304049745073 
-0.432180636771559 1:0.0771611651564501 2:0.083311457896286 3:0.0809032720249345 4:0.0786304049745073 5:0.0764817621569039 
-0.432180636771559 1:0.083311457896286 2:0.0809032720249345 3:0.0786304049745073 4:0.0764817621569039 5:-0.0764817621569039 
-0.432180636771559 1:0.0809032720249345 2:0.0786304049745073 3:0.0764817621569039 4:-0.0764817621569039 5:-0.0786304049745073 
-0.432180636771559 1:0.0786304049745073 2:0.0764817621569039 3:-0.0764817621569039 4:-0.0786304049745073 5:-0.0809032720249345 
-0.432180636771559 1:0.0764817621569039 2:-0.0764817621569039 3:-0.0786304049745073 4:-0.0809032720249345 5:-0.0748678365688257 
0.432180636771559 1:-0.0748678365688257 2:-0.0769255288399544 3:-0.0790995340039254 4:-0.0722377730172892 5:-0.074151577354895 
-0.432180636771559 1:-0.0769255288399544 2:-0.0790995340039254 3:-0.0722377730172892 4:-0.074151577354895 5:0.0832839128538725 
-0.432180636771559 1:-0.0790995340039254 2:-0.0722377730172892 3:-0.074151577354895 4:0.0832839128538725 5:-0.0739068241928662 
-0.432180636771559 1:-0.0722377730172892 2:-0.074151577354895 3:0.0832839128538725 4:-0.0739068241928662 5:-0.0759113195088482 
-0.432180636771559 1:-0.074151577354895 2:0.0832839128538725 3:-0.0739068241928662 4:-0.0759113195088482 5:-0.0780275848252948 
-0.432180636771559 1:0.0832839128538725 2:-0.0739068241928662 3:-0.0759113195088482 4:-0.0780275848252948 5:-0.0802652372951439 
0.432180636771559 1:-0.0759113195088482 2:-0.0780275848252948 3:-0.0802652372951439 4:-0.0826350300661525 5:-0.0743626597687398 
0.432180636771559 1:-0.0802652372951439 2:-0.0826350300661525 3:-0.0743626597687398 4:0.0427345453124893 5:-0.0212857173883834 
0.432180636771559 1:-0.0826350300661525 2:-0.0743626597687398 3:0.0427345453124893 4:-0.0212857173883834 5:0.084188552152638 
0.432180636771559 1:-0.0743626597687398 2:0.0427345453124893 3:-0.0212857173883834 4:0.084188552152638 5:0.0817301376805214 
0.432180636771559 1:0.0427345453124893 2:-0.0212857173883834 3:0.084188552152638 4:0.0817301376805214 5:0.0794112366231502 
-0.432180636771559 1:0.084188552152638 2:0.0817301376805214 3:0.0794112366231502 4:0.07722029998374 5:0.0472027771000236 
-0.432180636771559 1:0.0817301376805214 2:0.0794112366231502 3:0.07722029998374 4:0.0472027771000236 5:-0.0472027771000236 
0.298721123128051 1:0.0794112366231502 2:0.07722029998374 3:0.0472027771000236 4:-0.0472027771000236 5:-0.0480124695930936 
0.432180636771559 1:0.07722029998374 2:0.0472027771000236 3:-0.0472027771000236 4:-0.0480124695930936 5:0.0480124695930936 
0.432180636771559 1:0.0472027771000236 2:-0.0472027771000236 3:-0.0480124695930936 4:0.0480124695930936 5:0.0565485565586495 
0.432180636771559 1:-0.0472027771000236 2:-0.0480124695930936 3:0.0480124695930936 4:0.0565485565586495 5:0.0554287092352628 
0.277436774464116 1:-0.0480124695930936 2:0.0480124695930936 3:0.0565485565586495 4:0.0554287092352628 5:0.0543523553102605 
0.432180636771559 1:0.048680502614754 2:0.0557441138609223 3:0 4:0 5:0 
0.432180636771559 1:0.0557441138609223 2:0 3:0 4:0 5:0.0546555954760398 
0.432180636771559 1:0 2:0 3:0 4:0.0546555954760398 5:0.0536087752651171 
0.36143348491135 1:0 2:0 3:0.0546555954760398 4:0.0536087752651171 5:0.0526013021737207 
-0.432180636771559 1:0.0543523553102619 2:0.0533170091370078 3:0.0523203709397361 4:0.0513603097581483 5:0.0504348482362537 
0.432180636771559 1:0.0533170091370078 2:0.0523203709397361 3:0.0513603097581483 4:0.0504348482362537 5:-0.0504348482362537 
-0.432180636771559 1:-0.0504348482362537 2:0.0504348482362537 3:0.0495421490268141 4:0.048680502614754 5:0.0478483163896639 
-0.432180636771559 1:0.0504348482362537 2:0.0495421490268141 3:0.048680502614754 4:0.0478483163896639 5:-0.0478483163896639 
0.432180636771559 1:-0.0251038305809726 2:-0.0253310176552811 3:-0.0255623543509343 4:-0.025797955407214 5:-0.0260379398329176 
0.432180636771559 1:-0.0253310176552811 2:-0.0255623543509343 3:-0.025797955407214 4:-0.0260379398329176 5:0.12783309782732 
0.432180636771559 1:-0.0255623543509343 2:-0.025797955407214 3:-0.0260379398329176 4:0.12783309782732 5:0.122249051073523 
0.432180636771559 1:-0.025797955407214 2:-0.0260379398329176 3:0.12783309782732 4:0.122249051073523 5:0.139982085170124 
0.432180636771559 1:-0.0260379398329176 2:0.12783309782732 3:0.122249051073523 4:0.139982085170124 5:0.133313688097209 
0.432180636771559 1:0.12783309782732 2:0.122249051073523 3:0.139982085170124 4:0.133313688097209 5:0.127251837655471 
0.432180636771559 1:0.122249051073523 2:0.139982085170124 3:0.133313688097209 4:0.127251837655471 5:0.141498778974491 
0.432180636771559 1:0.139982085170124 2:0.133313688097209 3:0.127251837655471 4:0.141498778974491 5:0.134688583751938 
-0.342180387827451 1:0.133313688097209 2:0.127251837655471 3:0.141498778974491 4:0.134688583751938 5:0.128503932665156 
-0.432180636771559 1:0.127251837655471 2:0.141498778974491 3:0.134688583751938 4:0.128503932665156 5:0.0356572764409841 
-0.432180636771559 1:0.141498778974491 2:0.134688583751938 3:0.128503932665156 4:0.0356572764409841 5:0 
0.432180636771559 1:0.134688583751938 2:0.128503932665156 3:0.0356572764409841 4:0 5:0 
-0.432180636771559 1:0.128503932665156 2:0.0356572764409841 3:0 4:0 5:0.138253204109926 
-0.432180636771559 1:0.0356572764409841 2:0 3:0 4:0.138253204109926 5:-0.0339283953807856 
-0.432180636771559 1:0 2:0 3:0.138253204109926 4:-0.0339283953807856 5:-0.122096667463094 
0.432180636771559 1:0 2:0.138253204109926 3:-0.0339283953807856 4:-0.122096667463094 5:-0.127666482252552 
0.432180636771559 1:0.138253204109926 2:-0.0339283953807856 3:-0.122096667463094 4:-0.127666482252552 5:0.127666482252552 
0.432180636771559 1:-0.0339283953807856 2:-0.122096667463094 3:-0.127666482252552 4:0.127666482252552 5:0.139112272127862 
0.432180636771559 1:-0.122096667463094 2:-0.127666482252552 3:0.127666482252552 4:0.139112272127862 5:0.132524554078035 
0.432180636771559 1:-0.127666482252552 2:0.127666482252552 3:0.139112272127862 4:0.132524554078035 5:0.141954503226144 
0.432180636771559 1:0.127666482252552 2:0.139112272127862 3:0.132524554078035 4:0.141954503226144 5:0.12040817080495 
0.432180636771559 1:0.139112272127862 2:0.132524554078035 3:0.141954503226144 4:0.12040817080495 5:0.143572923824845 
-0.432180636771559 1:0.132524554078035 2:0.141954503226144 3:0.12040817080495 4:0.143572923824845 5:0.136566516293011 
0.432180636771559 1:0.141954503226144 2:0.12040817080495 3:0.143572923824845 4:0.136566516293011 5:-0.0811378070577497 
0.432180636771559 1:0.12040817080495 2:0.143572923824845 3:0.136566516293011 4:-0.0811378070577497 5:0.133951795554088 
0.432180636771559 1:0.143572923824845 2:0.136566516293011 3:-0.0811378070577497 4:0.133951795554088 5:0.127833097827318 
-0.432180636771559 1:0.136566516293011 2:-0.0811378070577497 3:0.133951795554088 4:0.127833097827318 5:0.122249051073524 
0.432180636771559 1:-0.0811378070577497 2:0.133951795554088 3:0.127833097827318 4:0.122249051073524 5:0 
-0.432180636771559 1:0.133951795554088 2:0.127833097827318 3:0.122249051073524 4:0 5:0.139982085170124 
0.432180636771559 1:0.122249051073524 2:0 3:0.139982085170124 4:0.0226645638928539 5:0 
0.432180636771559 1:0 2:0.139982085170124 3:0.0226645638928539 4:0 5:0.0669129476958221 
-0.432180636771559 1:0.139982085170124 2:0.0226645638928539 3:0 4:0.0669129476958221 5:0.108085179399751 
-0.432180636771559 1:0 2:0.0669129476958221 3:0.108085179399751 4:-0.0427345453124893 5:-0.0216144575787304 
-0.432180636771559 1:0.0669129476958221 2:0.108085179399751 3:-0.0427345453124893 4:-0.0216144575787304 5:-0.133313688097208 
0.432180636771559 1:-0.0216144575787304 2:-0.133313688097208 3:-0.116160168212415 4:-0.0478483163896639 5:-0.0242344227940567 
0.432180636771559 1:-0.133313688097208 2:-0.116160168212415 3:-0.0478483163896639 4:-0.0242344227940567 5:0.0720827391837206 
0.432180636771559 1:-0.116160168212415 2:-0.0478483163896639 3:-0.0242344227940567 4:0.0720827391837206 5:0.0933105854248598 
-0.432180636771559 1:-0.0242344227940567 2:0.0720827391837206 3:0.0933105854248598 4:0.0679966639179689 5:0.0223033717706081 
-0.432180636771559 1:0.0933105854248598 2:0.0679966639179689 3:0.0223033717706081 4:-0.0223033717706081 5:0.0444304304582627 
0.432180636771559 1:0.0679966639179689 2:0.0223033717706081 3:-0.0223033717706081 4:0.0444304304582627 5:-0.135464741688161 
0.432180636771559 1:0.0223033717706081 2:-0.0223033717706081 3:0.0444304304582627 4:-0.135464741688161 5:0.113337683000507 
-0.432180636771559 1:-0.0223033717706081 2:0.0444304304582627 3:-0.135464741688161 4:0.113337683000507 5:0.0874776927749166 
0.432180636771559 1:0.0444304304582627 2:-0.135464741688161 3:0.113337683000507 4:0.0874776927749166 5:-0.0216144575787304 
0.358935238453351 1:-0.135464741688161 2:0.113337683000507 3:0.0874776927749166 4:-0.0216144575787304 5:0.0430632855028364 
-0.432180636771559 1:0.113337683000507 2:0.0874776927749166 3:-0.0216144575787304 4:0.0430632855028364 5:0.0424107863221935 
0.432180636771559 1:0.0874776927749166 2:-0.0216144575787304 3:0.0430632855028364 4:0.0424107863221935 5:-0.0424107863221935 
-0.432180636771559 1:-0.0216144575787304 2:0.0430632855028364 3:0.0424107863221935 4:-0.0424107863221935 5:0.06337761355387 
0.432180636771559 1:0.0430632855028364 2:0.0424107863221935 3:-0.0424107863221935 4:0.06337761355387 5:-0.0209668272316765 
-0.432180636771559 1:-0.020506013673636 2:0.020506013673636 3:0 4:0.0203568777092207 5:0.020209895361011 
0.432180636771559 1:0.020506013673636 2:0 3:0.0203568777092207 4:0.020209895361011 5:-0.0405667730702316 
-0.432180636771559 1:0 2:0.0203568777092207 3:0.020209895361011 4:-0.0405667730702316 5:0.0606317933841137 
0.432180636771559 1:0.0203568777092207 2:0.020209895361011 3:-0.0405667730702316 4:0.0606317933841137 5:-0.101795157994403 
0.432180636771559 1:0.020209895361011 2:-0.0405667730702316 3:0.0606317933841137 4:-0.101795157994403 5:0.0206573509366537 
0.432180636771559 1:0.0606317933841137 2:-0.101795157994403 3:0.0206573509366537 4:0.0408628913828567 5:0.020209895361011 
-0.432180636771559 1:-0.101795157994403 2:0.0206573509366537 3:0.0408628913828567 4:0.020209895361011 5:0.0399872278851859 
0.432180636771559 1:0.0206573509366537 2:0.0408628913828567 3:0.020209895361011 4:0.0399872278851859 5:-0.0399872278851859 
0.432180636771559 1:0.0408628913828567 2:0.020209895361011 3:0.0399872278851859 4:-0.0399872278851859 5:0.059768641293968 
-0.432180636771559 1:0.020209895361011 2:0.0399872278851859 3:-0.0399872278851859 4:0.059768641293968 5:0.0585190306614806 
0.432180636771559 1:-0.0399872278851859 2:0.059768641293968 3:0.0585190306614806 4:-0.0388764353322985 5:-0.0196425953291821 
-0.432180636771559 1:0.059768641293968 2:0.0585190306614806 3:-0.0388764353322985 4:-0.0196425953291821 5:0.1158396347626 
-0.432180636771559 1:0.0585190306614806 2:-0.0388764353322985 3:-0.0196425953291821 4:0.1158396347626 5:-0.0573206041011189 
-0.432180636771559 1:-0.0585190306614806 2:0 3:0 4:0 5:0.0196425953291821 
0.432180636771559 1:0 2:0.0196425953291821 3:-0.0593462163092682 4:0 5:-0.020065020313882 
-0.432180636771559 1:0.0399872278851859 2:0.0197814134087821 3:0 4:0 5:0 
0.432180636771559 1:0.0197814134087821 2:0 3:0 4:0 5:-0.120841428037836 
0.432180636771559 1:0 2:0 3:0 4:-0.120841428037836 5:0.0610727867438676 
0.432180636771559 1:0 2:0 3:-0.120841428037836 4:0.0610727867438676 5:0.059768641293968 
0.432180636771559 1:0.059768641293968 2:0.0585190306614806 3:0.0383438646514415 4:0 5:0.0189767394496774 
0.432180636771559 1:0.0746459796077867 2:0.0183545467364482 3:-0.0183545467364482 4:0.0183545467364482 5:0.0182349722934936 
-0.432180636771559 1:0 2:0 3:0 4:-0.0175490126411271 5:0 
-0.432180636771559 1:0 2:-0.0354315914299791 3:0 4:0.0177718587339553 5:0 
0.0254679907252723 1:-0.0354315914299791 2:0 3:0.0177718587339553 4:0 5:-0.0536577137016653 
0.432180636771559 1:0 2:0.0177718587339553 3:0 4:-0.0536577137016653 5:0.0180004372606813 
-0.432180636771559 1:0.0180004372606813 2:0.0533170091370078 3:0.0349886849299889 4:-0.0174396722888618 5:0.0174396722888618 
-0.432180636771559 1:0.0533170091370078 2:0.0349886849299889 3:-0.0174396722888618 4:0.0174396722888618 5:-0.124423077083764 
0.432180636771559 1:0.0349886849299889 2:-0.0174396722888618 3:0.0174396722888618 4:-0.124423077083764 5:-0.073663681528755 
-0.432180636771559 1:0.0174396722888618 2:-0.124423077083764 3:-0.073663681528755 4:0.0370741624988131 5:0 
-0.432180636771559 1:-0.124423077083764 2:-0.073663681528755 3:0.0370741624988131 4:0 5:-0.0557970306184468 
0.432180636771559 1:-0.073663681528755 2:0.0370741624988131 3:0 4:-0.0557970306184468 5:-0.134688583751939 
-0.432180636771559 1:0.0370741624988131 2:0 3:-0.0557970306184468 4:-0.134688583751939 5:0.0391483073491702 
0.432180636771559 1:-0.0557970306184468 2:-0.134688583751939 3:0.0391483073491702 4:-0.119126844004149 5:-0.082331180918277 
0.432180636771559 1:-0.0209668272316765 2:0 3:-0.0211250689338101 4:0 5:0.0211250689338101 
-0.432180636771559 1:0.0417777658304431 2:0 3:0.0206573509366537 4:0 5:0.020506013673636 
-0.432180636771559 1:-0.0212857173883834 2:0 3:0.0212857173883834 4:0 5:0.0211250689338101 
0.432180636771559 1:0 2:0.0212857173883834 3:0 4:0.0211250689338101 5:-0.0638596142462995 
-0.432180636771559 1:0.0211250689338101 2:-0.0638596142462995 3:0.021448827924106 4:0 5:0 
0.432180636771559 1:0.021448827924106 2:0 3:0 4:-0.0430632855028364 5:0 
-0.432180636771559 1:0 2:-0.0430632855028364 3:0 4:0.0430632855028364 5:0.0424107863221935 
0.432180636771559 1:-0.0430632855028364 2:0 3:0.0430632855028364 4:0.0424107863221935 5:-0.0638596142462995 
-0.432180636771559 1:0.0430632855028364 2:0.0424107863221935 3:-0.0638596142462995 4:0.105637380076743 5:0.0206573509366537 
-0.432180636771559 1:-0.0638596142462995 2:0.105637380076743 3:0.0206573509366537 4:-0.126294731013396 5:0 
0.432180636771559 1:0.105637380076743 2:0.0206573509366537 3:-0.126294731013396 4:0 5:-0.065350634087262 
0.432180636771559 1:0.0206573509366537 2:-0.126294731013396 3:0 4:-0.065350634087262 5:0 
-0.432180636771559 1:0 2:-0.065350634087262 3:0 4:0.086799462011368 5:0.0424107863221935 
0.432180636771559 1:-0.065350634087262 2:0 3:0.086799462011368 4:0.0424107863221935 5:-0.129210248333562 
0.432180636771559 1:0.0424107863221935 2:-0.129210248333562 3:0.129210248333562 4:0.0624351167670968 5:0 
0.432180636771559 1:0.129210248333562 2:0.0624351167670968 3:0 4:0.0610727867438676 5:0.020065020313882 
-0.432180636771559 1:0.0593462163092682 2:0.0388764353322985 3:0.019237590141583 4:0 5:0.0191062745098586 
0.432180636771559 1:0.0388764353322985 2:0.019237590141583 3:0 4:0.0191062745098586 5:-0.0191062745098586 
-0.432180636771559 1:0.019237590141583 2:0 3:0.0191062745098586 4:-0.0191062745098586 5:0.0756548310685095 
0.432180636771559 1:0 2:0.0191062745098586 3:-0.0191062745098586 4:0.0756548310685095 5:-0.0187228681196337 
-0.432180636771559 1:-0.0191062745098586 2:0.0756548310685095 3:-0.0187228681196337 4:0.0557970306184468 5:-0.018475699736987 
0.432180636771559 1:0.0756548310685095 2:-0.0187228681196337 3:0.0557970306184468 4:-0.018475699736987 5:-0.132861607284229 
-0.432180636771559 1:-0.0187228681196337 2:0.0557970306184468 3:-0.018475699736987 4:-0.132861607284229 5:0.0193707233123105 
0.432180636771559 1:0.0557970306184468 2:-0.018475699736987 3:-0.132861607284229 4:0.0193707233123105 5:-0.0388764353322985 
-0.432180636771559 1:-0.018475699736987 2:-0.132861607284229 3:0.0193707233123105 4:-0.0388764353322985 5:0.0961970394334174 
0.432180636771559 1:-0.132861607284229 2:0.0193707233123105 3:-0.0388764353322985 4:0.0961970394334174 5:-0.135621048171382 
0.432180636771559 1:0.0193707233123105 2:-0.0388764353322985 3:0.0961970394334174 4:-0.135621048171382 5:0.0589297207579523 
-0.432180636771559 1:0.0589297207579523 2:0.114263144522403 3:0.0370741624988131 4:0.0365895190299419 5:0.0181169457560856 
0.432180636771559 1:0 2:0.0175490126411271 3:0.0174396722888618 4:-0.0174396722888618 5:-0.0175490126411271 
-0.432180636771559 1:-0.0174396722888618 2:-0.0175490126411271 3:0.0523203709397347 4:0.0343447050933819 5:0 
0.432180636771559 1:-0.0175490126411271 2:0.0523203709397347 3:0.0343447050933819 4:0 5:-0.122096667463096 
0.432180636771559 1:0.0343447050933819 2:0 3:-0.122096667463096 4:0.122096667463096 5:0.0507396071616426 
-0.432180636771559 1:0.049836183204035 2:-0.0165136664678773 3:0.0329304780300338 4:0.0325475568149691 5:0.0321734386806212 
0.432180636771559 1:-0.0165136664678773 2:0.0329304780300338 3:0.0325475568149691 4:0.0321734386806212 5:-0.0483999093262167 
-0.432180636771559 1:0.0329304780300338 2:0.0325475568149691 3:0.0321734386806212 4:-0.0483999093262167 5:0.0643490028912197 
0.432180636771559 1:-0.0481225322456242 2:-0.0162264706455956 3:0 4:0 5:-0.0327378977315301 
0.432180636771559 1:-0.0162264706455956 2:0 3:0 4:-0.0327378977315301 5:0.0327378977315301 
-0.432180636771559 1:0 2:0 3:-0.0327378977315301 4:0.0327378977315301 5:0.0643490028912197 
-0.432180636771559 1:0 2:-0.0327378977315301 3:0.0327378977315301 4:0.0643490028912197 5:-0.015949093565003 
0.432180636771559 1:-0.0327378977315301 2:0.0327378977315301 3:0.0643490028912197 4:-0.015949093565003 5:-0.0811378070577468 
-0.432180636771559 1:0.0327378977315301 2:0.0643490028912197 3:-0.015949093565003 4:-0.0811378070577468 5:0.0811378070577468 
0.432180636771559 1:0.0643490028912197 2:-0.015949093565003 3:-0.0811378070577468 4:0.0811378070577468 5:-0.0811378070577468 
-0.0876348037763781 1:-0.015949093565003 2:-0.0811378070577468 3:0.0811378070577468 4:-0.0811378070577468 5:1 
0.301033237390013 1:-0.0811378070577468 2:0.0811378070577468 3:-0.0811378070577468 4:1 5:-0.129663779508697 
0.0790352188524944 1:0.0811378070577468 2:-0.0811378070577468 3:1 4:-0.129663779508697 5:0.0240263994319547 
-0.423357550230033 1:-0.0811378070577468 2:1 3:-0.129663779508697 4:0.0240263994319547 5:0.0119363010201855 
-0.0622682053646453 1:1 2:-0.129663779508697 3:0.0240263994319547 4:0.0119363010201855 5:-0.121717365565707 
0.432180636771559 1:-0.129663779508697 2:0.0240263994319547 3:0.0119363010201855 4:-0.121717365565707 5:-0.127251837655473 
0.432180636771559 1:0.0240263994319547 2:0.0119363010201855 3:-0.121717365565707 4:-0.127251837655473 5:0.0387866485402811 
-0.0984819293381883 1:0.0119363010201855 2:-0.121717365565707 3:-0.127251837655473 4:0.0387866485402811 5:0.137789079469238 
0.432180636771559 1:-0.121717365565707 2:-0.127251837655473 3:0.0387866485402811 4:0.137789079469238 5:0.0121963519654645 
-0.432180636771559 1:-0.127251837655473 2:0.0387866485402811 3:0.137789079469238 4:0.0121963519654645 5:0.0957036249101515 
0.432180636771559 1:0.137789079469238 2:0.0121963519654645 3:0.0957036249101515 4:-0.132453277716705 5:-0.0372385760409592 
0.432180636771559 1:0.0957036249101515 2:-0.132453277716705 3:-0.0372385760409592 4:0.13418535209371 5:0.0589297207579494 
0.211203181707411 1:-0.132453277716705 2:-0.0372385760409592 3:0.13418535209371 4:0.0589297207579494 5:0.114263144522403 
-0.432180636771559 1:0.13418535209371 2:0.0589297207579494 3:0.114263144522403 4:0.0444304304582627 5:0.0437361765085317 
0.432180636771559 1:0.0589297207579494 2:0.114263144522403 3:0.0444304304582627 4:0.0437361765085317 5:0 
-0.432180636771559 1:0.0444304304582627 2:0.0437361765085317 3:0 4:0.0537263778174439 5:0.0631393316041961 
0.432180636771559 1:0.0437361765085317 2:0 3:0.0537263778174439 4:0.0631393316041961 5:-0.0952512518429124 
0.432180636771559 1:0 2:0.0537263778174439 3:0.0631393316041961 4:-0.0952512518429124 5:0.0638596142463023 
-0.432180636771559 1:0.0631393316041961 2:-0.0952512518429124 3:0.0638596142463023 4:0.133558393115284 5:0.0595566797363755 
-0.432180636771559 1:-0.0952512518429124 2:0.0638596142463023 3:0.133558393115284 4:0.0595566797363755 5:-0.0898170647017056 
0.432180636771559 1:0.0638596142463023 2:0.133558393115284 3:0.0595566797363755 4:-0.0898170647017056 5:-0.135045702157539 
-0.432180636771559 1:0.0595566797363755 2:-0.0898170647017056 3:-0.135045702157539 4:0.124885769596179 5:0.0504348482362537 
0.432180636771559 1:-0.0898170647017056 2:-0.135045702157539 3:0.124885769596179 4:0.0504348482362537 5:-0.020065020313882 
-0.432180636771559 1:-0.135045702157539 2:0.124885769596179 3:0.0504348482362537 4:-0.020065020313882 5:0.020065020313882 
0.432180636771559 1:0.124885769596179 2:0.0504348482362537 3:-0.020065020313882 4:0.020065020313882 5:-0.0606317933841137 
-0.432180636771559 1:0.0504348482362537 2:-0.020065020313882 3:0.020065020313882 4:-0.0606317933841137 5:0.0606317933841137 
-0.432180636771559 1:-0.020065020313882 2:0.020065020313882 3:-0.0606317933841137 4:0.0606317933841137 5:-0.101795157994403 
0.432180636771559 1:0.020065020313882 2:-0.0606317933841137 3:0.0606317933841137 4:-0.101795157994403 5:-0.127251837655473 
0.432180636771559 1:-0.0606317933841137 2:0.0606317933841137 3:-0.101795157994403 4:-0.127251837655473 5:0.127251837655473 
-0.432180636771559 1:0.127251837655473 2:0.0817301376805214 3:0.020065020313882 4:-0.040274915674893 5:0.020209895361011 
0.432180636771559 1:0.0817301376805214 2:0.020065020313882 3:-0.040274915674893 4:0.020209895361011 5:-0.0713824055721416 
0.432180636771559 1:0.020065020313882 2:-0.040274915674893 3:0.020209895361011 4:-0.0713824055721416 5:0.04101257764977 
-0.432180636771559 1:-0.040274915674893 2:0.020209895361011 3:-0.0713824055721416 4:0.04101257764977 5:0.0999769972630663 
0.432180636771559 1:0.020209895361011 2:-0.0713824055721416 3:0.04101257764977 4:0.0999769972630663 5:-0.0495421490268126 
-0.432180636771559 1:0.04101257764977 2:0.0999769972630663 3:-0.0495421490268126 4:0.0298303890588888 5:0 
-0.432180636771559 1:0.0999769972630663 2:-0.0495421490268126 3:0.0298303890588888 4:0 5:-0.121277814944912 
-0.432180636771559 1:-0.0495421490268126 2:0.0298303890588888 3:0 4:-0.121277814944912 5:-0.126771477546609 
-0.432180636771559 1:0.0298303890588888 2:0 3:-0.121277814944912 4:-0.126771477546609 5:-0.132786558463359 
-0.432180636771559 1:0 2:-0.121277814944912 3:-0.126771477546609 4:-0.132786558463359 5:-0.127515390063507 
0.106552875212813 1:-0.121277814944912 2:-0.126771477546609 3:-0.132786558463359 4:-0.127515390063507 5:-0.133602981503231 
-0.432180636771559 1:-0.126771477546609 2:-0.132786558463359 3:-0.127515390063507 4:-0.133602981503231 5:-0.062902834764256 
0.432180636771559 1:-0.132786558463359 2:-0.127515390063507 3:-0.133602981503231 4:-0.062902834764256 5:-0.130212238087406 
0.432180636771559 1:-0.127515390063507 2:-0.133602981503231 3:-0.062902834764256 4:-0.130212238087406 5:0 
-0.17713202491249 1:-0.133602981503231 2:-0.062902834764256 3:-0.130212238087406 4:0 5:0.142906402010178 
-0.432180636771559 1:-0.062902834764256 2:-0.130212238087406 3:0 4:0.142906402010178 5:0 
0.432180636771559 1:-0.130212238087406 2:0 3:0.142906402010178 4:0 5:-0.129609187703197 
-0.432180636771559 1:0 2:0.142906402010178 3:0 4:-0.129609187703197 5:0.116915023780425 
0.432180636771559 1:0.142906402010178 2:0 3:-0.129609187703197 4:0.116915023780425 5:-0.130212238087406 
-0.432180636771559 1:0 2:-0.129609187703197 3:0.116915023780425 4:-0.130212238087406 5:0.065863235196189 
-0.432180636771559 1:-0.129609187703197 2:0.116915023780425 3:-0.130212238087406 4:0.065863235196189 5:-0.065863235196189 
-0.432180636771559 1:0.116915023780425 2:-0.130212238087406 3:0.065863235196189 4:-0.065863235196189 5:-0.136566516293008 
0.432180636771559 1:-0.130212238087406 2:0.065863235196189 3:-0.065863235196189 4:-0.136566516293008 5:-0.12887967041288 
0.432180636771559 1:-0.065863235196189 2:-0.136566516293008 3:-0.12887967041288 4:0 5:-0.0146932534119667 
-0.432180636771559 1:-0.136566516293008 2:-0.12887967041288 3:0 4:-0.0146932534119667 5:0.0438503748458936 
0.432180636771559 1:-0.12887967041288 2:0 3:-0.0146932534119667 4:0.0438503748458936 5:-0.133667439547599 
-0.432180636771559 1:0 2:-0.0146932534119667 3:0.0438503748458936 4:-0.133667439547599 5:0.104510318113672 
-0.432180636771559 1:-0.0146932534119667 2:0.0438503748458936 3:-0.133667439547599 4:0.104510318113672 5:-0.135101424216917 
0.432180636771559 1:0.0438503748458936 2:-0.133667439547599 3:0.104510318113672 4:-0.135101424216917 5:-0.125821557426355 
-0.380445453460146 1:-0.133667439547599 2:0.104510318113672 3:-0.135101424216917 4:-0.125821557426355 5:0.141158901814521 
-0.432180636771559 1:0.104510318113672 2:-0.135101424216917 3:-0.125821557426355 4:0.141158901814521 5:-0.0153373443881655 
-0.432180636771559 1:-0.135101424216917 2:-0.125821557426355 3:0.141158901814521 4:-0.0153373443881655 5:-0.125821557426355 
-0.432180636771559 1:-0.125821557426355 2:0.141158901814521 3:-0.0153373443881655 4:-0.125821557426355 5:-0.131744709161807 
-0.432180636771559 1:0.141158901814521 2:-0.0153373443881655 3:-0.125821557426355 4:-0.131744709161807 5:-0.120593471413901 
-0.432180636771559 1:-0.0153373443881655 2:-0.125821557426355 3:-0.131744709161807 4:-0.120593471413901 5:-0.126023911183717 
0.432180636771559 1:-0.125821557426355 2:-0.131744709161807 3:-0.120593471413901 4:-0.126023911183717 5:-0.131966583708906 
-0.432180636771559 1:-0.131744709161807 2:-0.120593471413901 3:-0.126023911183717 4:-0.131966583708906 5:0.0383438646514415 
-0.432180636771559 1:-0.120593471413901 2:-0.126023911183717 3:-0.131966583708906 4:0.0383438646514415 5:-0.136566516293008 
-0.432180636771559 1:-0.126023911183717 2:-0.131966583708906 3:0.0383438646514415 4:-0.136566516293008 5:-0.12260609659317 
0.432180636771559 1:-0.131966583708906 2:0.0383438646514415 3:-0.136566516293008 4:-0.12260609659317 5:-0.128223564222244 
-0.255526827562367 1:0.0383438646514415 2:-0.136566516293008 3:-0.12260609659317 4:-0.128223564222244 5:0.107256736990567 
0.432180636771559 1:-0.136566516293008 2:-0.12260609659317 3:-0.128223564222244 4:0.107256736990567 5:-0.0211250689338101 
-0.432180636771559 1:0.107256736990567 2:-0.0211250689338101 3:0.0211250689338101 4:-0.0424107863221935 5:0 
0.432180636771559 1:-0.0211250689338101 2:0.0211250689338101 3:-0.0424107863221935 4:0 5:-0.131229892469631 
0.432180636771559 1:0.0211250689338101 2:-0.0424107863221935 3:0 4:-0.131229892469631 5:0.131229892469631 
-0.432180636771559 1:0 2:-0.131229892469631 3:0.131229892469631 4:0.125351916762926 5:0.0606317933841137 
0.432180636771559 1:-0.131229892469631 2:0.131229892469631 3:0.125351916762926 4:0.0606317933841137 5:-0.040274915674893 
-0.432180636771559 1:0.131229892469631 2:0.125351916762926 3:0.0606317933841137 4:-0.040274915674893 5:0.13849756731646 
-0.432180636771559 1:0.0606317933841137 2:-0.040274915674893 3:0.13849756731646 4:-0.0585190306614806 5:-0.059768641293968 
0.432180636771559 1:-0.040274915674893 2:0.13849756731646 3:-0.0585190306614806 4:-0.059768641293968 5:-0.123507903510964 
-0.432180636771559 1:0.13849756731646 2:-0.0585190306614806 3:-0.059768641293968 4:-0.123507903510964 5:0.0417777658304431 
-0.432180636771559 1:-0.0585190306614806 2:-0.059768641293968 3:-0.123507903510964 4:0.0417777658304431 5:-0.127251837655473 
-0.432180636771559 1:-0.059768641293968 2:-0.123507903510964 3:0.0417777658304431 4:-0.127251837655473 5:-0.133313688097208 
-0.432180636771559 1:-0.123507903510964 2:0.0417777658304431 3:-0.127251837655473 4:-0.133313688097208 5:-0.116160168212415 
0.432180636771559 1:-0.133313688097208 2:-0.116160168212415 3:-0.121190285562746 4:-0.100877885055674 5:-0.0518358952401315 
-0.432180636771559 1:-0.116160168212415 2:-0.121190285562746 3:-0.100877885055674 4:-0.0518358952401315 5:0.0518358952401315 
0.432180636771559 1:-0.121190285562746 2:-0.100877885055674 3:-0.0518358952401315 4:0.0518358952401315 5:-0.10464988373647 
0.432180636771559 1:-0.0518358952401315 2:0.0518358952401315 3:-0.10464988373647 4:0.0788519283292562 5:0 
-0.432180636771559 1:0.0518358952401315 2:-0.10464988373647 3:0.0788519283292562 4:0 5:0.126675840462888 
-0.432180636771559 1:-0.10464988373647 2:0.0788519283292562 3:0 4:0.126675840462888 5:-0.126675840462888 
-0.432180636771559 1:0.0788519283292562 2:0 3:0.126675840462888 4:-0.126675840462888 5:-0.13268163246678 
-0.432180636771559 1:0 2:0.126675840462888 3:-0.126675840462888 4:-0.13268163246678 5:-0.082736812155487 
0.432180636771559 1:0.126675840462888 2:-0.126675840462888 3:-0.13268163246678 4:-0.082736812155487 5:-0.0997225489789528 
0.432180636771559 1:-0.13268163246678 2:-0.082736812155487 3:-0.0997225489789528 4:0.0144654500114773 5:-0.0583158248573695 
0.432180636771559 1:-0.082736812155487 2:-0.0997225489789528 3:0.0144654500114773 4:-0.0583158248573695 5:0.0293097793024421 
-0.432180636771559 1:-0.0997225489789528 2:0.0144654500114773 3:-0.0583158248573695 4:0.0293097793024421 5:0.0433971227442666 
-0.432180636771559 1:0.0144654500114773 2:-0.0583158248573695 3:0.0293097793024421 4:0.0433971227442666 5:-0.102326843502217 
0.432180636771559 1:-0.0583158248573695 2:0.0293097793024421 3:0.0433971227442666 4:-0.102326843502217 5:-0.0907882293494417 
-0.432180636771559 1:0.0293097793024421 2:0.0433971227442666 3:-0.102326843502217 4:-0.0907882293494417 5:0.0907882293494417 
0.0262815955233516 1:0.0433971227442666 2:-0.102326843502217 3:-0.0907882293494417 4:0.0907882293494417 5:-0.121717365565707 
0.432180636771559 1:-0.121717365565707 2:-0.0312747203080042 3:-0.0316281144562504 4:-0.015949093565003 5:0 
-0.432180636771559 1:-0.0312747203080042 2:-0.0316281144562504 3:-0.015949093565003 4:0 5:0.0475772080212534 
0.432180636771559 1:-0.015949093565003 2:0 3:0.0475772080212534 4:-0.0316281144562504 5:-0.015949093565003 
-0.432180636771559 1:0.0156810401581798 2:0 3:0.031100968276694 4:-0.0155072881268696 5:0.0309291362162656 
-0.432180636771559 1:0 2:0.031100968276694 3:-0.0155072881268696 4:0.0309291362162656 5:-0.0622038565242698 
0.432180636771559 1:-0.0155072881268696 2:0.0309291362162656 3:-0.0622038565242698 4:-0.0636177009020883 5:0 
0.432180636771559 1:-0.0622038565242698 2:-0.0636177009020883 3:0 4:0.0636177009020883 5:-0.0157693845124244 
0.432180636771559 1:0 2:0.0636177009020883 3:-0.0157693845124244 4:0.0470441048204286 5:0.0309291362162656 
-0.432180636771559 1:-0.0157693845124244 2:0.0470441048204286 3:0.0309291362162656 4:0.0907882293494417 5:0.0296199414555087 
0.432180636771559 1:0.0309291362162656 2:0.0907882293494417 3:0.0296199414555087 4:-0.0445482880278064 5:0 
-0.432180636771559 1:-0.0445482880278064 2:0 3:0.0883986628736986 4:0.0144654500114773 5:-0.0290060455549274 
0.432180636771559 1:0.0144654500114773 2:-0.0290060455549274 3:-0.134380605719227 4:0 5:0 
-0.432180636771559 1:-0.0290060455549274 2:-0.134380605719227 3:0 4:0 5:0.0455141466804094 
-0.432180636771559 1:-0.107374307434665 2:-0.0632582481794332 3:0 4:0.015949093565003 5:0 
-0.432180636771559 1:-0.0632582481794332 2:0 3:0.015949093565003 4:0 5:-0.0970869006227513 
0.432180636771559 1:0.015949093565003 2:0 3:-0.0970869006227513 4:-0.0666473949848906 5:-0.0339283953807856 
0.432180636771559 1:-0.0970869006227513 2:-0.0666473949848906 3:-0.0339283953807856 4:0.0170156046647678 5:-0.03413528095296 
0.432180636771559 1:0.0170156046647678 2:-0.03413528095296 3:0.03413528095296 4:0.0169127907160177 5:0 
-0.432180636771559 1:0.03413528095296 2:0.0169127907160177 3:0 4:0.033522057520236 5:0.0331253374646547 
-0.432180636771559 1:-0.0169127907160177 2:-0.0170156046647678 3:-0.0343447050933805 4:-0.0173316860097458 5:0 
0.432180636771559 1:-0.0170156046647678 2:-0.0343447050933805 3:-0.0173316860097458 4:0 5:-0.0526484176260141 
0.432180636771559 1:-0.0173316860097458 2:0 3:-0.0526484176260141 4:0.0699801036357599 5:0 
-0.432180636771559 1:-0.0526484176260141 2:0.0699801036357599 3:0 4:0.0343447050933805 5:0.0339283953807856 
0.432180636771559 1:0.0699801036357599 2:0 3:0.0343447050933805 4:0.0339283953807856 5:-0.103044458772774 
-0.432180636771559 1:0 2:0.0343447050933805 3:0.0339283953807856 4:-0.103044458772774 5:0.0174396722888618 
-0.432180636771559 1:0.0343447050933805 2:0.0339283953807856 3:-0.103044458772774 4:0.0174396722888618 5:-0.124423077083765 
0.432180636771559 1:0.0339283953807856 2:-0.103044458772774 3:0.0174396722888618 4:-0.124423077083765 5:-0.111235498637729 
-0.432180636771559 1:-0.103044458772774 2:0.0174396722888618 3:-0.124423077083765 4:-0.111235498637729 5:0 
-0.432180636771559 1:0.0174396722888618 2:-0.124423077083765 3:-0.111235498637729 4:0 5:-0.0573206041011175 
0.432180636771559 1:-0.124423077083765 2:-0.111235498637729 3:0 4:-0.0573206041011175 5:-0.0982226516415681 
-0.432180636771559 1:-0.111235498637729 2:0 3:-0.0573206041011175 4:-0.0982226516415681 5:0.0788519283292562 
-0.432180636771559 1:0 2:-0.0573206041011175 3:-0.0982226516415681 4:0.0788519283292562 5:-0.119126844004149 
-0.432180636771559 1:-0.0573206041011175 2:-0.0982226516415681 3:0.0788519283292562 4:-0.119126844004149 5:-0.124423077083764 
0.432180636771559 1:-0.0982226516415681 2:0.0788519283292562 3:-0.119126844004149 4:-0.124423077083764 5:-0.0861316680567573 
0.432180636771559 1:0.0788519283292562 2:-0.119126844004149 3:-0.124423077083764 4:-0.0861316680567573 5:0.128223564222244 
-0.432180636771559 1:-0.119126844004149 2:-0.124423077083764 3:-0.0861316680567573 4:0.128223564222244 5:0.142528304164475 
-0.432180636771559 1:-0.124423077083764 2:-0.0861316680567573 3:0.128223564222244 4:0.142528304164475 5:0.0197814134087821 
-0.167129474472676 1:-0.0861316680567573 2:0.128223564222244 3:0.142528304164475 4:0.0197814134087821 5:-0.0799785366549804 
0.432180636771559 1:0.128223564222244 2:0.142528304164475 3:0.0197814134087821 4:-0.0799785366549804 5:-0.0203568777092193 
0.432180636771559 1:0.0197814134087821 2:-0.0799785366549804 3:-0.0203568777092193 4:0.139483721713368 5:0.0577145879637534 
-0.432180636771559 1:-0.0799785366549804 2:-0.0203568777092193 3:0.139483721713368 4:0.0577145879637534 5:0.111977265793911 
0.432180636771559 1:-0.0203568777092193 2:0.139483721713368 3:0.0577145879637534 4:0.111977265793911 5:-0.131083540303771 
0.432180636771559 1:0.139483721713368 2:0.0577145879637534 3:0.111977265793911 4:-0.131083540303771 5:0.094253293830337 
-0.432180636771559 1:-0.131083540303771 2:0.094253293830337 3:0.0911826017836943 4:0.0533170091370093 5:0.0175490126411271 
-0.432180636771559 1:0.0175490126411271 2:-0.0352087453371523 3:0.0352087453371523 4:0.0174396722888618 5:0.0345567148149341 
-0.432180636771559 1:-0.0352087453371523 2:0.0352087453371523 3:0.0174396722888618 4:0.0345567148149341 5:-0.0345567148149341 
0.432180636771559 1:0.0345567148149341 2:-0.0345567148149341 3:-0.0526484176260141 4:0 5:0.0352087453371523 
-0.432180636771559 1:-0.0526484176260141 2:0 3:0.0352087453371523 4:0.0691160633919881 5:0 
-0.432180636771559 1:0 2:0.0352087453371523 3:0.0691160633919881 4:0 5:-0.0343447050933805 
0.432180636771559 1:0.0691160633919881 2:0 3:-0.0343447050933805 4:-0.0347713582986076 5:0 
-0.432180636771559 1:0 2:-0.0343447050933805 3:-0.0347713582986076 4:0 5:0.0691160633919881 
-0.432180636771559 1:-0.0343447050933805 2:-0.0347713582986076 3:0 4:0.0691160633919881 5:-0.0343447050933805 
0.432180636771559 1:-0.0347713582986076 2:0 3:0.0691160633919881 4:-0.0343447050933805 5:-0.123637817337424 
0.432180636771559 1:0 2:0.0691160633919881 3:-0.0343447050933805 4:-0.123637817337424 5:0.106306131327678 
0.432180636771559 1:-0.0343447050933805 2:-0.123637817337424 3:0.106306131327678 4:0.0856047864839118 5:0.0501337285170162 
0.432180636771559 1:0.0160404928808348 2:0.015949093565003 3:0.0316281144562504 4:0.0156810401581798 5:0 
-0.432180636771559 1:0.015949093565003 2:0.0316281144562504 3:0.0156810401581798 4:0 5:0.0465228163660901 
-0.432180636771559 1:0.0316281144562504 2:0.0156810401581798 3:0 4:0.0465228163660901 5:-0.0309291362162656 
-0.432180636771559 1:0.0465228163660901 2:-0.0309291362162656 3:-0.0629028347642546 4:-0.015949093565003 5:0.015949093565003 
0.432180636771559 1:-0.0309291362162656 2:-0.0629028347642546 3:-0.015949093565003 4:0.015949093565003 5:-0.0643490028912183 
0.432180636771559 1:-0.0629028347642546 2:-0.015949093565003 3:0.015949093565003 4:-0.0643490028912183 5:0.0483999093262153 
0.432180636771559 1:0.015949093565003 2:-0.0643490028912183 3:0.0483999093262153 4:0.0475772080212534 5:-0.0157693845124244 
-0.432180636771559 1:-0.0643490028912183 2:0.0483999093262153 3:0.0475772080212534 4:-0.0157693845124244 5:0.0779732410366942 
0.432180636771559 1:0.0483999093262153 2:0.0475772080212534 3:-0.0157693845124244 4:0.0779732410366942 5:-0.0938319709805202 
0.432180636771559 1:0.0475772080212534 2:-0.0157693845124244 3:0.0779732410366942 4:-0.0938319709805202 5:0.0629028347642546 
0.432180636771559 1:0.0779732410366942 2:-0.0938319709805202 3:0.0629028347642546 4:0.0615202423195104 5:0.015171085093919 
0.432180636771559 1:0.0629028347642546 2:0.0615202423195104 3:0.015171085093919 4:0.0746459796077867 5:0 
-0.432180636771559 1:0.0615202423195104 2:0.015171085093919 3:0.0746459796077867 4:0 5:0.0870243672661955 
-0.432180636771559 1:0.015171085093919 2:0.0746459796077867 3:0 4:0.0870243672661955 5:-0.0870243672661955 
-0.432180636771559 1:0.0746459796077867 2:0 3:0.0870243672661955 4:-0.0870243672661955 5:-0.0595566797363755 
0.432180636771559 1:0 2:0.0870243672661955 3:-0.0870243672661955 4:-0.0595566797363755 5:-0.123055347592845 
0.432180636771559 1:0.0870243672661955 2:-0.0870243672661955 3:-0.0595566797363755 4:-0.123055347592845 5:0.138063739301414 
0.432180636771559 1:-0.0870243672661955 2:-0.0595566797363755 3:-0.123055347592845 4:0.138063739301414 5:0.131572655294002 
-0.432180636771559 1:-0.0595566797363755 2:-0.123055347592845 3:0.138063739301414 4:0.131572655294002 5:0.111977265793911 
0.432180636771559 1:-0.123055347592845 2:0.138063739301414 3:0.131572655294002 4:0.111977265793911 5:-0.111977265793911 
-0.432180636771559 1:0.138063739301414 2:0.131572655294002 3:0.111977265793911 4:-0.111977265793911 5:0.0844001131933247 
-0.432180636771559 1:0.131572655294002 2:0.111977265793911 3:-0.111977265793911 4:0.0844001131933247 5:-0.0559830331003222 
0.432180636771559 1:0.111977265793911 2:-0.111977265793911 3:0.0844001131933247 4:-0.0559830331003222 5:-0.130212238087404 
0.432180636771559 1:-0.111977265793911 2:0.0844001131933247 3:-0.0559830331003222 4:-0.130212238087404 5:0.130212238087404 
-0.432180636771559 1:0.0844001131933247 2:-0.0559830331003222 3:-0.130212238087404 4:0.130212238087404 5:0.0835601857009083 
-0.432180636771559 1:-0.0559830331003222 2:-0.130212238087404 3:0.130212238087404 4:0.0835601857009083 5:-0.111977265793911 
-0.432180636771559 1:-0.130212238087404 2:0.130212238087404 3:0.0835601857009083 4:-0.111977265793911 5:-0.131572655294002 
0.432180636771559 1:0.0835601857009083 2:-0.111977265793911 3:-0.131572655294002 4:-0.122382699143234 5:-0.0314504246706042 
-0.432180636771559 1:-0.0314504246706042 2:0.0157693845124244 3:-0.0157693845124244 4:-0.015858729943826 5:0 
-0.432180636771559 1:0.0157693845124244 2:-0.0157693845124244 3:-0.015858729943826 4:0 5:-0.0643490028912183 
0.432180636771559 1:-0.0157693845124244 2:-0.015858729943826 3:0 4:-0.0643490028912183 5:-0.0825740809355665 
-0.432180636771559 1:0 2:-0.0643490028912183 3:-0.0825740809355665 4:0.0498361832040336 5:0.032737897731533 
-0.432180636771559 1:-0.0825740809355665 2:0.0498361832040336 3:0.032737897731533 4:-0.0825740809355665 5:-0.0337240024968748 
0.432180636771559 1:0.0498361832040336 2:0.032737897731533 3:-0.0825740809355665 4:-0.0337240024968748 5:-0.121340413393908 
-0.432180636771559 1:0.032737897731533 2:-0.0825740809355665 3:-0.0337240024968748 4:-0.121340413393908 5:0.10432480872914 
-0.432180636771559 1:-0.0825740809355665 2:-0.0337240024968748 3:-0.121340413393908 4:0.10432480872914 5:-0.122096667463094 
-0.432180636771559 1:-0.0337240024968748 2:-0.121340413393908 3:0.10432480872914 4:-0.122096667463094 5:-0.127666482252552 
-0.432180636771559 1:-0.121340413393908 2:0.10432480872914 3:-0.122096667463094 4:-0.127666482252552 5:-0.133768856542391 
-0.432180636771559 1:0.10432480872914 2:-0.122096667463094 3:-0.127666482252552 4:-0.133768856542391 5:-0.11997800969338 
-0.432180636771559 1:-0.122096667463094 2:-0.127666482252552 3:-0.133768856542391 4:-0.11997800969338 5:-0.125351916762929 
0.432180636771559 1:-0.127666482252552 2:-0.133768856542391 3:-0.11997800969338 4:-0.125351916762929 5:-0.131229892469628 
0.432180636771559 1:-0.133768856542391 2:-0.11997800969338 3:-0.125351916762929 4:-0.131229892469628 5:0 
0.432180636771559 1:-0.11997800969338 2:-0.125351916762929 3:-0.131229892469628 4:0 5:0 
-0.432180636771559 1:-0.125351916762929 2:-0.131229892469628 3:0 4:0 5:0.0663839418012553 
-0.432180636771559 1:-0.131229892469628 2:0 3:0 4:0.0663839418012553 5:-0.0663839418012553 
-0.432180636771559 1:0 2:0 3:0.0663839418012553 4:-0.0663839418012553 5:-0.114263144522403 
-0.432180636771559 1:0 2:0.0663839418012553 3:-0.0663839418012553 4:-0.114263144522403 5:-0.119126844004148 
0.432180636771559 1:0.0663839418012553 2:-0.0663839418012553 3:-0.114263144522403 4:-0.119126844004148 5:-0.0739882288475113 
-0.432180636771559 1:-0.0663839418012553 2:-0.114263144522403 3:-0.119126844004148 4:-0.0739882288475113 5:0.0495421490268141 
-0.432180636771559 1:-0.114263144522403 2:-0.119126844004148 3:-0.0739882288475113 4:0.0495421490268141 5:-0.0746459796077867 
0.432180636771559 1:-0.119126844004148 2:-0.0739882288475113 3:0.0495421490268141 4:-0.0746459796077867 5:-0.129011698353166 
0.432180636771559 1:-0.0739882288475113 2:0.0495421490268141 3:-0.0746459796077867 4:-0.129011698353166 5:0 
-0.432180636771559 1:-0.129011698353166 2:0 3:0.0262824311068186 4:0.0260379398329176 5:-0.0260379398329176 
0.432180636771559 1:0 2:0.0262824311068186 3:0.0260379398329176 4:-0.0260379398329176 5:-0.133951795554088 
-0.432180636771559 1:0.0262824311068186 2:0.0260379398329176 3:-0.0260379398329176 4:-0.133951795554088 5:0.133951795554088 
-0.432180636771559 1:-0.0260379398329176 2:-0.133951795554088 3:0.133951795554088 4:-0.133951795554088 5:-0.111977265793911 
-0.432180636771559 1:-0.133951795554088 2:0.133951795554088 3:-0.133951795554088 4:-0.111977265793911 5:-0.134567902607614 
0.432180636771559 1:0.133951795554088 2:-0.133951795554088 3:-0.111977265793911 4:-0.134567902607614 5:-0.135068491987802 
0.432180636771559 1:-0.111977265793911 2:-0.134567902607614 3:-0.135068491987802 4:0 5:-0.0316281144562504 
-0.432180636771559 1:-0.134567902607614 2:-0.135068491987802 3:0 4:-0.0316281144562504 5:0.0815012975260822 
-0.432180636771559 1:-0.135068491987802 2:0 3:-0.0316281144562504 4:0.0815012975260822 5:-0.0624815753237012 
-0.432180636771559 1:-0.0316281144562504 2:0.0815012975260822 3:-0.0624815753237012 4:-0.135934745982806 5:-0.0132972143069793 
-0.432180636771559 1:0.0815012975260822 2:-0.0624815753237012 3:-0.135934745982806 4:-0.0132972143069793 5:-0.0470441048204286 
0.432180636771559 1:-0.135934745982806 2:-0.0132972143069793 3:-0.0470441048204286 4:-0.131826365545475 5:-0.0429531448945814 
-0.432180636771559 1:-0.0429531448945814 2:0.00720478736911632 3:0 4:0.00718628982022144 5:-0.0433971227442666 
-0.432180636771559 1:0.00718628982022144 2:-0.0433971227442666 3:-0.103955758910229 4:-0.038083013959536 5:0 
0.0878514071770063 1:0 2:-0.0542019936037178 3:-0.0156810401581798 4:0 5:0.0156810401581798 
-0.432180636771559 1:-0.0542019936037178 2:-0.0156810401581798 3:0 4:0.0156810401581798 5:0.0311009682766954 
-0.432180636771559 1:-0.0156810401581798 2:0 3:0.0156810401581798 4:0.0311009682766954 5:-0.0467820084348752 
-0.432180636771559 1:0 2:0.0156810401581798 3:0.0311009682766954 4:-0.0467820084348752 5:-0.0636177009020868 
0.432180636771559 1:0 2:0.00819636997822575 3:0 4:-0.00819636997822575 5:-0.00822044158393365 
0.432180636771559 1:0 2:-0.0244460798206973 3:0 4:0 5:-0.0246614665583268 
-0.432180636771559 1:-0.0244460798206973 2:0.0244460798206973 3:0.0161795730700501 4:-0.0161795730700501 5:0.0081014769942704 
0.432180636771559 1:0.0161795730700501 2:-0.0161795730700501 3:0.0081014769942704 4:-0.0489643683771271 5:0 
-0.432180636771559 1:-0.0161795730700501 2:0.0081014769942704 3:-0.0489643683771271 4:0 5:0.032737897731533 
0.432180636771559 1:0.0081014769942704 2:-0.0489643683771271 3:0 4:0.032737897731533 5:-0.0825740809355665 
0.432180636771559 1:-0.0489643683771271 2:0 3:0.032737897731533 4:-0.0825740809355665 5:0.00836789366861186 
0.432180636771559 1:0 2:0.032737897731533 3:-0.0825740809355665 4:0.00836789366861186 5:0.0414682895354217 
-0.432180636771559 1:0.0156372381418649 2:0 3:0.00778598095212995 4:-0.0155936801498244 5:-0.00782953894417042 
0.432180636771559 1:0.00778598095212995 2:-0.0155936801498244 3:-0.00782953894417042 4:-0.0394796156702598 5:0 
-0.432180636771559 1:-0.00782953894417042 2:-0.0394796156702598 3:0 4:0.0706672179606256 5:-0.00776438319637099 
-0.432180636771559 1:-0.0394796156702598 2:0 3:0.0706672179606256 4:-0.00776438319637099 5:-0.0470441048204271 
0.432180636771559 1:0 2:0 3:-0.0160404928808348 4:-0.0242344227940567 5:0.0161795730700501 
-0.432180636771559 1:0 2:-0.0160404928808348 3:-0.0242344227940567 4:0.0161795730700501 5:0.0951612899819678 
0.432180636771559 1:-0.0160404928808348 2:-0.0242344227940567 3:0.0161795730700501 4:0.0951612899819678 5:-0.135786942872715 
0.432180636771559 1:0.0161795730700501 2:0.0951612899819678 3:-0.135786942872715 4:0.0163210861693736 5:-0.0163210861693736 
-0.432180636771559 1:0.0163210861693736 2:-0.0163210861693736 3:0.0244460798206973 4:0.0242344227940567 5:0.0160404928808348 
0.432180636771559 1:-0.0163210861693736 2:0.0244460798206973 3:0.0242344227940567 4:0.0160404928808348 5:-0.105944985807859 
-0.432180636771559 1:0.0244460798206973 2:0.0242344227940567 3:0.0160404928808348 4:-0.105944985807859 5:0.129834675754941 
-0.432180636771559 1:0.0242344227940567 2:0.0160404928808348 3:-0.105944985807859 4:0.129834675754941 5:-0.129834675754941 
-0.000815544072336973 1:0.0160404928808348 2:-0.105944985807859 3:0.129834675754941 4:-0.129834675754941 5:-0.118765745074736 
-0.432180636771559 1:-0.129834675754941 2:-0.118765745074736 3:-0.0701994999634678 4:-0.00890003404045758 5:0.00890003404045758 
-0.432180636771559 1:-0.118765745074736 2:-0.0701994999634678 3:-0.00890003404045758 4:0.00890003404045758 5:-0.0720054715587694 
0.432180636771559 1:-0.0701994999634678 2:-0.00890003404045758 3:0.00890003404045758 4:-0.0720054715587694 5:-0.12110960129289 
0.432180636771559 1:-0.0286107262480823 2:-0.0483441783911615 3:-0.0294124424118992 4:-0.00987323192119864 5:-0.0198515608518654 
-0.432180636771559 1:-0.0294124424118992 2:-0.00987323192119864 3:-0.0198515608518654 4:0.0591372351849633 5:0 
0.432180636771559 1:0.0103477321083797 2:-0.0103477321083797 3:-0.020810938598768 4:-0.0209668272316751 5:0 
0.432180636771559 1:-0.0103477321083797 2:-0.020810938598768 3:-0.0209668272316751 4:0 5:0.0417777658304431 
-0.432180636771559 1:-0.020810938598768 2:-0.0209668272316751 3:0 4:0.0417777658304431 5:0.0817301376805214 
0.155512691808622 1:-0.134050508620256 2:-0.064103374498495 3:-0.0216982353835406 4:0 5:-0.0109125219992402 
-0.432180636771559 1:0.0107449588666529 2:-0.0215313242281387 3:0.0215313242281387 4:0 5:0.010703869057453 
0.432180636771559 1:0 2:0.010703869057453 3:-0.0322351932855918 4:-0.0108280922172418 5:0.0108280922172418 
-0.432180636771559 1:0.0105426051092916 2:-0.0105426051092916 3:0.0210456506317305 4:0 5:0.0104637817092362 
0.432180636771559 1:-0.0108280922172418 2:0.0108280922172418 3:0 4:-0.0108280922172418 5:-0.0108701431662988 
0.432180636771559 1:0.010386128233833 2:0 3:-0.020810938598768 4:-0.0104637817092362 5:-0.0105030455224389 
0.432180636771559 1:-0.0104637817092362 2:-0.0105030455224389 3:0.0313916375966101 4:0 5:-0.0208885920741712 
-0.432180636771559 1:-0.0105030455224389 2:0.0313916375966101 3:0 4:-0.0208885920741712 5:0.0312747203080042 
-0.432180636771559 1:-0.105637380076744 2:-0.0107863653614858 3:-0.0108280922172418 4:0.0108280922172418 5:-0.0108280922172418 
-0.432180636771559 1:-0.0107863653614858 2:-0.0108280922172418 3:0.0108280922172418 4:-0.0108280922172418 5:-0.0658632351961876 
0.432180636771559 1:-0.0658632351961876 2:-0.113337683000508 3:-0.0232288332925027 4:-0.0234232190939934 5:0 
0.432180636771559 1:0 2:-0.0118856159375223 3:0 4:0.0118856159375223 5:-0.0118856159375223 
