svm_type epsilon_svr
kernel_type rbf
gamma 0.00929068058595876
nr_class 2
total_sv 695
rho -0.487451238549488
SV
-107.634741152475 1:0.206730769230769 2:0.206730769230769 3:0.198717948717949 4:0.181089743589744 5:0.165064102564103 
-107.634741152475 1:0.206730769230769 2:0.198717948717949 3:0.181089743589744 4:0.165064102564103 5:0.150641025641026 
-107.634741152475 1:0.198717948717949 2:0.181089743589744 3:0.165064102564103 4:0.150641025641026 5:0.135416666666667 
107.634741152475 1:0.181089743589744 2:0.165064102564103 3:0.150641025641026 4:0.135416666666667 5:0.122596153846154 
107.634741152475 1:0.165064102564103 2:0.150641025641026 3:0.135416666666667 4:0.122596153846154 5:0.136217948717949 
107.634741152475 1:0.150641025641026 2:0.135416666666667 3:0.122596153846154 4:0.136217948717949 5:0.150641025641026 
107.634741152475 1:0.135416666666667 2:0.122596153846154 3:0.136217948717949 4:0.150641025641026 5:0.165865384615385 
107.634741152475 1:0.122596153846154 2:0.136217948717949 3:0.150641025641026 4:0.165865384615385 5:0.181089743589744 
107.634741152475 1:0.136217948717949 2:0.150641025641026 3:0.165865384615385 4:0.181089743589744 5:0.197115384615385 
-107.634741152475 1:0.150641025641026 2:0.165865384615385 3:0.181089743589744 4:0.197115384615385 5:0.213942307692308 
-107.634741152475 1:0.165865384615385 2:0.181089743589744 3:0.197115384615385 4:0.213942307692308 5:0.21875 
-18.889201787384 1:0.181089743589744 2:0.197115384615385 3:0.213942307692308 4:0.21875 5:0.21875 
-107.634741152475 1:0.213942307692308 2:0.21875 3:0.21875 4:0.21875 5:0.21875 
107.634741152475 1:0.21875 2:0.21875 3:0.21875 4:0.21875 5:0.200320512820513 
-107.634741152475 1:0.21875 2:0.21875 3:0.21875 4:0.200320512820513 5:0.200320512820513 
-107.634741152475 1:0.21875 2:0.21875 3:0.200320512820513 4:0.200320512820513 5:0.182692307692308 
107.634741152475 1:0.21875 2:0.200320512820513 3:0.200320512820513 4:0.182692307692308 5:0.165865384615385 
-107.634741152475 1:0.200320512820513 2:0.200320512820513 3:0.182692307692308 4:0.165865384615385 5:0.165865384615385 
107.634741152475 1:0.200320512820513 2:0.182692307692308 3:0.165865384615385 4:0.165865384615385 5:0.150641025641026 
107.634741152475 1:0.182692307692308 2:0.165865384615385 3:0.165865384615385 4:0.150641025641026 5:0.165865384615385 
107.634741152475 1:0.165865384615385 2:0.165865384615385 3:0.150641025641026 4:0.165865384615385 5:0.181089743589744 
-107.634741152475 1:0.150641025641026 2:0.165865384615385 3:0.181089743589744 4:0.197115384615385 5:0.206730769230769 
-107.634741152475 1:0.165865384615385 2:0.181089743589744 3:0.197115384615385 4:0.206730769230769 5:0.206730769230769 
107.634741152475 1:0.181089743589744 2:0.197115384615385 3:0.206730769230769 4:0.206730769230769 5:0.190705128205128 
107.634741152475 1:0.197115384615385 2:0.206730769230769 3:0.206730769230769 4:0.190705128205128 5:0.190705128205128 
-107.634741152475 1:0.206730769230769 2:0.206730769230769 3:0.190705128205128 4:0.190705128205128 5:0.194711538461538 
107.634741152475 1:0.190705128205128 2:0.190705128205128 3:0.194711538461538 4:0.194711538461538 5:0.194711538461538 
-107.634741152475 1:0.190705128205128 2:0.194711538461538 3:0.194711538461538 4:0.194711538461538 5:0.198717948717949 
107.634741152475 1:0.198717948717949 2:0.198717948717949 3:0.198717948717949 4:0.198717948717949 5:0.198717948717949 
107.634741152475 1:0.198717948717949 2:0.198717948717949 3:0.198717948717949 4:0.198717948717949 5:0.216346153846154 
107.634741152475 1:0.198717948717949 2:0.198717948717949 3:0.198717948717949 4:0.216346153846154 5:0.234775641025641 
107.634741152475 1:0.198717948717949 2:0.198717948717949 3:0.216346153846154 4:0.234775641025641 5:0.250801282051282 
107.634741152475 1:0.198717948717949 2:0.216346153846154 3:0.234775641025641 4:0.250801282051282 5:0.270833333333333 
107.634741152475 1:0.216346153846154 2:0.234775641025641 3:0.250801282051282 4:0.270833333333333 5:0.290865384615385 
-107.634741152475 1:0.234775641025641 2:0.250801282051282 3:0.270833333333333 4:0.290865384615385 5:0.310897435897436 
107.634741152475 1:0.250801282051282 2:0.270833333333333 3:0.290865384615385 4:0.310897435897436 5:0.302884615384615 
107.634741152475 1:0.270833333333333 2:0.290865384615385 3:0.310897435897436 4:0.302884615384615 5:0.322916666666667 
107.634741152475 1:0.290865384615385 2:0.310897435897436 3:0.302884615384615 4:0.322916666666667 5:0.342948717948718 
107.634741152475 1:0.310897435897436 2:0.302884615384615 3:0.322916666666667 4:0.342948717948718 5:0.366987179487179 
107.634741152475 1:0.302884615384615 2:0.322916666666667 3:0.342948717948718 4:0.366987179487179 5:0.391025641025641 
-107.634741152475 1:0.322916666666667 2:0.342948717948718 3:0.366987179487179 4:0.391025641025641 5:0.415064102564103 
-107.634741152475 1:0.342948717948718 2:0.366987179487179 3:0.391025641025641 4:0.415064102564103 5:0.387019230769231 
-107.634741152475 1:0.366987179487179 2:0.391025641025641 3:0.415064102564103 4:0.387019230769231 5:0.362980769230769 
107.634741152475 1:0.391025641025641 2:0.415064102564103 3:0.387019230769231 4:0.362980769230769 5:0.338942307692308 
107.634741152475 1:0.415064102564103 2:0.387019230769231 3:0.362980769230769 4:0.338942307692308 5:0.358974358974359 
-107.634741152475 1:0.387019230769231 2:0.362980769230769 3:0.338942307692308 4:0.358974358974359 5:0.38301282051282 
-107.634741152475 1:0.362980769230769 2:0.338942307692308 3:0.358974358974359 4:0.38301282051282 5:0.391025641025641 
-107.634741152475 1:0.338942307692308 2:0.358974358974359 3:0.38301282051282 4:0.391025641025641 5:0.366987179487179 
-107.634741152475 1:0.358974358974359 2:0.38301282051282 3:0.391025641025641 4:0.366987179487179 5:0.342948717948718 
-107.634741152475 1:0.38301282051282 2:0.391025641025641 3:0.366987179487179 4:0.342948717948718 5:0.318910256410256 
107.634741152475 1:0.391025641025641 2:0.366987179487179 3:0.342948717948718 4:0.318910256410256 5:0.298878205128205 
107.634741152475 1:0.366987179487179 2:0.342948717948718 3:0.318910256410256 4:0.298878205128205 5:0.310897435897436 
-107.634741152475 1:0.342948717948718 2:0.318910256410256 3:0.298878205128205 4:0.310897435897436 5:0.330929487179487 
107.634741152475 1:0.318910256410256 2:0.298878205128205 3:0.310897435897436 4:0.330929487179487 5:0.306891025641026 
-107.634741152475 1:0.298878205128205 2:0.310897435897436 3:0.330929487179487 4:0.306891025641026 5:0.318910256410256 
107.634741152475 1:0.310897435897436 2:0.330929487179487 3:0.306891025641026 4:0.318910256410256 5:0.302884615384615 
-107.634741152475 1:0.330929487179487 2:0.306891025641026 3:0.318910256410256 4:0.302884615384615 5:0.310897435897436 
-107.634741152475 1:0.306891025641026 2:0.318910256410256 3:0.302884615384615 4:0.310897435897436 5:0.310897435897436 
-107.634741152475 1:0.302884615384615 2:0.310897435897436 3:0.310897435897436 4:0.310897435897436 5:0.310897435897436 
107.634741152475 1:0.310897435897436 2:0.310897435897436 3:0.310897435897436 4:0.310897435897436 5:0.290865384615385 
-107.634741152475 1:0.310897435897436 2:0.310897435897436 3:0.310897435897436 4:0.290865384615385 5:0.290865384615385 
-107.634741152475 1:0.310897435897436 2:0.310897435897436 3:0.290865384615385 4:0.290865384615385 5:0.270833333333333 
-107.634741152475 1:0.310897435897436 2:0.290865384615385 3:0.290865384615385 4:0.270833333333333 5:0.250801282051282 
107.634741152475 1:0.290865384615385 2:0.290865384615385 3:0.270833333333333 4:0.250801282051282 5:0.230769230769231 
107.634741152475 1:0.290865384615385 2:0.270833333333333 3:0.250801282051282 4:0.230769230769231 5:0.246794871794872 
-107.634741152475 1:0.270833333333333 2:0.250801282051282 3:0.230769230769231 4:0.246794871794872 5:0.266826923076923 
107.634741152475 1:0.230769230769231 2:0.246794871794872 3:0.266826923076923 4:0.246794871794872 5:0.234775641025641 
107.634741152475 1:0.246794871794872 2:0.266826923076923 3:0.246794871794872 4:0.234775641025641 5:0.246794871794872 
-107.634741152475 1:0.266826923076923 2:0.246794871794872 3:0.234775641025641 4:0.246794871794872 5:0.262820512820513 
-107.634741152475 1:0.246794871794872 2:0.234775641025641 3:0.246794871794872 4:0.262820512820513 5:0.262820512820513 
107.634741152475 1:0.234775641025641 2:0.246794871794872 3:0.262820512820513 4:0.262820512820513 5:0.242788461538462 
107.634741152475 1:0.262820512820513 2:0.262820512820513 3:0.242788461538462 4:0.242788461538462 5:0.242788461538462 
107.634741152475 1:0.242788461538462 2:0.242788461538462 3:0.242788461538462 4:0.250801282051282 5:0.254807692307692 
-107.634741152475 1:0.242788461538462 2:0.242788461538462 3:0.250801282051282 4:0.254807692307692 5:0.266826923076923 
107.634741152475 1:0.242788461538462 2:0.250801282051282 3:0.254807692307692 4:0.266826923076923 5:0.246794871794872 
-107.634741152475 1:0.250801282051282 2:0.254807692307692 3:0.266826923076923 4:0.246794871794872 5:0.254807692307692 
-107.634741152475 1:0.254807692307692 2:0.266826923076923 3:0.246794871794872 4:0.254807692307692 5:0.246794871794872 
107.634741152475 1:0.266826923076923 2:0.246794871794872 3:0.254807692307692 4:0.246794871794872 5:0.238782051282051 
107.634741152475 1:0.246794871794872 2:0.254807692307692 3:0.246794871794872 4:0.238782051282051 5:0.238782051282051 
-107.634741152475 1:0.254807692307692 2:0.246794871794872 3:0.238782051282051 4:0.238782051282051 5:0.246794871794872 
107.634741152475 1:0.246794871794872 2:0.238782051282051 3:0.238782051282051 4:0.246794871794872 5:0.234775641025641 
107.634741152475 1:0.238782051282051 2:0.238782051282051 3:0.246794871794872 4:0.234775641025641 5:0.230769230769231 
-107.634741152475 1:0.238782051282051 2:0.246794871794872 3:0.234775641025641 4:0.230769230769231 5:0.239583333333333 
-107.634741152475 1:0.234775641025641 2:0.230769230769231 3:0.239583333333333 4:0.239583333333333 5:0.238782051282051 
107.634741152475 1:0.230769230769231 2:0.239583333333333 3:0.239583333333333 4:0.238782051282051 5:0.230769230769231 
-107.634741152475 1:0.239583333333333 2:0.239583333333333 3:0.238782051282051 4:0.230769230769231 5:0.230769230769231 
-107.634741152475 1:0.239583333333333 2:0.238782051282051 3:0.230769230769231 4:0.230769230769231 5:0.226762820512821 
107.634741152475 1:0.238782051282051 2:0.230769230769231 3:0.230769230769231 4:0.226762820512821 5:0.22275641025641 
-107.634741152475 1:0.230769230769231 2:0.226762820512821 3:0.22275641025641 4:0.22275641025641 5:0.223557692307692 
107.634741152475 1:0.226762820512821 2:0.22275641025641 3:0.22275641025641 4:0.223557692307692 5:0.205128205128205 
107.634741152475 1:0.22275641025641 2:0.22275641025641 3:0.223557692307692 4:0.205128205128205 5:0.198717948717949 
107.634741152475 1:0.22275641025641 2:0.223557692307692 3:0.205128205128205 4:0.198717948717949 5:0.206730769230769 
107.634741152475 1:0.223557692307692 2:0.205128205128205 3:0.198717948717949 4:0.206730769230769 5:0.224358974358974 
-107.634741152475 1:0.205128205128205 2:0.198717948717949 3:0.206730769230769 4:0.224358974358974 5:0.242788461538462 
-107.634741152475 1:0.198717948717949 2:0.206730769230769 3:0.224358974358974 4:0.242788461538462 5:0.238782051282051 
107.634741152475 1:0.206730769230769 2:0.224358974358974 3:0.242788461538462 4:0.238782051282051 5:0.22275641025641 
-107.634741152475 1:0.224358974358974 2:0.242788461538462 3:0.238782051282051 4:0.22275641025641 5:0.234775641025641 
107.634741152475 1:0.242788461538462 2:0.238782051282051 3:0.22275641025641 4:0.234775641025641 5:0.226762820512821 
-107.634741152475 1:0.238782051282051 2:0.22275641025641 3:0.234775641025641 4:0.226762820512821 5:0.230769230769231 
107.634741152475 1:0.22275641025641 2:0.234775641025641 3:0.226762820512821 4:0.230769230769231 5:0.230769230769231 
-107.634741152475 1:0.234775641025641 2:0.226762820512821 3:0.230769230769231 4:0.230769230769231 5:0.234775641025641 
107.634741152475 1:0.226762820512821 2:0.230769230769231 3:0.230769230769231 4:0.234775641025641 5:0.22275641025641 
-107.634741152475 1:0.230769230769231 2:0.230769230769231 3:0.234775641025641 4:0.22275641025641 5:0.241185897435897 
-107.634741152475 1:0.230769230769231 2:0.234775641025641 3:0.22275641025641 4:0.241185897435897 5:0.246794871794872 
-107.634741152475 1:0.234775641025641 2:0.22275641025641 3:0.241185897435897 4:0.246794871794872 5:0.238782051282051 
-107.634741152475 1:0.22275641025641 2:0.241185897435897 3:0.246794871794872 4:0.238782051282051 5:0.232371794871795 
-107.634741152475 1:0.241185897435897 2:0.246794871794872 3:0.238782051282051 4:0.232371794871795 5:0.224358974358974 
-107.634741152475 1:0.246794871794872 2:0.238782051282051 3:0.232371794871795 4:0.224358974358974 5:0.21474358974359 
107.634741152475 1:0.238782051282051 2:0.232371794871795 3:0.224358974358974 4:0.21474358974359 5:0.0985576923076923 
107.634741152475 1:0.232371794871795 2:0.224358974358974 3:0.21474358974359 4:0.0985576923076923 5:0.0865384615384616 
107.634741152475 1:0.21474358974359 2:0.0985576923076923 3:0.0865384615384616 4:0.0865384615384616 5:0.0865384615384616 
107.634741152475 1:0.0865384615384616 2:0.0865384615384616 3:0.0865384615384616 4:0.0865384615384616 5:0.0865384615384616 
107.634741152475 1:0.0865384615384616 2:0.0865384615384616 3:0.0865384615384616 4:0.0865384615384616 5:0.0945512820512821 
107.634741152475 1:0.0865384615384616 2:0.0865384615384616 3:0.0865384615384616 4:0.0945512820512821 5:0.106570512820513 
107.634741152475 1:0.0865384615384616 2:0.0865384615384616 3:0.0945512820512821 4:0.106570512820513 5:0.119391025641026 
107.634741152475 1:0.0865384615384616 2:0.0945512820512821 3:0.106570512820513 4:0.119391025641026 5:0.133012820512821 
107.634741152475 1:0.0945512820512821 2:0.106570512820513 3:0.119391025641026 4:0.133012820512821 5:0.146634615384615 
107.634741152475 1:0.106570512820513 2:0.119391025641026 3:0.133012820512821 4:0.146634615384615 5:0.161057692307692 
107.634741152475 1:0.119391025641026 2:0.133012820512821 3:0.146634615384615 4:0.161057692307692 5:0.176282051282051 
-107.634741152475 1:0.133012820512821 2:0.146634615384615 3:0.161057692307692 4:0.176282051282051 5:0.192307692307692 
-107.634741152475 1:0.146634615384615 2:0.161057692307692 3:0.176282051282051 4:0.192307692307692 5:0.175480769230769 
-107.634741152475 1:0.161057692307692 2:0.176282051282051 3:0.192307692307692 4:0.175480769230769 5:0.159455128205128 
-107.634741152475 1:0.176282051282051 2:0.192307692307692 3:0.175480769230769 4:0.159455128205128 5:0.144230769230769 
107.634741152475 1:0.192307692307692 2:0.175480769230769 3:0.159455128205128 4:0.144230769230769 5:0.129807692307692 
-107.634741152475 1:0.175480769230769 2:0.159455128205128 3:0.144230769230769 4:0.129807692307692 5:0.126602564102564 
-107.634741152475 1:0.159455128205128 2:0.144230769230769 3:0.129807692307692 4:0.126602564102564 5:0.118589743589744 
107.634741152475 1:0.144230769230769 2:0.129807692307692 3:0.126602564102564 4:0.118589743589744 5:0.110576923076923 
-107.634741152475 1:0.129807692307692 2:0.126602564102564 3:0.118589743589744 4:0.110576923076923 5:0.122596153846154 
-107.634741152475 1:0.126602564102564 2:0.118589743589744 3:0.110576923076923 4:0.122596153846154 5:0.126602564102564 
-107.634741152475 1:0.118589743589744 2:0.110576923076923 3:0.122596153846154 4:0.126602564102564 5:0.118589743589744 
107.634741152475 1:0.110576923076923 2:0.122596153846154 3:0.126602564102564 4:0.118589743589744 5:0.104967948717949 
107.634741152475 1:0.122596153846154 2:0.126602564102564 3:0.118589743589744 4:0.104967948717949 5:0.102564102564103 
107.634741152475 1:0.126602564102564 2:0.118589743589744 3:0.104967948717949 4:0.102564102564103 5:0.115384615384615 
-107.634741152475 1:0.118589743589744 2:0.104967948717949 3:0.102564102564103 4:0.115384615384615 5:0.128205128205128 
107.634741152475 1:0.104967948717949 2:0.102564102564103 3:0.115384615384615 4:0.128205128205128 5:0.114583333333333 
-107.634741152475 1:0.102564102564103 2:0.115384615384615 3:0.128205128205128 4:0.114583333333333 5:0.118589743589744 
-107.634741152475 1:0.115384615384615 2:0.128205128205128 3:0.114583333333333 4:0.118589743589744 5:0.118589743589744 
57.4475034025663 1:0.128205128205128 2:0.114583333333333 3:0.118589743589744 4:0.118589743589744 5:0.110576923076923 
107.634741152475 1:0.114583333333333 2:0.118589743589744 3:0.118589743589744 4:0.110576923076923 5:0.107371794871795 
-107.634741152475 1:0.110576923076923 2:0.107371794871795 3:0.109775641025641 4:0.109775641025641 5:0.108974358974359 
-107.634741152475 1:0.107371794871795 2:0.109775641025641 3:0.109775641025641 4:0.108974358974359 5:0.106570512820513 
107.634741152475 1:0.109775641025641 2:0.109775641025641 3:0.108974358974359 4:0.106570512820513 5:0.102564102564103 
-107.634741152475 1:0.109775641025641 2:0.108974358974359 3:0.106570512820513 4:0.102564102564103 5:0.110576923076923 
107.634741152475 1:0.108974358974359 2:0.106570512820513 3:0.102564102564103 4:0.110576923076923 5:0.104166666666667 
107.634741152475 1:0.106570512820513 2:0.102564102564103 3:0.110576923076923 4:0.104166666666667 5:0.104166666666667 
-107.634741152475 1:0.102564102564103 2:0.110576923076923 3:0.104166666666667 4:0.104166666666667 5:0.108974358974359 
107.634741152475 1:0.110576923076923 2:0.104166666666667 3:0.104166666666667 4:0.108974358974359 5:0.106570512820513 
107.634741152475 1:0.104166666666667 2:0.104166666666667 3:0.108974358974359 4:0.106570512820513 5:0.111378205128205 
107.634741152475 1:0.104166666666667 2:0.108974358974359 3:0.106570512820513 4:0.111378205128205 5:0.124198717948718 
-107.634741152475 1:0.108974358974359 2:0.106570512820513 3:0.111378205128205 4:0.124198717948718 5:0.137820512820513 
-107.634741152475 1:0.111378205128205 2:0.124198717948718 3:0.137820512820513 4:0.134615384615385 5:0.133814102564103 
107.634741152475 1:0.124198717948718 2:0.137820512820513 3:0.134615384615385 4:0.133814102564103 5:0.125801282051282 
107.634741152475 1:0.137820512820513 2:0.134615384615385 3:0.133814102564103 4:0.125801282051282 5:0.130608974358974 
-107.634741152475 1:0.134615384615385 2:0.133814102564103 3:0.125801282051282 4:0.130608974358974 5:0.137820512820513 
107.634741152475 1:0.133814102564103 2:0.125801282051282 3:0.130608974358974 4:0.137820512820513 5:0.125 
-107.634741152475 1:0.125801282051282 2:0.130608974358974 3:0.137820512820513 4:0.125 5:0.134615384615385 
-107.634741152475 1:0.130608974358974 2:0.137820512820513 3:0.125 4:0.134615384615385 5:0.12900641025641 
107.634741152475 1:0.137820512820513 2:0.125 3:0.134615384615385 4:0.12900641025641 5:0.122596153846154 
107.634741152475 1:0.125 2:0.134615384615385 3:0.12900641025641 4:0.122596153846154 5:0.126602564102564 
-107.634741152475 1:0.134615384615385 2:0.12900641025641 3:0.122596153846154 4:0.126602564102564 5:0.133012820512821 
107.634741152475 1:0.12900641025641 2:0.122596153846154 3:0.126602564102564 4:0.133012820512821 5:0.124198717948718 
107.634741152475 1:0.122596153846154 2:0.126602564102564 3:0.133012820512821 4:0.124198717948718 5:0.128205128205128 
-86.7728940194623 1:0.126602564102564 2:0.133012820512821 3:0.124198717948718 4:0.128205128205128 5:0.134615384615385 
-107.634741152475 1:0.133012820512821 2:0.124198717948718 3:0.128205128205128 4:0.134615384615385 5:0.137820512820513 
107.634741152475 1:0.124198717948718 2:0.128205128205128 3:0.134615384615385 4:0.137820512820513 5:0.12900641025641 
107.634741152475 1:0.128205128205128 2:0.134615384615385 3:0.137820512820513 4:0.12900641025641 5:0.130608974358974 
107.634741152475 1:0.134615384615385 2:0.137820512820513 3:0.12900641025641 4:0.130608974358974 5:0.144230769230769 
107.634741152475 1:0.137820512820513 2:0.12900641025641 3:0.130608974358974 4:0.144230769230769 5:0.158653846153846 
107.634741152475 1:0.12900641025641 2:0.130608974358974 3:0.144230769230769 4:0.158653846153846 5:0.173878205128205 
107.634741152475 1:0.130608974358974 2:0.144230769230769 3:0.158653846153846 4:0.173878205128205 5:0.189903846153846 
107.634741152475 1:0.144230769230769 2:0.158653846153846 3:0.173878205128205 4:0.189903846153846 5:0.206730769230769 
107.634741152475 1:0.158653846153846 2:0.173878205128205 3:0.189903846153846 4:0.206730769230769 5:0.224358974358974 
107.634741152475 1:0.173878205128205 2:0.189903846153846 3:0.206730769230769 4:0.224358974358974 5:0.242788461538462 
107.634741152475 1:0.189903846153846 2:0.206730769230769 3:0.224358974358974 4:0.242788461538462 5:0.258814102564103 
107.634741152475 1:0.206730769230769 2:0.224358974358974 3:0.242788461538462 4:0.258814102564103 5:0.278846153846154 
107.634741152475 1:0.224358974358974 2:0.242788461538462 3:0.258814102564103 4:0.278846153846154 5:0.298878205128205 
107.634741152475 1:0.242788461538462 2:0.258814102564103 3:0.278846153846154 4:0.298878205128205 5:0.318910256410256 
107.634741152475 1:0.258814102564103 2:0.278846153846154 3:0.298878205128205 4:0.318910256410256 5:0.338942307692308 
107.634741152475 1:0.278846153846154 2:0.298878205128205 3:0.318910256410256 4:0.338942307692308 5:0.362980769230769 
-107.634741152475 1:0.298878205128205 2:0.318910256410256 3:0.338942307692308 4:0.362980769230769 5:0.387019230769231 
107.634741152475 1:0.318910256410256 2:0.338942307692308 3:0.362980769230769 4:0.387019230769231 5:0.391025641025641 
107.634741152475 1:0.338942307692308 2:0.362980769230769 3:0.387019230769231 4:0.391025641025641 5:0.407051282051282 
107.634741152475 1:0.362980769230769 2:0.387019230769231 3:0.391025641025641 4:0.407051282051282 5:0.435096153846154 
107.634741152475 1:0.387019230769231 2:0.391025641025641 3:0.407051282051282 4:0.435096153846154 5:0.463141025641026 
107.634741152475 1:0.391025641025641 2:0.407051282051282 3:0.435096153846154 4:0.463141025641026 5:0.491185897435897 
107.634741152475 1:0.407051282051282 2:0.435096153846154 3:0.463141025641026 4:0.491185897435897 5:0.519230769230769 
107.634741152475 1:0.435096153846154 2:0.463141025641026 3:0.491185897435897 4:0.519230769230769 5:0.551282051282051 
107.634741152475 1:0.463141025641026 2:0.491185897435897 3:0.519230769230769 4:0.551282051282051 5:0.583333333333333 
107.634741152475 1:0.491185897435897 2:0.519230769230769 3:0.551282051282051 4:0.583333333333333 5:0.619391025641026 
-107.634741152475 1:0.519230769230769 2:0.551282051282051 3:0.583333333333333 4:0.619391025641026 5:0.655448717948718 
-107.634741152475 1:0.551282051282051 2:0.583333333333333 3:0.619391025641026 4:0.655448717948718 5:0.615384615384615 
-107.634741152475 1:0.583333333333333 2:0.619391025641026 3:0.655448717948718 4:0.615384615384615 5:0.579326923076923 
-107.634741152475 1:0.619391025641026 2:0.655448717948718 3:0.615384615384615 4:0.579326923076923 5:0.543269230769231 
-107.634741152475 1:0.655448717948718 2:0.615384615384615 3:0.579326923076923 4:0.543269230769231 5:0.511217948717949 
107.634741152475 1:0.615384615384615 2:0.579326923076923 3:0.543269230769231 4:0.511217948717949 5:0.479166666666667 
107.634741152475 1:0.579326923076923 2:0.543269230769231 3:0.511217948717949 4:0.479166666666667 5:0.507211538461538 
107.634741152475 1:0.543269230769231 2:0.511217948717949 3:0.479166666666667 4:0.507211538461538 5:0.53926282051282 
-107.634741152475 1:0.511217948717949 2:0.479166666666667 3:0.507211538461538 4:0.53926282051282 5:0.571314102564103 
107.634741152475 1:0.479166666666667 2:0.507211538461538 3:0.53926282051282 4:0.571314102564103 5:0.567307692307692 
-107.634741152475 1:0.507211538461538 2:0.53926282051282 3:0.571314102564103 4:0.567307692307692 5:0.571314102564103 
107.634741152475 1:0.53926282051282 2:0.571314102564103 3:0.567307692307692 4:0.571314102564103 5:0.567307692307692 
-107.634741152475 1:0.571314102564103 2:0.567307692307692 3:0.571314102564103 4:0.567307692307692 5:0.567307692307692 
-107.634741152475 1:0.567307692307692 2:0.571314102564103 3:0.567307692307692 4:0.567307692307692 5:0.53525641025641 
107.634741152475 1:0.571314102564103 2:0.567307692307692 3:0.567307692307692 4:0.53525641025641 5:0.511217948717949 
-107.634741152475 1:0.567307692307692 2:0.567307692307692 3:0.53525641025641 4:0.511217948717949 5:0.503205128205128 
107.634741152475 1:0.567307692307692 2:0.53525641025641 3:0.511217948717949 4:0.503205128205128 5:0.487179487179487 
-107.634741152475 1:0.53525641025641 2:0.511217948717949 3:0.503205128205128 4:0.487179487179487 5:0.487179487179487 
-107.634741152475 1:0.511217948717949 2:0.503205128205128 3:0.487179487179487 4:0.487179487179487 5:0.483173076923077 
107.634741152475 1:0.503205128205128 2:0.487179487179487 3:0.487179487179487 4:0.483173076923077 5:0.471153846153846 
-107.634741152475 1:0.487179487179487 2:0.487179487179487 3:0.483173076923077 4:0.471153846153846 5:0.479166666666667 
107.634741152475 1:0.487179487179487 2:0.483173076923077 3:0.471153846153846 4:0.479166666666667 5:0.475160256410256 
-107.558609740299 1:0.483173076923077 2:0.471153846153846 3:0.479166666666667 4:0.475160256410256 5:0.479166666666667 
-107.634741152475 1:0.471153846153846 2:0.479166666666667 3:0.475160256410256 4:0.479166666666667 5:0.479166666666667 
107.634741152475 1:0.479166666666667 2:0.475160256410256 3:0.479166666666667 4:0.479166666666667 5:0.455128205128205 
107.634741152475 1:0.475160256410256 2:0.479166666666667 3:0.479166666666667 4:0.455128205128205 5:0.455128205128205 
-107.634741152475 1:0.479166666666667 2:0.479166666666667 3:0.455128205128205 4:0.455128205128205 5:0.483173076923077 
-107.634741152475 1:0.479166666666667 2:0.455128205128205 3:0.455128205128205 4:0.483173076923077 5:0.463141025641026 
107.634741152475 1:0.455128205128205 2:0.455128205128205 3:0.483173076923077 4:0.463141025641026 5:0.447115384615385 
-107.634741152475 1:0.455128205128205 2:0.483173076923077 3:0.463141025641026 4:0.447115384615385 5:0.439102564102564 
-107.634741152475 1:0.483173076923077 2:0.463141025641026 3:0.447115384615385 4:0.439102564102564 5:0.415064102564103 
-107.634741152475 1:0.463141025641026 2:0.447115384615385 3:0.439102564102564 4:0.415064102564103 5:0.391025641025641 
-107.634741152475 1:0.447115384615385 2:0.439102564102564 3:0.415064102564103 4:0.391025641025641 5:0.366987179487179 
107.634741152475 1:0.439102564102564 2:0.415064102564103 3:0.391025641025641 4:0.366987179487179 5:0.342948717948718 
107.634741152475 1:0.415064102564103 2:0.391025641025641 3:0.366987179487179 4:0.342948717948718 5:0.366987179487179 
-107.634741152475 1:0.391025641025641 2:0.366987179487179 3:0.342948717948718 4:0.366987179487179 5:0.391025641025641 
-107.634741152475 1:0.366987179487179 2:0.342948717948718 3:0.366987179487179 4:0.391025641025641 5:0.391025641025641 
-107.634741152475 1:0.342948717948718 2:0.366987179487179 3:0.391025641025641 4:0.391025641025641 5:0.366987179487179 
107.634741152475 1:0.366987179487179 2:0.391025641025641 3:0.391025641025641 4:0.366987179487179 5:0.342948717948718 
-107.634741152475 1:0.391025641025641 2:0.391025641025641 3:0.366987179487179 4:0.342948717948718 5:0.366987179487179 
107.634741152475 1:0.391025641025641 2:0.366987179487179 3:0.342948717948718 4:0.366987179487179 5:0.350961538461538 
107.634741152475 1:0.366987179487179 2:0.342948717948718 3:0.366987179487179 4:0.350961538461538 5:0.350961538461538 
-107.634741152475 1:0.342948717948718 2:0.366987179487179 3:0.350961538461538 4:0.350961538461538 5:0.354967948717949 
-107.634741152475 1:0.366987179487179 2:0.350961538461538 3:0.350961538461538 4:0.354967948717949 5:0.350961538461538 
-107.634741152475 1:0.350961538461538 2:0.350961538461538 3:0.354967948717949 4:0.350961538461538 5:0.346955128205128 
107.634741152475 1:0.350961538461538 2:0.354967948717949 3:0.350961538461538 4:0.346955128205128 5:0.322916666666667 
-107.634741152475 1:0.350961538461538 2:0.346955128205128 3:0.322916666666667 4:0.326923076923077 5:0.326923076923077 
107.634741152475 1:0.346955128205128 2:0.322916666666667 3:0.326923076923077 4:0.326923076923077 5:0.302884615384615 
-107.634741152475 1:0.322916666666667 2:0.326923076923077 3:0.326923076923077 4:0.302884615384615 5:0.302884615384615 
-107.634741152475 1:0.326923076923077 2:0.326923076923077 3:0.302884615384615 4:0.302884615384615 5:0.282852564102564 
107.634741152475 1:0.326923076923077 2:0.302884615384615 3:0.302884615384615 4:0.282852564102564 5:0.262820512820513 
-107.634741152475 1:0.302884615384615 2:0.302884615384615 3:0.282852564102564 4:0.262820512820513 5:0.282852564102564 
107.634741152475 1:0.302884615384615 2:0.282852564102564 3:0.262820512820513 4:0.282852564102564 5:0.282852564102564 
-107.634741152475 1:0.282852564102564 2:0.262820512820513 3:0.282852564102564 4:0.282852564102564 5:0.302884615384615 
107.634741152475 1:0.262820512820513 2:0.282852564102564 3:0.282852564102564 4:0.302884615384615 5:0.286858974358974 
-107.634741152475 1:0.282852564102564 2:0.282852564102564 3:0.302884615384615 4:0.286858974358974 5:0.282852564102564 
107.634741152475 1:0.282852564102564 2:0.302884615384615 3:0.286858974358974 4:0.282852564102564 5:0.262820512820513 
107.634741152475 1:0.302884615384615 2:0.286858974358974 3:0.282852564102564 4:0.262820512820513 5:0.254807692307692 
-107.634741152475 1:0.286858974358974 2:0.282852564102564 3:0.262820512820513 4:0.254807692307692 5:0.258814102564103 
107.634741152475 1:0.282852564102564 2:0.262820512820513 3:0.254807692307692 4:0.258814102564103 5:0.254807692307692 
107.634741152475 1:0.262820512820513 2:0.254807692307692 3:0.258814102564103 4:0.254807692307692 5:0.274839743589744 
-107.634741152475 1:0.254807692307692 2:0.258814102564103 3:0.254807692307692 4:0.274839743589744 5:0.294871794871795 
107.634741152475 1:0.258814102564103 2:0.254807692307692 3:0.274839743589744 4:0.294871794871795 5:0.278846153846154 
-107.634741152475 1:0.254807692307692 2:0.274839743589744 3:0.294871794871795 4:0.278846153846154 5:0.298878205128205 
-107.634741152475 1:0.274839743589744 2:0.294871794871795 3:0.278846153846154 4:0.298878205128205 5:0.294871794871795 
107.634741152475 1:0.294871794871795 2:0.278846153846154 3:0.298878205128205 4:0.294871794871795 5:0.278846153846154 
-107.634741152475 1:0.278846153846154 2:0.298878205128205 3:0.294871794871795 4:0.278846153846154 5:0.298878205128205 
107.634741152475 1:0.294871794871795 2:0.278846153846154 3:0.298878205128205 4:0.286858974358974 5:0.282852564102564 
-107.634741152475 1:0.278846153846154 2:0.298878205128205 3:0.286858974358974 4:0.282852564102564 5:0.286858974358974 
-107.634741152475 1:0.298878205128205 2:0.286858974358974 3:0.282852564102564 4:0.286858974358974 5:0.258814102564103 
107.634741152475 1:0.286858974358974 2:0.282852564102564 3:0.286858974358974 4:0.258814102564103 5:0.238782051282051 
107.634741152475 1:0.282852564102564 2:0.286858974358974 3:0.258814102564103 4:0.238782051282051 5:0.246794871794872 
-107.634741152475 1:0.286858974358974 2:0.258814102564103 3:0.238782051282051 4:0.246794871794872 5:0.266826923076923 
-107.634741152475 1:0.258814102564103 2:0.238782051282051 3:0.246794871794872 4:0.266826923076923 5:0.270833333333333 
-107.634741152475 1:0.246794871794872 2:0.266826923076923 3:0.270833333333333 4:0.262820512820513 5:0.258814102564103 
-107.634741152475 1:0.266826923076923 2:0.270833333333333 3:0.262820512820513 4:0.258814102564103 5:0.238782051282051 
-107.634741152475 1:0.270833333333333 2:0.262820512820513 3:0.258814102564103 4:0.238782051282051 5:0.219551282051282 
-107.634741152475 1:0.262820512820513 2:0.258814102564103 3:0.238782051282051 4:0.219551282051282 5:0.201121794871795 
107.634741152475 1:0.258814102564103 2:0.238782051282051 3:0.219551282051282 4:0.201121794871795 5:0.18349358974359 
107.634741152475 1:0.238782051282051 2:0.219551282051282 3:0.201121794871795 4:0.18349358974359 5:0.200320512820513 
107.634741152475 1:0.219551282051282 2:0.201121794871795 3:0.18349358974359 4:0.200320512820513 5:0.217948717948718 
-100.006283182176 1:0.201121794871795 2:0.18349358974359 3:0.200320512820513 4:0.217948717948718 5:0.236378205128205 
-107.634741152475 1:0.217948717948718 2:0.236378205128205 3:0.246794871794872 4:0.254807692307692 5:0.262820512820513 
-107.634741152475 1:0.236378205128205 2:0.246794871794872 3:0.254807692307692 4:0.262820512820513 5:0.266826923076923 
-107.634741152475 1:0.246794871794872 2:0.254807692307692 3:0.262820512820513 4:0.266826923076923 5:0.24599358974359 
-107.634741152475 1:0.254807692307692 2:0.262820512820513 3:0.266826923076923 4:0.24599358974359 5:0.226762820512821 
107.634741152475 1:0.262820512820513 2:0.266826923076923 3:0.24599358974359 4:0.226762820512821 5:0.211538461538462 
-107.634741152475 1:0.266826923076923 2:0.24599358974359 3:0.226762820512821 4:0.211538461538462 5:0.228365384615385 
-107.634741152475 1:0.24599358974359 2:0.226762820512821 3:0.211538461538462 4:0.228365384615385 5:0.209935897435897 
-107.634741152475 1:0.226762820512821 2:0.211538461538462 3:0.228365384615385 4:0.209935897435897 5:0.192307692307692 
107.634741152475 1:0.211538461538462 2:0.228365384615385 3:0.209935897435897 4:0.192307692307692 5:0.175480769230769 
-107.634741152475 1:0.228365384615385 2:0.209935897435897 3:0.192307692307692 4:0.175480769230769 5:0.19150641025641 
107.634741152475 1:0.201121794871795 2:0.204326923076923 3:0.207532051282051 4:0.210737179487179 5:0.213942307692308 
-107.634741152475 1:0.204326923076923 2:0.207532051282051 3:0.210737179487179 4:0.213942307692308 5:0.221153846153846 
-107.634741152475 1:0.207532051282051 2:0.210737179487179 3:0.213942307692308 4:0.221153846153846 5:0.213942307692308 
-107.634741152475 1:0.210737179487179 2:0.213942307692308 3:0.221153846153846 4:0.213942307692308 5:0.206730769230769 
-107.634741152475 1:0.213942307692308 2:0.221153846153846 3:0.213942307692308 4:0.206730769230769 5:0.199519230769231 
-107.634741152475 1:0.221153846153846 2:0.213942307692308 3:0.206730769230769 4:0.199519230769231 5:0.193108974358974 
-107.634741152475 1:0.213942307692308 2:0.206730769230769 3:0.199519230769231 4:0.193108974358974 5:0.186698717948718 
-107.634741152475 1:0.206730769230769 2:0.199519230769231 3:0.193108974358974 4:0.186698717948718 5:0.180288461538462 
-107.634741152475 1:0.199519230769231 2:0.193108974358974 3:0.186698717948718 4:0.180288461538462 5:0.173878205128205 
-107.634741152475 1:0.193108974358974 2:0.186698717948718 3:0.180288461538462 4:0.173878205128205 5:0.167467948717949 
-107.634741152475 1:0.180288461538462 2:0.173878205128205 3:0.167467948717949 4:0.161057692307692 5:0.155448717948718 
-107.634741152475 1:0.173878205128205 2:0.167467948717949 3:0.161057692307692 4:0.155448717948718 5:0.149839743589744 
-104.749161675905 1:0.167467948717949 2:0.161057692307692 3:0.155448717948718 4:0.149839743589744 5:0.144230769230769 
-107.634741152475 1:0.161057692307692 2:0.155448717948718 3:0.149839743589744 4:0.144230769230769 5:0.138621794871795 
-107.634741152475 1:0.155448717948718 2:0.149839743589744 3:0.144230769230769 4:0.138621794871795 5:0.133012820512821 
-107.634741152475 1:0.149839743589744 2:0.144230769230769 3:0.138621794871795 4:0.133012820512821 5:0.127403846153846 
107.634741152475 1:0.144230769230769 2:0.138621794871795 3:0.133012820512821 4:0.127403846153846 5:0.121794871794872 
-107.634741152475 1:0.138621794871795 2:0.133012820512821 3:0.127403846153846 4:0.121794871794872 5:0.121794871794872 
-107.634741152475 1:0.133012820512821 2:0.127403846153846 3:0.121794871794872 4:0.121794871794872 5:0.116987179487179 
-107.634741152475 1:0.121794871794872 2:0.116987179487179 3:0.112179487179487 4:0.110576923076923 5:0.110576923076923 
-107.634741152475 1:0.116987179487179 2:0.112179487179487 3:0.110576923076923 4:0.110576923076923 5:0.105769230769231 
-22.0183423892772 1:0.112179487179487 2:0.110576923076923 3:0.110576923076923 4:0.105769230769231 5:0.100961538461538 
-107.634741152475 1:0.110576923076923 2:0.110576923076923 3:0.105769230769231 4:0.100961538461538 5:0.0961538461538462 
107.634741152475 1:0.105769230769231 2:0.100961538461538 3:0.0961538461538462 4:0.0913461538461539 5:0.0865384615384616 
-107.634741152475 1:0.100961538461538 2:0.0961538461538462 3:0.0913461538461539 4:0.0865384615384616 5:0.0865384615384616 
107.634741152475 1:0.0961538461538462 2:0.0913461538461539 3:0.0865384615384616 4:0.0865384615384616 5:0.0817307692307692 
-107.634741152475 1:0.0913461538461539 2:0.0865384615384616 3:0.0865384615384616 4:0.0817307692307692 5:0.0817307692307692 
-107.634741152475 1:0.0817307692307692 2:0.077724358974359 3:0.077724358974359 4:0.077724358974359 5:0.077724358974359 
-107.634741152475 1:0.077724358974359 2:0.077724358974359 3:0.077724358974359 4:0.0737179487179487 5:0.0737179487179487 
-107.634741152475 1:0.077724358974359 2:0.077724358974359 3:0.0737179487179487 4:0.0737179487179487 5:0.0697115384615385 
-107.634741152475 1:0.0737179487179487 2:0.0737179487179487 3:0.0697115384615385 4:0.0657051282051282 5:0.0616987179487179 
107.634741152475 1:0.0737179487179487 2:0.0697115384615385 3:0.0657051282051282 4:0.0616987179487179 5:0.0576923076923077 
-107.634741152475 1:0.0697115384615385 2:0.0657051282051282 3:0.0616987179487179 4:0.0576923076923077 5:0.0576923076923077 
-107.634741152475 1:0.0657051282051282 2:0.0616987179487179 3:0.0576923076923077 4:0.0576923076923077 5:0.0536858974358974 
107.634741152475 1:0.0536858974358974 2:0.0496794871794872 3:0.0456730769230769 4:0.0424679487179487 5:0.0392628205128205 
-107.634741152475 1:0.0496794871794872 2:0.0456730769230769 3:0.0424679487179487 4:0.0392628205128205 5:0.0424679487179487 
-107.634741152475 1:0.0456730769230769 2:0.0424679487179487 3:0.0392628205128205 4:0.0424679487179487 5:0.0392628205128205 
-107.634741152475 1:0.0424679487179487 2:0.0392628205128205 3:0.0424679487179487 4:0.0392628205128205 5:0.0336538461538462 
-43.1638880935445 1:0.0424679487179487 2:0.0392628205128205 3:0.0336538461538462 4:0.0280448717948718 5:0.0232371794871795 
-28.7512660154969 1:0.0280448717948718 2:0.0232371794871795 3:0.0184294871794872 4:0.0136217948717949 5:0.00881410256410258 
-62.946742675365 1:0.0232371794871795 2:0.0184294871794872 3:0.0136217948717949 4:0.00881410256410258 5:0.00400641025641026 
107.634741152475 1:0.0184294871794872 2:0.0136217948717949 3:0.00881410256410258 4:0.00400641025641026 5:0 
-21.198795110697 1:0.0136217948717949 2:0.00881410256410258 3:0.00400641025641026 4:0 5:0.00400641025641026 
107.634741152475 1:0.00881410256410258 2:0.00400641025641026 3:0 4:0.00400641025641026 5:0.00480769230769232 
107.634741152475 1:0.00400641025641026 2:0 3:0.00400641025641026 4:0.00480769230769232 5:0.00881410256410258 
-107.634741152475 1:0 2:0.00400641025641026 3:0.00480769230769232 4:0.00881410256410258 5:0.0136217948717949 
-107.634741152475 1:0.00480769230769232 2:0.00881410256410258 3:0.0136217948717949 4:0.00881410256410258 5:0.00801282051282051 
107.634741152475 1:0.00881410256410258 2:0.0136217948717949 3:0.00881410256410258 4:0.00801282051282051 5:0.00480769230769232 
107.634741152475 1:0.0136217948717949 2:0.00881410256410258 3:0.00801282051282051 4:0.00480769230769232 5:0.00881410256410258 
-107.634741152475 1:0.0136217948717949 2:0.0184294871794872 3:0.0232371794871795 4:0.0280448717948718 5:0.0328525641025641 
-107.634741152475 1:0.0184294871794872 2:0.0232371794871795 3:0.0280448717948718 4:0.0328525641025641 5:0.0328525641025641 
-107.634741152475 1:0.0232371794871795 2:0.0280448717948718 3:0.0328525641025641 4:0.0328525641025641 5:0.0280448717948718 
-107.634741152475 1:0.0280448717948718 2:0.0328525641025641 3:0.0328525641025641 4:0.0280448717948718 5:0.0232371794871795 
107.634741152475 1:0.0328525641025641 2:0.0280448717948718 3:0.0232371794871795 4:0.0184294871794872 5:0.0144230769230769 
107.634741152475 1:0.0280448717948718 2:0.0232371794871795 3:0.0184294871794872 4:0.0144230769230769 5:0.0192307692307692 
3.77039414918714 1:0.0616987179487179 2:0.0681089743589744 3:0.0745192307692308 4:0.0809294871794872 5:0.0873397435897436 
107.634741152475 1:0.0809294871794872 2:0.0873397435897436 3:0.0945512820512821 4:0.101762820512821 5:0.108974358974359 
107.634741152475 1:0.0873397435897436 2:0.0945512820512821 3:0.101762820512821 4:0.108974358974359 5:0.121794871794872 
107.634741152475 1:0.0945512820512821 2:0.101762820512821 3:0.108974358974359 4:0.121794871794872 5:0.135416666666667 
107.634741152475 1:0.101762820512821 2:0.108974358974359 3:0.121794871794872 4:0.135416666666667 5:0.149839743589744 
107.634741152475 1:0.108974358974359 2:0.121794871794872 3:0.135416666666667 4:0.149839743589744 5:0.164262820512821 
107.634741152475 1:0.121794871794872 2:0.135416666666667 3:0.149839743589744 4:0.164262820512821 5:0.17948717948718 
107.634741152475 1:0.135416666666667 2:0.149839743589744 3:0.164262820512821 4:0.17948717948718 5:0.195512820512821 
107.634741152475 1:0.149839743589744 2:0.164262820512821 3:0.17948717948718 4:0.195512820512821 5:0.212339743589744 
-107.634741152475 1:0.164262820512821 2:0.17948717948718 3:0.195512820512821 4:0.212339743589744 5:0.229967948717949 
-107.634741152475 1:0.17948717948718 2:0.195512820512821 3:0.212339743589744 4:0.229967948717949 5:0.211538461538462 
-107.634741152475 1:0.195512820512821 2:0.212339743589744 3:0.229967948717949 4:0.211538461538462 5:0.193910256410256 
107.634741152475 1:0.212339743589744 2:0.229967948717949 3:0.211538461538462 4:0.193910256410256 5:0.177083333333333 
107.634741152475 1:0.229967948717949 2:0.211538461538462 3:0.193910256410256 4:0.177083333333333 5:0.193108974358974 
-107.634741152475 1:0.211538461538462 2:0.193910256410256 3:0.177083333333333 4:0.193108974358974 5:0.209935897435897 
-107.634741152475 1:0.193910256410256 2:0.177083333333333 3:0.193108974358974 4:0.209935897435897 5:0.192307692307692 
-107.634741152475 1:0.177083333333333 2:0.193108974358974 3:0.209935897435897 4:0.192307692307692 5:0.175480769230769 
-107.634741152475 1:0.193108974358974 2:0.209935897435897 3:0.192307692307692 4:0.175480769230769 5:0.159455128205128 
-107.634741152475 1:0.209935897435897 2:0.192307692307692 3:0.175480769230769 4:0.159455128205128 5:0.144230769230769 
-107.634741152475 1:0.192307692307692 2:0.175480769230769 3:0.159455128205128 4:0.144230769230769 5:0.129807692307692 
-107.634741152475 1:0.175480769230769 2:0.159455128205128 3:0.144230769230769 4:0.129807692307692 5:0.116185897435897 
-107.634741152475 1:0.159455128205128 2:0.144230769230769 3:0.129807692307692 4:0.116185897435897 5:0.103365384615385 
-107.634741152475 1:0.144230769230769 2:0.129807692307692 3:0.116185897435897 4:0.103365384615385 5:0.0905448717948718 
107.634741152475 1:0.129807692307692 2:0.116185897435897 3:0.103365384615385 4:0.0905448717948718 5:0.078525641025641 
107.634741152475 1:0.116185897435897 2:0.103365384615385 3:0.0905448717948718 4:0.078525641025641 5:0.0897435897435897 
107.634741152475 1:0.103365384615385 2:0.0905448717948718 3:0.078525641025641 4:0.0897435897435897 5:0.101762820512821 
-107.634741152475 1:0.0905448717948718 2:0.078525641025641 3:0.0897435897435897 4:0.101762820512821 5:0.112980769230769 
-107.634741152475 1:0.078525641025641 2:0.0897435897435897 3:0.101762820512821 4:0.112980769230769 5:0.100961538461538 
-107.634741152475 1:0.0897435897435897 2:0.101762820512821 3:0.112980769230769 4:0.100961538461538 5:0.0889423076923077 
-107.634741152475 1:0.101762820512821 2:0.112980769230769 3:0.100961538461538 4:0.0889423076923077 5:0.078525641025641 
-107.634741152475 1:0.112980769230769 2:0.100961538461538 3:0.0889423076923077 4:0.078525641025641 5:0.0673076923076923 
-107.634741152475 1:0.100961538461538 2:0.0889423076923077 3:0.078525641025641 4:0.0673076923076923 5:0.0568910256410257 
107.634741152475 1:0.0889423076923077 2:0.078525641025641 3:0.0673076923076923 4:0.0568910256410257 5:0.047275641025641 
107.634741152475 1:0.078525641025641 2:0.0673076923076923 3:0.0568910256410257 4:0.047275641025641 5:0.0424679487179487 
-107.634741152475 1:0.0673076923076923 2:0.0568910256410257 3:0.047275641025641 4:0.0424679487179487 5:0.0520833333333333 
-107.634741152475 1:0.0568910256410257 2:0.047275641025641 3:0.0424679487179487 4:0.0520833333333333 5:0.0520833333333333 
-107.634741152475 1:0.047275641025641 2:0.0424679487179487 3:0.0520833333333333 4:0.0520833333333333 5:0.0424679487179487 
-107.634741152475 1:0.0424679487179487 2:0.0520833333333333 3:0.0520833333333333 4:0.0424679487179487 5:0.0328525641025641 
-107.634741152475 1:0.0520833333333333 2:0.0520833333333333 3:0.0424679487179487 4:0.0328525641025641 5:0.0240384615384615 
107.634741152475 1:0.0520833333333333 2:0.0424679487179487 3:0.0328525641025641 4:0.0240384615384615 5:0.015224358974359 
107.634741152475 1:0.0424679487179487 2:0.0328525641025641 3:0.0240384615384615 4:0.015224358974359 5:0.0232371794871795 
107.634741152475 1:0.0328525641025641 2:0.0240384615384615 3:0.015224358974359 4:0.0232371794871795 5:0.0320512820512821 
107.634741152475 1:0.0240384615384615 2:0.015224358974359 3:0.0232371794871795 4:0.0320512820512821 5:0.0408653846153846 
107.634741152475 1:0.015224358974359 2:0.0232371794871795 3:0.0320512820512821 4:0.0408653846153846 5:0.0504807692307692 
-107.634741152475 1:0.0232371794871795 2:0.0320512820512821 3:0.0408653846153846 4:0.0504807692307692 5:0.0600961538461538 
107.634741152475 1:0.0320512820512821 2:0.0408653846153846 3:0.0504807692307692 4:0.0600961538461538 5:0.0512820512820513 
-107.634741152475 1:0.0504807692307692 2:0.0600961538461538 3:0.0512820512820513 4:0.0544871794871795 5:0.0576923076923077 
107.634741152475 1:0.0600961538461538 2:0.0512820512820513 3:0.0544871794871795 4:0.0576923076923077 5:0.0512820512820513 
-107.634741152475 1:0.0512820512820513 2:0.0544871794871795 3:0.0576923076923077 4:0.0512820512820513 5:0.0584935897435898 
-107.634741152475 1:0.0544871794871795 2:0.0576923076923077 3:0.0512820512820513 4:0.0584935897435898 5:0.0480769230769231 
107.634741152475 1:0.0576923076923077 2:0.0512820512820513 3:0.0584935897435898 4:0.0480769230769231 5:0.0384615384615385 
-107.634741152475 1:0.0512820512820513 2:0.0584935897435898 3:0.0480769230769231 4:0.0384615384615385 5:0.0456730769230769 
107.634741152475 1:0.0584935897435898 2:0.0480769230769231 3:0.0384615384615385 4:0.0456730769230769 5:0.046474358974359 
-107.634741152475 1:0.0480769230769231 2:0.0384615384615385 3:0.0456730769230769 4:0.046474358974359 5:0.0504807692307692 
107.634741152475 1:0.0384615384615385 2:0.0456730769230769 3:0.046474358974359 4:0.0504807692307692 5:0.0488782051282051 
107.634741152475 1:0.0456730769230769 2:0.046474358974359 3:0.0504807692307692 4:0.0488782051282051 5:0.0512820512820513 
-107.634741152475 1:0.046474358974359 2:0.0504807692307692 3:0.0488782051282051 4:0.0512820512820513 5:0.0584935897435898 
-107.634741152475 1:0.0504807692307692 2:0.0488782051282051 3:0.0512820512820513 4:0.0584935897435898 5:0.0480769230769231 
107.634741152475 1:0.0488782051282051 2:0.0512820512820513 3:0.0584935897435898 4:0.0480769230769231 5:0.0384615384615385 
-107.634741152475 1:0.0584935897435898 2:0.0480769230769231 3:0.0384615384615385 4:0.0408653846153846 5:0.0408653846153846 
107.634741152475 1:0.0480769230769231 2:0.0384615384615385 3:0.0408653846153846 4:0.0408653846153846 5:0.03125 
107.634741152475 1:0.0384615384615385 2:0.0408653846153846 3:0.0408653846153846 4:0.03125 5:0.0352564102564103 
-107.634741152475 1:0.0408653846153846 2:0.0408653846153846 3:0.03125 4:0.0352564102564103 5:0.0408653846153846 
-107.634741152475 1:0.0408653846153846 2:0.03125 3:0.0352564102564103 4:0.0408653846153846 5:0.0424679487179487 
107.634741152475 1:0.03125 2:0.0352564102564103 3:0.0408653846153846 4:0.0424679487179487 5:0.0384615384615385 
-107.634741152475 1:0.0352564102564103 2:0.0408653846153846 3:0.0424679487179487 4:0.0384615384615385 5:0.0400641025641026 
-107.634741152475 1:0.0408653846153846 2:0.0424679487179487 3:0.0384615384615385 4:0.0400641025641026 5:0.0384615384615385 
107.634741152475 1:0.0424679487179487 2:0.0384615384615385 3:0.0400641025641026 4:0.0384615384615385 5:0.030448717948718 
107.634741152475 1:0.0384615384615385 2:0.0400641025641026 3:0.0384615384615385 4:0.030448717948718 5:0.0360576923076923 
-107.634741152475 1:0.0400641025641026 2:0.0384615384615385 3:0.030448717948718 4:0.0360576923076923 5:0.0424679487179487 
-107.634741152475 1:0.0384615384615385 2:0.030448717948718 3:0.0360576923076923 4:0.0424679487179487 5:0.0336538461538462 
107.634741152475 1:0.030448717948718 2:0.0360576923076923 3:0.0424679487179487 4:0.0336538461538462 5:0.0248397435897436 
-107.634741152475 1:0.0360576923076923 2:0.0424679487179487 3:0.0336538461538462 4:0.0248397435897436 5:0.0336538461538462 
-107.634741152475 1:0.0424679487179487 2:0.0336538461538462 3:0.0248397435897436 4:0.0336538461538462 5:0.0336538461538462 
107.634741152475 1:0.0336538461538462 2:0.0248397435897436 3:0.0336538461538462 4:0.0336538461538462 5:0.0256410256410256 
-107.634741152475 1:0.0248397435897436 2:0.0336538461538462 3:0.0336538461538462 4:0.0256410256410256 5:0.030448717948718 
-107.634741152475 1:0.0336538461538462 2:0.0336538461538462 3:0.0256410256410256 4:0.030448717948718 5:0.0296474358974359 
-107.634741152475 1:0.0336538461538462 2:0.0256410256410256 3:0.030448717948718 4:0.0296474358974359 5:0.0208333333333333 
107.634741152475 1:0.0256410256410256 2:0.030448717948718 3:0.0296474358974359 4:0.0208333333333333 5:0.0128205128205128 
-107.634741152475 1:0.030448717948718 2:0.0296474358974359 3:0.0208333333333333 4:0.0128205128205128 5:0.0184294871794872 
107.634741152475 1:0.0296474358974359 2:0.0208333333333333 3:0.0128205128205128 4:0.0184294871794872 5:0.0144230769230769 
107.634741152475 1:0.0208333333333333 2:0.0128205128205128 3:0.0184294871794872 4:0.0144230769230769 5:0.0224358974358974 
63.1426866611465 1:0.0128205128205128 2:0.0184294871794872 3:0.0144230769230769 4:0.0224358974358974 5:0.03125 
-107.634741152475 1:0.0184294871794872 2:0.0144230769230769 3:0.0224358974358974 4:0.03125 5:0.0400641025641026 
107.634741152475 1:0.0144230769230769 2:0.0224358974358974 3:0.03125 4:0.0400641025641026 5:0.03125 
-107.634741152475 1:0.0224358974358974 2:0.03125 3:0.0400641025641026 4:0.03125 5:0.0376602564102564 
-107.634741152475 1:0.03125 2:0.0400641025641026 3:0.03125 4:0.0376602564102564 5:0.0368589743589744 
107.634741152475 1:0.0400641025641026 2:0.03125 3:0.0376602564102564 4:0.0368589743589744 5:0.030448717948718 
107.634741152475 1:0.0376602564102564 2:0.0368589743589744 3:0.030448717948718 4:0.0296474358974359 5:0.0296474358974359 
-107.634741152475 1:0.0368589743589744 2:0.030448717948718 3:0.0296474358974359 4:0.0296474358974359 5:0.0384615384615385 
107.634741152475 1:0.030448717948718 2:0.0296474358974359 3:0.0296474358974359 4:0.0384615384615385 5:0.030448717948718 
-107.634741152475 1:0.0296474358974359 2:0.0296474358974359 3:0.0384615384615385 4:0.030448717948718 5:0.0376602564102564 
-107.634741152475 1:0.0296474358974359 2:0.0384615384615385 3:0.030448717948718 4:0.0376602564102564 5:0.0384615384615385 
107.634741152475 1:0.0384615384615385 2:0.0384615384615385 3:0.0384615384615385 4:0.0376602564102564 5:0.0376602564102564 
107.634741152475 1:0.0384615384615385 2:0.0384615384615385 3:0.0376602564102564 4:0.0376602564102564 5:0.046474358974359 
-107.634741152475 1:0.0376602564102564 2:0.0376602564102564 3:0.046474358974359 4:0.0560897435897436 5:0.0625 
-107.634741152475 1:0.0376602564102564 2:0.046474358974359 3:0.0560897435897436 4:0.0625 5:0.0625 
107.634741152475 1:0.046474358974359 2:0.0560897435897436 3:0.0625 4:0.0625 5:0.0544871794871795 
-107.634741152475 1:0.0625 2:0.0544871794871795 3:0.0528846153846154 4:0.0528846153846154 5:0.0544871794871795 
107.634741152475 1:0.0544871794871795 2:0.0528846153846154 3:0.0528846153846154 4:0.0544871794871795 5:0.0528846153846154 
-107.634741152475 1:0.0528846153846154 2:0.0528846153846154 3:0.0544871794871795 4:0.0528846153846154 5:0.0544871794871795 
107.634741152475 1:0.0528846153846154 2:0.0544871794871795 3:0.0528846153846154 4:0.0544871794871795 5:0.0528846153846154 
-107.634741152475 1:0.0544871794871795 2:0.0528846153846154 3:0.0544871794871795 4:0.0528846153846154 5:0.0600961538461538 
107.634741152475 1:0.0528846153846154 2:0.0544871794871795 3:0.0528846153846154 4:0.0600961538461538 5:0.0536858974358974 
-107.634741152475 1:0.0544871794871795 2:0.0528846153846154 3:0.0600961538461538 4:0.0536858974358974 5:0.0536858974358974 
-107.634741152475 1:0.0528846153846154 2:0.0600961538461538 3:0.0536858974358974 4:0.0536858974358974 5:0.046474358974359 
-107.634741152475 1:0.0600961538461538 2:0.0536858974358974 3:0.0536858974358974 4:0.046474358974359 5:0.0408653846153846 
107.634741152475 1:0.0536858974358974 2:0.0536858974358974 3:0.046474358974359 4:0.0408653846153846 5:0.03125 
107.634741152475 1:0.0536858974358974 2:0.046474358974359 3:0.0408653846153846 4:0.03125 5:0.0344551282051282 
-107.634741152475 1:0.046474358974359 2:0.0408653846153846 3:0.03125 4:0.0344551282051282 5:0.0432692307692308 
0.186777824905991 1:0.0408653846153846 2:0.03125 3:0.0344551282051282 4:0.0432692307692308 5:0.0400641025641026 
-107.634741152475 1:0.03125 2:0.0344551282051282 3:0.0432692307692308 4:0.0400641025641026 5:0.0408653846153846 
107.634741152475 1:0.0344551282051282 2:0.0432692307692308 3:0.0400641025641026 4:0.0408653846153846 5:0.0344551282051282 
-107.634741152475 1:0.0400641025641026 2:0.0408653846153846 3:0.0344551282051282 4:0.0376602564102564 5:0.0408653846153846 
107.634741152475 1:0.0344551282051282 2:0.0376602564102564 3:0.0408653846153846 4:0.0344551282051282 5:0.030448717948718 
-107.634741152475 1:0.0408653846153846 2:0.0344551282051282 3:0.030448717948718 4:0.030448717948718 5:0.030448717948718 
107.634741152475 1:0.0344551282051282 2:0.030448717948718 3:0.030448717948718 4:0.030448717948718 5:0.0216346153846154 
107.634741152475 1:0.030448717948718 2:0.030448717948718 3:0.030448717948718 4:0.0216346153846154 5:0.0216346153846154 
-107.634741152475 1:0.030448717948718 2:0.030448717948718 3:0.0216346153846154 4:0.0216346153846154 5:0.0296474358974359 
107.634741152475 1:0.030448717948718 2:0.0216346153846154 3:0.0216346153846154 4:0.0296474358974359 5:0.0264423076923077 
-107.634741152475 1:0.0216346153846154 2:0.0296474358974359 3:0.0264423076923077 4:0.030448717948718 5:0.0328525641025641 
-107.634741152475 1:0.0296474358974359 2:0.0264423076923077 3:0.030448717948718 4:0.0328525641025641 5:0.0320512820512821 
107.634741152475 1:0.0264423076923077 2:0.030448717948718 3:0.0328525641025641 4:0.0320512820512821 5:0.0264423076923077 
107.634741152475 1:0.030448717948718 2:0.0328525641025641 3:0.0320512820512821 4:0.0264423076923077 5:0.0264423076923077 
-107.634741152475 1:0.0328525641025641 2:0.0320512820512821 3:0.0264423076923077 4:0.0264423076923077 5:0.0344551282051282 
107.634741152475 1:0.0320512820512821 2:0.0264423076923077 3:0.0264423076923077 4:0.0344551282051282 5:0.0344551282051282 
-107.634741152475 1:0.0264423076923077 2:0.0264423076923077 3:0.0344551282051282 4:0.0344551282051282 5:0.0384615384615385 
-107.634741152475 1:0.0264423076923077 2:0.0344551282051282 3:0.0344551282051282 4:0.0384615384615385 5:0.0376602564102564 
-107.634741152475 1:0.0344551282051282 2:0.0384615384615385 3:0.0376602564102564 4:0.0344551282051282 5:0.0336538461538462 
107.634741152475 1:0.0384615384615385 2:0.0376602564102564 3:0.0344551282051282 4:0.0336538461538462 5:0.0288461538461539 
107.634741152475 1:0.0376602564102564 2:0.0344551282051282 3:0.0336538461538462 4:0.0288461538461539 5:0.030448717948718 
-107.634741152475 1:0.0344551282051282 2:0.0336538461538462 3:0.0288461538461539 4:0.030448717948718 5:0.0392628205128205 
-107.634741152475 1:0.0336538461538462 2:0.0288461538461539 3:0.030448717948718 4:0.0392628205128205 5:0.0400641025641026 
107.634741152475 1:0.030448717948718 2:0.0392628205128205 3:0.0400641025641026 4:0.0328525641025641 5:0.030448717948718 
-107.634741152475 1:0.0392628205128205 2:0.0400641025641026 3:0.0328525641025641 4:0.030448717948718 5:0.0376602564102564 
-107.634741152475 1:0.030448717948718 2:0.0376602564102564 3:0.0360576923076923 4:0.0368589743589744 5:0.0384615384615385 
-107.634741152475 1:0.0376602564102564 2:0.0360576923076923 3:0.0368589743589744 4:0.0384615384615385 5:0.0384615384615385 
107.634741152475 1:0.0360576923076923 2:0.0368589743589744 3:0.0384615384615385 4:0.0384615384615385 5:0.0328525641025641 
-107.634741152475 1:0.0384615384615385 2:0.0384615384615385 3:0.0328525641025641 4:0.0416666666666667 5:0.0480769230769231 
107.634741152475 1:0.0384615384615385 2:0.0328525641025641 3:0.0416666666666667 4:0.0480769230769231 5:0.0488782051282051 
-107.634741152475 1:0.0328525641025641 2:0.0416666666666667 3:0.0480769230769231 4:0.0488782051282051 5:0.0544871794871795 
-107.634741152475 1:0.0416666666666667 2:0.0480769230769231 3:0.0488782051282051 4:0.0544871794871795 5:0.0440705128205128 
107.634741152475 1:0.0480769230769231 2:0.0488782051282051 3:0.0544871794871795 4:0.0440705128205128 5:0.0360576923076923 
107.634741152475 1:0.0488782051282051 2:0.0544871794871795 3:0.0440705128205128 4:0.0360576923076923 5:0.0448717948717949 
107.634741152475 1:0.0544871794871795 2:0.0440705128205128 3:0.0360576923076923 4:0.0448717948717949 5:0.0544871794871795 
107.634741152475 1:0.0440705128205128 2:0.0360576923076923 3:0.0448717948717949 4:0.0544871794871795 5:0.0649038461538462 
107.634741152475 1:0.0360576923076923 2:0.0448717948717949 3:0.0544871794871795 4:0.0649038461538462 5:0.0753205128205128 
-107.634741152475 1:0.0544871794871795 2:0.0649038461538462 3:0.0753205128205128 4:0.0865384615384616 5:0.0945512820512821 
-107.634741152475 1:0.0649038461538462 2:0.0753205128205128 3:0.0865384615384616 4:0.0945512820512821 5:0.0825320512820513 
15.4055029660898 1:0.0753205128205128 2:0.0865384615384616 3:0.0945512820512821 4:0.0825320512820513 5:0.0713141025641026 
-107.634741152475 1:0.0865384615384616 2:0.0945512820512821 3:0.0825320512820513 4:0.0713141025641026 5:0.0665064102564103 
-107.634741152475 1:0.0945512820512821 2:0.0825320512820513 3:0.0713141025641026 4:0.0665064102564103 5:0.0560897435897436 
107.634741152475 1:0.0825320512820513 2:0.0713141025641026 3:0.0665064102564103 4:0.0560897435897436 5:0.0456730769230769 
107.634741152475 1:0.0713141025641026 2:0.0665064102564103 3:0.0560897435897436 4:0.0456730769230769 5:0.0448717948717949 
107.634741152475 1:0.0560897435897436 2:0.0456730769230769 3:0.0448717948717949 4:0.046474358974359 5:0.047275641025641 
107.634741152475 1:0.0456730769230769 2:0.0448717948717949 3:0.046474358974359 4:0.047275641025641 5:0.0568910256410257 
-107.634741152475 1:0.0448717948717949 2:0.046474358974359 3:0.047275641025641 4:0.0568910256410257 5:0.0673076923076923 
107.634741152475 1:0.046474358974359 2:0.047275641025641 3:0.0568910256410257 4:0.0673076923076923 5:0.0568910256410257 
-107.634741152475 1:0.047275641025641 2:0.0568910256410257 3:0.0673076923076923 4:0.0568910256410257 5:0.0608974358974359 
107.634741152475 1:0.0568910256410257 2:0.0673076923076923 3:0.0568910256410257 4:0.0608974358974359 5:0.0552884615384616 
107.634741152475 1:0.0673076923076923 2:0.0568910256410257 3:0.0608974358974359 4:0.0552884615384616 5:0.0584935897435898 
-107.634741152475 1:0.0568910256410257 2:0.0608974358974359 3:0.0552884615384616 4:0.0584935897435898 5:0.0625 
-107.634741152475 1:0.0608974358974359 2:0.0552884615384616 3:0.0584935897435898 4:0.0625 5:0.0625 
107.634741152475 1:0.0552884615384616 2:0.0584935897435898 3:0.0625 4:0.0625 5:0.0584935897435898 
107.634741152475 1:0.0625 2:0.0625 3:0.0584935897435898 4:0.0689102564102564 5:0.0761217948717949 
107.634741152475 1:0.0625 2:0.0584935897435898 3:0.0689102564102564 4:0.0761217948717949 5:0.0873397435897436 
107.634741152475 1:0.0584935897435898 2:0.0689102564102564 3:0.0761217948717949 4:0.0873397435897436 5:0.0993589743589744 
-107.634741152475 1:0.0689102564102564 2:0.0761217948717949 3:0.0873397435897436 4:0.0993589743589744 5:0.111378205128205 
107.634741152475 1:0.0761217948717949 2:0.0873397435897436 3:0.0993589743589744 4:0.111378205128205 5:0.0985576923076923 
-107.634741152475 1:0.0873397435897436 2:0.0993589743589744 3:0.111378205128205 4:0.0985576923076923 5:0.107371794871795 
-107.634741152475 1:0.0993589743589744 2:0.111378205128205 3:0.0985576923076923 4:0.107371794871795 5:0.0977564102564103 
-107.634741152475 1:0.111378205128205 2:0.0985576923076923 3:0.107371794871795 4:0.0977564102564103 5:0.0905448717948718 
107.634741152475 1:0.0985576923076923 2:0.107371794871795 3:0.0977564102564103 4:0.0905448717948718 5:0.0809294871794872 
107.634741152475 1:0.107371794871795 2:0.0977564102564103 3:0.0905448717948718 4:0.0809294871794872 5:0.0825320512820513 
107.634741152475 1:0.0977564102564103 2:0.0905448717948718 3:0.0809294871794872 4:0.0825320512820513 5:0.09375 
107.634741152475 1:0.0905448717948718 2:0.0809294871794872 3:0.0825320512820513 4:0.09375 5:0.105769230769231 
107.634741152475 1:0.0809294871794872 2:0.0825320512820513 3:0.09375 4:0.105769230769231 5:0.118589743589744 
107.634741152475 1:0.0825320512820513 2:0.09375 3:0.105769230769231 4:0.118589743589744 5:0.132211538461538 
107.634741152475 1:0.09375 2:0.105769230769231 3:0.118589743589744 4:0.132211538461538 5:0.145833333333333 
-107.634741152475 1:0.118589743589744 2:0.132211538461538 3:0.145833333333333 4:0.16025641025641 5:0.170673076923077 
107.634741152475 1:0.132211538461538 2:0.145833333333333 3:0.16025641025641 4:0.170673076923077 5:0.154647435897436 
-107.634741152475 1:0.145833333333333 2:0.16025641025641 3:0.170673076923077 4:0.154647435897436 5:0.167467948717949 
-107.634741152475 1:0.16025641025641 2:0.170673076923077 3:0.154647435897436 4:0.167467948717949 5:0.154647435897436 
-107.634741152475 1:0.170673076923077 2:0.154647435897436 3:0.167467948717949 4:0.154647435897436 5:0.139423076923077 
-107.634741152475 1:0.154647435897436 2:0.167467948717949 3:0.154647435897436 4:0.139423076923077 5:0.125 
107.634741152475 1:0.167467948717949 2:0.154647435897436 3:0.139423076923077 4:0.125 5:0.111378205128205 
107.634741152475 1:0.154647435897436 2:0.139423076923077 3:0.125 4:0.111378205128205 5:0.124198717948718 
-107.634741152475 1:0.139423076923077 2:0.125 3:0.111378205128205 4:0.124198717948718 5:0.137820512820513 
-107.634741152475 1:0.125 2:0.111378205128205 3:0.124198717948718 4:0.137820512820513 5:0.126602564102564 
107.634741152475 1:0.111378205128205 2:0.124198717948718 3:0.137820512820513 4:0.126602564102564 5:0.112980769230769 
-107.634741152475 1:0.124198717948718 2:0.137820512820513 3:0.126602564102564 4:0.112980769230769 5:0.125 
-107.634741152475 1:0.126602564102564 2:0.112980769230769 3:0.125 4:0.118589743589744 5:0.116185897435897 
-107.634741152475 1:0.112980769230769 2:0.125 3:0.118589743589744 4:0.116185897435897 5:0.109775641025641 
-107.634741152475 1:0.125 2:0.118589743589744 3:0.116185897435897 4:0.109775641025641 5:0.0969551282051282 
107.634741152475 1:0.118589743589744 2:0.116185897435897 3:0.109775641025641 4:0.0969551282051282 5:0.0849358974358975 
107.634741152475 1:0.116185897435897 2:0.109775641025641 3:0.0969551282051282 4:0.0849358974358975 5:0.0833333333333334 
107.634741152475 1:0.109775641025641 2:0.0969551282051282 3:0.0849358974358975 4:0.0833333333333334 5:0.0921474358974359 
-107.634741152475 1:0.0969551282051282 2:0.0849358974358975 3:0.0833333333333334 4:0.0921474358974359 5:0.104166666666667 
-107.634741152475 1:0.0849358974358975 2:0.0833333333333334 3:0.0921474358974359 4:0.104166666666667 5:0.0945512820512821 
107.634741152475 1:0.0833333333333334 2:0.0921474358974359 3:0.104166666666667 4:0.0945512820512821 5:0.0865384615384616 
107.634741152475 1:0.0921474358974359 2:0.104166666666667 3:0.0945512820512821 4:0.0865384615384616 5:0.0985576923076923 
107.634741152475 1:0.104166666666667 2:0.0945512820512821 3:0.0865384615384616 4:0.0985576923076923 5:0.110576923076923 
-107.634741152475 1:0.0945512820512821 2:0.0865384615384616 3:0.0985576923076923 4:0.110576923076923 5:0.123397435897436 
107.634741152475 1:0.0865384615384616 2:0.0985576923076923 3:0.110576923076923 4:0.123397435897436 5:0.110576923076923 
107.634741152475 1:0.0985576923076923 2:0.110576923076923 3:0.123397435897436 4:0.110576923076923 5:0.116185897435897 
107.634741152475 1:0.110576923076923 2:0.123397435897436 3:0.110576923076923 4:0.116185897435897 5:0.12900641025641 
-107.634741152475 1:0.110576923076923 2:0.116185897435897 3:0.12900641025641 4:0.142628205128205 5:0.150641025641026 
-107.634741152475 1:0.116185897435897 2:0.12900641025641 3:0.142628205128205 4:0.150641025641026 5:0.153044871794872 
107.634741152475 1:0.12900641025641 2:0.142628205128205 3:0.150641025641026 4:0.153044871794872 5:0.146634615384615 
107.634741152475 1:0.142628205128205 2:0.150641025641026 3:0.153044871794872 4:0.146634615384615 5:0.161057692307692 
107.634741152475 1:0.150641025641026 2:0.153044871794872 3:0.146634615384615 4:0.161057692307692 5:0.176282051282051 
107.634741152475 1:0.153044871794872 2:0.146634615384615 3:0.161057692307692 4:0.176282051282051 5:0.192307692307692 
107.634741152475 1:0.146634615384615 2:0.161057692307692 3:0.176282051282051 4:0.192307692307692 5:0.209134615384615 
107.634741152475 1:0.161057692307692 2:0.176282051282051 3:0.192307692307692 4:0.209134615384615 5:0.226762820512821 
107.634741152475 1:0.176282051282051 2:0.192307692307692 3:0.209134615384615 4:0.226762820512821 5:0.245192307692308 
-107.634741152475 1:0.192307692307692 2:0.209134615384615 3:0.226762820512821 4:0.245192307692308 5:0.262820512820513 
-107.634741152475 1:0.209134615384615 2:0.226762820512821 3:0.245192307692308 4:0.262820512820513 5:0.262820512820513 
107.634741152475 1:0.226762820512821 2:0.245192307692308 3:0.262820512820513 4:0.262820512820513 5:0.254807692307692 
107.634741152475 1:0.245192307692308 2:0.262820512820513 3:0.262820512820513 4:0.254807692307692 5:0.274839743589744 
107.634741152475 1:0.262820512820513 2:0.262820512820513 3:0.254807692307692 4:0.274839743589744 5:0.294871794871795 
107.634741152475 1:0.262820512820513 2:0.254807692307692 3:0.274839743589744 4:0.294871794871795 5:0.314903846153846 
107.634741152475 1:0.254807692307692 2:0.274839743589744 3:0.294871794871795 4:0.314903846153846 5:0.334935897435897 
107.634741152475 1:0.274839743589744 2:0.294871794871795 3:0.314903846153846 4:0.334935897435897 5:0.358974358974359 
-107.634741152475 1:0.294871794871795 2:0.314903846153846 3:0.334935897435897 4:0.358974358974359 5:0.38301282051282 
-107.634741152475 1:0.314903846153846 2:0.334935897435897 3:0.358974358974359 4:0.38301282051282 5:0.399038461538462 
107.634741152475 1:0.334935897435897 2:0.358974358974359 3:0.38301282051282 4:0.399038461538462 5:0.375 
107.634741152475 1:0.358974358974359 2:0.38301282051282 3:0.399038461538462 4:0.375 5:0.391025641025641 
107.634741152475 1:0.38301282051282 2:0.399038461538462 3:0.375 4:0.391025641025641 5:0.415064102564103 
-107.634741152475 1:0.399038461538462 2:0.375 3:0.391025641025641 4:0.415064102564103 5:0.443108974358974 
-107.634741152475 1:0.375 2:0.391025641025641 3:0.415064102564103 4:0.443108974358974 5:0.455128205128205 
-107.634741152475 1:0.391025641025641 2:0.415064102564103 3:0.443108974358974 4:0.455128205128205 5:0.431089743589744 
107.634741152475 1:0.415064102564103 2:0.443108974358974 3:0.455128205128205 4:0.431089743589744 5:0.407051282051282 
107.634741152475 1:0.443108974358974 2:0.455128205128205 3:0.431089743589744 4:0.407051282051282 5:0.415064102564103 
-107.634741152475 1:0.431089743589744 2:0.407051282051282 3:0.415064102564103 4:0.423076923076923 5:0.427083333333333 
107.634741152475 1:0.407051282051282 2:0.415064102564103 3:0.423076923076923 4:0.427083333333333 5:0.415064102564103 
-107.634741152475 1:0.415064102564103 2:0.423076923076923 3:0.427083333333333 4:0.415064102564103 5:0.415064102564103 
107.634741152475 1:0.423076923076923 2:0.427083333333333 3:0.415064102564103 4:0.415064102564103 5:0.399038461538462 
-107.634741152475 1:0.427083333333333 2:0.415064102564103 3:0.415064102564103 4:0.399038461538462 5:0.399038461538462 
107.634741152475 1:0.415064102564103 2:0.415064102564103 3:0.399038461538462 4:0.399038461538462 5:0.395032051282051 
107.634741152475 1:0.415064102564103 2:0.399038461538462 3:0.399038461538462 4:0.395032051282051 5:0.415064102564103 
107.634741152475 1:0.399038461538462 2:0.399038461538462 3:0.395032051282051 4:0.415064102564103 5:0.443108974358974 
107.634741152475 1:0.399038461538462 2:0.395032051282051 3:0.415064102564103 4:0.443108974358974 5:0.471153846153846 
107.634741152475 1:0.395032051282051 2:0.415064102564103 3:0.443108974358974 4:0.471153846153846 5:0.499198717948718 
-107.634741152475 1:0.415064102564103 2:0.443108974358974 3:0.471153846153846 4:0.499198717948718 5:0.52724358974359 
-107.634741152475 1:0.443108974358974 2:0.471153846153846 3:0.499198717948718 4:0.52724358974359 5:0.519230769230769 
-107.634741152475 1:0.471153846153846 2:0.499198717948718 3:0.52724358974359 4:0.519230769230769 5:0.507211538461538 
107.634741152475 1:0.499198717948718 2:0.52724358974359 3:0.519230769230769 4:0.507211538461538 5:0.475160256410256 
107.634741152475 1:0.52724358974359 2:0.519230769230769 3:0.507211538461538 4:0.475160256410256 5:0.503205128205128 
107.634741152475 1:0.519230769230769 2:0.507211538461538 3:0.475160256410256 4:0.503205128205128 5:0.53525641025641 
107.634741152475 1:0.507211538461538 2:0.475160256410256 3:0.503205128205128 4:0.53525641025641 5:0.559294871794872 
107.634741152475 1:0.475160256410256 2:0.503205128205128 3:0.53525641025641 4:0.559294871794872 5:0.591346153846154 
107.634741152475 1:0.503205128205128 2:0.53525641025641 3:0.559294871794872 4:0.591346153846154 5:0.627403846153846 
-107.634741152475 1:0.53525641025641 2:0.559294871794872 3:0.591346153846154 4:0.627403846153846 5:0.663461538461538 
-29.9576711788318 1:0.559294871794872 2:0.591346153846154 3:0.627403846153846 4:0.663461538461538 5:0.67948717948718 
-107.634741152475 1:0.591346153846154 2:0.627403846153846 3:0.663461538461538 4:0.67948717948718 5:0.6875 
-107.634741152475 1:0.627403846153846 2:0.663461538461538 3:0.67948717948718 4:0.6875 5:0.67948717948718 
107.634741152475 1:0.663461538461538 2:0.67948717948718 3:0.6875 4:0.67948717948718 5:0.647435897435897 
107.634741152475 1:0.67948717948718 2:0.6875 3:0.67948717948718 4:0.647435897435897 5:0.6875 
107.634741152475 1:0.6875 2:0.67948717948718 3:0.647435897435897 4:0.6875 5:0.727564102564103 
107.634741152475 1:0.67948717948718 2:0.647435897435897 3:0.6875 4:0.727564102564103 5:0.767628205128205 
-107.634741152475 1:0.647435897435897 2:0.6875 3:0.727564102564103 4:0.767628205128205 5:0.799679487179487 
107.634741152475 1:0.6875 2:0.727564102564103 3:0.767628205128205 4:0.799679487179487 5:0.791666666666667 
107.634741152475 1:0.727564102564103 2:0.767628205128205 3:0.799679487179487 4:0.791666666666667 5:0.831730769230769 
107.634741152475 1:0.767628205128205 2:0.799679487179487 3:0.791666666666667 4:0.831730769230769 5:0.879807692307692 
107.634741152475 1:0.799679487179487 2:0.791666666666667 3:0.831730769230769 4:0.879807692307692 5:0.927884615384615 
107.634741152475 1:0.791666666666667 2:0.831730769230769 3:0.879807692307692 4:0.927884615384615 5:0.975961538461538 
-107.634741152475 1:0.831730769230769 2:0.879807692307692 3:0.927884615384615 4:0.975961538461538 5:1 
-107.634741152475 1:0.879807692307692 2:0.927884615384615 3:0.975961538461538 4:1 5:0.967948717948718 
107.634741152475 1:0.927884615384615 2:0.975961538461538 3:1 4:0.967948717948718 5:0.911858974358974 
107.634741152475 1:0.975961538461538 2:1 3:0.967948717948718 4:0.911858974358974 5:0.903846153846154 
107.634741152475 1:1 2:0.967948717948718 3:0.911858974358974 4:0.903846153846154 5:0.887820512820513 
107.634741152475 1:0.967948717948718 2:0.911858974358974 3:0.903846153846154 4:0.887820512820513 5:0.935897435897436 
-107.634741152475 1:0.911858974358974 2:0.903846153846154 3:0.887820512820513 4:0.935897435897436 5:0.967948717948718 
-107.634741152475 1:0.903846153846154 2:0.887820512820513 3:0.935897435897436 4:0.967948717948718 5:0.919871794871795 
-107.634741152475 1:0.887820512820513 2:0.935897435897436 3:0.967948717948718 4:0.919871794871795 5:0.871794871794872 
107.634741152475 1:0.935897435897436 2:0.967948717948718 3:0.919871794871795 4:0.871794871794872 5:0.823717948717949 
107.634741152475 1:0.967948717948718 2:0.919871794871795 3:0.871794871794872 4:0.823717948717949 5:0.807692307692308 
-107.634741152475 1:0.871794871794872 2:0.823717948717949 3:0.807692307692308 4:0.855769230769231 5:0.871794871794872 
-107.634741152475 1:0.823717948717949 2:0.807692307692308 3:0.855769230769231 4:0.871794871794872 5:0.855769230769231 
-107.634741152475 1:0.807692307692308 2:0.855769230769231 3:0.871794871794872 4:0.855769230769231 5:0.807692307692308 
107.634741152475 1:0.871794871794872 2:0.855769230769231 3:0.807692307692308 4:0.759615384615385 5:0.719551282051282 
-107.634741152475 1:0.855769230769231 2:0.807692307692308 3:0.759615384615385 4:0.719551282051282 5:0.69551282051282 
-107.634741152475 1:0.807692307692308 2:0.759615384615385 3:0.719551282051282 4:0.69551282051282 5:0.655448717948718 
-107.634741152475 1:0.759615384615385 2:0.719551282051282 3:0.69551282051282 4:0.655448717948718 5:0.615384615384615 
107.634741152475 1:0.719551282051282 2:0.69551282051282 3:0.655448717948718 4:0.615384615384615 5:0.579326923076923 
107.634741152475 1:0.69551282051282 2:0.655448717948718 3:0.615384615384615 4:0.579326923076923 5:0.587339743589744 
107.634741152475 1:0.655448717948718 2:0.615384615384615 3:0.579326923076923 4:0.587339743589744 5:0.623397435897436 
107.634741152475 1:0.615384615384615 2:0.579326923076923 3:0.587339743589744 4:0.623397435897436 5:0.655448717948718 
-107.634741152475 1:0.579326923076923 2:0.587339743589744 3:0.623397435897436 4:0.655448717948718 5:0.69551282051282 
-107.634741152475 1:0.587339743589744 2:0.623397435897436 3:0.655448717948718 4:0.69551282051282 5:0.69551282051282 
107.634741152475 1:0.623397435897436 2:0.655448717948718 3:0.69551282051282 4:0.69551282051282 5:0.6875 
-107.634741152475 1:0.655448717948718 2:0.69551282051282 3:0.69551282051282 4:0.6875 5:0.69551282051282 
-107.634741152475 1:0.69551282051282 2:0.69551282051282 3:0.6875 4:0.69551282051282 5:0.671474358974359 
-107.634741152475 1:0.69551282051282 2:0.6875 3:0.69551282051282 4:0.671474358974359 5:0.631410256410256 
-107.634741152475 1:0.6875 2:0.69551282051282 3:0.671474358974359 4:0.631410256410256 5:0.595352564102564 
-107.634741152475 1:0.69551282051282 2:0.671474358974359 3:0.631410256410256 4:0.595352564102564 5:0.559294871794872 
-107.634741152475 1:0.671474358974359 2:0.631410256410256 3:0.595352564102564 4:0.559294871794872 5:0.52724358974359 
-107.634741152475 1:0.631410256410256 2:0.595352564102564 3:0.559294871794872 4:0.52724358974359 5:0.495192307692308 
107.634741152475 1:0.595352564102564 2:0.559294871794872 3:0.52724358974359 4:0.495192307692308 5:0.463141025641026 
107.634741152475 1:0.559294871794872 2:0.52724358974359 3:0.495192307692308 4:0.463141025641026 5:0.491185897435897 
-107.634741152475 1:0.52724358974359 2:0.495192307692308 3:0.463141025641026 4:0.491185897435897 5:0.511217948717949 
-107.634741152475 1:0.495192307692308 2:0.463141025641026 3:0.491185897435897 4:0.511217948717949 5:0.511217948717949 
107.634741152475 1:0.463141025641026 2:0.491185897435897 3:0.511217948717949 4:0.511217948717949 5:0.491185897435897 
-107.634741152475 1:0.491185897435897 2:0.511217948717949 3:0.511217948717949 4:0.491185897435897 5:0.491185897435897 
-107.634741152475 1:0.511217948717949 2:0.511217948717949 3:0.491185897435897 4:0.491185897435897 5:0.467147435897436 
-107.634741152475 1:0.511217948717949 2:0.491185897435897 3:0.491185897435897 4:0.467147435897436 5:0.439102564102564 
-107.634741152475 1:0.491185897435897 2:0.491185897435897 3:0.467147435897436 4:0.439102564102564 5:0.411057692307692 
107.634741152475 1:0.491185897435897 2:0.467147435897436 3:0.439102564102564 4:0.411057692307692 5:0.38301282051282 
-107.634741152475 1:0.467147435897436 2:0.439102564102564 3:0.411057692307692 4:0.38301282051282 5:0.38301282051282 
-107.634741152475 1:0.439102564102564 2:0.411057692307692 3:0.38301282051282 4:0.38301282051282 5:0.358974358974359 
-107.634741152475 1:0.411057692307692 2:0.38301282051282 3:0.38301282051282 4:0.358974358974359 5:0.334935897435897 
107.634741152475 1:0.38301282051282 2:0.38301282051282 3:0.358974358974359 4:0.334935897435897 5:0.310897435897436 
107.634741152475 1:0.38301282051282 2:0.358974358974359 3:0.334935897435897 4:0.310897435897436 5:0.330929487179487 
107.634741152475 1:0.358974358974359 2:0.334935897435897 3:0.310897435897436 4:0.330929487179487 5:0.354967948717949 
-107.634741152475 1:0.334935897435897 2:0.310897435897436 3:0.330929487179487 4:0.354967948717949 5:0.37900641025641 
-107.634741152475 1:0.310897435897436 2:0.330929487179487 3:0.354967948717949 4:0.37900641025641 5:0.387019230769231 
107.634741152475 1:0.330929487179487 2:0.354967948717949 3:0.37900641025641 4:0.387019230769231 5:0.391025641025641 
107.634741152475 1:0.354967948717949 2:0.37900641025641 3:0.387019230769231 4:0.391025641025641 5:0.415064102564103 
107.634741152475 1:0.37900641025641 2:0.387019230769231 3:0.391025641025641 4:0.415064102564103 5:0.443108974358974 
-107.634741152475 1:0.387019230769231 2:0.391025641025641 3:0.415064102564103 4:0.443108974358974 5:0.471153846153846 
107.634741152475 1:0.391025641025641 2:0.415064102564103 3:0.443108974358974 4:0.471153846153846 5:0.479166666666667 
107.634741152475 1:0.415064102564103 2:0.443108974358974 3:0.471153846153846 4:0.479166666666667 5:0.507211538461538 
107.634741152475 1:0.443108974358974 2:0.471153846153846 3:0.479166666666667 4:0.507211538461538 5:0.53926282051282 
107.634741152475 1:0.471153846153846 2:0.479166666666667 3:0.507211538461538 4:0.53926282051282 5:0.571314102564103 
107.634741152475 1:0.479166666666667 2:0.507211538461538 3:0.53926282051282 4:0.571314102564103 5:0.607371794871795 
-107.634741152475 1:0.507211538461538 2:0.53926282051282 3:0.571314102564103 4:0.607371794871795 5:0.639423076923077 
-107.634741152475 1:0.53926282051282 2:0.571314102564103 3:0.607371794871795 4:0.639423076923077 5:0.603365384615385 
107.634741152475 1:0.571314102564103 2:0.607371794871795 3:0.639423076923077 4:0.603365384615385 5:0.575320512820513 
107.634741152475 1:0.607371794871795 2:0.639423076923077 3:0.603365384615385 4:0.575320512820513 5:0.599358974358974 
107.634741152475 1:0.639423076923077 2:0.603365384615385 3:0.575320512820513 4:0.599358974358974 5:0.635416666666667 
-107.634741152475 1:0.603365384615385 2:0.575320512820513 3:0.599358974358974 4:0.635416666666667 5:0.671474358974359 
-107.634741152475 1:0.575320512820513 2:0.599358974358974 3:0.635416666666667 4:0.671474358974359 5:0.655448717948718 
107.634741152475 1:0.599358974358974 2:0.635416666666667 3:0.671474358974359 4:0.655448717948718 5:0.615384615384615 
-107.634741152475 1:0.635416666666667 2:0.671474358974359 3:0.655448717948718 4:0.615384615384615 5:0.591346153846154 
-107.634741152475 1:0.671474358974359 2:0.655448717948718 3:0.615384615384615 4:0.591346153846154 5:0.559294871794872 
-107.634741152475 1:0.655448717948718 2:0.615384615384615 3:0.591346153846154 4:0.559294871794872 5:0.52724358974359 
107.634741152475 1:0.615384615384615 2:0.591346153846154 3:0.559294871794872 4:0.52724358974359 5:0.495192307692308 
107.634741152475 1:0.591346153846154 2:0.559294871794872 3:0.52724358974359 4:0.495192307692308 5:0.52724358974359 
107.634741152475 1:0.559294871794872 2:0.52724358974359 3:0.495192307692308 4:0.52724358974359 5:0.559294871794872 
-107.634741152475 1:0.52724358974359 2:0.495192307692308 3:0.52724358974359 4:0.559294871794872 5:0.583333333333333 
107.634741152475 1:0.495192307692308 2:0.52724358974359 3:0.559294871794872 4:0.583333333333333 5:0.551282051282051 
107.634741152475 1:0.52724358974359 2:0.559294871794872 3:0.583333333333333 4:0.551282051282051 5:0.563301282051282 
-107.634741152475 1:0.559294871794872 2:0.583333333333333 3:0.551282051282051 4:0.563301282051282 5:0.575320512820513 
107.634741152475 1:0.583333333333333 2:0.551282051282051 3:0.563301282051282 4:0.575320512820513 5:0.555288461538462 
107.634741152475 1:0.551282051282051 2:0.563301282051282 3:0.575320512820513 4:0.555288461538462 5:0.587339743589744 
-107.634741152475 1:0.563301282051282 2:0.575320512820513 3:0.555288461538462 4:0.587339743589744 5:0.623397435897436 
107.634741152475 1:0.575320512820513 2:0.555288461538462 3:0.587339743589744 4:0.623397435897436 5:0.627403846153846 
-107.634741152475 1:0.555288461538462 2:0.587339743589744 3:0.623397435897436 4:0.627403846153846 5:0.631410256410256 
107.634741152475 1:0.587339743589744 2:0.623397435897436 3:0.627403846153846 4:0.631410256410256 5:0.607371794871795 
107.634741152475 1:0.623397435897436 2:0.627403846153846 3:0.631410256410256 4:0.607371794871795 5:0.619391025641026 
-107.634741152475 1:0.627403846153846 2:0.631410256410256 3:0.607371794871795 4:0.619391025641026 5:0.639423076923077 
-107.634741152475 1:0.631410256410256 2:0.607371794871795 3:0.619391025641026 4:0.639423076923077 5:0.639423076923077 
-107.634741152475 1:0.607371794871795 2:0.619391025641026 3:0.639423076923077 4:0.639423076923077 5:0.627403846153846 
107.634741152475 1:0.619391025641026 2:0.639423076923077 3:0.639423076923077 4:0.627403846153846 5:0.591346153846154 
-107.634741152475 1:0.639423076923077 2:0.639423076923077 3:0.627403846153846 4:0.591346153846154 5:0.583333333333333 
-107.634741152475 1:0.639423076923077 2:0.627403846153846 3:0.591346153846154 4:0.583333333333333 5:0.571314102564103 
107.634741152475 1:0.627403846153846 2:0.591346153846154 3:0.583333333333333 4:0.571314102564103 5:0.246794871794872 
107.634741152475 1:0.591346153846154 2:0.583333333333333 3:0.571314102564103 4:0.246794871794872 5:0.266826923076923 
55.5210262546418 1:0.583333333333333 2:0.571314102564103 3:0.246794871794872 4:0.266826923076923 5:0.286858974358974 
