svm_type epsilon_svr
kernel_type rbf
gamma 19.0273138400435
nr_class 2
total_sv 300
rho 0.410279814689199
SV
0.413905633204695 1:-0.116541353383459 2:-0.0714285714285714 3:-0.093984962406015 4:-0.0037593984962406 5:0.0902255639097744 
-1.44436455523567 1:-0.109022556390977 2:-0.0676691729323308 3:-0.0902255639097744 4:0.0864661654135338 5:0.093984962406015 
-3.40812903363306 1:-0.0714285714285714 2:-0.093984962406015 3:-0.0037593984962406 4:0.0902255639097744 5:0.0977443609022556 
0.276674533825687 1:0.0864661654135338 2:0.093984962406015 3:0.0488721804511278 4:-0.0714285714285714 5:0.037593984962406 
-2.36809705189525 1:0.0977443609022556 2:-0.0338345864661654 3:-0.037593984962406 4:0.037593984962406 5:-0.037593984962406 
-4.52949547146101 1:0.0488721804511278 2:-0.0714285714285714 3:0.037593984962406 4:-0.037593984962406 5:0 
4.75682846001088 1:0.037593984962406 2:-0.037593984962406 3:0 4:-0.018796992481203 5:-0.037593984962406 
3.70855541916891 1:-0.037593984962406 2:0 3:-0.018796992481203 4:-0.037593984962406 5:0.0488721804511278 
4.75682846001088 1:0 2:-0.018796992481203 3:-0.0488721804511278 4:0.0601503759398496 5:-0.0112781954887218 
4.75682846001088 1:0 2:-0.018796992481203 3:-0.037593984962406 4:0.0488721804511278 5:-0.0037593984962406 
-4.75682846001088 1:-0.018796992481203 2:0.0526315789473684 3:0.0225563909774436 4:0 5:-0.018796992481203 
-4.75682846001088 1:0.0526315789473684 2:0.0225563909774436 3:0 4:-0.018796992481203 5:0 
-4.75682846001088 1:0.0488721804511278 2:0.0225563909774436 3:-0.0112781954887218 4:-0.0263157894736842 5:0.018796992481203 
-4.75682846001088 1:0.0225563909774436 2:0 3:-0.018796992481203 4:0 5:0.037593984962406 
-4.75682846001088 1:-0.0112781954887218 2:-0.0263157894736842 3:0.018796992481203 4:0.037593984962406 5:-0.037593984962406 
-4.75682846001088 1:-0.018796992481203 2:0 3:0.037593984962406 4:-0.037593984962406 5:-0.0075187969924812 
-4.75682846001088 1:-0.0263157894736842 2:0.018796992481203 3:0.037593984962406 4:-0.037593984962406 5:-0.037593984962406 
1.90910762693843 1:0.037593984962406 2:-0.037593984962406 3:-0.0075187969924812 4:-0.0639097744360902 5:-0.0413533834586466 
-4.75682846001088 1:-0.037593984962406 2:-0.037593984962406 3:-0.037593984962406 4:0.0075187969924812 5:0.0676691729323308 
0.792017321558129 1:-0.0413533834586466 2:0.093984962406015 3:-0.018796992481203 4:-0.0601503759398496 5:-0.0075187969924812 
-4.75682846001088 1:-0.0075187969924812 2:0.0413533834586466 3:-0.0112781954887218 4:-0.0075187969924812 5:0 
-4.75682846001088 1:0.018796992481203 2:0.0150375939849624 3:-0.0112781954887218 4:-0.0037593984962406 5:0.0075187969924812 
-4.75682846001088 1:0.0413533834586466 2:-0.0112781954887218 3:-0.0075187969924812 4:0 5:0.0451127819548872 
-4.75682846001088 1:0.0150375939849624 2:-0.0112781954887218 3:-0.0037593984962406 4:0.0075187969924812 5:0.0338345864661654 
-4.75682846001088 1:-0.0112781954887218 2:-0.0075187969924812 3:0 4:0.0451127819548872 5:-0.0338345864661654 
-4.75682846001088 1:-0.0112781954887218 2:-0.0037593984962406 3:0.0075187969924812 4:0.0338345864661654 5:-0.0413533834586466 
4.75682846001088 1:0 2:0.0451127819548872 3:-0.0338345864661654 4:-0.0225563909774436 5:0 
4.75682846001088 1:0.0075187969924812 2:0.0338345864661654 3:-0.0413533834586466 4:-0.0150375939849624 5:-0.0225563909774436 
4.75682846001088 1:0.0451127819548872 2:-0.0338345864661654 3:-0.0225563909774436 4:0 5:-0.056390977443609 
4.75682846001088 1:0.0338345864661654 2:-0.0413533834586466 3:-0.0150375939849624 4:-0.0225563909774436 5:-0.0676691729323308 
4.75682846001088 1:-0.0338345864661654 2:-0.0225563909774436 3:0 4:-0.056390977443609 5:-0.018796992481203 
4.75682846001088 1:-0.0413533834586466 2:-0.0150375939849624 3:-0.0225563909774436 4:-0.0676691729323308 5:0.0150375939849624 
4.75682846001088 1:-0.0225563909774436 2:0 3:-0.056390977443609 4:-0.018796992481203 5:0.037593984962406 
4.75682846001088 1:-0.0150375939849624 2:-0.0225563909774436 3:-0.0676691729323308 4:0.0150375939849624 5:0.037593984962406 
4.75682846001088 1:0 2:-0.056390977443609 3:-0.018796992481203 4:0.037593984962406 5:0.0451127819548872 
4.75682846001088 1:-0.0225563909774436 2:-0.0676691729323308 3:0.0150375939849624 4:0.037593984962406 5:0.0902255639097744 
4.75682846001088 1:-0.056390977443609 2:-0.018796992481203 3:0.037593984962406 4:0.0451127819548872 5:0.0676691729323308 
4.23942252412921 1:-0.0676691729323308 2:0.0150375939849624 3:0.037593984962406 4:0.0902255639097744 5:0.0037593984962406 
4.75682846001088 1:-0.018796992481203 2:0.037593984962406 3:0.0451127819548872 4:0.0676691729323308 5:0 
4.75682846001088 1:0.037593984962406 2:0.0451127819548872 3:0.0676691729323308 4:0 5:0.0037593984962406 
4.75682846001088 1:0.037593984962406 2:0.0902255639097744 3:0.0037593984962406 4:0.0338345864661654 5:-0.0338345864661654 
4.75682846001088 1:0.0451127819548872 2:0.0676691729323308 3:0 4:0.0037593984962406 5:-0.0225563909774436 
4.75682846001088 1:0.0902255639097744 2:0.0037593984962406 3:0.0338345864661654 4:-0.0338345864661654 5:0.018796992481203 
4.75682846001088 1:0.0676691729323308 2:0 3:0.0037593984962406 4:-0.0225563909774436 5:0.0451127819548872 
4.75682846001088 1:0.0037593984962406 2:0.0338345864661654 3:-0.0338345864661654 4:0.018796992481203 5:0.0789473684210526 
4.75682846001088 1:0 2:0.0037593984962406 3:-0.0225563909774436 4:0.0451127819548872 5:0.105263157894737 
-4.75682846001088 1:0.0037593984962406 2:-0.0225563909774436 3:0.0451127819548872 4:0.105263157894737 5:-0.0451127819548872 
-4.75682846001088 1:-0.0225563909774436 2:0.0451127819548872 3:0.105263157894737 4:-0.0451127819548872 5:0.0338345864661654 
-4.75682846001088 1:0.0451127819548872 2:0.105263157894737 3:-0.0451127819548872 4:0.0338345864661654 5:0.0112781954887218 
1.40096692906583 1:0.105263157894737 2:-0.0451127819548872 3:0.0338345864661654 4:0.0112781954887218 5:0.0864661654135338 
4.75682846001088 1:0.0150375939849624 2:0.0225563909774436 3:-0.0037593984962406 4:0.056390977443609 5:0.075187969924812 
4.75682846001088 1:-0.0451127819548872 2:0.0338345864661654 3:0.0112781954887218 4:0.0864661654135338 5:-0.0300751879699248 
4.75682846001088 1:0.0225563909774436 2:-0.0037593984962406 3:0.056390977443609 4:0.075187969924812 5:-0.0827067669172932 
4.75682846001088 1:0.0338345864661654 2:0.0112781954887218 3:0.0864661654135338 4:-0.0300751879699248 5:-0.0263157894736842 
4.75682846001088 1:-0.0037593984962406 2:0.056390977443609 3:0.075187969924812 4:-0.0827067669172932 5:0 
4.75682846001088 1:0.0112781954887218 2:0.0864661654135338 3:-0.0300751879699248 4:-0.0263157894736842 5:0 
4.75682846001088 1:0.056390977443609 2:0.075187969924812 3:-0.0827067669172932 4:0 5:0.0075187969924812 
4.75682846001088 1:0.0864661654135338 2:-0.0300751879699248 3:-0.0263157894736842 4:0 5:0.0639097744360902 
4.75682846001088 1:0.075187969924812 2:-0.0827067669172932 3:0 4:0.0075187969924812 5:0.116541353383459 
4.75682846001088 1:-0.0300751879699248 2:-0.0263157894736842 3:0 4:0.0639097744360902 5:0.12406015037594 
4.75682846001088 1:-0.0827067669172932 2:0 3:0.0075187969924812 4:0.116541353383459 5:0.131578947368421 
4.75682846001088 1:-0.0263157894736842 2:0 3:0.0639097744360902 4:0.12406015037594 5:0.0451127819548872 
4.75682846001088 1:0 2:0.0075187969924812 3:0.116541353383459 4:0.131578947368421 5:-0.093984962406015 
4.75682846001088 1:0 2:0.0639097744360902 3:0.12406015037594 4:0.0451127819548872 5:-0.0075187969924812 
1.67615762150968 1:0.0639097744360902 2:0.12406015037594 3:0.0451127819548872 4:-0.0075187969924812 5:0.116541353383459 
0.0359308129838769 1:0.116541353383459 2:0.131578947368421 3:-0.093984962406015 4:0.131578947368421 5:0.0488721804511278 
0.374440010879221 1:0.12406015037594 2:0.0451127819548872 3:-0.0075187969924812 4:0.116541353383459 5:0.0225563909774436 
0.2653303653742 1:0.131578947368421 2:-0.093984962406015 3:0.131578947368421 4:0.0488721804511278 5:0.0977443609022556 
-3.31334112951709 1:0.0451127819548872 2:-0.0075187969924812 3:0.116541353383459 4:0.0225563909774436 5:0.075187969924812 
1.86154194619234 1:-0.093984962406015 2:0.131578947368421 3:0.0488721804511278 4:0.0977443609022556 5:-0.0789473684210526 
-4.4478143058082 1:-0.0075187969924812 2:0.116541353383459 3:0.0225563909774436 4:0.075187969924812 5:-0.056390977443609 
-1.78449829585344 1:0.131578947368421 2:0.0488721804511278 3:0.0977443609022556 4:-0.0789473684210526 5:0.0225563909774436 
-4.75682846001088 1:0.0488721804511278 2:0.0977443609022556 3:-0.0789473684210526 4:0.0225563909774436 5:-0.018796992481203 
-4.75682846001088 1:0.0225563909774436 2:0.075187969924812 3:-0.056390977443609 4:-0.037593984962406 5:0.0864661654135338 
-4.75682846001088 1:0.0977443609022556 2:-0.0789473684210526 3:0.0225563909774436 4:-0.018796992481203 5:0.146616541353383 
-4.75682846001088 1:0.075187969924812 2:-0.056390977443609 3:-0.037593984962406 4:0.0864661654135338 5:0.0451127819548872 
-4.65635024833712 1:-0.0789473684210526 2:0.0225563909774436 3:-0.018796992481203 4:0.146616541353383 5:-0.0977443609022556 
-1.49956828976594 1:0.0225563909774436 2:-0.018796992481203 3:0.146616541353383 4:-0.0977443609022556 5:-0.0639097744360902 
-0.639049971166109 1:-0.018796992481203 2:0.146616541353383 3:-0.0977443609022556 4:-0.0639097744360902 5:-0.056390977443609 
1.2509551219685 1:0.0864661654135338 2:0.0451127819548872 3:-0.12406015037594 4:-0.0075187969924812 5:-0.112781954887218 
-0.486080114448778 1:0.146616541353383 2:-0.0977443609022556 3:-0.0639097744360902 4:-0.056390977443609 5:0.0112781954887218 
1.52559857151418 1:-0.12406015037594 2:-0.0075187969924812 3:-0.112781954887218 4:0.0714285714285714 5:-0.0413533834586466 
0.0193645778521991 1:-0.0639097744360902 2:-0.056390977443609 3:0.0112781954887218 4:0.0338345864661654 5:-0.0676691729323308 
-0.305125500049278 1:-0.112781954887218 2:0.0714285714285714 3:-0.0413533834586466 4:0.0075187969924812 5:0 
-4.75682846001088 1:0.0714285714285714 2:-0.0413533834586466 3:0.0075187969924812 4:0 5:-0.0150375939849624 
-4.75682846001088 1:0 2:-0.0037593984962406 3:-0.0338345864661654 4:0.075187969924812 5:0 
-4.75682846001088 1:0.0075187969924812 2:-0.0300751879699248 3:0.0488721804511278 4:-0.018796992481203 5:0 
4.75682846001088 1:0.0112781954887218 2:-0.0075187969924812 3:-0.0112781954887218 4:0.0112781954887218 5:-0.0112781954887218 
4.75682846001088 1:0.0075187969924812 2:-0.0075187969924812 3:-0.0300751879699248 4:0.018796992481203 5:0 
4.75682846001088 1:-0.0075187969924812 2:-0.0112781954887218 3:0.0112781954887218 4:-0.0112781954887218 5:-0.0037593984962406 
4.75682846001088 1:-0.0075187969924812 2:-0.0300751879699248 3:0.018796992481203 4:0 5:-0.0037593984962406 
4.75682846001088 1:-0.0300751879699248 2:0.018796992481203 3:0 4:-0.0037593984962406 5:0.0112781954887218 
4.75682846001088 1:0.0112781954887218 2:-0.0112781954887218 3:-0.0037593984962406 4:0.0150375939849624 5:-0.0075187969924812 
4.75682846001088 1:0.018796992481203 2:0 3:-0.0037593984962406 4:0.0112781954887218 5:0 
4.75682846001088 1:-0.0112781954887218 2:-0.0037593984962406 3:0.0150375939849624 4:-0.0075187969924812 5:0.0075187969924812 
4.75682846001088 1:0 2:-0.0037593984962406 3:0.0112781954887218 4:0 5:0.0037593984962406 
4.75682846001088 1:-0.0037593984962406 2:0.0150375939849624 3:-0.0075187969924812 4:0.0075187969924812 5:0.0451127819548872 
4.75682846001088 1:-0.0037593984962406 2:0.0112781954887218 3:0 4:0.0037593984962406 5:0.116541353383459 
4.75682846001088 1:0.0150375939849624 2:-0.0075187969924812 3:0.0075187969924812 4:0.0451127819548872 5:0.0714285714285714 
4.75682846001088 1:0.0112781954887218 2:0 3:0.0037593984962406 4:0.116541353383459 5:0.0037593984962406 
4.75682846001088 1:-0.0075187969924812 2:0.0075187969924812 3:0.0451127819548872 4:0.0714285714285714 5:-0.075187969924812 
3.46821953001515 1:0.0075187969924812 2:0.0451127819548872 3:0.0714285714285714 4:-0.075187969924812 5:0.056390977443609 
4.75682846001088 1:0.0037593984962406 2:0.116541353383459 3:0.0037593984962406 4:-0.0075187969924812 5:-0.0112781954887218 
4.75682846001088 1:0.0451127819548872 2:0.0714285714285714 3:-0.075187969924812 4:0.056390977443609 5:0.0037593984962406 
1.09352170771138 1:0.116541353383459 2:0.0037593984962406 3:-0.0075187969924812 4:-0.0112781954887218 5:-0.0112781954887218 
4.48672039919527 1:0.0714285714285714 2:-0.075187969924812 3:0.056390977443609 4:0.0037593984962406 5:0.0639097744360902 
4.67199126522383 1:0.0037593984962406 2:-0.0075187969924812 3:-0.0112781954887218 4:-0.0112781954887218 5:0.154135338345865 
4.18727611595151 1:-0.0075187969924812 2:-0.0112781954887218 3:-0.0112781954887218 4:0.154135338345865 5:0.0150375939849624 
4.75682846001088 1:0.056390977443609 2:0.0037593984962406 3:0.0639097744360902 4:0.142857142857143 5:-0.075187969924812 
4.75682846001088 1:-0.0112781954887218 2:-0.0112781954887218 3:0.154135338345865 4:0.0150375939849624 5:-0.018796992481203 
4.75682846001088 1:0.0037593984962406 2:0.0639097744360902 3:0.142857142857143 4:-0.075187969924812 5:0.018796992481203 
4.75682846001088 1:-0.0112781954887218 2:0.154135338345865 3:0.0150375939849624 4:-0.018796992481203 5:-0.0112781954887218 
1.30215739906786 1:0.0639097744360902 2:0.142857142857143 3:-0.075187969924812 4:0.018796992481203 5:0.0112781954887218 
4.75682846001088 1:0.154135338345865 2:0.0150375939849624 3:-0.018796992481203 4:-0.0112781954887218 5:-0.0150375939849624 
4.75682846001088 1:0.0150375939849624 2:-0.018796992481203 3:-0.0112781954887218 4:-0.0150375939849624 5:0.0300751879699248 
-4.75682846001088 1:-0.075187969924812 2:0.018796992481203 3:0.0112781954887218 4:0.0338345864661654 5:0.0300751879699248 
-4.75682846001088 1:-0.018796992481203 2:-0.0112781954887218 3:-0.0150375939849624 4:0.0300751879699248 5:0.169172932330827 
-4.75682846001088 1:0.018796992481203 2:0.0112781954887218 3:0.0338345864661654 4:0.0300751879699248 5:0.176691729323308 
-2.20021916735651 1:-0.0112781954887218 2:-0.0150375939849624 3:0.0300751879699248 4:0.169172932330827 5:0.18796992481203 
-4.75682846001088 1:0.0112781954887218 2:0.0338345864661654 3:0.0300751879699248 4:0.176691729323308 5:0.116541353383459 
-4.75682846001088 1:-0.0150375939849624 2:0.0300751879699248 3:0.169172932330827 4:0.18796992481203 5:-0.0112781954887218 
-4.75682846001088 1:0.0338345864661654 2:0.0300751879699248 3:0.176691729323308 4:0.116541353383459 5:-0.131578947368421 
-1.31494992346368 1:0.0300751879699248 2:0.169172932330827 3:0.18796992481203 4:-0.0112781954887218 5:-0.0864661654135338 
-3.90255044447498 1:0.0300751879699248 2:0.176691729323308 3:0.116541353383459 4:-0.131578947368421 5:-0.0225563909774436 
-1.80800396658119 1:0.169172932330827 2:0.18796992481203 3:-0.0112781954887218 4:-0.0864661654135338 5:-0.0300751879699248 
0.266258700094147 1:0.176691729323308 2:0.116541353383459 3:-0.131578947368421 4:-0.0225563909774436 5:-0.992481203007519 
0.194510489606811 1:0.18796992481203 2:-0.0112781954887218 3:-0.0864661654135338 4:-0.0300751879699248 5:-0.954887218045113 
0.225884956834333 1:0.116541353383459 2:-0.131578947368421 3:-0.0225563909774436 4:-0.992481203007519 5:0.0714285714285714 
0.169361556324657 1:-0.0112781954887218 2:-0.0864661654135338 3:-0.0300751879699248 4:-0.954887218045113 5:0.0338345864661654 
0.0738141808606399 1:-0.131578947368421 2:-0.0225563909774436 3:-0.992481203007519 4:0.0714285714285714 5:0.0075187969924812 
0.281102513101676 1:-0.0864661654135338 2:-0.0300751879699248 3:-0.954887218045113 4:0.0338345864661654 5:-0.0263157894736842 
0.183764030265933 1:-0.0225563909774436 2:-0.992481203007519 3:0.0714285714285714 4:0.0075187969924812 5:-0.0451127819548872 
0.183295014390818 1:-0.0300751879699248 2:-0.954887218045113 3:0.0338345864661654 4:-0.0263157894736842 5:-0.0150375939849624 
0.332902906974887 1:-0.992481203007519 2:0.0714285714285714 3:0.0075187969924812 4:-0.0451127819548872 5:-0.0150375939849624 
0.0354598939047817 1:-0.954887218045113 2:0.0338345864661654 3:-0.0263157894736842 4:-0.0150375939849624 5:-0.0150375939849624 
-4.75682846001088 1:0.0714285714285714 2:0.0075187969924812 3:-0.0451127819548872 4:-0.0150375939849624 5:0.0225563909774436 
-4.75682846001088 1:0.0338345864661654 2:-0.0263157894736842 3:-0.0150375939849624 4:-0.0150375939849624 5:0.0413533834586466 
-4.75682846001088 1:0.0075187969924812 2:-0.0451127819548872 3:-0.0150375939849624 4:0.0225563909774436 5:0.0112781954887218 
-4.75682846001088 1:-0.0263157894736842 2:-0.0150375939849624 3:-0.0150375939849624 4:0.0413533834586466 5:-0.0225563909774436 
-4.75682846001088 1:-0.0451127819548872 2:-0.0150375939849624 3:0.0225563909774436 4:0.0112781954887218 5:-0.0075187969924812 
-4.75682846001088 1:-0.0150375939849624 2:-0.0150375939849624 3:0.0413533834586466 4:-0.0225563909774436 5:0 
-4.75682846001088 1:-0.0150375939849624 2:0.0225563909774436 3:0.0112781954887218 4:-0.0075187969924812 5:-0.018796992481203 
-4.75682846001088 1:-0.0150375939849624 2:0.0413533834586466 3:-0.0225563909774436 4:0 5:-0.0112781954887218 
-4.75682846001088 1:0.0225563909774436 2:0.0112781954887218 3:-0.0075187969924812 4:-0.018796992481203 5:0 
-4.75682846001088 1:0.0413533834586466 2:-0.0225563909774436 3:0 4:-0.0112781954887218 5:-0.0263157894736842 
-4.75682846001088 1:0.0112781954887218 2:-0.0075187969924812 3:-0.018796992481203 4:0 5:-0.0451127819548872 
-4.75682846001088 1:-0.0225563909774436 2:0 3:-0.0112781954887218 4:-0.0263157894736842 5:-0.0263157894736842 
-2.93859780618651 1:-0.0263157894736842 2:-0.0451127819548872 3:-0.0676691729323308 4:0.0451127819548872 5:0.0225563909774436 
-4.75682846001088 1:-0.0714285714285714 2:0.0112781954887218 3:0 4:0.0075187969924812 5:0.037593984962406 
-4.75682846001088 1:-0.0676691729323308 2:0.0451127819548872 3:0.0225563909774436 4:-0.0225563909774436 5:0.037593984962406 
-4.75682846001088 1:0.0112781954887218 2:0 3:0.0075187969924812 4:0.037593984962406 5:-0.0263157894736842 
-4.75682846001088 1:0.0451127819548872 2:0.0225563909774436 3:-0.0225563909774436 4:0.037593984962406 5:-0.0451127819548872 
-4.75682846001088 1:0 2:0.0075187969924812 3:0.037593984962406 4:-0.0263157894736842 5:-0.0150375939849624 
-1.42875417115028 1:0.0075187969924812 2:0.037593984962406 3:-0.0263157894736842 4:-0.0150375939849624 5:-0.018796992481203 
-4.75682846001088 1:-0.0225563909774436 2:0.037593984962406 3:-0.0451127819548872 4:-0.0263157894736842 5:-0.0112781954887218 
-4.75682846001088 1:-0.0263157894736842 2:-0.0150375939849624 3:-0.018796992481203 4:-0.0488721804511278 5:0 
-1.75085033435874 1:0.0225563909774436 2:0.0075187969924812 3:-0.0526315789473684 4:-0.0075187969924812 5:0.0300751879699248 
-4.75682846001088 1:-0.0037593984962406 2:-0.0150375939849624 3:-0.0413533834586466 4:-0.0037593984962406 5:0.0639097744360902 
-4.75682846001088 1:0.0075187969924812 2:-0.0526315789473684 3:-0.0075187969924812 4:0.0300751879699248 5:0.0338345864661654 
-4.75682846001088 1:-0.0150375939849624 2:-0.0413533834586466 3:-0.0037593984962406 4:0.0639097744360902 5:0.018796992481203 
-4.75682846001088 1:-0.0526315789473684 2:-0.0075187969924812 3:0.0300751879699248 4:0.0338345864661654 5:0.0037593984962406 
-4.75682846001088 1:-0.0413533834586466 2:-0.0037593984962406 3:0.0639097744360902 4:0.018796992481203 5:-0.0526315789473684 
-4.75682846001088 1:-0.0075187969924812 2:0.0300751879699248 3:0.0338345864661654 4:0.0037593984962406 5:-0.0263157894736842 
-4.75682846001088 1:-0.0037593984962406 2:0.0639097744360902 3:0.018796992481203 4:-0.0526315789473684 5:0.0075187969924812 
-4.75682846001088 1:0.0300751879699248 2:0.0338345864661654 3:0.0037593984962406 4:-0.0263157894736842 5:-0.0338345864661654 
-4.75682846001088 1:0.0639097744360902 2:0.018796992481203 3:-0.0526315789473684 4:0.0075187969924812 5:-0.0338345864661654 
-4.75682846001088 1:0.0338345864661654 2:0.0037593984962406 3:-0.0263157894736842 4:-0.0338345864661654 5:-0.037593984962406 
-4.75682846001088 1:0.018796992481203 2:-0.0526315789473684 3:0.0075187969924812 4:-0.0338345864661654 5:-0.0676691729323308 
-4.75682846001088 1:0.0037593984962406 2:-0.0263157894736842 3:-0.0338345864661654 4:-0.037593984962406 5:-0.0639097744360902 
-1.35746918692548 1:-0.0526315789473684 2:0.0075187969924812 3:-0.0338345864661654 4:-0.0676691729323308 5:0 
2.19542040674703 1:0 2:-0.018796992481203 3:-0.0037593984962406 4:-0.056390977443609 5:0.0075187969924812 
-4.75682846001088 1:-0.018796992481203 2:-0.0037593984962406 3:-0.056390977443609 4:0.0075187969924812 5:0.056390977443609 
-2.80627284182184 1:-0.0037593984962406 2:-0.056390977443609 3:0.0075187969924812 4:0.056390977443609 5:0.0037593984962406 
-1.66191027245577 1:-0.0338345864661654 2:-0.0451127819548872 3:0.0526315789473684 4:0.018796992481203 5:0.0300751879699248 
-1.63633759955963 1:-0.056390977443609 2:0.0075187969924812 3:0.056390977443609 4:0.0037593984962406 5:0.0112781954887218 
-0.244743720974414 1:0.056390977443609 2:0.0037593984962406 3:0.0112781954887218 4:-0.056390977443609 5:0.0413533834586466 
4.75682846001088 1:0.0300751879699248 2:-0.0300751879699248 3:-0.0112781954887218 4:0.0037593984962406 5:-0.056390977443609 
4.75682846001088 1:0.0037593984962406 2:-0.056390977443609 3:0.0300751879699248 4:0.0075187969924812 5:0.0075187969924812 
4.75682846001088 1:-0.0488721804511278 2:0 3:0.0075187969924812 4:0.0075187969924812 5:0.0075187969924812 
-4.75682846001088 1:0.0037593984962406 2:0.0225563909774436 3:0 4:-0.0150375939849624 5:0.018796992481203 
-4.75682846001088 1:0.0225563909774436 2:0.0112781954887218 3:-0.0112781954887218 4:0.0037593984962406 5:0.0225563909774436 
-4.75682846001088 1:0.0225563909774436 2:0 3:-0.0150375939849624 4:0.018796992481203 5:0.0225563909774436 
-0.434750634979233 1:0.0112781954887218 2:-0.0112781954887218 3:0.0037593984962406 4:0.0225563909774436 5:0.0150375939849624 
-4.75682846001088 1:0 2:-0.0150375939849624 3:0.018796992481203 4:0.0225563909774436 5:-0.0075187969924812 
-3.56497179729818 1:-0.0075187969924812 2:-0.0225563909774436 3:-0.0112781954887218 4:0 5:0 
-4.75682846001088 1:-0.0225563909774436 2:-0.0225563909774436 3:0 4:0 5:0 
4.75682846001088 1:-0.0150375939849624 2:0.0075187969924812 3:0.0150375939849624 4:0 5:-0.0300751879699248 
4.75682846001088 1:-0.0075187969924812 2:0.0150375939849624 3:0.0150375939849624 4:-0.0225563909774436 5:-0.0225563909774436 
-4.75682846001088 1:0.0037593984962406 2:0.0263157894736842 3:0 4:0.0150375939849624 5:0.0112781954887218 
-4.75682846001088 1:0.0263157894736842 2:0.018796992481203 3:0.0075187969924812 4:0 5:-0.0037593984962406 
-4.75682846001088 1:0.0263157894736842 2:0 3:0.0150375939849624 4:0.0112781954887218 5:-0.0300751879699248 
-4.75682846001088 1:0.0075187969924812 2:0 3:-0.0037593984962406 4:-0.0300751879699248 5:0.0112781954887218 
-4.75682846001088 1:0.0150375939849624 2:0.0112781954887218 3:-0.0300751879699248 4:-0.018796992481203 5:0.0300751879699248 
-4.75682846001088 1:0 2:-0.0037593984962406 3:-0.0300751879699248 4:0.0112781954887218 5:0.0225563909774436 
4.75682846001088 1:0.0225563909774436 2:-0.0300751879699248 3:-0.0300751879699248 4:-0.0225563909774436 5:-0.0225563909774436 
4.75682846001088 1:-0.0300751879699248 2:-0.0263157894736842 3:-0.0225563909774436 4:0 5:0.0225563909774436 
4.75682846001088 1:-0.0300751879699248 2:-0.0225563909774436 3:-0.0225563909774436 4:0.0225563909774436 5:0.0225563909774436 
4.75682846001088 1:-0.0263157894736842 2:-0.0225563909774436 3:0 4:0.0225563909774436 5:0 
4.75682846001088 1:-0.0225563909774436 2:-0.0225563909774436 3:0.0225563909774436 4:0.0225563909774436 5:-0.0225563909774436 
4.75682846001088 1:-0.0225563909774436 2:0 3:0.0225563909774436 4:0 5:-0.0225563909774436 
4.75682846001088 1:-0.0225563909774436 2:0.0225563909774436 3:0.0225563909774436 4:-0.0225563909774436 5:0 
4.75682846001088 1:0 2:0.0225563909774436 3:0 4:-0.0225563909774436 5:0.018796992481203 
-4.75682846001088 1:-0.0225563909774436 2:0.018796992481203 3:0.0225563909774436 4:0.0263157894736842 5:0.0300751879699248 
-4.75682846001088 1:0 2:0.018796992481203 3:0.0225563909774436 4:0.0300751879699248 5:0.0413533834586466 
-4.75682846001088 1:0.018796992481203 2:0.0225563909774436 3:0.0263157894736842 4:0.0300751879699248 5:0 
-4.75682846001088 1:0.018796992481203 2:0.0225563909774436 3:0.0300751879699248 4:0.0413533834586466 5:-0.0263157894736842 
-0.00128685678968909 1:-0.0225563909774436 2:0.0037593984962406 3:-0.0112781954887218 4:-0.0338345864661654 5:0.0225563909774436 
4.75682846001088 1:0.0075187969924812 2:0 3:-0.0300751879699248 4:-0.0112781954887218 5:-0.0263157894736842 
4.75682846001088 1:0.0075187969924812 2:-0.0075187969924812 3:-0.0263157894736842 4:-0.0112781954887218 5:-0.0225563909774436 
-4.75682846001088 1:-0.0300751879699248 2:-0.0112781954887218 3:-0.0263157894736842 4:0.0225563909774436 5:0.0338345864661654 
-0.636169762518068 1:-0.0263157894736842 2:-0.0112781954887218 3:-0.0225563909774436 4:0.0451127819548872 5:-0.0037593984962406 
-4.75682846001088 1:-0.0112781954887218 2:-0.0263157894736842 3:0.0225563909774436 4:0.0338345864661654 5:0.0075187969924812 
-4.75682846001088 1:-0.0112781954887218 2:-0.0225563909774436 3:0.0451127819548872 4:-0.0037593984962406 5:0.0263157894736842 
-4.75682846001088 1:-0.0263157894736842 2:0.0225563909774436 3:0.0338345864661654 4:0.0075187969924812 5:0 
-4.75682846001088 1:-0.0225563909774436 2:0.0451127819548872 3:-0.0037593984962406 4:0.0263157894736842 5:-0.0263157894736842 
-4.75682846001088 1:0.0225563909774436 2:0.0338345864661654 3:0.0075187969924812 4:0 5:-0.0112781954887218 
-4.75682846001088 1:0.0451127819548872 2:-0.0037593984962406 3:0.0263157894736842 4:-0.0263157894736842 5:0.0112781954887218 
-4.75682846001088 1:-0.0263157894736842 2:0.0112781954887218 3:-0.037593984962406 4:-0.0225563909774436 5:0.0037593984962406 
-4.75682846001088 1:0.0112781954887218 2:-0.037593984962406 3:-0.0225563909774436 4:0.0037593984962406 5:-0.0037593984962406 
-4.75682846001088 1:-0.0150375939849624 2:-0.0451127819548872 3:0.0037593984962406 4:-0.0225563909774436 5:0.0075187969924812 
4.75682846001088 1:-0.0225563909774436 2:0.0075187969924812 3:0.0037593984962406 4:-0.0075187969924812 5:-0.0225563909774436 
4.75682846001088 1:0.0075187969924812 2:0.0037593984962406 3:-0.0075187969924812 4:-0.0225563909774436 5:-0.037593984962406 
4.75682846001088 1:-0.018796992481203 2:-0.0075187969924812 3:0.0075187969924812 4:-0.037593984962406 5:-0.0357142857142857 
4.75682846001088 1:0.0338345864661654 2:0.037593984962406 3:0.0075187969924812 4:-0.0150375939849624 5:-0.037593984962406 
2.71523256301333 1:-0.0112781954887218 2:0.0225563909774436 3:0 4:-0.0112781954887218 5:-0.0075187969924812 
4.75682846001088 1:0.0075187969924812 2:0.0037593984962406 3:0.0112781954887218 4:-0.0112781954887218 5:-0.0075187969924812 
4.75682846001088 1:0.0225563909774436 2:0 3:-0.0112781954887218 4:-0.0075187969924812 5:0.0075187969924812 
4.75682846001088 1:0.0037593984962406 2:0.0112781954887218 3:-0.0112781954887218 4:-0.0075187969924812 5:0 
4.75682846001088 1:0 2:-0.0112781954887218 3:-0.0075187969924812 4:0.0075187969924812 5:0.0037593984962406 
4.75682846001088 1:0.0112781954887218 2:-0.0112781954887218 3:-0.0075187969924812 4:0 5:0.0075187969924812 
4.75682846001088 1:-0.0112781954887218 2:-0.0075187969924812 3:0.0075187969924812 4:0.0037593984962406 5:-0.0037593984962406 
4.75682846001088 1:-0.0112781954887218 2:-0.0075187969924812 3:0 4:0.0075187969924812 5:-0.0018796992481203 
-0.0962421631841217 1:-0.0300751879699248 2:0.0150375939849624 3:0.0225563909774436 4:-0.0338345864661654 5:0.037593984962406 
4.75682846001088 1:-0.0263157894736842 2:0.018796992481203 3:0.0037593984962406 4:-0.0112781954887218 5:0.018796992481203 
4.75682846001088 1:0.018796992481203 2:0.0037593984962406 3:-0.0112781954887218 4:0.018796992481203 5:0.0112781954887218 
4.75682846001088 1:0.0225563909774436 2:-0.0150375939849624 3:0.0037593984962406 4:0.037593984962406 5:-0.0225563909774436 
4.75682846001088 1:0.0037593984962406 2:-0.0112781954887218 3:0.018796992481203 4:0.0112781954887218 5:0.0037593984962406 
4.75682846001088 1:-0.0150375939849624 2:0.0037593984962406 3:0.037593984962406 4:-0.0225563909774436 5:0.0225563909774436 
4.75682846001088 1:-0.0112781954887218 2:0.018796992481203 3:0.0112781954887218 4:0.0037593984962406 5:0.0037593984962406 
4.75682846001088 1:0.0037593984962406 2:0.037593984962406 3:-0.0225563909774436 4:0.0225563909774436 5:-0.0150375939849624 
4.75682846001088 1:0.018796992481203 2:0.0112781954887218 3:0.0037593984962406 4:0.0037593984962406 5:-0.0037593984962406 
-0.21645547347929 1:-0.0225563909774436 2:0.0225563909774436 3:-0.0150375939849624 4:0.0300751879699248 5:0.0413533834586466 
-4.75682846001088 1:0.0225563909774436 2:-0.0150375939849624 3:0.0300751879699248 4:0.0413533834586466 5:0.0413533834586466 
-4.75682846001088 1:0.0037593984962406 2:-0.0037593984962406 3:0.037593984962406 4:0.0413533834586466 5:0.0451127819548872 
-4.75682846001088 1:-0.0150375939849624 2:0.0300751879699248 3:0.0413533834586466 4:0.0413533834586466 5:0.0263157894736842 
-4.75682846001088 1:-0.0037593984962406 2:0.037593984962406 3:0.0413533834586466 4:0.0451127819548872 5:-0.0225563909774436 
-4.75682846001088 1:0.0300751879699248 2:0.0413533834586466 3:0.0413533834586466 4:0.0263157894736842 5:-0.0488721804511278 
-4.75682846001088 1:0.0413533834586466 2:0.0413533834586466 3:0.0263157894736842 4:-0.0488721804511278 5:0 
-4.75682846001088 1:0.0413533834586466 2:0.0263157894736842 3:-0.0488721804511278 4:0 5:-0.037593984962406 
-4.75682846001088 1:0.0263157894736842 2:-0.0488721804511278 3:0 4:-0.037593984962406 5:-0.0037593984962406 
4.75682846001088 1:0 2:-0.0037593984962406 3:-0.0112781954887218 4:0 5:-0.018796992481203 
3.62545346095279 1:-0.0037593984962406 2:-0.0112781954887218 3:0 4:-0.018796992481203 5:0.0225563909774436 
4.75682846001088 1:-0.0037593984962406 2:-0.0037593984962406 3:0.0225563909774436 4:0.0225563909774436 5:-0.0112781954887218 
4.75682846001088 1:-0.018796992481203 2:0.0225563909774436 3:0.0300751879699248 4:-0.0075187969924812 5:-0.0037593984962406 
4.75682846001088 1:-0.0037593984962406 2:0.0225563909774436 3:0.0225563909774436 4:-0.0112781954887218 5:-0.0037593984962406 
4.75682846001088 1:0.0225563909774436 2:0.0300751879699248 3:-0.0075187969924812 4:-0.0037593984962406 5:0.0075187969924812 
1.78252166338768 1:0.0112781954887218 2:0.0150375939849624 3:0.0300751879699248 4:0.0150375939849624 5:-0.0225563909774436 
4.75682846001088 1:0.0150375939849624 2:0.0300751879699248 3:0.0150375939849624 4:-0.0225563909774436 5:0.0075187969924812 
4.75682846001088 1:0.0150375939849624 2:0.0451127819548872 3:-0.0225563909774436 4:0 5:0.0037593984962406 
4.75682846001088 1:0.0300751879699248 2:0.0150375939849624 3:-0.0225563909774436 4:0.0075187969924812 5:0.0112781954887218 
4.75682846001088 1:0.0451127819548872 2:-0.0225563909774436 3:0 4:0.0037593984962406 5:0.0075187969924812 
4.75682846001088 1:0.0150375939849624 2:-0.0225563909774436 3:0.0075187969924812 4:0.0112781954887218 5:-0.0075187969924812 
4.75682846001088 1:-0.0225563909774436 2:0 3:0.0037593984962406 4:0.0075187969924812 5:0 
1.19387688876655 1:-0.0225563909774436 2:0.0075187969924812 3:0.0112781954887218 4:-0.0075187969924812 5:0.0300751879699248 
-4.75682846001088 1:-0.0075187969924812 2:0.0300751879699248 3:0.018796992481203 4:0.0263157894736842 5:0.0488721804511278 
-4.75682846001088 1:0 2:0.0413533834586466 3:0 4:0.0488721804511278 5:0.0150375939849624 
-1.73387684011543 1:0.0300751879699248 2:0.018796992481203 3:0.0263157894736842 4:0.0488721804511278 5:-0.0413533834586466 
-1.79333928992105 1:0.0413533834586466 2:0 3:0.0488721804511278 4:0.0150375939849624 5:-0.037593984962406 
4.75682846001088 1:0.0488721804511278 2:0.0150375939849624 3:-0.037593984962406 4:-0.0037593984962406 5:0 
4.75682846001088 1:-0.037593984962406 2:-0.0037593984962406 3:0 4:0.0075187969924812 5:-0.018796992481203 
4.75682846001088 1:-0.0037593984962406 2:-0.0112781954887218 3:0.0075187969924812 4:-0.0037593984962406 5:-0.0037593984962406 
4.75682846001088 1:-0.0037593984962406 2:0 3:0.0075187969924812 4:-0.018796992481203 5:0.0037593984962406 
4.75682846001088 1:-0.0112781954887218 2:0.0075187969924812 3:-0.0037593984962406 4:-0.0037593984962406 5:0 
0.761315328751825 1:0 2:0.0075187969924812 3:-0.018796992481203 4:0.0037593984962406 5:0.0300751879699248 
4.75682846001088 1:-0.018796992481203 2:0.0037593984962406 3:0.0300751879699248 4:0.0263157894736842 5:-0.037593984962406 
-4.75682846001088 1:-0.0150375939849624 2:0.0488721804511278 3:0.018796992481203 4:-0.0225563909774436 5:0.037593984962406 
-4.75682846001088 1:0.0488721804511278 2:0.018796992481203 3:-0.0225563909774436 4:0.037593984962406 5:-0.0150375939849624 
-4.75682846001088 1:0.0451127819548872 2:0 3:0.0075187969924812 4:0.0037593984962406 5:-0.0150375939849624 
-4.75682846001088 1:-0.0150375939849624 2:-0.018796992481203 3:0 4:-0.0112781954887218 5:-0.0037593984962406 
-4.75682846001088 1:-0.0150375939849624 2:0 3:-0.0225563909774436 4:0.0150375939849624 5:-0.0075187969924812 
-4.75682846001088 1:-0.018796992481203 2:0 3:-0.0112781954887218 4:-0.0037593984962406 5:-0.0075187969924812 
-4.75682846001088 1:0 2:-0.0225563909774436 3:0.0150375939849624 4:-0.0075187969924812 5:-0.0338345864661654 
-4.75682846001088 1:0 2:-0.0112781954887218 3:-0.0037593984962406 4:-0.0075187969924812 5:0.0075187969924812 
-4.75682846001088 1:-0.0225563909774436 2:0.0150375939849624 3:-0.0075187969924812 4:-0.0338345864661654 5:0.0263157894736842 
-4.75682846001088 1:-0.0112781954887218 2:-0.0037593984962406 3:-0.0075187969924812 4:0.0075187969924812 5:-0.0150375939849624 
-4.75682846001088 1:0.0150375939849624 2:-0.0075187969924812 3:-0.0338345864661654 4:0.0263157894736842 5:-0.0225563909774436 
-4.75682846001088 1:-0.0037593984962406 2:-0.0075187969924812 3:0.0075187969924812 4:-0.0150375939849624 5:-0.0037593984962406 
-4.75682846001088 1:-0.0075187969924812 2:-0.0338345864661654 3:0.0263157894736842 4:-0.0225563909774436 5:0.0075187969924812 
0.0801050508787898 1:-0.0338345864661654 2:0.0263157894736842 3:-0.0225563909774436 4:0.0075187969924812 5:-0.150375939849624 
0.221845372434004 1:0.0263157894736842 2:-0.0225563909774436 3:0.0075187969924812 4:-0.150375939849624 5:0 
-0.103227472986464 1:-0.0225563909774436 2:0.0075187969924812 3:-0.150375939849624 4:0 5:0.0075187969924812 
1.30067203061278 1:0.0075187969924812 2:-0.150375939849624 3:0 4:0.0075187969924812 5:-0.0150375939849624 
2.03876148835466 1:-0.150375939849624 2:0 3:0.0075187969924812 4:-0.0150375939849624 5:-0.0225563909774436 
-4.75682846001088 1:0 2:0.0075187969924812 3:-0.0150375939849624 4:-0.0225563909774436 5:0.0300751879699248 
-0.285548894688664 1:-0.0150375939849624 2:-0.0225563909774436 3:0.0300751879699248 4:0.0075187969924812 5:-0.0225563909774436 
-4.75682846001088 1:-0.018796992481203 2:0.0037593984962406 3:0.0150375939849624 4:-0.0075187969924812 5:-0.018796992481203 
4.75682846001088 1:-0.0150375939849624 2:0 3:-0.0338345864661654 4:0.0263157894736842 5:-0.0338345864661654 
4.75682846001088 1:-0.0075187969924812 2:-0.018796992481203 3:0.0037593984962406 4:-0.0112781954887218 5:-0.0338345864661654 
3.97702865885192 1:0 2:-0.0338345864661654 3:0.0263157894736842 4:-0.0338345864661654 5:-0.0037593984962406 
4.75682846001088 1:0.0263157894736842 2:-0.0338345864661654 3:-0.0037593984962406 4:0.018796992481203 5:0.0112781954887218 
