svm_type epsilon_svr
kernel_type rbf
gamma 0.59460355750136
nr_class 2
total_sv 422
rho -0.200735698453187
SV
19.0273138400435 1:0.118673800543812 2:0.144548723796157 3:0.16843551735228 4:0.0437096161155448 5:-0.339356196824838 
19.0273138400435 1:0.023009677513668 2:0.265005993626288 3:-0.0920971844575035 4:0.0378914130339444 5:-0.245797152296581 
19.0273138400435 1:0.265005993626288 2:-0.0920971844575035 3:0.0378914130339444 4:-0.245797152296581 5:0.0379791246381889 
19.0273138400435 1:-0.0920971844575035 2:0.0378914130339444 3:-0.245797152296581 4:0.0379791246381889 5:-0.124550478028241 
-19.0273138400435 1:0.114463643540039 2:0.158114785252758 3:-0.160746133380114 4:-0.145572025845686 5:0.0139461450749947 
-19.0273138400435 1:-0.174399906440957 2:0.0811039967254353 3:-0.124053445604187 4:-0.0638248106891205 5:0.0666023448235526 
-19.0273138400435 1:0.158114785252758 2:-0.160746133380114 3:-0.145572025845686 4:0.0139461450749947 5:0.0646142151273263 
-19.0273138400435 1:0.0811039967254353 2:-0.124053445604187 3:-0.0638248106891205 4:0.0666023448235526 5:0.259918720580067 
-19.0273138400435 1:-0.160746133380114 2:-0.145572025845686 3:0.0139461450749947 4:0.0646142151273263 5:0.0723913107037399 
-19.0273138400435 1:-0.124053445604187 2:-0.0638248106891205 3:0.0666023448235526 4:0.259918720580067 5:-0.141011022424935 
-19.0273138400435 1:-0.145572025845686 2:0.0139461450749947 3:0.0646142151273263 4:0.0723913107037399 5:0.0749057100254359 
-19.0273138400435 1:-0.0638248106891205 2:0.0666023448235526 3:0.259918720580067 4:-0.141011022424935 5:0.180393532731046 
-19.0273138400435 1:0.0139461450749947 2:0.0646142151273263 3:0.0723913107037399 4:0.0749057100254359 5:-0.0040054965938657 
-19.0273138400435 1:0.0666023448235526 2:0.259918720580067 3:-0.141011022424935 4:0.180393532731046 5:-0.239628102798 
-19.0273138400435 1:0.0646142151273263 2:0.0723913107037399 3:0.0749057100254359 4:-0.0040054965938657 5:-0.437563956378094 
4.2580421725125 1:0.259918720580067 2:-0.141011022424935 3:0.180393532731046 4:-0.239628102798 5:-0.63596760518083 
-19.0273138400435 1:0.0723913107037399 2:0.0749057100254359 3:-0.0040054965938657 4:-0.437563956378094 5:-0.133789433675409 
1.74461567949225 1:-0.141011022424935 2:0.180393532731046 3:-0.239628102798 4:-0.63596760518083 5:-0.103587404613631 
-3.76290513065632 1:0.180393532731046 2:-0.239628102798 3:-0.63596760518083 4:-0.103587404613631 5:0.358448089348888 
19.0273138400435 1:-0.437563956378094 2:-0.133789433675409 3:-0.164459257959828 4:0.208929041312165 5:-0.458731690202612 
19.0273138400435 1:-0.133789433675409 2:-0.164459257959828 3:0.208929041312165 4:-0.458731690202612 5:-0.0836183960471313 
19.0273138400435 1:-0.103587404613631 2:0.358448089348888 3:-0.193521036166419 4:-0.243282752974885 5:0.134783498523522 
-19.0273138400435 1:-0.0836183960471313 2:0.274537321287605 3:0.342250679764933 4:0.16872788936643 5:0.206853200011694 
-19.0273138400435 1:0.134783498523522 2:0.260620413414028 3:0.133029266438616 4:0.237610735900358 5:0.0403765751542273 
-19.0273138400435 1:0.342250679764933 2:0.16872788936643 3:0.206853200011694 4:-0.116042452416456 5:0.0241206911674414 
-19.0273138400435 1:0.237610735900358 2:0.0403765751542273 3:-0.112358565038155 4:-0.2107417477999 5:-0.0414291144051693 
-19.0273138400435 1:0.206853200011694 2:-0.116042452416456 3:0.0241206911674414 4:-0.387334444346985 5:0.19226383650557 
-19.0273138400435 1:0.0403765751542273 2:-0.112358565038155 3:-0.2107417477999 4:-0.0414291144051693 5:0.147911001958893 
-19.0273138400435 1:0.0241206911674414 2:-0.387334444346985 3:0.19226383650557 4:-0.262579305908839 5:0.310440604625326 
-19.0273138400435 1:-0.2107417477999 2:-0.0414291144051693 3:0.147911001958893 4:-0.214250211969709 5:0.204982019121128 
-19.0273138400435 1:-0.387334444346985 2:0.19226383650557 3:-0.262579305908839 4:0.310440604625326 5:-0.104084437037688 
-19.0273138400435 1:-0.0414291144051693 2:0.147911001958893 3:-0.214250211969709 4:0.204982019121128 5:-0.0122211501915045 
-19.0273138400435 1:0.19226383650557 2:-0.262579305908839 3:0.310440604625326 4:-0.104084437037688 5:-0.285033476595619 
-19.0273138400435 1:0.147911001958893 2:-0.214250211969709 3:0.204982019121128 4:-0.0122211501915045 5:-0.469169371107797 
-19.0273138400435 1:-0.262579305908839 2:0.310440604625326 3:-0.104084437037688 4:-0.285033476595619 5:-0.177732947402274 
-19.0273138400435 1:-0.214250211969709 2:0.204982019121128 3:-0.0122211501915045 4:-0.469169371107797 5:0.106774259567875 
-19.0273138400435 1:0.310440604625326 2:-0.104084437037688 3:-0.285033476595619 4:-0.177732947402274 5:0.268455983393268 
-19.0273138400435 1:0.204982019121128 2:-0.0122211501915045 3:-0.469169371107797 4:0.106774259567875 5:0.190831213636232 
-19.0273138400435 1:-0.104084437037688 2:-0.285033476595619 3:-0.177732947402274 4:0.268455983393268 5:-0.140777124813611 
-19.0273138400435 1:-0.0122211501915045 2:-0.469169371107797 3:0.106774259567875 4:0.190831213636232 5:-0.555360640879456 
-14.8464912298328 1:-0.469169371107797 2:0.106774259567875 3:0.190831213636232 4:-0.555360640879456 5:-0.184515978130572 
19.0273138400435 1:-0.177732947402274 2:0.268455983393268 3:-0.140777124813611 4:-0.676168757126568 5:0.173435078794259 
19.0273138400435 1:0.190831213636232 2:-0.555360640879456 3:-0.184515978130572 4:-0.0186533345028217 5:-0.185334619770196 
19.0273138400435 1:-0.140777124813611 2:-0.676168757126568 3:0.173435078794259 4:-0.0520422185188438 5:-0.0491477355787515 
6.92740352816727 1:-0.676168757126568 2:0.173435078794259 3:-0.0520422185188438 4:-0.0491477355787515 5:0.00169575768207446 
19.0273138400435 1:-0.184515978130572 2:-0.0186533345028217 3:-0.185334619770196 4:0.163640616320206 5:0.0612811741660088 
19.0273138400435 1:0.173435078794259 2:-0.0520422185188438 3:-0.0491477355787515 4:0.00169575768207446 5:0.16671052246879 
19.0273138400435 1:-0.0186533345028217 2:-0.185334619770196 3:0.163640616320206 4:0.0612811741660088 5:0.354354881150775 
19.0273138400435 1:-0.0520422185188438 2:-0.0491477355787515 3:0.00169575768207446 4:0.16671052246879 5:0.295324971493729 
-2.15652762847179 1:0.450779171417712 2:-0.249597988480542 3:-0.176329561734352 4:0.205128205128204 5:0.0912493056164663 
-15.7443936921769 1:0.291027102885711 2:-0.135806800573048 3:-0.0904599011782606 4:0.0584159284273322 5:-0.0024851621202829 
-19.0273138400435 1:-0.135806800573048 2:-0.0904599011782606 3:0.0584159284273322 4:-0.0024851621202829 5:0.167178317691431 
-19.0273138400435 1:-0.176329561734352 2:0.205128205128204 3:0.0912493056164663 4:-0.0373359062070564 5:0.127912756190977 
-19.0273138400435 1:0.205128205128204 2:0.0912493056164663 3:-0.0373359062070564 4:0.127912756190977 5:-0.0759582492763805 
-19.0273138400435 1:0.0584159284273322 2:-0.0024851621202829 3:0.167178317691431 4:-0.0910446452065616 5:0.00970675086980853 
-19.0273138400435 1:0.0912493056164663 2:-0.0373359062070564 3:0.127912756190977 4:-0.0759582492763805 5:0.0918340496447674 
-19.0273138400435 1:-0.0024851621202829 2:0.167178317691431 3:-0.0910446452065616 4:0.00970675086980853 5:-0.0870099114112802 
-19.0273138400435 1:-0.0373359062070564 2:0.127912756190977 3:-0.0759582492763805 4:0.0918340496447674 5:-0.177265152179633 
-19.0273138400435 1:0.127912756190977 2:-0.0759582492763805 3:0.0918340496447674 4:-0.177265152179633 5:-0.0691459813466643 
-19.0273138400435 1:-0.0910446452065616 2:0.00970675086980853 3:-0.0870099114112802 4:-0.138087302283427 5:-0.0700230973891172 
-19.0273138400435 1:-0.0759582492763805 2:0.0918340496447674 3:-0.177265152179633 4:-0.0691459813466643 5:-0.0535333157910135 
-19.0273138400435 1:0.00970675086980853 2:-0.0870099114112802 3:-0.138087302283427 4:-0.0700230973891172 5:0.0882963482735426 
-19.0273138400435 1:0.0918340496447674 2:-0.177265152179633 3:-0.0691459813466643 4:-0.0535333157910135 5:0.0122796245943359 
-19.0273138400435 1:-0.0870099114112802 2:-0.138087302283427 3:-0.0700230973891172 4:0.0882963482735426 5:-0.0437973277197893 
-8.26034802169382 1:-0.177265152179633 2:-0.0691459813466643 3:-0.0535333157910135 4:0.0122796245943359 5:-0.138818232318804 
-8.34643291694283 1:-0.138087302283427 2:-0.0700230973891172 3:0.0882963482735426 4:-0.0437973277197893 5:-0.0958395462386331 
-19.0273138400435 1:-0.0700230973891172 2:0.0882963482735426 3:-0.0437973277197893 4:-0.0958395462386331 5:0.0497324796070499 
-19.0273138400435 1:0.0882963482735426 2:-0.0437973277197893 3:-0.0958395462386331 4:0.0497324796070499 5:-0.240914539660262 
-19.0273138400435 1:0.0122796245943359 2:-0.138818232318804 3:-0.0305821126801743 4:-0.165044001988129 5:-0.193287138555096 
-19.0273138400435 1:-0.0437973277197893 2:-0.0958395462386331 3:0.0497324796070499 4:-0.240914539660262 5:-0.271876735958833 
-19.0273138400435 1:-0.0958395462386331 2:0.0497324796070499 3:-0.240914539660262 4:-0.271876735958833 5:0.175803292108879 
-19.0273138400435 1:-0.0305821126801743 2:-0.165044001988129 3:-0.193287138555096 4:0.0687074233254392 5:0.135865274975877 
-19.0273138400435 1:0.0497324796070499 2:-0.240914539660262 3:-0.271876735958833 4:0.175803292108879 5:0.132678420021633 
-19.0273138400435 1:-0.165044001988129 2:-0.193287138555096 3:0.0687074233254392 4:0.135865274975877 5:0.094523872174955 
-19.0273138400435 1:-0.240914539660262 2:-0.271876735958833 3:0.175803292108879 4:0.132678420021633 5:-0.00128643686226237 
19.0273138400435 1:0.0687074233254392 2:0.135865274975877 3:0.094523872174955 4:-0.120866590649941 5:-0.465543958132328 
5.71960594268666 1:0.094523872174955 2:-0.120866590649941 3:-0.465543958132328 4:0.202555331403677 5:-0.228196357044701 
19.0273138400435 1:-0.00128643686226237 2:-0.31462152442768 3:-0.197497295558869 4:0.149255913223986 5:-0.127941993392393 
19.0273138400435 1:-0.197497295558869 2:0.149255913223986 3:-0.127941993392393 4:0.249714937286202 5:0.153144461012192 
19.0273138400435 1:0.149255913223986 2:-0.127941993392393 3:0.249714937286202 4:0.153144461012192 5:0.0374528550127166 
19.0273138400435 1:0.206940911615939 2:0.0816887407537364 3:-0.0940268397508984 4:0.16747068970558 5:-0.0738239335730782 
-19.0273138400435 1:-0.003800836183961 2:0.236324299038095 3:0.0601993977136512 4:-0.033125749203286 5:0.109639505306552 
19.0273138400435 1:0.10002046604099 2:0.0757535888664731 3:-0.0573049147735588 4:-0.0254656024325352 5:-0.0506973072537473 
15.6577453477783 1:0.109639505306552 2:-0.103762827822123 3:0.168640177762185 4:0.085431102534866 5:-0.326842674619185 
-19.0273138400435 1:0.168640177762185 2:0.085431102534866 3:-0.326842674619185 4:-0.0732684267461929 5:0.188024442300384 
-19.0273138400435 1:0.085431102534866 2:-0.326842674619185 3:-0.0732684267461929 4:0.188024442300384 5:0.299681314504575 
-19.0273138400435 1:-0.326842674619185 2:-0.0732684267461929 3:0.188024442300384 4:0.299681314504575 5:0.0469841826740335 
-19.0273138400435 1:-0.0502587492325249 2:0.035143116100928 3:0.0785311230009053 4:0.314299915212115 5:0.11601321521504 
-19.0273138400435 1:-0.0732684267461929 2:0.188024442300384 3:0.299681314504575 4:0.0469841826740335 5:-0.0731807151419457 
-19.0273138400435 1:0.035143116100928 2:0.0785311230009053 3:0.314299915212115 4:0.11601321521504 5:-0.236850568663568 
-19.0273138400435 1:0.188024442300384 2:0.299681314504575 3:0.0469841826740335 4:-0.0731807151419457 5:-0.0323071075636645 
-19.0273138400435 1:0.0785311230009053 2:0.314299915212115 3:0.11601321521504 4:-0.236850568663568 5:-0.0780925649796801 
19.0273138400435 1:0.11601321521504 2:-0.236850568663568 3:-0.0780925649796801 4:-0.273689442446568 5:0.164517732362657 
19.0273138400435 1:-0.0731807151419457 2:-0.0323071075636645 3:-0.253311113060258 4:0.008332602403299 5:-0.0847586469023177 
19.0273138400435 1:-0.236850568663568 2:-0.0780925649796801 3:-0.273689442446568 4:0.164517732362657 5:-0.0961611554542007 
19.0273138400435 1:-0.0323071075636645 2:-0.253311113060258 3:0.008332602403299 4:-0.0847586469023177 5:0.0967751366839148 
19.0273138400435 1:-0.0780925649796801 2:-0.273689442446568 3:0.164517732362657 4:-0.0961611554542007 5:-0.0530947577697857 
19.0273138400435 1:-0.253311113060258 2:0.008332602403299 3:-0.0847586469023177 4:0.0967751366839148 5:-0.124521240826828 
19.0273138400435 1:-0.273689442446568 2:0.164517732362657 3:-0.0961611554542007 4:-0.0530947577697857 5:0.225506534514516 
19.0273138400435 1:0.008332602403299 2:-0.0847586469023177 3:0.0967751366839148 4:-0.124521240826828 5:0.423851708914423 
19.0273138400435 1:0.164517732362657 2:-0.0961611554542007 3:-0.0530947577697857 4:0.225506534514516 5:0.210654036195655 
19.0273138400435 1:-0.0847586469023177 2:0.0967751366839148 3:-0.124521240826828 4:0.423851708914423 5:0.0784726485980765 
19.0273138400435 1:-0.0961611554542007 2:-0.0530947577697857 3:0.225506534514516 4:0.210654036195655 5:0.0858404233546754 
19.0273138400435 1:0.0967751366839148 2:-0.124521240826828 3:0.423851708914423 4:0.0784726485980765 5:0.0256117884396111 
19.0273138400435 1:-0.0530947577697857 2:0.225506534514516 3:0.210654036195655 4:0.0858404233546754 5:0.255942461187615 
19.0273138400435 1:-0.124521240826828 2:0.423851708914423 3:0.0784726485980765 4:0.0256117884396111 5:0.537175101599273 
19.0273138400435 1:0.423851708914423 2:0.0784726485980765 3:0.0256117884396111 4:0.537175101599273 5:0.0140338566792392 
19.0273138400435 1:0.0784726485980765 2:0.0256117884396111 3:0.537175101599273 4:0.0140338566792392 5:0.00356693857264056 
12.4964493366554 1:0.0858404233546754 2:0.255942461187615 3:0.358945121772944 4:-0.0696722509721366 5:0.188960032745666 
19.0273138400435 1:0.106891208373535 2:0.0464286758471455 3:0.190304944010759 4:-0.0137414846650873 5:-0.227757799023476 
19.0273138400435 1:0.179487179487177 2:-0.119784814197583 3:0.202029061778205 4:0.0226880682981031 5:-0.153816916644738 
19.0273138400435 1:0.0464286758471455 2:0.190304944010759 3:-0.0137414846650873 4:-0.227757799023476 5:0.097593778323539 
9.46985910708222 1:-0.119784814197583 2:0.202029061778205 3:0.0226880682981031 4:-0.153816916644738 5:-0.00426863140660186 
-19.0273138400435 1:0.097593778323539 2:0.158787240885301 3:0.16735374089992 4:-0.179984211911234 5:0.201561266555564 
-19.0273138400435 1:-0.00426863140660186 2:0.280969505598922 3:0.021547817442914 4:-0.0438558021226207 5:0.213899365552731 
-19.0273138400435 1:0.158787240885301 2:0.16735374089992 3:-0.179984211911234 4:0.201561266555564 5:0.122065315907961 
-19.0273138400435 1:0.280969505598922 2:0.021547817442914 3:-0.0438558021226207 4:0.213899365552731 5:0.0208461246089527 
-19.0273138400435 1:0.16735374089992 2:-0.179984211911234 3:0.201561266555564 4:0.122065315907961 5:0.108265356840045 
-19.0273138400435 1:0.021547817442914 2:-0.0438558021226207 3:0.213899365552731 4:0.0208461246089527 5:0.131479694763615 
-19.0273138400435 1:-0.179984211911234 2:0.201561266555564 3:0.122065315907961 4:0.108265356840045 5:0.0226588310966874 
-19.0273138400435 1:-0.0438558021226207 2:0.213899365552731 3:0.0208461246089527 4:0.131479694763615 5:0.0228634915065948 
-19.0273138400435 1:0.201561266555564 2:0.122065315907961 3:0.108265356840045 4:0.0226588310966874 5:-0.21591673245037 
-19.0273138400435 1:0.0208461246089527 2:0.131479694763615 3:0.0228634915065948 4:-0.466450311376194 5:-0.0397041195216817 
-19.0273138400435 1:0.108265356840045 2:0.0226588310966874 3:-0.21591673245037 4:-0.364003157617752 5:0.00672455632546905 
-19.0273138400435 1:0.131479694763615 2:0.0228634915065948 3:-0.466450311376194 4:-0.0397041195216817 5:0.013916907873579 
19.0273138400435 1:0.013916907873579 2:-0.0177177440575373 3:-0.027541443733006 4:-0.0203198549834804 5:-0.18334649007397 
19.0273138400435 1:-0.0391778498962095 2:-0.0451422389848831 3:0.25103061134988 4:-0.304242317925326 5:-0.0773031605414743 
19.0273138400435 1:-0.0177177440575373 2:-0.027541443733006 3:-0.0203198549834804 4:-0.18334649007397 5:0.00608133789433653 
19.0273138400435 1:-0.027541443733006 2:-0.0203198549834804 3:-0.18334649007397 4:0.00608133789433653 5:0.1471508347221 
19.0273138400435 1:0.25103061134988 2:-0.304242317925326 3:-0.0773031605414743 4:0.182352425225857 5:-0.0421308072391306 
19.0273138400435 1:-0.0203198549834804 2:-0.18334649007397 3:0.00608133789433653 4:0.1471508347221 5:0.119463204982018 
19.0273138400435 1:-0.304242317925326 2:-0.0773031605414743 3:0.182352425225857 4:-0.0421308072391306 5:0.33394731456305 
19.0273138400435 1:-0.18334649007397 2:0.00608133789433653 3:0.1471508347221 4:0.119463204982018 5:0.232611174458382 
19.0273138400435 1:-0.0773031605414743 2:0.182352425225857 3:-0.0421308072391306 4:0.33394731456305 5:0.00616904949858103 
19.0273138400435 1:0.153758442241909 2:-0.113791187907493 3:0.291348712101279 4:0.12373183638862 5:-0.0918632868461831 
19.0273138400435 1:-0.0291787270122517 2:0.00935590445282522 3:0.203841768265942 4:0.0771569745343984 5:-0.0563985615296902 
19.0273138400435 1:-0.113791187907493 2:0.291348712101279 3:0.12373183638862 4:-0.0918632868461831 5:-0.179428705084349 
-12.9091682448025 1:-0.0918632868461831 2:-0.179428705084349 3:0.210829459404144 4:0.11095517937023 5:0.0640587083004436 
-19.0273138400435 1:-0.0563985615296902 2:-0.129199193053242 3:0.346782445984271 4:-0.0317516007367791 5:0.0178054556617844 
-19.0273138400435 1:-0.179428705084349 2:0.210829459404144 3:0.11095517937023 4:0.0640587083004436 5:0.286641522673449 
-19.0273138400435 1:-0.129199193053242 2:0.346782445984271 3:-0.0317516007367791 4:0.0178054556617844 5:0.243224278572056 
-19.0273138400435 1:0.210829459404144 2:0.11095517937023 3:0.0640587083004436 4:0.286641522673449 5:-0.0438850393240365 
-19.0273138400435 1:0.346782445984271 2:-0.0317516007367791 3:0.0178054556617844 4:0.243224278572056 5:-0.250182732508846 
-19.0273138400435 1:0.11095517937023 2:0.0640587083004436 3:0.286641522673449 4:-0.0438850393240365 5:-0.20813963687396 
-19.0273138400435 1:-0.0317516007367791 2:0.0178054556617844 3:0.243224278572056 4:-0.250182732508846 5:-0.0710756366400592 
-19.0273138400435 1:0.0640587083004436 2:0.286641522673449 3:-0.0438850393240365 4:-0.20813963687396 5:-0.00318685495424154 
-19.0273138400435 1:0.0178054556617844 2:0.243224278572056 3:-0.250182732508846 4:-0.0710756366400592 5:-0.0585328772329924 
-19.0273138400435 1:0.286641522673449 2:-0.0438850393240365 3:-0.20813963687396 4:-0.00318685495424154 5:-0.26143905505365 
-19.0273138400435 1:0.243224278572056 2:-0.250182732508846 3:-0.0710756366400592 4:-0.0585328772329924 5:-0.0763090956933585 
-19.0273138400435 1:-0.0438850393240365 2:-0.20813963687396 3:-0.00318685495424154 4:-0.26143905505365 5:0.0361664181504542 
-19.0273138400435 1:-0.250182732508846 2:-0.0710756366400592 3:-0.0585328772329924 4:-0.0763090956933585 5:-0.16112621699851 
-19.0273138400435 1:0.0361664181504542 2:-0.344618893079553 3:-0.0882086366692981 4:-0.170365172645675 5:0.283600853726281 
-19.0273138400435 1:-0.16112621699851 2:-0.29827792883665 3:0.0126889454141454 4:0.0788819694178859 5:-0.0647311639329892 
-19.0273138400435 1:-0.344618893079553 2:-0.0882086366692981 3:-0.170365172645675 4:0.283600853726281 5:-0.0877116042452415 
-19.0273138400435 1:-0.29827792883665 2:0.0126889454141454 3:0.0788819694178859 4:-0.0647311639329892 5:0.100985293687688 
-19.0273138400435 1:-0.0882086366692981 2:-0.170365172645675 3:0.283600853726281 4:-0.0877116042452415 5:0.156857585591908 
-19.0273138400435 1:0.0126889454141454 2:0.0788819694178859 3:-0.0647311639329892 4:0.100985293687688 5:0.164254597549923 
-19.0273138400435 1:-0.170365172645675 2:0.283600853726281 3:-0.0877116042452415 4:0.156857585591908 5:-0.0283016109697988 
-19.0273138400435 1:0.0788819694178859 2:-0.0647311639329892 3:0.100985293687688 4:0.164254597549923 5:-0.110107300529193 
-19.0273138400435 1:0.283600853726281 2:-0.0877116042452415 3:0.156857585591908 4:-0.0283016109697988 5:0.0775955325556235 
-19.0273138400435 1:-0.0647311639329892 2:0.100985293687688 3:0.164254597549923 4:-0.110107300529193 5:-0.162061807443792 
-19.0273138400435 1:-0.0877116042452415 2:0.156857585591908 3:-0.0283016109697988 4:0.0775955325556235 5:-0.421892816419612 
19.0273138400435 1:-0.0283016109697988 2:0.0775955325556235 3:-0.421892816419612 4:-0.276730111393736 5:-0.0920679472560878 
-19.0273138400435 1:0.211648101043766 2:0.0539133994094099 3:0.0663099728094008 4:-0.18024734672397 5:-0.00552583106745116 
19.0273138400435 1:0.069321404555156 2:0.249276379264977 3:0.079846797064586 4:-0.189281641961233 5:-0.4156652925182 
19.0273138400435 1:0.043826564921205 2:-0.0780925649796801 3:0.162734263076338 4:0.0168113908136713 5:-0.0626845598339314 
19.0273138400435 1:0.0963658158641028 2:0.0306698242844215 3:-0.0881209250650536 4:0.209776920153203 5:-0.0631231178551592 
19.0273138400435 1:0.0306698242844215 2:-0.0881209250650536 3:0.209776920153203 4:-0.0631231178551592 5:-0.0114609829547118 
19.0273138400435 1:0.102417916557029 2:0.159693594129169 3:0.105049264684382 4:-0.0163728327924435 5:-0.324620647311638 
19.0273138400435 1:0.126801742537204 2:0.262930152325817 3:-0.0937637049381623 4:-0.197935853580094 5:-0.105926380726838 
19.0273138400435 1:0.105049264684382 2:-0.0163728327924435 3:-0.324620647311638 4:0.172090167529163 5:-0.146595327895215 
19.0273138400435 1:-0.0163728327924435 2:-0.324620647311638 3:0.172090167529163 4:-0.146595327895215 5:0.210186240973015 
19.0273138400435 1:-0.197935853580094 2:-0.105926380726838 3:0.152004210157005 4:-0.0488846007660153 5:0.0183609624886698 
19.0273138400435 1:-0.324620647311638 2:0.172090167529163 3:-0.146595327895215 4:0.210186240973015 5:-0.102622576966934 
-14.5573228859232 1:-0.0182732508844253 2:-0.0558138175013891 3:0.259363213753179 4:-0.0429202116773364 5:0.188404525918778 
-19.0273138400435 1:0.0328041399877211 2:0.233692950910739 3:-0.121071251059848 4:-0.182644797240009 5:0.22126714030933 
-19.0273138400435 1:-0.0429202116773364 2:0.188404525918778 3:-0.331111306025787 4:0.152881326199456 5:0.249247142063561 
-19.0273138400435 1:0.233692950910739 2:-0.121071251059848 3:-0.182644797240009 4:0.22126714030933 5:0.0875361810367498 
-19.0273138400435 1:0.188404525918778 2:-0.331111306025787 3:0.152881326199456 4:0.249247142063561 5:-0.0761629096862852 
-19.0273138400435 1:-0.121071251059848 2:-0.182644797240009 3:0.22126714030933 4:0.0875361810367498 5:-0.228547203461684 
-19.0273138400435 1:-0.331111306025787 2:0.152881326199456 3:0.249247142063561 4:-0.0761629096862852 5:-0.301172411776742 
19.0273138400435 1:-0.0761629096862852 2:-0.301172411776742 3:-0.00944361605707239 4:-0.013916907873579 5:-0.056135426716954 
19.0273138400435 1:-0.228547203461684 2:-0.137180949039558 3:0.15583428354238 4:-0.202087536181036 5:-0.109814928515043 
19.0273138400435 1:-0.301172411776742 2:-0.00944361605707239 3:-0.013916907873579 4:-0.056135426716954 5:-0.0602286349150669 
19.0273138400435 1:-0.137180949039558 2:0.15583428354238 3:-0.202087536181036 4:-0.109814928515043 5:0.0502879864339406 
4.29467481615626 1:0.15583428354238 2:-0.202087536181036 3:-0.109814928515043 4:0.0502879864339406 5:0.429172879571966 
-19.0273138400435 1:-0.109814928515043 2:0.0502879864339406 3:0.429172879571966 4:0.219600619828669 5:-0.0711048738414749 
-19.0273138400435 1:-0.0602286349150669 2:0.240066660819228 3:0.102447153758442 4:0.275151302517322 5:0.11279712305938 
-19.0273138400435 1:0.0502879864339406 2:0.429172879571966 3:0.219600619828669 4:-0.0711048738414749 5:0.12533988246645 
-19.0273138400435 1:0.11279712305938 2:-0.250182732508843 3:0.0142969914919753 4:0.0840569540683564 5:-0.283220770107884 
-19.0273138400435 1:0.12533988246645 2:-0.176066426921615 3:0.201736689764055 4:-0.243984445808846 5:-0.125661491682017 
-19.0273138400435 1:-0.250182732508843 2:0.0142969914919753 3:0.0840569540683564 4:-0.283220770107884 5:0.0113440341490489 
-19.0273138400435 1:-0.176066426921615 2:0.201736689764055 3:-0.243984445808846 4:-0.125661491682017 5:0.10697891997778 
-19.0273138400435 1:0.0142969914919753 2:0.0840569540683564 3:-0.283220770107884 4:0.0113440341490489 5:0.0869806742098645 
-19.0273138400435 1:0.201736689764055 2:-0.243984445808846 3:-0.125661491682017 4:0.10697891997778 5:0.0545273806391267 
-19.0273138400435 1:0.0840569540683564 2:-0.283220770107884 3:0.0113440341490489 4:0.0869806742098645 5:0.245153933865451 
-19.0273138400435 1:-0.243984445808846 2:-0.125661491682017 3:0.10697891997778 4:0.0545273806391267 5:0.169224921790484 
-19.0273138400435 1:-0.283220770107884 2:0.0113440341490489 3:0.0869806742098645 4:0.245153933865451 5:-0.0183317252872567 
-19.0273138400435 1:-0.125661491682017 2:0.10697891997778 3:0.0545273806391267 4:0.169224921790484 5:-0.21892816419612 
-19.0273138400435 1:0.0113440341490489 2:0.0869806742098645 3:0.245153933865451 4:-0.0183317252872567 5:-0.555126743268133 
-19.0273138400435 1:0.10697891997778 2:0.0545273806391267 3:0.169224921790484 4:-0.21892816419612 5:-0.463234219220537 
-19.0273138400435 1:0.0869806742098645 2:0.245153933865451 3:-0.0183317252872567 4:-0.555126743268133 5:-0.00342075256556462 
-19.0273138400435 1:0.245153933865451 2:-0.0183317252872567 3:-0.555126743268133 4:-0.00342075256556462 5:-0.158991901295205 
-19.0273138400435 1:-0.0183317252872567 2:-0.555126743268133 3:-0.00342075256556462 4:-0.158991901295205 5:-0.256381019208842 
19.0273138400435 1:-0.463234219220537 2:-0.0411952167938488 3:-0.183697336490951 4:0.116510247639097 5:-0.247580621582902 
19.0273138400435 1:-0.0411952167938488 2:-0.183697336490951 3:0.116510247639097 4:-0.247580621582902 5:-0.128117416600882 
19.0273138400435 1:-0.158991901295205 2:-0.256381019208842 3:0.227231529398006 4:-0.0227173054995188 5:-0.317457532964944 
17.7977465168214 1:-0.256381019208842 2:0.227231529398006 3:-0.0227173054995188 4:-0.317457532964944 5:0.31386135719089 
19.0273138400435 1:0.227231529398006 2:-0.0227173054995188 3:-0.317457532964944 4:0.31386135719089 5:-0.288044908341374 
19.0273138400435 1:-0.247580621582902 2:-0.128117416600882 3:0.410607256673389 4:-0.116247112826358 5:0.101686986521649 
19.0273138400435 1:-0.0227173054995188 2:-0.317457532964944 3:0.31386135719089 4:-0.288044908341374 5:0.496447680028067 
13.2488779321672 1:0.31386135719089 2:-0.288044908341374 3:0.496447680028067 4:0.224249334853667 5:-0.00660760751980617 
19.0273138400435 1:-0.116247112826358 2:0.101686986521649 3:0.162646551472093 4:0.320527439113528 5:-0.0449960529778098 
19.0273138400435 1:-0.288044908341374 2:0.496447680028067 3:0.224249334853667 4:-0.00660760751980617 5:-0.052159167324504 
19.0273138400435 1:0.101686986521649 2:0.162646551472093 3:0.320527439113528 4:-0.0449960529778098 5:-0.0538841622079942 
19.0273138400435 1:0.496447680028067 2:0.224249334853667 3:-0.00660760751980617 4:-0.052159167324504 5:0.11814753091834 
19.0273138400435 1:0.224249334853667 2:-0.00660760751980617 3:-0.052159167324504 4:0.11814753091834 5:0.0556676314943132 
19.0273138400435 1:-0.00660760751980617 2:-0.052159167324504 3:0.11814753091834 4:0.0556676314943132 5:-0.0882671110721295 
19.0273138400435 1:-0.0449960529778098 2:-0.0538841622079942 3:0.176621933748501 4:-0.152091921761247 5:0.268222085781948 
19.0273138400435 1:-0.052159167324504 2:0.11814753091834 3:0.0556676314943132 4:-0.0882671110721295 5:0.337982048358332 
19.0273138400435 1:0.268222085781948 2:0.220799345086689 3:0.195012133438586 4:-0.16349443031313 5:-0.12320556676315 
19.0273138400435 1:-0.0817472151565652 2:0.0915709148320339 3:0.182440136830101 4:-0.0271613601146097 5:-0.108528491652778 
19.0273138400435 1:0.0915709148320339 2:0.182440136830101 3:-0.0271613601146097 4:-0.108528491652778 5:0.0823319591848662 
19.0273138400435 1:0.139052129930121 2:0.178902435458879 3:-0.111627635002778 4:-0.107388240797589 5:0.165190187995205 
19.0273138400435 1:0.182440136830101 2:-0.0271613601146097 3:-0.108528491652778 4:0.0823319591848662 5:0.102768762974007 
19.0273138400435 1:0.178902435458879 2:-0.111627635002778 3:-0.107388240797589 4:0.165190187995205 5:-0.192731631728211 
19.0273138400435 1:-0.0271613601146097 2:-0.108528491652778 3:0.0823319591848662 4:0.102768762974007 5:-0.13490044732918 
19.0273138400435 1:-0.111627635002778 2:-0.107388240797589 3:0.165190187995205 4:-0.192731631728211 5:0.0593222816711982 
19.0273138400435 1:-0.108528491652778 2:0.0823319591848662 3:0.102768762974007 4:-0.13490044732918 5:-0.122240739116453 
9.1155041865956 1:0.0823319591848662 2:0.102768762974007 3:-0.13490044732918 4:-0.122240739116453 5:0.611028272373767 
-19.0273138400435 1:-0.0452884249919591 2:0.0749057100254359 3:-0.187995205098968 4:0.0455223226032795 5:0.370289155921996 
-19.0273138400435 1:-0.21322690992018 2:-0.148349559980118 3:0.206853200011694 4:0.20752565564424 5:0.179077858667368 
-19.0273138400435 1:0.0749057100254359 2:-0.187995205098968 3:0.0455223226032795 4:0.370289155921996 5:0.0304359266730984 
-19.0273138400435 1:-0.148349559980118 2:0.206853200011694 3:0.20752565564424 4:0.179077858667368 5:0.0203783293863119 
19.0273138400435 1:0.20752565564424 2:0.179077858667368 3:0.0203783293863119 4:-0.324006666081924 5:-0.201444317749904 
19.0273138400435 1:0.0304359266730984 2:-0.200421015700377 3:-0.0530070461655412 4:-0.131450457562202 5:0.0148817355202764 
-19.0273138400435 1:0.139373739145689 2:-0.0946408209806152 3:0.210390901382919 4:0.212437505481974 5:0.104610706663157 
-19.0273138400435 1:0.0148817355202764 2:0.121539046282489 3:0.19053884162208 4:-0.0119287781773526 5:0.0733853755518531 
19.0273138400435 1:-0.0119287781773526 2:0.0733853755518531 3:0.0932959097155214 4:-0.0264304300792327 5:-0.031342279916967 
19.0273138400435 1:0.104610706663157 2:-0.00634447270707268 3:-0.191269771657457 4:0.192731631728211 5:-0.172762623161711 
19.0273138400435 1:0.0733853755518531 2:0.0932959097155214 3:-0.0264304300792327 4:-0.031342279916967 5:-0.299827500511651 
19.0273138400435 1:-0.00634447270707268 2:-0.191269771657457 3:0.192731631728211 4:-0.172762623161711 5:-0.120895827851356 
19.0273138400435 1:0.0932959097155214 2:-0.0264304300792327 3:-0.031342279916967 4:-0.299827500511651 5:-0.027863052948571 
19.0273138400435 1:-0.191269771657457 2:0.192731631728211 3:-0.172762623161711 4:-0.120895827851356 5:0.155395725521152 
19.0273138400435 1:0.0795251878490211 2:0.0145601263047088 3:0.0507557816565761 4:-0.0473057918895958 5:0.26766657895506 
14.7418824453941 1:0.0145601263047088 2:0.0507557816565761 3:-0.0473057918895958 4:0.26766657895506 5:0.102534865362686 
19.0273138400435 1:-0.22416162324942 2:0.28088179399468 3:-0.00625676110283085 4:0.290968628482882 5:-0.288044908341374 
19.0273138400435 1:0.28088179399468 2:-0.00625676110283085 3:0.290968628482882 4:-0.288044908341374 5:-0.164283834751339 
19.0273138400435 1:-0.0473057918895958 2:0.26766657895506 3:0.102534865362686 4:-0.224366283659327 5:-0.1828202204485 
19.0273138400435 1:-0.00625676110283085 2:0.290968628482882 3:-0.288044908341374 4:-0.164283834751339 5:0.0394409847089483 
19.0273138400435 1:0.26766657895506 2:0.102534865362686 3:-0.224366283659327 4:-0.1828202204485 5:0.0631523550565749 
19.0273138400435 1:0.290968628482882 2:-0.288044908341374 3:-0.164283834751339 4:0.0394409847089483 5:0.472151565652134 
19.0273138400435 1:-0.224366283659327 2:-0.1828202204485 3:0.0631523550565749 4:0.552875478759173 5:0.0871560974183535 
19.0273138400435 1:-0.164283834751339 2:0.0394409847089483 3:0.472151565652134 4:0.0955764114258943 5:0.0539718738122413 
19.0273138400435 1:-0.1828202204485 2:0.0631523550565749 3:0.552875478759173 4:0.0871560974183535 5:-0.161213928602752 
19.0273138400435 1:0.0394409847089483 2:0.472151565652134 3:0.0955764114258943 4:0.0539718738122413 5:-0.0313715171183801 
-19.0273138400435 1:0.472151565652134 2:0.0955764114258943 3:0.0539718738122413 4:-0.0313715171183801 5:0.121539046282489 
-19.0273138400435 1:0.552875478759173 2:0.0871560974183535 3:-0.161213928602752 4:0.101102242493348 5:0.062129053007046 
-19.0273138400435 1:0.0955764114258943 2:0.0539718738122413 3:-0.0313715171183801 4:0.121539046282489 5:0.205742186357918 
-19.0273138400435 1:0.0871560974183535 2:-0.161213928602752 3:0.101102242493348 4:0.062129053007046 5:0.103733590620704 
-19.0273138400435 1:0.0539718738122413 2:-0.0313715171183801 3:0.121539046282489 4:0.205742186357918 5:-0.0297927082419632 
-19.0273138400435 1:-0.161213928602752 2:0.101102242493348 3:0.062129053007046 4:0.103733590620704 5:0.39677806040406 
-19.0273138400435 1:-0.0313715171183801 2:0.121539046282489 3:0.205742186357918 4:-0.0297927082419632 5:0.267842002163549 
-19.0273138400435 1:0.101102242493348 2:0.062129053007046 3:0.103733590620704 4:0.39677806040406 5:0.0409905563839388 
-19.0273138400435 1:0.121539046282489 2:0.205742186357918 3:-0.0297927082419632 4:0.267842002163549 5:0.0244715375844247 
-19.0273138400435 1:0.062129053007046 2:0.103733590620704 3:0.39677806040406 4:0.0409905563839388 5:-0.351489635412096 
-17.7949007145826 1:0.205742186357918 2:-0.0297927082419632 3:0.267842002163549 4:0.0244715375844247 5:-0.644183258778468 
-19.0273138400435 1:0.103733590620704 2:0.39677806040406 3:0.0409905563839388 4:-0.351489635412096 5:-0.434260152618193 
-19.0273138400435 1:-0.0297927082419632 2:0.267842002163549 3:0.0244715375844247 4:-0.644183258778468 5:-0.0692629301523272 
-4.07703765877355 1:0.0244715375844247 2:-0.644183258778468 3:-0.0692629301523272 4:-0.69990936467561 5:-0.1560681811537 
-7.55039433633528 1:-0.351489635412096 2:-0.434260152618193 3:-0.522848872905884 4:-0.0681811536999642 5:-0.237113703476304 
-9.68158389338616 1:-0.644183258778468 2:-0.0692629301523272 3:-0.69990936467561 4:-0.1560681811537 5:-0.0931789609098612 
-19.0273138400435 1:-0.434260152618193 2:-0.522848872905884 3:-0.0681811536999642 4:-0.237113703476304 5:0.270268689881003 
-19.0273138400435 1:-0.0692629301523272 2:-0.69990936467561 3:-0.1560681811537 4:-0.0931789609098612 5:0.521065403619563 
-19.0273138400435 1:-0.522848872905884 2:-0.0681811536999642 3:-0.237113703476304 4:0.270268689881003 5:-0.22340145601263 
-19.0273138400435 1:-0.69990936467561 2:-0.1560681811537 3:-0.0931789609098612 4:0.521065403619563 5:-0.152150396164079 
-19.0273138400435 1:-0.0681811536999642 2:-0.237113703476304 3:0.270268689881003 4:-0.22340145601263 5:0.46747361342572 
-19.0273138400435 1:-0.1560681811537 2:-0.0931789609098612 3:0.521065403619563 4:-0.152150396164079 5:0.339560857234746 
-19.0273138400435 1:-0.237113703476304 2:0.270268689881003 3:-0.22340145601263 4:0.46747361342572 5:-0.366488319738032 
-5.46237393767302 1:-0.0931789609098612 2:0.521065403619563 3:-0.152150396164079 4:0.339560857234746 5:-0.598017717744056 
1.71002819418751 1:-0.152150396164079 2:0.339560857234746 3:-0.598017717744056 4:-0.316404993714002 5:-0.400695845393679 
11.4941106206172 1:0.46747361342572 2:-0.366488319738032 3:-0.317135923749376 4:-0.209747682951789 5:-0.717890243545886 
14.4033026486052 1:-0.598017717744056 2:-0.316404993714002 3:-0.400695845393679 4:-0.219600619828669 5:0.44887875332573 
7.3217866271954 1:-0.317135923749376 2:-0.209747682951789 3:-0.717890243545886 4:0.750431248720871 5:-0.369031956261147 
19.0273138400435 1:-0.316404993714002 2:-0.400695845393679 3:-0.219600619828669 4:0.44887875332573 5:-0.214893430400842 
7.88440396022604 1:-0.209747682951789 2:-0.717890243545886 3:0.750431248720871 4:-0.369031956261147 5:0.301815630207877 
10.3279576197811 1:-0.717890243545886 2:0.750431248720871 3:-0.369031956261147 4:0.301815630207877 5:-0.0843200888810926 
19.0273138400435 1:-0.219600619828669 2:0.44887875332573 3:-0.214893430400842 4:0.175306259684823 5:0.13586527497588 
12.3248003184796 1:0.750431248720871 2:-0.369031956261147 3:0.301815630207877 4:-0.0843200888810926 5:-0.111510686197118 
-19.0273138400435 1:-0.369031956261147 2:0.301815630207877 3:-0.0843200888810926 4:-0.111510686197118 5:0.737888489313802 
-19.0273138400435 1:0.301815630207877 2:-0.0843200888810926 3:-0.111510686197118 4:0.737888489313802 5:0.300119872525803 
11.6269383917605 1:0.175306259684823 2:0.13586527497588 3:-0.108440780048534 4:0.699850890272781 5:-0.0149986843259366 
-19.0273138400435 1:-0.0843200888810926 2:-0.111510686197118 3:0.737888489313802 4:0.300119872525803 5:-0.127678858579657 
-12.0126554032999 1:0.13586527497588 2:-0.108440780048534 3:0.699850890272781 4:-0.0149986843259366 5:-0.0259918720580049 
-19.0273138400435 1:-0.111510686197118 2:0.737888489313802 3:0.300119872525803 4:-0.127678858579657 5:-0.066251498406572 
-18.6480871908849 1:0.737888489313802 2:0.300119872525803 3:-0.127678858579657 4:-0.066251498406572 5:-0.181270648773499 
19.0273138400435 1:0.699850890272781 2:-0.0149986843259366 3:-0.0259918720580049 4:0.149782182849459 5:-0.626933309943572 
19.0273138400435 1:0.300119872525803 2:-0.127678858579657 3:-0.066251498406572 4:-0.181270648773499 5:-0.47688799228138 
19.0273138400435 1:-0.0149986843259366 2:-0.0259918720580049 3:0.149782182849459 4:-0.626933309943572 5:-0.289389819606468 
19.0273138400435 1:-0.127678858579657 2:-0.066251498406572 3:-0.181270648773499 4:-0.47688799228138 5:-0.151185568517381 
19.0273138400435 1:-0.066251498406572 2:-0.181270648773499 3:-0.47688799228138 4:-0.151185568517381 5:0.319182527848434 
-10.3887960467166 1:0.149782182849459 2:-0.626933309943572 3:-0.289389819606468 4:0.537321287606349 5:-0.361108674677657 
-2.00174751888353 1:-0.626933309943572 2:-0.289389819606468 3:0.537321287606349 4:-0.361108674677657 5:0.574891091424728 
3.1719393813483 1:-0.289389819606468 2:0.537321287606349 3:-0.361108674677657 4:0.574891091424728 5:-0.0143554658948068 
19.0273138400435 1:0.0520129813174254 2:0.0321901587580043 3:-0.177557524193783 4:-0.00119872525801788 5:-0.117241177674474 
-19.0273138400435 1:-0.0858111861532596 2:0.38809461158378 3:0.16972195421454 4:0.0223079846797094 5:-0.121363623074 
-3.73542013362102 1:-0.117241177674474 2:0.548840744963889 3:0.0658714147881783 4:-0.0458731690202628 5:-0.1072128175891 
-19.0273138400435 1:0.38809461158378 2:0.16972195421454 3:0.0223079846797094 4:-0.121363623074 5:-0.00631523550565696 
-19.0273138400435 1:0.548840744963889 2:0.0658714147881783 3:-0.0458731690202628 4:-0.1072128175891 5:0.0924187936730711 
-19.0273138400435 1:-0.121363623074 2:-0.00631523550565696 3:0.19182527848434 4:0.0143847030962198 5:0.188287577113117 
-2.52650555972955 1:0.0143847030962198 2:0.188287577113117 3:-0.482852381370053 4:-0.0749641844282647 5:0.352395988655967 
19.0273138400435 1:-0.147881764757477 2:0.156945297196153 3:0.0277461041429108 4:0.0954886998216525 5:0.00400549659386837 
19.0273138400435 1:-0.0749641844282647 2:0.352395988655967 3:-0.0562816127240299 4:-0.0464286758471508 5:0.0752565564424166 
19.0273138400435 1:0.156945297196153 2:0.0277461041429108 3:0.0954886998216525 4:0.00400549659386837 5:-0.137911879074935 
19.0273138400435 1:0.0277461041429108 2:0.0954886998216525 3:0.00400549659386837 4:-0.137911879074935 5:0.313188901558345 
19.0273138400435 1:0.0954886998216525 2:0.00400549659386837 3:-0.137911879074935 4:0.313188901558345 5:0.113703476303246 
19.0273138400435 1:-0.0464286758471508 2:0.0752565564424166 3:0.073297663947606 4:0.228430254656027 5:-0.0200567201707469 
19.0273138400435 1:0.00400549659386837 2:-0.137911879074935 3:0.313188901558345 4:0.113703476303246 5:-0.085665000146189 
19.0273138400435 1:0.0752565564424166 2:0.073297663947606 3:0.228430254656027 4:-0.0200567201707469 5:-0.0637955734877048 
19.0273138400435 1:-0.137911879074935 2:0.313188901558345 3:0.113703476303246 4:-0.085665000146189 5:0.22597432973716 
19.0273138400435 1:0.073297663947606 2:0.228430254656027 3:-0.0200567201707469 4:-0.0637955734877048 5:0.358594275355961 
19.0273138400435 1:0.313188901558345 2:0.113703476303246 3:-0.085665000146189 4:0.22597432973716 5:-0.0127181826155611 
19.0273138400435 1:0.228430254656027 2:-0.0200567201707469 3:-0.0637955734877048 4:0.358594275355961 5:-0.093792942139578 
19.0273138400435 1:0.113703476303246 2:-0.085665000146189 3:0.22597432973716 4:-0.0127181826155611 5:0.0856065257433576 
19.0273138400435 1:-0.0200567201707469 2:-0.0637955734877048 3:0.358594275355961 4:-0.093792942139578 5:0.00654913311697738 
19.0273138400435 1:-0.085665000146189 2:0.22597432973716 3:-0.0127181826155611 4:0.0856065257433576 5:0.1849545361518 
19.0273138400435 1:0.10461070666316 2:0.172996520773031 3:-0.0464579130485612 4:-0.014296991491978 5:-0.153232172616436 
19.0273138400435 1:0.110896704967396 2:-0.0864544045843922 3:0.153466070227757 4:0.0409613191825284 5:-0.0301435546589465 
19.0273138400435 1:0.153466070227757 2:0.0409613191825284 3:-0.0301435546589465 4:0.189369353565478 5:-0.375259480162559 
19.0273138400435 1:0.226792971376779 2:-0.0128058942198029 3:0.0611349881589329 4:0.0448791041721496 5:-0.239131070373946 
19.0273138400435 1:0.0409613191825284 2:-0.0301435546589465 3:0.189369353565478 4:-0.375259480162559 5:0.370084495512089 
19.0273138400435 1:-0.0128058942198029 2:0.0611349881589329 3:0.0448791041721496 4:-0.239131070373946 5:0.343127795807386 
19.0273138400435 1:-0.0301435546589465 2:0.189369353565478 3:-0.375259480162559 4:0.370084495512089 5:0.00555506826886423 
12.9702854305749 1:0.189369353565478 2:-0.375259480162559 3:0.370084495512089 4:0.00555506826886423 5:0.338742215595124 
-19.0273138400435 1:-0.0670993772476119 2:0.0663976844136506 3:0.0509896792678966 4:0.17033593544426 5:-0.00277753413442945 
-19.0273138400435 1:-0.016285121188199 2:0.0499079028155415 3:0.257111949244219 4:-0.123234803964569 5:0.0696722509721366 
-19.0273138400435 1:0.0663976844136506 2:0.0509896792678966 3:0.17033593544426 4:-0.00277753413442945 5:-0.105224687892874 
-5.53175706283642 1:0.0499079028155415 2:0.257111949244219 3:-0.123234803964569 4:0.0696722509721366 5:-0.195158319445662 
19.0273138400435 1:-0.195158319445662 2:0.34286466099465 3:-0.118059819314093 4:-0.0756074028593998 5:-0.210624798994237 
19.0273138400435 1:-0.00350846416981178 2:0.206151507177733 3:-0.118527614536739 4:-0.313364324766828 5:-0.00333304096132279 
19.0273138400435 1:-0.313364324766828 2:-0.00333304096132279 3:0.114580592345702 4:0.223576879221119 5:-0.041458351606585 
19.0273138400435 1:-0.00333304096132279 2:0.114580592345702 3:0.223576879221119 4:-0.041458351606585 5:0.0161974095839572 
19.0273138400435 1:-0.111101365377306 2:0.40002338976113 3:0.01847791129433 4:0.0972721691079741 5:0.0590591468584594 
19.0273138400435 1:0.40002338976113 2:0.01847791129433 3:0.0972721691079741 4:0.0590591468584594 5:-0.131772066777767 
4.81214389720785 1:0.223576879221119 2:-0.041458351606585 3:0.0161974095839572 4:0.402216179867261 5:-0.334444346987104 
19.0273138400435 1:0.0972721691079741 2:0.0590591468584594 3:-0.131772066777767 4:-0.0441774113381883 5:0.336754085898898 
16.6963547938883 1:0.0590591468584594 2:-0.131772066777767 3:-0.0441774113381883 4:0.336754085898898 5:0.206151507177733 
-19.0273138400435 1:0.336754085898898 2:0.206151507177733 3:0.0585036400315767 4:0.000847878841039887 5:-0.255006870742335 
-19.0273138400435 1:0.35464725316493 2:-0.0423354676490406 3:0.118147530918345 4:-0.181182937169257 5:0.174546092448033 
-19.0273138400435 1:0.206151507177733 2:0.0585036400315767 3:0.000847878841039887 4:-0.255006870742335 5:0.494079466713445 
-19.0273138400435 1:-0.0423354676490406 2:0.118147530918345 3:-0.181182937169257 4:0.174546092448033 5:0.244452241031484 
-19.0273138400435 1:0.0585036400315767 2:0.000847878841039887 3:-0.255006870742335 4:0.494079466713445 5:0.0178639300646159 
-19.0273138400435 1:0.118147530918345 2:-0.181182937169257 3:0.174546092448033 4:0.244452241031484 5:0.0554629710844111 
-19.0273138400435 1:0.000847878841039887 2:-0.255006870742335 3:0.494079466713445 4:0.0178639300646159 5:0.000321609215567585 
-19.0273138400435 1:-0.181182937169257 2:0.174546092448033 3:0.244452241031484 4:0.0554629710844111 5:-0.0610180393532753 
-19.0273138400435 1:-0.255006870742335 2:0.494079466713445 3:0.0178639300646159 4:0.000321609215567585 5:-0.0389731894863021 
-19.0273138400435 1:0.174546092448033 2:0.244452241031484 3:0.0554629710844111 4:-0.0610180393532753 5:-0.0339736280443206 
-9.34615331138949 1:0.244452241031484 2:0.0554629710844111 3:-0.0610180393532753 4:-0.0339736280443206 5:-0.868052510013739 
-9.32155252454513 1:0.0178639300646159 2:0.000321609215567585 3:-0.0389731894863021 4:-0.996374587024531 5:-0.0150279215273497 
5.38319814877013 1:0.0554629710844111 2:-0.0610180393532753 3:-0.0339736280443206 4:-0.868052510013739 5:-0.487004063971 
5.10694575922828 1:-0.0389731894863021 2:-0.996374587024531 3:-0.0150279215273497 4:-0.690875069438355 5:0.471391398415347 
8.82192804836028 1:-0.0339736280443206 2:-0.868052510013739 3:-0.487004063971 4:0.140455515598049 5:0.212379031079143 
6.82663543940222 1:-0.868052510013739 2:-0.487004063971 3:0.140455515598049 4:0.212379031079143 5:0.123614887582962 
19.0273138400435 1:-0.0150279215273497 2:-0.690875069438355 3:0.471391398415347 4:0.280063152355053 5:-0.49150659298892 
13.5019671393291 1:-0.487004063971 2:0.140455515598049 3:0.212379031079143 4:0.123614887582962 5:-0.474578253369586 
3.81637920901956 1:-0.690875069438355 2:0.471391398415347 3:0.280063152355053 4:-0.49150659298892 5:0.229131947489988 
19.0273138400435 1:0.140455515598049 2:0.212379031079143 3:0.123614887582962 4:-0.474578253369586 5:0.0713387714527953 
13.1870298808737 1:0.471391398415347 2:0.280063152355053 3:-0.49150659298892 4:0.229131947489988 5:0.250709002134315 
4.15108173989023 1:-0.49150659298892 2:0.229131947489988 3:0.250709002134315 4:0.662895067684119 5:0.0604332953249716 
16.8256806608126 1:0.0713387714527953 2:0.512411192000701 3:0.454784668011575 4:0.0805192526971342 5:-0.359120544981433 
10.4985398434316 1:0.250709002134315 2:0.662895067684119 3:0.0604332953249716 4:-0.145045756220211 5:-0.0283893225740459 
19.0273138400435 1:0.512411192000701 2:0.454784668011575 3:0.0805192526971342 4:-0.359120544981433 5:0.126567844925881 
19.0273138400435 1:0.662895067684119 2:0.0604332953249716 3:-0.145045756220211 4:-0.0283893225740459 5:0.0773908721457162 
19.0273138400435 1:0.454784668011575 2:0.0805192526971342 3:-0.359120544981433 4:0.126567844925881 5:0.349793877730021 
19.0273138400435 1:0.0604332953249716 2:-0.145045756220211 3:-0.0283893225740459 4:0.0773908721457162 5:0.271935210361664 
19.0273138400435 1:0.0805192526971342 2:-0.359120544981433 3:0.126567844925881 4:0.349793877730021 5:0.13188901558343 
19.0273138400435 1:-0.145045756220211 2:-0.0283893225740459 3:0.0773908721457162 4:0.271935210361664 5:0.0896120223372206 
19.0273138400435 1:-0.359120544981433 2:0.126567844925881 3:0.349793877730021 4:0.13188901558343 5:0.123176329561737 
19.0273138400435 1:-0.0283893225740459 2:0.0773908721457162 3:0.271935210361664 4:0.0896120223372206 5:-0.0455515598046952 
19.0273138400435 1:0.126567844925881 2:0.349793877730021 3:0.13188901558343 4:0.123176329561737 5:0.0264889044820614 
19.0273138400435 1:0.0773908721457162 2:0.271935210361664 3:0.0896120223372206 4:-0.0455515598046952 5:0.319357951056928 
19.0273138400435 1:0.13188901558343 2:0.123176329561737 3:0.0264889044820614 4:0.432038125310646 5:0.0273075461216856 
19.0273138400435 1:0.0896120223372206 2:-0.0455515598046952 3:0.319357951056928 4:0.318188463000321 5:-0.0877116042452415 
19.0273138400435 1:0.123176329561737 2:0.0264889044820614 3:0.432038125310646 4:0.0273075461216856 5:0.182644797240006 
19.0273138400435 1:-0.0455515598046952 2:0.319357951056928 3:0.318188463000321 4:-0.0877116042452415 5:0.172119404730576 
19.0273138400435 1:0.0264889044820614 2:0.432038125310646 3:0.0273075461216856 4:0.182644797240006 5:-0.142794491711254 
19.0273138400435 1:0.0273075461216856 2:0.182644797240006 3:-0.142794491711254 4:0.195860012279624 5:-0.256585679618747 
19.0273138400435 1:0.182644797240006 2:-0.142794491711254 3:0.195860012279624 4:-0.256585679618747 5:0.263924217173933 
7.49761356460558 1:0.263924217173933 2:0.219279010613104 3:-0.0145308891032931 4:-0.346928631991345 5:0.280706370786183 
19.0273138400435 1:0.333742654153143 2:0.208022688068297 3:0.00830336520188329 4:-0.119580153787678 5:-0.0651989591556327 
19.0273138400435 1:0.219279010613104 2:-0.0145308891032931 3:-0.346928631991345 4:0.280706370786183 5:0.175569394497562 
19.0273138400435 1:0.208022688068297 2:0.00830336520188329 3:-0.119580153787678 4:-0.0651989591556327 5:0.158611817676812 
19.0273138400435 1:-0.0145308891032931 2:-0.346928631991345 3:0.280706370786183 4:0.175569394497562 5:0.199719322866413 
-19.0273138400435 1:-0.119580153787678 2:-0.0651989591556327 3:0.158611817676812 4:0.22945355670555 5:0.0473642662924325 
-19.0273138400435 1:0.175569394497562 2:0.199719322866413 3:0.0211092594216862 4:-0.258603046516384 5:0.233839136917812 
-19.0273138400435 1:0.158611817676812 2:0.22945355670555 3:0.0473642662924325 4:-0.109785691313625 5:0.255825512381954 
19.0273138400435 1:-0.109785691313625 2:0.255825512381954 3:0.23094465397772 4:-0.120252609420229 5:-0.82019121129725 
-3.35461468657729 1:0.23094465397772 2:-0.120252609420229 3:-0.82019121129725 4:0.353156155892755 5:0.0636493874806315 
-19.0273138400435 1:-0.120252609420229 2:-0.82019121129725 3:0.353156155892755 4:0.0636493874806315 5:0.439815220887057 
-4.82532177226207 1:-0.494225652720518 2:-0.201561266555566 3:-0.296991491974387 4:0.591468584627082 5:0.230038300733849 
-1.40574446624123 1:-0.82019121129725 2:0.353156155892755 3:0.0636493874806315 4:0.439815220887057 5:0.0368096365815868 
4.71150813185113 1:0.353156155892755 2:0.0636493874806315 3:0.439815220887057 4:0.0368096365815868 5:-0.192176124901323 
19.0273138400435 1:-0.296991491974387 2:0.591468584627082 3:0.230038300733849 4:-0.293512265005991 5:-0.164049937140018 
14.487632484025 1:0.591468584627082 2:0.230038300733849 3:-0.293512265005991 4:-0.164049937140018 5:-0.218343420167817 
19.0273138400435 1:0.439815220887057 2:0.0368096365815868 3:-0.192176124901323 4:-0.449112650937053 5:0.12200684150513 
19.0273138400435 1:0.230038300733849 2:-0.293512265005991 3:-0.164049937140018 4:-0.218343420167817 5:0.267461918545155 
19.0273138400435 1:0.0368096365815868 2:-0.192176124901323 3:-0.449112650937053 4:0.12200684150513 5:0.0704908926117608 
15.5857324569725 1:-0.293512265005991 2:-0.164049937140018 3:-0.218343420167817 4:0.267461918545155 5:0.384936993830949 
19.0273138400435 1:-0.192176124901323 2:-0.449112650937053 3:0.12200684150513 4:0.0704908926117608 5:0.46659649738327 
19.0273138400435 1:-0.164049937140018 2:-0.218343420167817 3:0.267461918545155 4:0.384936993830949 5:0.0842323772768454 
-19.0273138400435 1:0.267461918545155 2:0.384936993830949 3:0.0842323772768454 4:0.214484109581032 5:-0.248282314416864 
-19.0273138400435 1:0.0704908926117608 2:0.46659649738327 3:0.125076747653711 4:-0.35616758763851 5:0.713738560944947 
-19.0273138400435 1:0.384936993830949 2:0.0842323772768454 3:0.214484109581032 4:-0.248282314416864 5:0.602257111949242 
-19.0273138400435 1:0.46659649738327 2:0.125076747653711 3:-0.35616758763851 4:0.713738560944947 5:-0.0278045785457422 
-19.0273138400435 1:0.0842323772768454 2:0.214484109581032 3:-0.248282314416864 4:0.602257111949242 5:-0.147092360319268 
-19.0273138400435 1:0.125076747653711 2:-0.35616758763851 3:0.713738560944947 4:-0.0278045785457422 5:-0.11665643364617 
-19.0273138400435 1:0.214484109581032 2:-0.248282314416864 3:0.602257111949242 4:-0.147092360319268 5:0.0691459813466643 
-19.0273138400435 1:-0.35616758763851 2:0.713738560944947 3:-0.0278045785457422 4:-0.11665643364617 5:-0.220302312662633 
-19.0273138400435 1:-0.248282314416864 2:0.602257111949242 3:-0.147092360319268 4:0.0691459813466643 5:-0.211765049849429 
-19.0273138400435 1:0.713738560944947 2:-0.0278045785457422 3:-0.11665643364617 4:-0.220302312662633 5:-0.476507908662981 
-10.3257814982457 1:0.602257111949242 2:-0.147092360319268 3:0.0691459813466643 4:-0.211765049849429 5:-0.559073765459167 
-8.85311705516471 1:-0.0278045785457422 2:-0.11665643364617 3:-0.220302312662633 4:-0.476507908662981 5:-0.747215156565217 
