svm_type epsilon_svr
kernel_type rbf
gamma 0.0743254446876701
nr_class 2
total_sv 745
rho 0.334799341976152
SV
3.55713570471212 1:-9.69100130080562 2:3.10927285184133 3:-0.796892967127549 4:2.34810958495228 5:-0.768682866629078 
-9.25948668571792 1:-7.70151842911169 2:1.11978998014739 3:-0.476378979606418 4:2.02759559743115 5:-1.0800064090434 
-0.0778750166370752 1:-3.41672637036741 2:-0.937362607481695 3:-0.636340295585702 4:1.72798174449551 5:-1.88853441603736 
-16.7080805863579 1:0.744948765560949 2:-2.90146365818944 3:-0.796892967127549 4:1.57942671832321 5:-3.05175240039386 
15.9436426023836 1:2.90146365818944 2:-3.69835662531699 3:-0.811789022217946 4:1.6086819893455 5:-2.43593458594451 
-23.0461116600465 1:2.34810958495228 2:-2.34810958495228 3:-0.811789022217946 4:2.39121574054115 5:-4.92180226701819 
21.5093169925515 1:2.93995704989682 2:-2.93995704989682 3:1.49485132997724 4:2.22763947111524 5:-2.88567400224742 
17.144114247491 1:5.01666094657303 2:-2.43593458594451 3:3.06308553027796 4:1.67937946253587 5:-2.30653040686932 
8.63650436047048 1:8.74889389824913 2:-1.86822129677542 3:0.944155623284137 4:1.67937946253587 5:-1.52399665567367 
5.26739291530631 1:6.7455033669781 2:-1.86822129677542 3:1.86822129677542 4:-0.768682866629078 5:-1.57942671832321 
14.4689268186614 1:3.10927285184133 2:-0.796892967127549 3:2.34810958495228 4:-0.768682866629078 5:-3.21846833714017 
10.8879192896269 1:1.11978998014739 2:-0.476378979606418 3:2.02759559743115 4:-1.0800064090434 5:-3.92110792981382 
-26.9086852881189 1:-0.937362607481695 2:-0.636340295585702 3:1.72798174449551 4:-1.88853441603736 5:-2.65300475390493 
22.0699774488125 1:-2.90146365818944 2:-0.796892967127549 3:1.57942671832321 4:-3.05175240039386 5:-1.52399665567367 
-26.9086852881189 1:-3.69835662531699 2:-0.811789022217946 3:1.6086819893455 4:-2.43593458594451 5:-0.167358388956584 
-9.90409674556623 1:-2.34810958495228 2:-0.811789022217946 3:2.39121574054115 4:-4.92180226701819 5:2.20157398177205 
20.9130345589142 1:-2.93995704989682 2:1.49485132997724 3:2.22763947111524 4:-2.88567400224742 5:0.165445717001278 
26.9086852881189 1:-2.43593458594451 2:3.06308553027796 3:1.67937946253587 4:-2.30653040686932 5:-2.43593458594451 
-0.160948503986763 1:-1.86822129677542 2:0.944155623284137 3:1.67937946253587 4:-1.52399665567367 5:-3.21846833714017 
-10.3777638644462 1:-1.86822129677542 2:1.86822129677542 3:-0.768682866629078 4:-1.57942671832321 5:-1.97440581957573 
26.7089982110079 1:-0.796892967127549 2:2.34810958495228 3:-0.768682866629078 4:-3.21846833714017 5:-0.167358388956584 
-20.6456112222471 1:-0.476378979606418 2:2.02759559743115 3:-1.0800064090434 4:-3.92110792981382 5:0.6785989343292 
26.9086852881189 1:-0.636340295585702 2:1.72798174449551 3:-1.88853441603736 4:-2.65300475390493 5:1.18067907183428 
-26.9086852881189 1:-0.796892967127549 2:1.57942671832321 3:-3.05175240039386 4:-1.52399665567367 5:2.99632233774432 
-21.0095572933247 1:-0.811789022217946 2:1.6086819893455 3:-2.43593458594451 4:-0.167358388956584 5:1.80640000777355 
-1.46441498570316 1:-0.811789022217946 2:2.39121574054115 3:-4.92180226701819 4:2.20157398177205 5:-0.331524115147719 
1.13146541759151 1:1.49485132997724 2:2.22763947111524 3:-2.88567400224742 4:0.165445717001278 5:-0.665598440850612 
20.7775349948654 1:3.06308553027796 2:1.67937946253587 3:-2.30653040686932 4:-2.43593458594451 5:-0.843316753686274 
26.9086852881189 1:0.944155623284137 2:1.67937946253587 3:-1.52399665567367 4:-3.21846833714017 5:-0.843316753686274 
26.9086852881189 1:1.86822129677542 2:-0.768682866629078 3:-1.57942671832321 4:-1.97440581957573 5:-0.507952552927504 
26.9086852881189 1:2.34810958495228 2:-0.768682866629078 3:-3.21846833714017 4:-0.167358388956584 5:-1.71004169855156 
20.2707387047243 1:2.02759559743115 2:-1.0800064090434 3:-3.92110792981382 4:0.6785989343292 5:-3.14084642516241 
26.9086852881189 1:1.72798174449551 2:-1.88853441603736 3:-2.65300475390493 4:1.18067907183428 5:-5.30285274461364 
11.2118846345578 1:1.57942671832321 2:-3.05175240039386 3:-1.52399665567367 4:2.99632233774432 5:-6.02959018872511 
16.7899799076465 1:1.6086819893455 2:-2.43593458594451 3:-0.167358388956584 4:1.80640000777355 5:-6.02959018872511 
20.5841780194493 1:2.39121574054115 2:-4.92180226701819 3:2.20157398177205 4:-0.331524115147719 5:-2.74744229737482 
26.9086852881189 1:2.22763947111524 2:-2.88567400224742 3:0.165445717001278 4:-0.665598440850612 5:-2.41336797167193 
9.4684249474936 1:1.67937946253587 2:-2.30653040686932 3:-2.43593458594451 4:-0.843316753686274 5:0.33929428973396 
12.8099709415184 1:1.67937946253587 2:-1.52399665567367 3:-3.21846833714017 4:-0.843316753686274 5:2.3212099568453 
26.9086852881189 1:-0.768682866629078 2:-1.57942671832321 3:-1.97440581957573 4:-0.507952552927504 5:3.27925133963078 
10.1909572546844 1:-0.768682866629078 2:-3.21846833714017 3:-0.167358388956584 4:-1.71004169855156 5:3.5164417063251 
-1.60482610012843 1:-1.0800064090434 2:-3.92110792981382 3:0.6785989343292 4:-3.14084642516241 5:5.91214521186569 
2.19342775135163 1:-1.88853441603736 2:-2.65300475390493 3:1.18067907183428 4:-5.30285274461364 5:8.1992223381453 
2.98377978870763 1:-3.05175240039386 2:-1.52399665567367 3:2.99632233774432 4:-6.02959018872511 5:6.98412197934815 
1.46382518594622 1:-2.43593458594451 2:-0.167358388956584 3:1.80640000777355 4:-6.02959018872511 5:6.02959018872511 
26.9086852881189 1:-4.92180226701819 2:2.20157398177205 3:-0.331524115147719 4:-2.74744229737482 5:4.21976797944548 
-0.290938657398586 1:-2.88567400224742 2:0.165445717001278 3:-0.665598440850612 4:-2.41336797167193 5:5.01666094657303 
20.5408020941606 1:-2.30653040686932 2:-2.43593458594451 3:-0.843316753686274 4:0.33929428973396 5:4.03159849880663 
13.0964494573301 1:-1.52399665567367 2:-3.21846833714017 3:-0.843316753686274 4:2.3212099568453 5:4.15394310565307 
-26.9086852881189 1:-1.57942671832321 2:-1.97440581957573 3:-0.507952552927504 4:3.27925133963078 5:5.20290000040098 
-13.2149138808549 1:-3.21846833714017 2:-0.167358388956584 3:-1.71004169855156 4:3.5164417063251 5:4.57574905606752 
9.77452134770065 1:-3.92110792981382 2:0.6785989343292 3:-3.14084642516241 4:5.91214521186569 5:3.48835702459924 
-1.91174540530147 1:-2.65300475390493 2:1.18067907183428 3:-5.30285274461364 4:8.1992223381453 5:4.01172232079827 
1.48886663290161 1:-1.52399665567367 2:2.99632233774432 3:-6.02959018872511 4:6.98412197934815 5:4.62292934119688 
-0.692252102946304 1:-0.167358388956584 2:1.80640000777355 3:-6.02959018872511 4:6.02959018872511 5:5.29360751877985 
-6.19162699063504 1:2.20157398177205 2:-0.331524115147719 3:-2.74744229737482 4:4.21976797944548 5:5.99979296752853 
14.2778264332156 1:0.165445717001278 2:-0.665598440850612 3:-2.41336797167193 4:5.01666094657303 5:6.5817284489643 
26.9086852881189 1:-2.43593458594451 2:-0.843316753686274 3:0.33929428973396 4:4.03159849880663 5:7.21951251869588 
-4.84643658118801 1:-3.21846833714017 2:-0.843316753686274 3:2.3212099568453 4:4.15394310565307 5:6.01872059833162 
18.6311223696778 1:-1.97440581957573 2:-0.507952552927504 3:3.27925133963078 4:5.20290000040098 5:2.05216671446018 
1.03284932599292 1:-0.167358388956584 2:-1.71004169855156 3:3.5164417063251 4:4.57574905606752 5:2.530586526477 
-1.18585616109557 1:0.6785989343292 2:-3.14084642516241 3:5.91214521186569 4:3.48835702459924 5:2.82108559081773 
3.31960830394341 1:1.18067907183428 2:-5.30285274461364 3:8.1992223381453 4:4.01172232079827 5:1.67056935028524 
7.64928360855485 1:2.99632233774432 2:-6.02959018872511 3:6.98412197934815 4:4.62292934119688 5:1.5288744507246 
2.054196857063 1:1.80640000777355 2:-6.02959018872511 3:6.02959018872511 4:5.29360751877985 5:2.08501389731199 
23.1215878834387 1:-0.331524115147719 2:-2.74744229737482 3:4.21976797944548 4:5.99979296752853 5:3.36831132025726 
-6.80504916875231 1:-0.665598440850612 2:-2.41336797167193 3:5.01666094657303 4:6.5817284489643 5:4.0157138145918 
7.96960158111746 1:-0.843316753686274 2:0.33929428973396 3:4.03159849880663 4:7.21951251869588 5:4.34035851671979 
18.8059643623772 1:-0.843316753686274 2:2.3212099568453 3:4.15394310565307 4:6.01872059833162 5:5.51083876295002 
26.9086852881189 1:-0.507952552927504 2:3.27925133963078 3:5.20290000040098 4:2.05216671446018 5:6.79002356379357 
16.0248836383041 1:-1.71004169855156 2:3.5164417063251 3:4.57574905606752 4:2.530586526477 5:5.50800819212252 
-3.42824349006444 1:-3.14084642516241 2:5.91214521186569 3:3.48835702459924 4:2.82108559081773 5:7.5064679852793 
4.87862177780918 1:-5.30285274461364 2:8.1992223381453 3:4.01172232079827 4:1.67056935028524 5:9.52680659410796 
-11.1968345452196 1:-6.02959018872511 2:6.98412197934815 3:4.62292934119688 4:1.5288744507246 5:10.9296188022909 
12.9590233080839 1:-6.02959018872511 2:6.02959018872511 3:5.29360751877985 4:2.08501389731199 5:10.6573329687436 
5.8908725587482 1:-2.74744229737482 2:4.21976797944548 3:5.99979296752853 4:3.36831132025726 5:9.30032896752473 
-9.22240056413529 1:-2.41336797167193 2:5.01666094657303 3:6.5817284489643 4:4.0157138145918 5:9.31821404888136 
-12.0758986701814 1:0.33929428973396 2:4.03159849880663 3:7.21951251869588 4:4.34035851671979 5:7.26414382811198 
0.0616661788743098 1:2.3212099568453 2:4.15394310565307 3:6.01872059833162 4:5.51083876295002 5:3.04130364491439 
2.51561210993661 1:3.27925133963078 2:5.20290000040098 3:2.05216671446018 4:6.79002356379357 5:4.34656937810902 
0.240111847187107 1:3.5164417063251 2:4.57574905606752 3:2.530586526477 4:5.50800819212252 5:6.57420884922426 
-1.41959451628341 1:5.91214521186569 2:3.48835702459924 3:2.82108559081773 4:7.5064679852793 5:3.52920568825099 
2.1698593416004 1:8.1992223381453 2:4.01172232079827 3:1.67056935028524 4:9.52680659410796 5:2.03529107865803 
-2.16276890735962 1:6.98412197934815 2:4.62292934119688 3:1.5288744507246 4:10.9296188022909 5:2.47645883460237 
-0.962998526511037 1:6.02959018872511 2:5.29360751877985 3:2.08501389731199 4:10.6573329687436 5:4.53325448497619 
-5.38759085455843 1:4.21976797944548 2:5.99979296752853 3:3.36831132025726 4:9.30032896752473 5:3.03119142688391 
-1.34277752445599 1:5.01666094657303 2:6.5817284489643 3:4.0157138145918 4:9.31821404888136 5:-0.70454879414652 
-3.04347039104335 1:4.03159849880663 2:7.21951251869588 3:4.34035851671979 4:7.26414382811198 5:-2.35920409215029 
-8.1955167811033 1:4.15394310565307 2:6.01872059833162 3:5.51083876295002 4:3.04130364491439 5:-0.315851924482979 
-0.26511133177899 1:5.20290000040098 2:2.05216671446018 3:6.79002356379357 4:4.34656937810902 5:-1.04654336781649 
-0.870976748645551 1:4.57574905606752 2:2.530586526477 3:5.50800819212252 4:6.57420884922426 5:-2.55541044723882 
5.5378534781716 1:3.48835702459924 2:2.82108559081773 3:7.5064679852793 4:3.52920568825099 5:-3.30002601029253 
-6.79758290829821 1:4.01172232079827 2:1.67056935028524 3:9.52680659410796 4:2.03529107865803 5:-1.70752010253441 
4.93446952391846 1:4.62292934119688 2:1.5288744507246 3:10.9296188022909 4:2.47645883460237 5:-3.55150006666172 
-4.21385673396317 1:5.29360751877985 2:2.08501389731199 3:10.6573329687436 4:4.53325448497619 5:-4.63956897672237 
1.45745362685313 1:5.99979296752853 2:3.36831132025726 3:9.30032896752473 4:3.03119142688391 5:-5.95282853867243 
1.26287223988082 1:6.5817284489643 2:4.0157138145918 3:9.31821404888136 4:-0.70454879414652 5:-4.03791619866731 
-0.0604697498851008 1:7.21951251869588 2:4.34035851671979 3:7.26414382811198 4:-2.35920409215029 5:-2.38326090066354 
1.21870262105385 1:6.01872059833162 2:5.51083876295002 3:3.04130364491439 4:-0.315851924482979 5:-2.27772148495702 
10.0883017534403 1:2.05216671446018 2:6.79002356379357 3:4.34656937810902 4:-1.04654336781649 5:-2.17192496932364 
-8.08422727164038 1:2.530586526477 2:5.50800819212252 3:6.57420884922426 4:-2.55541044723882 5:-0.774558459980446 
-3.20621855390304 1:2.82108559081773 2:7.5064679852793 3:3.52920568825099 4:-3.30002601029253 5:0.680370805494501 
-2.04402262730029 1:1.67056935028524 2:9.52680659410796 3:2.03529107865803 4:-1.70752010253441 5:-2.11892990699383 
0.186755431661788 1:1.5288744507246 2:10.9296188022909 3:2.47645883460237 4:-3.55150006666172 5:0 
-0.543100454943133 1:2.08501389731199 2:10.6573329687436 3:4.53325448497619 4:-4.63956897672237 5:-0.860017176191752 
0.342222927266119 1:3.36831132025726 2:9.30032896752473 3:3.03119142688391 4:-5.95282853867243 5:1.32282657337552 
-1.27941604556711 1:4.0157138145918 2:9.31821404888136 3:-0.70454879414652 4:-4.03791619866731 5:1.09953843014634 
0.540416430661708 1:4.34035851671979 2:7.26414382811198 3:-2.35920409215029 4:-2.38326090066354 5:-0.223288143229183 
-7.60383490645917 1:5.51083876295002 2:3.04130364491439 3:-0.315851924482979 4:-2.27772148495702 5:0 
0.704456768150697 1:6.79002356379357 2:4.34656937810902 3:-1.04654336781649 4:-2.17192496932364 5:0 
-0.584175667357561 1:5.50800819212252 2:6.57420884922426 3:-2.55541044723882 4:-0.774558459980446 5:-0.223863630679633 
23.2808243241569 1:7.5064679852793 2:3.52920568825099 3:-3.30002601029253 4:0.680370805494501 5:-0.452394176004622 
2.05654430897323 1:9.52680659410796 2:2.03529107865803 3:-1.70752010253441 4:-2.11892990699383 5:1.1281010409689 
-1.57018366178792 1:10.9296188022909 2:2.47645883460237 3:-3.55150006666172 4:0 5:-0.437580006028826 
-1.62649259752384 1:10.6573329687436 2:4.53325448497619 3:-4.63956897672237 4:-0.860017176191752 5:-1.09953843014634 
-2.82279867243767 1:9.30032896752473 2:3.03119142688391 3:-5.95282853867243 4:1.32282657337552 5:-1.09953843014634 
0.021111790673221 1:9.31821404888136 2:-0.70454879414652 3:-4.03791619866731 4:1.09953843014634 5:-0.877392430750534 
-9.58673843564317 1:7.26414382811198 2:-2.35920409215029 3:-2.38326090066354 4:-0.223288143229183 5:0.223288143229183 
3.87733853767663 1:3.04130364491439 2:-0.315851924482979 3:-2.27772148495702 4:0 5:-0.223288143229183 
-9.01491990126681 1:4.34656937810902 2:-1.04654336781649 3:-2.17192496932364 4:0 5:-0.223288143229183 
0.881066121547868 1:6.57420884922426 2:-2.55541044723882 3:-0.774558459980446 4:-0.223863630679633 5:0 
-1.75398197008875 1:3.52920568825099 2:-3.30002601029253 3:0.680370805494501 4:-0.452394176004622 5:0.676836268249836 
-17.1516020015749 1:2.03529107865803 2:-1.70752010253441 3:-2.11892990699383 4:1.1281010409689 5:0 
23.5449139844078 1:2.47645883460237 2:-3.55150006666172 3:0 4:-0.437580006028826 5:-0.553248859996103 
10.4654256277397 1:4.53325448497619 2:-4.63956897672237 3:-0.860017176191752 4:-1.09953843014634 5:-0.223288143229183 
-11.9036757367982 1:3.03119142688391 2:-5.95282853867243 3:1.32282657337552 4:-1.09953843014634 5:-0.223288143229183 
0.337238192942427 1:-0.70454879414652 2:-4.03791619866731 3:1.09953843014634 4:-0.877392430750534 5:-0.782533751195658 
26.9086852881189 1:-2.35920409215029 2:-2.38326090066354 3:-0.223288143229183 4:0.223288143229183 5:-1.1281010409689 
-11.1003951347301 1:-0.315851924482979 2:-2.27772148495702 3:0 4:-0.223288143229183 5:0 
-26.9086852881189 1:-1.04654336781649 2:-2.17192496932364 3:0 4:-0.223288143229183 5:-0.337099608570668 
-26.9086852881189 1:-2.55541044723882 2:-0.774558459980446 3:-0.223863630679633 4:0 5:-0.225023551041081 
16.0866469039138 1:-3.30002601029253 2:0.680370805494501 3:-0.452394176004622 4:0.676836268249836 5:-0.337099608570668 
26.9086852881189 1:-1.70752010253441 2:-2.11892990699383 3:1.1281010409689 4:0 5:-0.673338265896817 
26.9086852881189 1:-3.55150006666172 2:0 3:-0.437580006028826 4:-0.553248859996103 5:-0.673338265896817 
24.5193495259266 1:-4.63956897672237 2:-0.860017176191752 3:-1.09953843014634 4:-0.223288143229183 5:0 
2.81619958990871 1:-5.95282853867243 2:1.32282657337552 3:-1.09953843014634 4:-0.223288143229183 5:-0.112076057529586 
-16.6910171771939 1:-4.03791619866731 2:1.09953843014634 3:-0.877392430750534 4:-0.782533751195658 5:0.112657516325454 
6.58372421863942 1:-2.38326090066354 2:-0.223288143229183 3:0.223288143229183 4:-1.1281010409689 5:0.792736840210129 
20.3060221592992 1:-2.27772148495702 2:0 3:-0.223288143229183 4:0 5:0 
-26.9086852881189 1:-2.17192496932364 2:0 3:-0.223288143229183 4:-0.337099608570668 5:0.337099608570668 
26.9086852881189 1:-0.774558459980446 2:-0.223863630679633 3:0 4:-0.225023551041081 5:1.65992618194619 
-5.34167272899115 1:0.680370805494501 2:-0.452394176004622 3:0.676836268249836 4:-0.337099608570668 5:3.67532934577945 
22.8877818190061 1:-2.11892990699383 2:1.1281010409689 3:0 4:-0.673338265896817 5:3.78827985987642 
-10.7028153346431 1:0 2:-0.437580006028826 3:-0.553248859996103 4:-0.673338265896817 5:3.89180660303694 
26.9086852881189 1:-0.860017176191752 2:-1.09953843014634 3:-0.223288143229183 4:0 5:1.21411700925411 
-17.9251602584803 1:1.32282657337552 2:-1.09953843014634 3:-0.223288143229183 4:-0.112076057529586 5:3.34653167561236 
26.9086852881189 1:1.09953843014634 2:-0.877392430750534 3:-0.782533751195658 4:0.112657516325454 5:3.04130364491439 
26.9086852881189 1:-0.223288143229183 2:0.223288143229183 3:-1.1281010409689 4:0.792736840210129 5:3.03371316931811 
-20.4845867292783 1:0 2:-0.223288143229183 3:0 4:0 5:2.92163711178852 
-26.9086852881189 1:0 2:-0.223288143229183 3:-0.337099608570668 4:0.337099608570668 5:2.60654904389273 
-26.9086852881189 1:-0.223863630679633 2:0 3:-0.225023551041081 4:1.65992618194619 5:3.34237554869494 
-26.9086852881189 1:-0.452394176004622 2:0.676836268249836 3:-0.337099608570668 4:3.67532934577945 5:3.38841790465367 
6.54951943171521 1:1.1281010409689 2:0 3:-0.673338265896817 4:3.78827985987642 5:4.98838349694224 
-4.81495788127374 1:-0.437580006028826 2:-0.553248859996103 3:-0.673338265896817 4:3.89180660303694 5:3.66669096719501 
-18.0724434689613 1:-1.09953843014634 2:-0.223288143229183 3:0 4:1.21411700925411 5:5.22396180885951 
26.9086852881189 1:-1.09953843014634 2:-0.223288143229183 3:-0.112076057529586 4:3.34653167561236 5:3.3962153036347 
26.9086852881189 1:-0.877392430750534 2:-0.782533751195658 3:0.112657516325454 4:3.04130364491439 5:4.10110555362135 
26.9086852881189 1:0.223288143229183 2:-1.1281010409689 3:0.792736840210129 4:3.03371316931811 5:3.41982442912308 
26.9086852881189 1:-0.223288143229183 2:0 3:0 4:2.92163711178852 5:4.28173812917767 
-15.418852638848 1:-0.223288143229183 2:-0.337099608570668 3:0.337099608570668 4:2.60654904389273 5:3.3462794947797 
26.9086852881189 1:0 2:-0.225023551041081 3:1.65992618194619 4:3.34237554869494 5:3.38331337512003 
26.9086852881189 1:0.676836268249836 2:-0.337099608570668 3:3.67532934577945 4:3.38841790465367 5:0 
-26.9086852881189 1:0 2:-0.673338265896817 3:3.78827985987642 4:4.98838349694224 5:0.459575168914883 
-26.9086852881189 1:-0.553248859996103 2:-0.673338265896817 3:3.89180660303694 4:3.66669096719501 5:3.73131426898672 
-26.9086852881189 1:-0.223288143229183 2:0 3:1.21411700925411 4:5.22396180885951 5:6.44579892269186 
24.1760376649104 1:-0.223288143229183 2:-0.112076057529586 3:3.34653167561236 4:3.3962153036347 5:8.36421236729872 
-26.9086852881189 1:-0.782533751195658 2:0.112657516325454 3:3.04130364491439 4:4.10110555362135 5:8.47137346475857 
-26.9086852881189 1:-1.1281010409689 2:0.792736840210129 3:3.03371316931811 4:3.41982442912308 5:8.41501612733193 
-26.9086852881189 1:0 2:0 3:2.92163711178852 4:4.28173812917767 5:5.3464281741364 
-26.9086852881189 1:-0.337099608570668 2:0.337099608570668 3:2.60654904389273 4:3.3462794947797 5:6.93104920213306 
-26.9086852881189 1:-0.225023551041081 2:1.65992618194619 3:3.34237554869494 4:3.38331337512003 5:3.99530804097186 
-26.9086852881189 1:-0.337099608570668 2:3.67532934577945 3:3.38841790465367 4:0 5:5.4864916982444 
2.00551661625427 1:-0.673338265896817 2:3.78827985987642 3:4.98838349694224 4:0.459575168914883 5:-28.224192879865 
0.822411846016113 1:-0.673338265896817 2:3.89180660303694 3:3.66669096719501 4:3.73131426898672 5:-28.22559947889 
-0.627287481304626 1:0 2:1.21411700925411 3:5.22396180885951 4:6.44579892269186 5:-29.1159241637687 
-6.06285202032978 1:-0.112076057529586 2:3.34653167561236 3:3.3962153036347 4:8.36421236729872 5:-30.9028278481961 
-2.06807214656936 1:0.112657516325454 2:3.04130364491439 3:4.10110555362135 4:8.47137346475857 5:-31.297285130229 
4.38232721047858 1:0.792736840210129 2:3.03371316931811 3:3.41982442912308 4:8.41501612733193 5:-31.8095210956897 
-1.96072620277343 1:0 2:2.92163711178852 3:4.28173812917767 4:5.3464281741364 5:-30.4396636413939 
4.8535176754035 1:0.337099608570668 2:2.60654904389273 3:3.3462794947797 4:6.93104920213306 5:-30.6050797039032 
0.262511571634436 1:1.65992618194619 2:3.34237554869494 3:3.38331337512003 4:3.99530804097186 5:-30.6149439800013 
-1.06778262688011 1:3.67532934577945 2:3.38841790465367 3:0 4:5.4864916982444 5:-30.6129402375338 
-1.52097586552881 1:3.78827985987642 2:4.98838349694224 3:0.459575168914883 4:-28.224192879865 5:1.88480832550355 
-0.0314009635969761 1:3.89180660303694 2:3.66669096719501 3:3.73131426898672 4:-28.22559947889 5:0.827252596599015 
-2.60439073311903 1:1.21411700925411 2:5.22396180885951 3:6.44579892269186 4:-29.1159241637687 5:-0.820997004483015 
17.1533461178539 1:3.34653167561236 2:3.3962153036347 3:8.36421236729872 4:-30.9028278481961 5:-1.64525159211562 
-14.0715268904493 1:3.04130364491439 2:4.10110555362135 3:8.47137346475857 4:-31.297285130229 5:-1.47789320315903 
-13.8316518766276 1:3.03371316931811 2:3.41982442912308 3:8.41501612733193 4:-31.8095210956897 5:-0.500152723849334 
-1.78067787842779 1:2.92163711178852 2:4.28173812917767 3:5.3464281741364 4:-30.4396636413939 5:-0.33929428973396 
8.34361432011571 1:2.60654904389273 2:3.3462794947797 3:6.93104920213306 4:-30.6050797039032 5:-0.337974065138047 
-4.42516137762038 1:3.34237554869494 2:3.38331337512003 3:3.99530804097186 4:-30.6149439800013 5:0.341965925813703 
-3.02213957338684 1:3.38841790465367 2:0 3:5.4864916982444 4:-30.6129402375338 5:-0.863436952420171 
-2.53961061715177 1:4.98838349694224 2:0.459575168914883 3:-28.224192879865 4:1.88480832550355 5:-2.76934904829398 
-2.26383285648007 1:3.66669096719501 2:3.73131426898672 3:-28.22559947889 4:0.827252596599015 5:-3.94305079563768 
-1.07591120133942 1:5.22396180885951 2:6.44579892269186 3:-29.1159241637687 4:-0.820997004483015 5:-4.17243342632334 
8.26150297784699 1:3.3962153036347 2:8.36421236729872 3:-30.9028278481961 4:-1.64525159211562 5:-5.15719280636588 
-2.57930655146787 1:4.10110555362135 2:8.47137346475857 3:-31.297285130229 4:-1.47789320315903 5:-7.45292331306993 
5.06527016154375 1:3.41982442912308 2:8.41501612733193 3:-31.8095210956897 4:-0.500152723849334 5:-8.69639031525007 
11.3104796618938 1:4.28173812917767 2:5.3464281741364 3:-30.4396636413939 4:-0.33929428973396 5:-6.01872059833162 
-14.2958596609957 1:3.3462794947797 2:6.93104920213306 3:-30.6050797039032 4:-0.337974065138047 5:-5.79919469776868 
-1.80180024935012 1:3.38331337512003 2:3.99530804097186 3:-30.6149439800013 4:0.341965925813703 5:-6.01872059833162 
-2.09899532763377 1:0 2:5.4864916982444 3:-30.6129402375338 4:-0.863436952420171 5:-3.44715110781433 
-3.38902294488107 1:0.459575168914883 2:-28.224192879865 3:1.88480832550355 4:-2.76934904829398 5:-3.53582552641494 
0.974695307920501 1:3.73131426898672 2:-28.22559947889 3:0.827252596599015 4:-3.94305079563768 5:-3.35673476462683 
-3.4944486381196 1:6.44579892269186 2:-29.1159241637687 3:-0.820997004483015 4:-4.17243342632334 5:-0.736109964636888 
-11.1487094671587 1:8.36421236729872 2:-30.9028278481961 3:-1.64525159211562 4:-5.15719280636588 5:0.748802139254989 
7.22286704605766 1:8.47137346475857 2:-31.297285130229 3:-1.47789320315903 4:-7.45292331306993 5:1.5581742353004 
-6.96518517382424 1:8.41501612733193 2:-31.8095210956897 3:-0.500152723849334 4:-8.69639031525007 5:2.00171135218876 
2.66039874137649 1:5.3464281741364 2:-30.4396636413939 3:-0.33929428973396 4:-6.01872059833162 5:0.195188859752182 
6.89369791752681 1:6.93104920213306 2:-30.6050797039032 3:-0.337974065138047 4:-5.79919469776868 5:-1.78095584185574 
-4.81794008009306 1:3.99530804097186 2:-30.6149439800013 3:0.341965925813703 4:-6.01872059833162 5:-0.789648084603423 
-4.1865573054755 1:5.4864916982444 2:-30.6129402375338 3:-0.863436952420171 4:-3.44715110781433 5:-3.53919750888418 
0.652313526309896 1:-28.224192879865 2:1.88480832550355 3:-2.76934904829398 4:-3.53582552641494 5:-3.84941572784085 
-5.16751365374551 1:-28.22559947889 2:0.827252596599015 3:-3.94305079563768 4:-3.35673476462683 5:-3.21846833714012 
-8.66169962255066 1:-29.1159241637687 2:-0.820997004483015 3:-4.17243342632334 4:-0.736109964636888 5:-5.74619963543888 
3.28974339110755 1:-30.9028278481961 2:-1.64525159211562 3:-5.15719280636588 4:0.748802139254989 5:-7.47496312485501 
-12.1808838934644 1:-31.297285130229 2:-1.47789320315903 3:-7.45292331306993 4:1.5581742353004 5:-4.21586368239693 
5.83744246682847 1:-31.8095210956897 2:-0.500152723849334 3:-8.69639031525007 4:2.00171135218876 5:-3.88569365374258 
25.4060478479703 1:-30.4396636413939 2:-0.33929428973396 3:-6.01872059833162 4:0.195188859752182 5:-3.65510019924065 
3.6986719078941 1:-30.6050797039032 2:-0.337974065138047 3:-5.79919469776868 4:-1.78095584185574 5:-2.06845988598512 
-20.5899188155035 1:-30.6149439800013 2:0.341965925813703 3:-6.01872059833162 4:-0.789648084603423 5:-3.52604361841156 
7.74578027614591 1:-30.6129402375338 2:-0.863436952420171 3:-3.44715110781433 4:-3.53919750888418 5:-4.53024936810236 
3.62015760696928 1:1.88480832550355 2:-2.76934904829398 3:-3.53582552641494 4:-3.84941572784085 5:-3.30002601029253 
1.32556175408141 1:0.827252596599015 2:-3.94305079563768 3:-3.35673476462683 4:-3.21846833714012 5:-4.16015307895172 
-0.554967718963562 1:-0.820997004483015 2:-4.17243342632334 3:-0.736109964636888 4:-5.74619963543888 5:-3.52920568825099 
9.77986137970335 1:-1.64525159211562 2:-5.15719280636588 3:0.748802139254989 4:-7.47496312485501 5:0 
15.7211301400908 1:-1.47789320315903 2:-7.45292331306993 3:1.5581742353004 4:-4.21586368239693 5:0 
-26.9086852881189 1:-0.500152723849334 2:-8.69639031525007 3:2.00171135218876 4:-3.88569365374258 5:0.637118245594026 
-18.9510327991196 1:-0.33929428973396 2:-6.01872059833162 3:0.195188859752182 4:-3.65510019924065 5:1.25285942419384 
-17.2359178224958 1:-0.337974065138047 2:-5.79919469776868 3:-1.78095584185574 4:-2.06845988598512 5:0.421648440116362 
2.8673544595363 1:0.341965925813703 2:-6.01872059833162 3:-0.789648084603423 4:-3.52604361841156 5:-0.872983125889615 
-26.9086852881189 1:-0.863436952420171 2:-3.44715110781433 3:-3.53919750888418 4:-4.53024936810236 5:1.99966284162536 
22.3939370218103 1:-2.76934904829398 2:-3.53582552641494 3:-3.84941572784085 4:-3.30002601029253 5:2.0099475456878 
-11.9969597498265 1:-3.94305079563768 2:-3.35673476462683 3:-3.21846833714012 4:-4.16015307895172 5:0.457156307448336 
-16.7828750868631 1:-4.17243342632334 2:-0.736109964636888 3:-5.74619963543888 4:-3.52920568825099 5:0.229179677958458 
-26.9086852881189 1:-5.15719280636588 2:0.748802139254989 3:-7.47496312485501 4:0 5:-3.67876512924084 
-11.4040693665278 1:-7.45292331306993 2:1.5581742353004 3:-4.21586368239693 4:0 5:-7.83387734616046 
4.83601400098937 1:-8.69639031525007 2:2.00171135218876 3:-3.88569365374258 4:0.637118245594026 5:-9.90233723214553 
2.25842580636669 1:-6.01872059833162 2:0.195188859752182 3:-3.65510019924065 4:1.25285942419384 5:-8.87540083901439 
-4.66063967323858 1:-5.79919469776868 2:-1.78095584185574 3:-2.06845988598512 4:0.421648440116362 5:-9.58622574168628 
6.74283994937478 1:-6.01872059833162 2:-0.789648084603423 3:-3.52604361841156 4:-0.872983125889615 5:-7.17497550140096 
-1.66593532800932 1:-3.44715110781433 2:-3.53919750888418 3:-4.53024936810236 4:1.99966284162536 5:-7.83135245163979 
3.46690059069492 1:-3.53582552641494 2:-3.84941572784085 3:-3.30002601029253 4:2.0099475456878 5:-7.87449883696518 
-2.25958559019213 1:-3.35673476462683 2:-3.21846833714012 3:-4.16015307895172 4:0.457156307448336 5:-8.2376280293305 
0.675599738764546 1:-0.736109964636888 2:-5.74619963543888 3:-3.52920568825099 4:0.229179677958458 5:-9.97766536596596 
4.87814275470021 1:0.748802139254989 2:-7.47496312485501 3:0 4:-3.67876512924084 5:-9.33257190847474 
3.33649801598573 1:1.5581742353004 2:-4.21586368239693 3:0 4:-7.83387734616046 5:-5.08370160899498 
9.54199172257685 1:2.00171135218876 2:-3.88569365374258 3:0.637118245594026 4:-9.90233723214553 5:-1.07238653917734 
-11.6199259432195 1:0.195188859752182 2:-3.65510019924065 3:1.25285942419384 4:-8.87540083901439 5:-1.02191651816859 
-0.266623670235123 1:-1.78095584185574 2:-2.06845988598512 3:0.421648440116362 4:-9.58622574168628 5:-0.262414382614873 
-26.9086852881189 1:-0.789648084603423 2:-3.52604361841156 3:-0.872983125889615 4:-7.17497550140096 5:0.517023346609014 
-13.7659934460655 1:-3.53919750888418 2:-4.53024936810236 3:1.99966284162536 4:-7.83135245163979 5:1.53296319812122 
-3.249851988427 1:-3.84941572784085 2:-3.30002601029253 3:2.0099475456878 4:-7.87449883696518 5:1.54203588674937 
13.3861573136593 1:-3.21846833714012 2:-4.16015307895172 3:0.457156307448336 4:-8.2376280293305 5:1.88268572594836 
1.09209005281716 1:-5.74619963543888 2:-3.52920568825099 3:0.229179677958458 4:-9.97766536596596 5:1.69227051160643 
-1.10115290819327 1:-7.47496312485501 2:0 3:-3.67876512924084 4:-9.33257190847474 5:4.51621587581936 
2.44855971292316 1:-4.21586368239693 2:0 3:-7.83387734616046 4:-5.08370160899498 5:4.0617850908264 
-1.294609757816 1:-3.88569365374258 2:0.637118245594026 3:-9.90233723214553 4:-1.07238653917734 5:0.80676217480331 
12.0691479759796 1:-3.65510019924065 2:1.25285942419384 3:-8.87540083901439 4:-1.02191651816859 5:-3.49775835555715 
-2.39579608990238 1:-2.06845988598512 2:0.421648440116362 3:-9.58622574168628 4:-0.262414382614873 5:-4.72222288189488 
16.4739997783224 1:-3.52604361841156 2:-0.872983125889615 3:-7.17497550140096 4:0.517023346609014 5:-3.75550064433821 
25.7143157980863 1:-4.53024936810236 2:1.99966284162536 3:-7.83135245163979 4:1.53296319812122 5:-4.49215047743339 
-19.6697414575604 1:-3.30002601029253 2:2.0099475456878 3:-7.87449883696518 4:1.54203588674937 5:-3.96287944983151 
3.65619514624415 1:-4.16015307895172 2:0.457156307448336 3:-8.2376280293305 4:1.88268572594836 5:-1.88268572594836 
3.45933044750671 1:-3.52920568825099 2:0.229179677958458 3:-9.97766536596596 4:1.69227051160643 5:0.549747191121774 
4.29663060364681 1:0 2:-3.67876512924084 3:-9.33257190847474 4:4.51621587581936 5:-0.53950318867062 
1.04621770140245 1:0 2:-7.83387734616046 3:-5.08370160899498 4:4.0617850908264 5:-1.84834056940133 
4.47343043306373 1:0.637118245594026 2:-9.90233723214553 3:-1.07238653917734 4:0.80676217480331 5:-0.26725898613269 
5.52910972609646 1:1.25285942419384 2:-8.87540083901439 3:-1.02191651816859 4:-3.49775835555715 5:2.71522460436149 
-2.02119820035568 1:0.421648440116362 2:-9.58622574168628 3:-0.262414382614873 4:-4.72222288189488 5:5.50475663309054 
5.12747701572239 1:-0.872983125889615 2:-7.17497550140096 3:0.517023346609014 4:-3.75550064433821 5:4.26644122218622 
-18.3151085699384 1:1.99966284162536 2:-7.83135245163979 3:1.53296319812122 4:-4.49215047743339 5:3.21846833714012 
26.9086852881189 1:2.0099475456878 2:-7.87449883696518 3:1.54203588674937 4:-3.96287944983151 5:2.42084356308214 
9.09392181500377 1:0.457156307448336 2:-8.2376280293305 3:1.88268572594836 4:-1.88268572594836 5:2.92296176592508 
-2.10874078044695 1:0.229179677958458 2:-9.97766536596596 3:1.69227051160643 4:0.549747191121774 5:3.41313225870974 
1.06608875780802 1:-3.67876512924084 2:-9.33257190847474 3:4.51621587581936 4:-0.53950318867062 5:3.89180660303698 
-1.99281912821466 1:-7.83387734616046 2:-5.08370160899498 3:4.0617850908264 4:-1.84834056940133 5:3.62121726544449 
-2.61502687128527 1:-9.90233723214553 2:-1.07238653917734 3:0.80676217480331 4:-0.26725898613269 5:3.35230341436636 
1.06509239786997 1:-8.87540083901439 2:-1.02191651816859 3:-3.49775835555715 4:2.71522460436149 5:1.80445026936424 
-3.83465510362919 1:-9.58622574168628 2:-0.262414382614873 3:-4.72222288189488 4:5.50475663309054 5:0.768682866629078 
1.84602474175827 1:-7.17497550140096 2:0.517023346609014 3:-3.75550064433821 4:4.26644122218622 5:0.504999273664186 
0.160986371089718 1:-7.83135245163979 2:1.53296319812122 3:-4.49215047743339 4:3.21846833714012 5:2.02033860882871 
-6.92610137107871 1:-7.87449883696518 2:1.54203588674937 3:-3.96287944983151 4:2.42084356308214 5:3.27449429398383 
3.42513402646082 1:-8.2376280293305 2:1.88268572594836 3:-1.88268572594836 4:2.92296176592508 5:3.21846833714012 
-8.53253620946935 1:-9.97766536596596 2:1.69227051160643 3:0.549747191121774 4:3.41313225870974 5:2.69226428228806 
-1.58108179707662 1:-9.33257190847474 2:4.51621587581936 3:-0.53950318867062 4:3.89180660303698 5:1.22344564170116 
-16.010498546284 1:-5.08370160899498 2:4.0617850908264 3:-1.84834056940133 4:3.62121726544449 5:0.493521767551242 
-12.2256158675565 1:-1.07238653917734 2:0.80676217480331 3:-0.26725898613269 4:3.35230341436636 5:-0.248880040369448 
-22.2977492535356 1:-1.02191651816859 2:-3.49775835555715 3:2.71522460436149 4:1.80445026936424 5:-0.253233651539508 
-2.03082276830568 1:-0.262414382614873 2:-4.72222288189488 3:5.50475663309054 4:0.768682866629078 5:-0.768682866629078 
2.58111718240309 1:0.517023346609014 2:-3.75550064433821 3:4.26644122218622 4:0.504999273664186 5:-2.05621589148892 
-12.1277931975992 1:1.53296319812122 2:-4.49215047743339 3:3.21846833714012 4:2.02033860882871 5:-3.59976532715192 
-3.13244647697798 1:1.54203588674937 2:-3.96287944983151 3:2.42084356308214 4:3.27449429398383 5:-3.80091829321954 
-7.57663083106233 1:1.88268572594836 2:-1.88268572594836 3:2.92296176592508 4:3.21846833714012 5:-3.73549168374914 
-6.06996987059453 1:1.69227051160643 2:0.549747191121774 3:3.41313225870974 4:2.69226428228806 5:-3.71418080045665 
19.5505692314563 1:4.51621587581936 2:-0.53950318867062 3:3.89180660303698 4:1.22344564170116 5:-3.77885608893997 
-21.3727080730387 1:4.0617850908264 2:-1.84834056940133 3:3.62121726544449 4:0.493521767551242 5:-3.84582518191761 
-9.83892427964415 1:0.80676217480331 2:-0.26725898613269 3:3.35230341436636 4:-0.248880040369448 5:-3.91521239621486 
-5.86492637359432 1:-3.49775835555715 2:2.71522460436149 3:1.80445026936424 4:-0.253233651539508 5:-3.9871512037692 
2.83365137793305 1:-4.72222288189488 2:5.50475663309054 3:0.768682866629078 4:-0.768682866629078 5:-3.21846833714012 
-11.2156599740376 1:-3.75550064433821 2:4.26644122218622 3:0.504999273664186 4:-2.05621589148892 5:-2.43593458594447 
-3.3620259125756 1:-4.49215047743339 2:3.21846833714012 3:2.02033860882871 4:-3.59976532715192 5:-1.63904161881692 
-9.46798818859367 1:-3.96287944983151 2:2.42084356308214 3:3.27449429398383 4:-3.80091829321954 5:-2.17192496932364 
-8.61643211830771 1:-1.88268572594836 2:2.92296176592508 3:3.21846833714012 4:-3.73549168374914 5:-2.95918727931217 
16.6825032064194 1:0.549747191121774 2:3.41313225870974 3:2.69226428228806 4:-3.71418080045665 5:-3.21846833714012 
-23.4821064135576 1:-0.53950318867062 2:3.89180660303698 3:1.22344564170116 4:-3.77885608893997 5:-3.27925133963074 
7.66158109270948 1:-1.84834056940133 2:3.62121726544449 3:0.493521767551242 4:-3.84582518191761 5:-3.34237554869494 
-1.18672961475601 1:-0.26725898613269 2:3.35230341436636 3:-0.248880040369448 4:-3.91521239621486 5:-3.40797895722753 
0.14549226729009 1:2.71522460436149 2:1.80445026936424 3:-0.253233651539508 4:-3.9871512037692 5:-2.58072636062856 
3.07573281167507 1:5.50475663309054 2:0.768682866629078 3:-0.768682866629078 4:-3.21846833714012 5:-3.17565961194868 
-16.8688659410144 1:4.26644122218622 2:0.504999273664186 3:-2.05621589148892 4:-2.43593458594447 5:-3.77885608893997 
-10.2156160677148 1:3.21846833714012 2:2.02033860882871 3:-3.59976532715192 4:-1.63904161881692 5:-4.39054856990819 
3.28323229825239 1:2.42084356308214 2:3.27449429398383 3:-3.80091829321954 4:-2.17192496932364 5:-5.01097981003666 
-22.7117298065353 1:2.92296176592508 2:3.21846833714012 3:-3.73549168374914 4:-2.95918727931217 5:-5.64040311980549 
26.9086852881189 1:3.41313225870974 2:2.69226428228806 3:-3.71418080045665 4:-3.21846833714012 5:-5.64040311980549 
-5.59683137574507 1:3.89180660303698 2:1.22344564170116 3:-3.77885608893997 4:-3.27925133963074 5:-4.16766305635039 
12.7029216978939 1:3.62121726544449 2:0.493521767551242 3:-3.84582518191761 4:-3.34237554869494 5:-2.68721464003017 
-11.3273722654265 1:3.35230341436636 2:-0.248880040369448 3:-3.91521239621486 4:-3.40797895722753 5:-1.19812972831141 
1.85270869691804 1:1.80445026936424 2:-0.253233651539508 3:-3.9871512037692 4:-2.58072636062856 5:-0.594933251320118 
-16.8528478233505 1:0.768682866629078 2:-0.768682866629078 3:-3.21846833714012 4:-3.17565961194868 5:-0.603196476991297 
-26.9086852881189 1:0.504999273664186 2:-2.05621589148892 3:-2.43593458594447 4:-3.77885608893997 5:-1.23212372109669 
16.4579503475133 1:2.02033860882871 2:-3.59976532715192 3:-1.63904161881692 4:-4.39054856990819 5:-1.88853441603736 
-14.6193380605975 1:3.27449429398383 2:-3.80091829321954 3:-2.17192496932364 4:-5.01097981003666 5:-1.91631592870092 
10.8083535505278 1:3.21846833714012 2:-3.73549168374914 3:-2.95918727931217 4:-5.64040311980549 5:-0.318165878618926 
-12.2683582589251 1:2.69226428228806 2:-3.71418080045665 3:-3.21846833714012 4:-5.64040311980549 5:0.94074685218315 
13.4092376398499 1:1.22344564170116 2:-3.77885608893997 3:-3.27925133963074 4:-4.16766305635039 5:1.23212372109669 
-2.14027387260217 1:0.493521767551242 2:-3.84582518191761 3:-3.34237554869494 4:-2.68721464003017 5:1.21488895795951 
7.21136888996813 1:-0.248880040369448 2:-3.91521239621486 3:-3.40797895722753 4:-1.19812972831141 5:0 
26.9086852881189 1:-0.253233651539508 2:-3.9871512037692 3:-2.58072636062856 4:-0.594933251320118 5:0.594933251320118 
-26.9086852881189 1:-0.768682866629078 2:-3.21846833714012 3:-3.17565961194868 4:-0.603196476991297 5:1.19812972831141 
-22.4365498721823 1:-2.05621589148892 2:-2.43593458594447 3:-3.77885608893997 4:-1.23212372109669 5:2.4302534494081 
-26.9086852881189 1:-3.59976532715192 2:-1.63904161881692 3:-4.39054856990819 4:-1.88853441603736 5:4.57574905606752 
4.36213841569852 1:-3.80091829321954 2:-2.17192496932364 3:-5.01097981003666 4:-1.91631592870092 5:4.05012148173514 
-1.07956283219495 1:-3.73549168374914 2:-2.95918727931217 3:-5.64040311980549 4:-0.318165878618926 5:1.87494360128388 
-9.86889141932089 1:-3.71418080045665 2:-3.21846833714012 3:-5.64040311980549 4:0.94074685218315 5:-0.62489492770017 
0.76779385180032 1:-3.77885608893997 2:-3.27925133963074 3:-4.16766305635039 4:1.23212372109669 5:-1.86154703086552 
3.89266672284056 1:-3.84582518191761 2:-3.34237554869494 3:-2.68721464003017 4:1.21488895795951 5:-1.21488895795951 
-10.3411570967893 1:-3.91521239621486 2:-3.40797895722753 3:-1.19812972831141 4:0 5:0.603196476991297 
-26.9086852881189 1:-3.9871512037692 2:-2.58072636062856 3:-0.594933251320118 4:0.594933251320118 5:0 
-4.03135899680034 1:-3.21846833714012 2:-3.17565961194868 3:-0.603196476991297 4:1.19812972831141 5:-1.19812972831141 
-26.9086852881189 1:-2.43593458594447 2:-3.77885608893997 3:-1.23212372109669 4:2.4302534494081 5:-2.4302534494081 
-17.6823628422106 1:-1.63904161881692 2:-4.39054856990819 3:-1.88853441603736 4:4.57574905606752 5:-4.57574905606752 
9.11807604223346 1:-2.17192496932364 2:-5.01097981003666 3:-1.91631592870092 4:4.05012148173514 5:-4.70815601286727 
-4.8420047300065 1:-2.95918727931217 2:-5.64040311980549 3:-0.318165878618926 4:1.87494360128388 5:-4.50783747351879 
1.16387881266978 1:-3.21846833714012 2:-5.64040311980549 3:0.94074685218315 4:-0.62489492770017 5:-4.29690733931802 
-1.60873024915371 1:-3.27925133963074 2:-4.16766305635039 3:1.23212372109669 4:-1.86154703086552 5:-5.03607364816583 
-0.329069456763395 1:-3.34237554869494 2:-2.68721464003017 3:1.21488895795951 4:-1.21488895795951 5:-7.36721512628491 
9.61602540015855 1:-3.40797895722753 2:-1.19812972831141 3:0 4:0.603196476991297 5:-7.50081715602264 
-14.2863047240038 1:-2.58072636062856 2:-0.594933251320118 3:0.594933251320118 4:0 5:-7.04073217401198 
18.069297636055 1:-3.17565961194868 2:-0.603196476991297 3:1.19812972831141 4:-1.19812972831141 5:-4.81260678171935 
-9.5484735291036 1:-3.77885608893997 2:-1.23212372109669 3:2.4302534494081 4:-2.4302534494081 5:-2.57435045983305 
-14.7795446659028 1:-4.39054856990819 2:-1.88853441603736 3:4.57574905606752 4:-4.57574905606752 5:-2.31237988471378 
26.9086852881189 1:-5.01097981003666 2:-1.91631592870092 3:4.05012148173514 4:-4.70815601286727 5:-2.03612826477082 
2.28321210181461 1:-5.64040311980549 2:-0.318165878618926 3:1.87494360128388 4:-4.50783747351879 5:-2.08501389731199 
20.6948342501627 1:-5.64040311980549 2:0.94074685218315 3:-0.62489492770017 4:-4.29690733931802 5:0 
5.04813645751884 1:-4.16766305635039 2:1.23212372109669 3:-1.86154703086552 4:-5.03607364816583 5:1.74438902812084 
6.2194128613605 1:-1.19812972831141 2:0 3:0.603196476991297 4:-7.50081715602264 5:3.74918102923374 
-3.38509199792922 1:-0.594933251320118 2:0.594933251320118 3:0 4:-7.04073217401198 5:3.66288953621612 
-3.85039768823393 1:-0.603196476991297 2:1.19812972831141 3:-1.19812972831141 4:-4.81260678171935 5:3.89180660303698 
23.6719467219236 1:-1.23212372109669 2:2.4302534494081 3:-2.4302534494081 4:-2.57435045983305 5:4.10911964394853 
-3.10322938911079 1:-1.88853441603736 2:4.57574905606752 3:-4.57574905606752 4:-2.31237988471378 5:6.30517457470892 
-3.35186609729846 1:-1.91631592870092 2:4.05012148173514 3:-4.70815601286727 4:-2.03612826477082 5:9.34216851622351 
0.0941048774110209 1:-0.318165878618926 2:1.87494360128388 3:-4.50783747351879 4:-2.08501389731199 5:8.39018847202091 
-0.885604264542313 1:0.94074685218315 2:-0.62489492770017 3:-4.29690733931802 4:0 5:7.33517023869013 
-9.93394593862034 1:1.23212372109669 2:-1.86154703086552 3:-5.03607364816583 4:1.74438902812084 5:4.84846234270995 
11.2523816336933 1:1.21488895795951 2:-1.21488895795951 3:-7.36721512628491 4:3.83963909143064 5:3.21846833714012 
6.54634854101761 1:0 2:0.603196476991297 3:-7.50081715602264 4:3.74918102923374 5:3.14843964979761 
-20.193452269776 1:0.594933251320118 2:0 3:-7.04073217401198 4:3.66288953621612 5:2.17971290948444 
0.813365202890043 1:1.19812972831141 2:-1.19812972831141 3:-4.81260678171935 4:3.89180660303698 5:0 
-9.35327925295741 1:2.4302534494081 2:-2.4302534494081 3:-2.57435045983305 4:4.10911964394853 5:-2.16419249388431 
5.8803950042318 1:4.57574905606752 2:-4.57574905606752 3:-2.31237988471378 4:6.30517457470892 5:-5.29904197391931 
-5.59372906430597 1:4.05012148173514 2:-4.70815601286727 3:-2.03612826477082 4:9.34216851622351 5:-5.36111310138847 
-5.82679338589155 1:1.87494360128388 2:-4.50783747351879 3:-2.08501389731199 4:8.39018847202091 5:-3.35411482385508 
-21.0278792224422 1:-0.62489492770017 2:-4.29690733931802 3:0 4:7.33517023869013 5:-2.72469151408625 
-6.39185760281801 1:-1.86154703086552 2:-5.03607364816583 3:1.74438902812084 4:4.84846234270995 5:-0.927354412896131 
-4.85883243774105 1:-1.21488895795951 2:-7.36721512628491 3:3.83963909143064 4:3.21846833714012 5:-0.311323542414321 
-10.7801924726564 1:0.603196476991297 2:-7.50081715602264 3:3.74918102923374 4:3.14843964979761 5:-1.86154703086552 
11.5782962346868 1:0 2:-7.04073217401198 3:3.66288953621612 4:2.17971290948444 5:-3.80647418092974 
0.422932188047922 1:-1.19812972831141 2:-4.81260678171935 3:3.89180660303698 4:0 5:-3.21846833714012 
3.19868017386137 1:-2.4302534494081 2:-2.57435045983305 3:4.10911964394853 4:-2.16419249388431 5:-2.95105975085384 
-7.72577955308209 1:-4.57574905606752 2:-2.31237988471378 3:6.30517457470892 4:-5.29904197391931 5:-1.34675746998076 
3.27785770071345 1:-4.70815601286727 2:-2.03612826477082 3:9.34216851622351 4:-5.36111310138847 5:-5.39351968399564 
3.5255754834231 1:-4.50783747351879 2:-2.08501389731199 3:8.39018847202091 4:-3.35411482385508 5:-5.39351968399564 
-21.9752687445245 1:-4.29690733931802 2:0 3:7.33517023869013 4:-2.72469151408625 5:-3.92110792981382 
-16.8874833277341 1:-5.03607364816583 2:1.74438902812084 3:4.84846234270995 4:-0.927354412896131 5:-1.91631592870092 
-22.4856005182435 1:-7.36721512628491 2:3.83963909143064 3:3.21846833714012 4:-0.311323542414321 5:-0.947589188387754 
10.0061066863616 1:-7.50081715602264 2:3.74918102923374 3:3.14843964979761 4:-1.86154703086552 5:-1.61466359505567 
-5.96363607999105 1:-7.04073217401198 2:3.66288953621612 3:2.17971290948444 4:-3.80647418092974 5:2.2607790745472 
-17.6483693516867 1:-4.81260678171935 2:3.89180660303698 3:0 4:-3.21846833714012 5:2.9071447947258 
-25.738177451843 1:-2.57435045983305 2:4.10911964394853 3:-2.16419249388431 4:-2.95105975085384 5:3.26691167533681 
-4.94216099692941 1:-2.31237988471378 2:6.30517457470892 3:-5.29904197391931 4:-1.34675746998076 5:1.67702102498932 
-3.47162302068555 1:-2.03612826477082 2:9.34216851622351 3:-5.36111310138847 4:-5.39351968399564 5:4.75483981785558 
-5.27705431567186 1:-2.08501389731199 2:8.39018847202091 3:-3.35411482385508 4:-5.39351968399564 5:4.75483981785558 
-14.8957973722937 1:0 2:7.33517023869013 3:-2.72469151408625 4:-3.92110792981382 5:1.34675746998076 
-2.69170317287788 1:1.74438902812084 2:4.84846234270995 3:-0.927354412896131 4:-1.91631592870092 5:-2.69416279590295 
1.01931409887001 1:3.83963909143064 2:3.21846833714012 3:-0.311323542414321 4:-0.947589188387754 5:-5.79919469776868 
4.77125515856725 1:3.74918102923374 2:3.14843964979761 3:-1.86154703086552 4:-1.61466359505567 5:-4.50269698133194 
0.989322227585651 1:3.66288953621612 2:2.17971290948444 3:-3.80647418092974 4:2.2607790745472 5:-6.06978403536118 
-8.26475041590038 1:3.89180660303698 2:0 3:-3.21846833714012 4:2.9071447947258 5:-6.38335542064703 
-8.4575170847503 1:4.10911964394853 2:-2.16419249388431 3:-2.95105975085384 4:3.26691167533681 5:-8.29742350647638 
-9.23235873313593 1:6.30517457470892 2:-5.29904197391931 3:-1.34675746998076 4:1.67702102498932 5:-4.50269698133194 
-7.43062403965074 1:9.34216851622351 2:-5.36111310138847 3:-5.39351968399564 4:4.75483981785558 5:-6.58757792680875 
1.59936333130628 1:8.39018847202091 2:-3.35411482385508 3:-5.39351968399564 4:4.75483981785558 5:-7.34289171585334 
3.11380763522444 1:7.33517023869013 2:-2.72469151408625 3:-3.92110792981382 4:1.34675746998076 5:-4.90854339096027 
6.9795683398992 1:4.84846234270995 2:-0.927354412896131 3:-1.91631592870092 4:-2.69416279590295 5:-4.76919903378747 
1.59220161885871 1:3.21846833714012 2:-0.311323542414321 3:-0.947589188387754 4:-5.79919469776868 5:-1.48491210389188 
13.4934658430184 1:3.14843964979761 2:-1.86154703086552 3:-1.61466359505567 4:-4.50269698133194 5:-1.86421100560579 
-0.402516713285123 1:2.17971290948444 2:-3.80647418092974 3:2.2607790745472 4:-6.06978403536118 5:-4.17547481070009 
-0.541570812915566 1:0 2:-3.21846833714012 3:2.9071447947258 4:-6.38335542064703 5:-6.21479067488444 
6.90281766612067 1:-2.16419249388431 2:-2.95105975085384 3:3.26691167533681 4:-8.29742350647638 5:-6.12696567389228 
6.84577081310415 1:-5.29904197391931 2:-1.34675746998076 3:1.67702102498932 4:-4.50269698133194 5:-10.0115152883268 
0.755524230755165 1:-5.36111310138847 2:-5.39351968399564 3:4.75483981785558 4:-6.58757792680875 5:-6.88227946293687 
0.768715876403318 1:-3.35411482385508 2:-5.39351968399564 3:4.75483981785558 4:-7.34289171585334 5:-4.40676266313007 
-2.52872584296476 1:-2.72469151408625 2:-3.92110792981382 3:1.34675746998076 4:-4.90854339096027 5:-3.47621062592118 
18.9763860478856 1:-0.927354412896131 2:-1.91631592870092 3:-2.69416279590295 4:-4.76919903378747 5:0.386042081323801 
-5.95845240265878 1:-0.311323542414321 2:-0.947589188387754 3:-5.79919469776868 4:-1.48491210389188 5:1.11841669525137 
11.2844270515886 1:-1.86154703086552 2:-1.61466359505567 3:-4.50269698133194 4:-1.86421100560579 5:2.58805189799776 
-21.4822359630191 1:-3.80647418092974 2:2.2607790745472 3:-6.06978403536118 4:-4.17547481070009 5:4.17547481070009 
4.30073296451888 1:-3.21846833714012 2:2.9071447947258 3:-6.38335542064703 4:-6.21479067488444 5:3.98715120376925 
1.92920321280311 1:-2.95105975085384 2:3.26691167533681 3:-8.29742350647638 4:-6.12696567389228 5:6.88227946293687 
3.44065100926453 1:-1.34675746998076 2:1.67702102498932 3:-4.50269698133194 4:-10.0115152883268 5:6.98911702773946 
3.18915452935335 1:-5.39351968399564 2:4.75483981785558 3:-6.58757792680875 4:-6.88227946293687 5:2.96706706672205 
5.74902387970166 1:-5.39351968399564 2:4.75483981785558 3:-7.34289171585334 4:-4.40676266313007 5:3.24857540814856 
22.1190313671737 1:-3.92110792981382 2:1.34675746998076 3:-4.90854339096027 4:-3.47621062592118 5:3.10342337399687 
17.8337408898726 1:-1.91631592870092 2:-2.69416279590295 3:-4.76919903378747 4:0.386042081323801 5:1.8803563822706 
-9.32216808655686 1:-0.947589188387754 2:-5.79919469776868 3:-1.48491210389188 4:1.11841669525137 5:-1.8803563822706 
26.9086852881189 1:-1.61466359505567 2:-4.50269698133194 3:-1.86421100560579 4:2.58805189799776 5:-2.58805189799776 
0.382020880132614 1:2.2607790745472 2:-6.06978403536118 3:-4.17547481070009 4:4.17547481070009 5:-2.99632233774432 
3.17888454597826 1:2.9071447947258 2:-6.38335542064703 3:-6.21479067488444 4:3.98715120376925 5:0 
-1.15601752315138 1:3.26691167533681 2:-8.29742350647638 3:-6.12696567389228 4:6.88227946293687 5:0.372787251924311 
-4.09109143039879 1:1.67702102498932 2:-4.50269698133194 3:-10.0115152883268 4:6.98911702773946 5:3.38582672609671 
-0.286905742321283 1:4.75483981785558 2:-6.58757792680875 3:-6.88227946293687 4:2.96706706672205 5:4.28799964813913 
-4.83702966260835 1:4.75483981785558 2:-7.34289171585334 3:-4.40676266313007 4:3.24857540814856 5:2.28628829595041 
-2.04695725249689 1:1.34675746998076 2:-4.90854339096027 3:-3.47621062592118 4:3.10342337399687 5:0.372787251924311 
26.9086852881189 1:-2.69416279590295 2:-4.76919903378747 3:0.386042081323801 4:1.8803563822706 5:-0.369614555996378 
3.58338213223004 1:-5.79919469776868 2:-1.48491210389188 3:1.11841669525137 4:-1.8803563822706 5:2.24685179091111 
10.0061805434611 1:-4.50269698133194 2:-1.86421100560579 3:2.58805189799776 4:-2.58805189799776 5:1.86421100560579 
1.72365337609352 1:-6.06978403536118 2:-4.17547481070009 3:4.17547481070009 4:-2.99632233774432 5:2.99632233774432 
6.01628727099062 1:-6.38335542064703 2:-6.21479067488444 3:3.98715120376925 4:0 5:2.22763947111519 
1.30839244925408 1:-8.29742350647638 2:-6.12696567389228 3:6.88227946293687 4:0.372787251924311 5:-0.372787251924311 
1.32166502395714 1:-4.50269698133194 2:-10.0115152883268 3:6.98911702773946 4:3.38582672609671 5:-2.99632233774432 
2.97617773877503 1:-6.58757792680875 2:-6.88227946293687 3:2.96706706672205 4:4.28799964813913 5:-0.748802139254989 
-8.98644997861986 1:-7.34289171585334 2:-4.40676266313007 3:3.24857540814856 4:2.28628829595041 5:1.0995384301463 
-26.9086852881189 1:-4.90854339096027 2:-3.47621062592118 3:3.10342337399687 4:0.372787251924311 5:3.21846833714012 
-26.9086852881189 1:-4.76919903378747 2:0.386042081323801 3:1.8803563822706 4:-0.369614555996378 5:3.90241079017066 
-11.9503233727804 1:-1.48491210389188 2:1.11841669525137 3:-1.8803563822706 4:2.24685179091111 5:1.43581500468675 
14.3777926587149 1:-1.86421100560579 2:2.58805189799776 3:-2.58805189799776 4:1.86421100560579 5:0.723840892391969 
8.49095005532984 1:-4.17547481070009 2:4.17547481070009 3:-2.99632233774432 4:2.99632233774432 5:0 
5.67339948443259 1:-6.21479067488444 2:3.98715120376925 3:0 4:2.22763947111519 5:0 
0.809176270245221 1:-6.12696567389228 2:6.88227946293687 3:0.372787251924311 4:-0.372787251924311 5:1.1088972165612 
2.9829350290992 1:-10.0115152883268 2:6.98911702773946 3:3.38582672609671 4:-2.99632233774432 5:1.14798176834303 
-8.09931240225317 1:-6.88227946293687 2:2.96706706672205 3:4.28799964813913 4:-0.748802139254989 5:1.11841669525137 
-1.2764566321968 1:-4.40676266313007 2:3.24857540814856 3:2.28628829595041 4:1.0995384301463 5:-1.47232568207061 
-1.7004066803885 1:-3.47621062592118 2:3.10342337399687 3:0.372787251924311 4:3.21846833714012 5:-3.59125558906443 
-1.22257140229744 1:0.386042081323801 2:1.8803563822706 3:-0.369614555996378 4:3.90241079017066 5:-3.53279623417428 
13.5754596580628 1:1.11841669525137 2:-1.8803563822706 3:2.24685179091111 4:1.43581500468675 5:-3.30002601029253 
-26.9086852881189 1:2.58805189799776 2:-2.58805189799776 3:1.86421100560579 4:0.723840892391969 5:-0.723840892391969 
2.29958905054673 1:4.17547481070009 2:-2.99632233774432 3:2.99632233774432 4:0 5:0 
-26.9086852881189 1:3.98715120376925 2:0 3:2.22763947111519 4:0 5:-1.47232568207061 
-9.86656632269982 1:6.88227946293687 2:0.372787251924311 3:-0.372787251924311 4:1.1088972165612 5:-1.1088972165612 
-22.9090375367081 1:6.98911702773946 2:3.38582672609671 3:-2.99632233774432 4:1.14798176834303 5:0.748802139254989 
6.13494357136349 1:2.96706706672205 2:4.28799964813913 3:-0.748802139254989 4:1.11841669525137 5:-0.74240180792069 
26.2005762734855 1:3.24857540814856 2:2.28628829595041 3:1.0995384301463 4:-1.47232568207061 5:-0.376014887330678 
-0.13448634018081 1:3.10342337399687 2:0.372787251924311 3:3.21846833714012 4:-3.59125558906443 5:-0.755313789044587 
10.825014206932 1:1.8803563822706 2:-0.369614555996378 3:3.90241079017066 4:-3.53279623417428 5:-2.2663984635944 
-1.4499443208562 1:-1.8803563822706 2:2.24685179091111 3:1.43581500468675 4:-3.30002601029253 5:0 
-5.93201230315848 1:-2.58805189799776 2:1.86421100560579 3:0.723840892391969 4:-0.723840892391969 5:-3.0223982605873 
4.24979320371338 1:-2.99632233774432 2:2.99632233774432 3:0 4:0 5:-2.99632233774432 
26.9086852881189 1:0 2:2.22763947111519 3:0 4:-1.47232568207061 5:-1.52399665567371 
11.4639249445322 1:0.372787251924311 2:-0.372787251924311 3:1.1088972165612 4:-1.1088972165612 5:-2.70314912862948 
-25.238501707052 1:3.38582672609671 2:-2.99632233774432 3:1.14798176834303 4:0.748802139254989 5:-3.07593638055379 
17.453059879629 1:4.28799964813913 2:-0.748802139254989 3:1.11841669525137 4:-0.74240180792069 5:-1.9135010440261 
14.9961749004115 1:2.28628829595041 2:1.0995384301463 3:-1.47232568207061 4:-0.376014887330678 5:-1.14798176834303 
7.1520403636545 1:0.372787251924311 2:3.21846833714012 3:-3.59125558906443 4:-0.755313789044587 5:-1.15818725498151 
-6.76861616313782 1:-0.369614555996378 2:3.90241079017066 3:-3.53279623417428 4:-2.2663984635944 5:-0.389504388352391 
-26.9086852881189 1:2.24685179091111 2:1.43581500468675 3:-3.30002601029253 4:0 5:-1.15818725498151 
-25.4411707528824 1:1.86421100560579 2:0.723840892391969 3:-0.723840892391969 4:-3.0223982605873 5:-0.393029362843267 
-26.9086852881189 1:2.99632233774432 2:0 3:0 4:-2.99632233774432 5:-0.782533751195658 
-26.9086852881189 1:2.22763947111519 2:0 3:-1.47232568207061 4:-1.52399665567371 5:-0.782533751195658 
-26.9086852881189 1:-0.372787251924311 2:1.1088972165612 3:-1.1088972165612 4:-2.70314912862948 5:0.396618721760111 
-26.9086852881189 1:-2.99632233774432 2:1.14798176834303 3:0.748802139254989 4:-3.07593638055379 5:0.789648084603378 
-26.9086852881189 1:-0.748802139254989 2:1.11841669525137 3:-0.74240180792069 4:-1.9135010440261 5:0 
-26.9086852881189 1:1.0995384301463 2:-1.47232568207061 3:-0.376014887330678 4:-1.14798176834303 5:-1.17915247295577 
-26.9086852881189 1:3.21846833714012 2:-3.59125558906443 3:-0.755313789044587 4:-1.15818725498151 5:-1.18992232997077 
-8.91691312980194 1:3.90241079017066 2:-3.53279623417428 3:-2.2663984635944 4:-0.389504388352391 5:-2.41336797167193 
-19.8729782115049 1:1.43581500468675 2:-3.30002601029253 3:0 4:-1.15818725498151 5:-4.53229787866576 
-26.9086852881189 1:0.723840892391969 2:-0.723840892391969 3:-3.0223982605873 4:-0.393029362843267 5:-4.13926851582249 
12.7396806341723 1:0 2:0 3:-2.99632233774432 4:-0.782533751195658 5:-5.46209508919802 
10.1127563987073 1:0 2:-1.47232568207061 3:-1.52399665567371 4:-0.782533751195658 5:-5.46209508919802 
-26.9086852881189 1:1.1088972165612 2:-1.1088972165612 3:-2.70314912862948 4:0.396618721760111 5:-4.5757490560675 
6.27030762023112 1:1.14798176834303 2:0.748802139254989 3:-3.07593638055379 4:0.789648084603378 5:-3.24857540814856 
3.47188519264634 1:1.11841669525137 2:-0.74240180792069 3:-1.9135010440261 4:0 5:-4.53229787866576 
-19.0507817909356 1:-1.47232568207061 2:-0.376014887330678 3:-1.14798176834303 4:-1.17915247295577 5:-2.45892732354518 
-26.7316890696733 1:-3.59125558906443 2:-0.755313789044587 3:-1.15818725498151 4:-1.18992232997077 5:-2.05865307817779 
4.97624940880428 1:-3.53279623417428 2:-2.2663984635944 3:-0.389504388352391 4:-2.41336797167193 5:-2.11892990699383 
-19.8351505247425 1:-3.30002601029253 2:0 3:-1.15818725498151 4:-4.53229787866576 5:0 
-26.9086852881189 1:-0.723840892391969 2:-3.0223982605873 3:-0.393029362843267 4:-4.13926851582249 5:-0.877392430750512 
26.9086852881189 1:0 2:-2.99632233774432 3:-0.782533751195658 4:-5.46209508919802 5:0.445434142625012 
12.8268927712181 1:-1.47232568207061 2:-1.52399665567371 3:-0.782533751195658 4:-5.46209508919802 5:1.32282657337552 
16.6914739717116 1:-1.1088972165612 2:-2.70314912862948 3:0.396618721760111 4:-4.5757490560675 5:-0.440911890505502 
3.91295045297457 1:0.748802139254989 2:-3.07593638055379 3:0.789648084603378 4:-3.24857540814856 5:-0.851585092252938 
1.02258385856194 1:-0.74240180792069 2:-1.9135010440261 3:0 4:-4.53229787866576 5:0 
26.9086852881189 1:-0.376014887330678 2:-1.14798176834303 3:-1.17915247295577 4:-2.45892732354518 5:-1.2837224705172 
26.9086852881189 1:-0.755313789044587 2:-1.15818725498151 3:-1.18992232997077 4:-2.05865307817779 5:-1.50141439594464 
26.9086852881189 1:-2.2663984635944 2:-0.389504388352391 3:-2.41336797167193 4:-2.11892990699383 5:0 
6.11250794021779 1:0 2:-1.15818725498151 3:-4.53229787866576 4:0 5:2.11892990699383 
24.4274408623649 1:-3.0223982605873 2:-0.393029362843267 3:-4.13926851582249 4:-0.877392430750512 5:5.016660946573 
-4.32140314006695 1:-2.99632233774432 2:-0.782533751195658 3:-5.46209508919802 4:0.445434142625012 5:6.18523677909246 
2.73522080611899 1:-1.52399665567371 2:-0.782533751195658 3:-5.46209508919802 4:1.32282657337552 5:5.30784434834195 
26.9086852881189 1:-2.70314912862948 2:0.396618721760111 3:-4.5757490560675 4:-0.440911890505502 5:6.56787756439778 
-26.9086852881189 1:-3.07593638055379 2:0.789648084603378 3:-3.24857540814856 4:-0.851585092252938 5:5.63764665709692 
-18.1815596204158 1:-1.9135010440261 2:0 3:-4.53229787866576 4:0 5:7.55469613925306 
16.8374964799442 1:-1.14798176834303 2:-1.17915247295577 3:-2.45892732354518 4:-1.2837224705172 5:5.69048513364727 
-26.9086852881189 1:-1.15818725498151 2:-1.18992232997077 3:-2.05865307817779 4:-1.50141439594464 5:4.7499898040932 
-26.9086852881189 1:-0.389504388352391 2:-2.41336797167193 3:-2.11892990699383 4:0 5:2.53058652647704 
-1.7096609135311 1:-1.15818725498151 2:-4.53229787866576 3:0 4:2.11892990699383 5:0.411656619483214 
20.9630803248415 1:-0.393029362843267 2:-4.13926851582249 3:-0.877392430750512 4:5.016660946573 5:0 
19.6366281596663 1:-0.782533751195658 2:-5.46209508919802 3:0.445434142625012 4:6.18523677909246 5:0.382640785305322 
-26.9086852881189 1:-0.782533751195658 2:-5.46209508919802 3:1.32282657337552 4:5.30784434834195 5:1.13795457434991 
-18.5202484444318 1:0.396618721760111 2:-4.5757490560675 3:-0.440911890505502 4:6.56787756439778 5:-0.768682866629122 
12.3272813240131 1:0.789648084603378 2:-3.24857540814856 3:-0.851585092252938 4:5.63764665709692 5:-3.13140626684021 
21.6502998415276 1:0 2:-4.53229787866576 3:0 4:7.55469613925306 5:-2.63289387223491 
-26.9086852881189 1:-1.17915247295577 2:-2.45892732354518 3:-1.2837224705172 4:5.69048513364727 5:1.1281010409689 
23.7397519117445 1:-1.18992232997077 2:-2.05865307817779 3:-1.50141439594464 4:4.7499898040932 5:0.775546469676192 
-26.9086852881189 1:-2.41336797167193 2:-2.11892990699383 3:0 4:2.53058652647704 5:2.39121574054111 
-1.79218578057821 1:-4.53229787866576 2:0 3:2.11892990699383 4:0.411656619483214 5:2.39121574054111 
-7.96811296257199 1:-4.13926851582249 2:-0.877392430750512 3:5.016660946573 4:0 5:0.782533751195658 
-3.91527497731066 1:-5.46209508919802 2:0.445434142625012 3:6.18523677909246 4:0.382640785305322 5:-1.94783533958489 
4.27132911680392 1:-5.46209508919802 2:1.32282657337552 3:5.30784434834195 4:1.13795457434991 5:-4.74246499281383 
-2.76574770693329 1:-4.5757490560675 2:-0.440911890505502 3:6.56787756439778 4:-0.768682866629122 5:-2.80287236002432 
2.4253529118586 1:-3.24857540814856 2:-0.851585092252938 3:5.63764665709692 4:-3.13140626684021 5:-0.819447861527145 
26.9086852881189 1:-4.53229787866576 2:0 3:7.55469613925306 4:-2.63289387223491 5:-3.21846833714012 
4.96478627044808 1:-2.45892732354518 2:-1.2837224705172 3:5.69048513364727 4:1.1281010409689 5:-5.11525224473814 
6.62483804996268 1:-2.11892990699383 2:0 3:2.53058652647704 4:2.39121574054111 5:-3.21846833714012 
11.5197012948826 1:0 2:2.11892990699383 3:0.411656619483214 4:2.39121574054111 5:-1.17915247295577 
-10.933246500658 1:-0.877392430750512 2:5.016660946573 3:0 4:0.782533751195658 5:0.768682866629122 
26.274943971054 1:0.445434142625012 2:6.18523677909246 3:0.382640785305322 4:-1.94783533958489 5:0.396618721760111 
-1.23297623448196 1:1.32282657337552 2:5.30784434834195 3:1.13795457434991 4:-4.74246499281383 5:1.23504383864295 
-6.46204183003634 1:-0.440911890505502 2:6.56787756439778 3:-0.768682866629122 4:-2.80287236002432 5:0.819447861527145 
14.9012947173635 1:-0.851585092252938 2:5.63764665709692 3:-3.13140626684021 4:-0.819447861527145 5:2.80287236002432 
14.1092932769384 1:0 2:7.55469613925306 3:-2.63289387223491 4:-3.21846833714012 5:3.60451041846392 
-1.22030490777644 1:-1.2837224705172 2:5.69048513364727 3:1.1281010409689 4:-5.11525224473814 5:3.60451041846392 
16.6739349733102 1:-1.50141439594464 2:4.7499898040932 3:0.775546469676192 4:-3.60451041846392 5:2.03931586418435 
9.82617333367003 1:0 2:2.53058652647704 3:2.39121574054111 4:-3.21846833714012 5:2.43593458594447 
26.9086852881189 1:2.11892990699383 2:0.411656619483214 3:2.39121574054111 4:-1.17915247295577 5:0.396618721760111 
12.9270115489228 1:5.016660946573 2:0 3:0.782533751195658 4:0.768682866629122 5:0.379298901713909 
-9.58773727049176 1:6.18523677909246 2:0.382640785305322 3:-1.94783533958489 4:0.396618721760111 5:3.77885608893997 
1.3008176751762 1:5.30784434834195 2:1.13795457434991 3:-4.74246499281383 4:1.23504383864295 5:4.24982296209158 
18.3559074976516 1:6.56787756439778 2:-0.768682866629122 3:-2.80287236002432 4:0.819447861527145 5:2.7521073651263 
9.02712156515006 1:5.63764665709692 2:-3.13140626684021 3:-0.819447861527145 4:2.80287236002432 5:2.63289387223491 
3.24585107109441 1:7.55469613925306 2:-2.63289387223491 3:-3.21846833714012 4:3.60451041846392 5:2.61028025642052 
7.72489774006868 1:5.69048513364727 2:1.1281010409689 3:-5.11525224473814 4:3.60451041846392 5:2.61028025642052 
-2.39779887954134 1:4.7499898040932 2:0.775546469676192 3:-3.60451041846392 4:2.03931586418435 5:2.70314912862948 
9.62655466331277 1:2.53058652647704 2:2.39121574054111 3:-3.21846833714012 4:2.43593458594447 5:3.41542762343057 
6.93660043311237 1:0.411656619483214 2:2.39121574054111 3:-1.17915247295577 4:0.396618721760111 5:5.20290000040102 
20.6350061439911 1:0 2:0.782533751195658 3:0.768682866629122 4:0.379298901713909 5:4.9891869945637 
-13.8251494549313 1:0.382640785305322 2:-1.94783533958489 3:0.396618721760111 4:3.77885608893997 5:5.11525224473814 
2.28508881484786 1:1.13795457434991 2:-4.74246499281383 3:1.23504383864295 4:4.24982296209158 5:7.42460283721127 
-2.90337796950881 1:-0.768682866629122 2:-2.80287236002432 3:0.819447861527145 4:2.7521073651263 5:10.7448004447964 
2.94818029012951 1:-3.13140626684021 2:-0.819447861527145 3:2.80287236002432 4:2.63289387223491 5:10.6296626552242 
-8.98207963726602 1:-2.63289387223491 2:-3.21846833714012 3:3.60451041846392 4:2.61028025642052 5:10.5510184769974 
-18.7171421188677 1:1.1281010409689 2:-5.11525224473814 3:3.60451041846392 4:2.61028025642052 5:8.51716097368125 
19.3286809452587 1:0.775546469676192 2:-3.60451041846392 3:2.03931586418435 4:2.70314912862948 5:8.16700464513196 
-7.67355865807797 1:2.39121574054111 2:-3.21846833714012 3:2.43593458594447 4:3.41542762343057 5:5.15578369722771 
1.52311839671732 1:2.39121574054111 2:-1.17915247295577 3:0.396618721760111 4:5.20290000040102 5:5.2706350516003 
-11.8537119691456 1:0.782533751195658 2:0.768682866629122 3:0.379298901713909 4:4.9891869945637 5:1.3261930667837 
-9.66815749481612 1:-1.94783533958489 2:0.396618721760111 3:3.77885608893997 4:5.11525224473814 5:-1.63904161881692 
-6.97406704743922 1:-4.74246499281383 2:1.23504383864295 3:4.24982296209158 4:7.42460283721127 5:-3.55383253789894 
-5.86736338067968 1:-2.80287236002432 2:0.819447861527145 3:2.7521073651263 4:10.7448004447964 5:-5.37631454851883 
-3.06173831298475 1:-0.819447861527145 2:2.80287236002432 3:2.63289387223491 4:10.6296626552242 5:-8.84219027825375 
-0.564304884409488 1:-3.21846833714012 2:3.60451041846392 3:2.61028025642052 4:10.5510184769974 5:-11.2809423511473 
0.0304709871554203 1:-5.11525224473814 2:3.60451041846392 3:2.61028025642052 4:8.51716097368125 5:-10.7448004447964 
3.63098190062882 1:-3.60451041846392 2:2.03931586418435 3:2.70314912862948 4:8.16700464513196 5:-7.05810742857076 
0.660337467669946 1:-3.21846833714012 2:2.43593458594447 3:3.41542762343057 4:5.15578369722771 5:-5.15578369722771 
-2.51369926680146 1:-1.17915247295577 2:0.396618721760111 3:5.20290000040102 4:5.2706350516003 5:-8.16700464513196 
-0.138329553399438 1:0.768682866629122 2:0.379298901713909 3:4.9891869945637 4:1.3261930667837 5:-6.69467896306131 
2.3277310244513 1:0.396618721760111 2:3.77885608893997 3:5.11525224473814 4:-1.63904161881692 5:-7.65168543662131 
-1.39403562388632 1:1.23504383864295 2:4.24982296209158 3:7.42460283721127 4:-3.55383253789894 5:-6.91970251410239 
0.301975379979995 1:0.819447861527145 2:2.7521073651263 3:10.7448004447964 4:-5.37631454851883 5:-6.91970251410239 
-2.78021194137814 1:2.80287236002432 2:2.63289387223491 3:10.6296626552242 4:-8.84219027825375 5:-4.03432416788156 
-0.833469595142678 1:3.60451041846392 2:2.61028025642052 3:10.5510184769974 4:-11.2809423511473 5:-1.8803563822706 
0.179160127303837 1:3.60451041846392 2:2.61028025642052 3:8.51716097368125 4:-10.7448004447964 5:-0.382640785305322 
-1.26523088814103 1:2.03931586418435 2:2.70314912862948 3:8.16700464513196 4:-7.05810742857076 5:-2.24685179091111 
4.87434021571814 1:2.43593458594447 2:3.41542762343057 3:5.15578369722771 4:-5.15578369722771 5:-2.63289387223491 
2.7636573667933 1:0.396618721760111 2:5.20290000040102 3:5.2706350516003 4:-8.16700464513196 5:-2.70314912862948 
2.87882026291066 1:0.379298901713909 2:4.9891869945637 3:1.3261930667837 4:-6.69467896306131 5:-1.94783533958489 
2.9412473833285 1:3.77885608893997 2:5.11525224473814 3:-1.63904161881692 4:-7.65168543662131 5:0 
1.48791637750811 1:4.24982296209158 2:7.42460283721127 3:-3.55383253789894 4:-6.91970251410239 5:-0.396618721760111 
2.58273618538861 1:2.7521073651263 2:10.7448004447964 3:-5.37631454851883 4:-6.91970251410239 5:-0.796892967127505 
4.32189366513798 1:2.63289387223491 2:10.6296626552242 3:-8.84219027825375 4:-4.03432416788156 5:-3.60451041846392 
0.189653775390798 1:2.61028025642052 2:10.5510184769974 3:-11.2809423511473 4:-1.8803563822706 5:-2.36946657982098 
3.72306080128647 1:2.61028025642052 2:8.51716097368125 3:-10.7448004447964 4:-0.382640785305322 5:-1.16857583251946 
1.78041734231824 1:2.70314912862948 2:8.16700464513196 3:-7.05810742857076 4:-2.24685179091111 5:0 
0.199633332934268 1:3.41542762343057 2:5.15578369722771 3:-5.15578369722771 4:-2.63289387223491 5:2.2663984635944 
1.29670054778278 1:5.20290000040102 2:5.2706350516003 3:-8.16700464513196 4:-2.70314912862948 5:3.81204634519068 
2.12402939012724 1:4.9891869945637 2:1.3261930667837 3:-6.69467896306131 4:-1.94783533958489 5:2.70314912862948 
0.0871421554751813 1:5.11525224473814 2:-1.63904161881692 3:-7.65168543662131 4:0 5:2.70314912862948 
4.8289837723854 1:7.42460283721127 2:-3.55383253789894 3:-6.91970251410239 4:-0.396618721760111 5:2.3271342412988 
5.47819292628579 1:10.7448004447964 2:-5.37631454851883 3:-6.91970251410239 4:-0.796892967127505 5:2.72740848666619 
3.81823919546201 1:10.6296626552242 2:-8.84219027825375 3:-4.03432416788156 4:-3.60451041846392 5:5.11525224473814 
2.55421211911044 1:10.5510184769974 2:-11.2809423511473 3:-1.8803563822706 4:-2.36946657982098 5:3.8802084060952 
1.34342588723484 1:8.51716097368125 2:-10.7448004447964 3:-0.382640785305322 4:-1.16857583251946 5:4.49671455165235 
1.75009552466829 1:8.16700464513196 2:-7.05810742857076 3:-2.24685179091111 4:0 5:2.61028025642052 
-3.44929633383819 1:5.15578369722771 2:-5.15578369722771 3:-2.63289387223491 4:2.2663984635944 5:1.44778233686229 
6.71727432777212 1:5.2706350516003 2:-8.16700464513196 3:-2.70314912862948 4:3.81204634519068 5:1.78747237697046 
3.94233605761029 1:1.3261930667837 2:-6.69467896306131 3:-1.94783533958489 4:2.70314912862948 5:3.59125558906443 
-0.451593792369 1:-1.63904161881692 2:-7.65168543662131 3:0 4:2.70314912862948 5:5.61159419789314 
-4.70623200296582 1:-3.55383253789894 2:-6.91970251410239 3:-0.396618721760111 4:2.3271342412988 5:7.91812460476247 
4.15503435831846 1:-5.37631454851883 2:-6.91970251410239 3:-0.796892967127505 4:2.72740848666619 5:7.28410680166056 
3.37013887832816 1:-8.84219027825375 2:-4.03432416788156 3:-3.60451041846392 4:5.11525224473814 5:5.23880694596883 
0.385112219420764 1:-11.2809423511473 2:-1.8803563822706 3:-2.36946657982098 4:3.8802084060952 5:4.57574905606752 
7.15501976897887 1:-10.7448004447964 2:-0.382640785305322 3:-1.16857583251946 4:4.49671455165235 5:3.42141005311016 
1.57103535516634 1:-7.05810742857076 2:-2.24685179091111 3:0 4:2.61028025642052 5:4.13926851582254 
26.9086852881189 1:-5.15578369722771 2:-2.63289387223491 3:2.2663984635944 4:1.44778233686229 5:3.74918102923374 
11.9402288364563 1:-8.16700464513196 2:-2.70314912862948 3:3.81204634519068 4:1.78747237697046 5:3.6912083332771 
0.925758095185212 1:-6.69467896306131 2:-1.94783533958489 3:2.70314912862948 4:3.59125558906443 5:2.99632233774432 
9.76060710320043 1:-7.65168543662131 2:0 3:2.70314912862948 4:5.61159419789314 5:0.327770976123576 
7.40837001339217 1:-6.91970251410239 2:-0.396618721760111 3:2.3271342412988 4:7.91812460476247 5:-0.954531790623037 
-7.70759865352139 1:-6.91970251410239 2:-0.796892967127505 3:2.72740848666619 4:7.28410680166056 5:1.56802042851623 
-3.80856951686195 1:-4.03432416788156 2:-3.60451041846392 3:5.11525224473814 4:5.23880694596883 5:4.37789245785871 
-5.43623560687415 1:-1.8803563822706 2:-2.36946657982098 3:3.8802084060952 4:4.57574905606752 5:5.04095034776002 
26.9086852881189 1:-0.382640785305322 2:-1.16857583251946 3:4.49671455165235 4:3.42141005311016 5:4.37789245785871 
26.9086852881189 1:-2.24685179091111 2:0 3:2.61028025642052 4:4.13926851582254 5:6.41174996117488 
17.0945028700405 1:-2.63289387223491 2:2.2663984635944 3:1.44778233686229 4:3.74918102923374 5:7.75454833533655 
-12.3782155065158 1:-2.70314912862948 2:3.81204634519068 3:1.78747237697046 4:3.6912083332771 5:8.97743195450489 
6.04892155634467 1:-1.94783533958489 2:2.70314912862948 3:3.59125558906443 4:2.99632233774432 5:8.18538359089516 
-1.08782368082564 1:0 2:2.70314912862948 3:5.61159419789314 4:0.327770976123576 5:6.64800572032056 
-0.783964728749105 1:-0.396618721760111 2:2.3271342412988 3:7.91812460476247 4:-0.954531790623037 5:5.43576623225928 
-6.36850515054455 1:-0.796892967127505 2:2.72740848666619 3:7.28410680166056 4:1.56802042851623 5:3.83016081810834 
-3.05980904882983 1:-3.60451041846392 2:5.11525224473814 3:5.23880694596883 4:4.37789245785871 5:1.74907321603355 
-1.21287417110864 1:-2.36946657982098 2:3.8802084060952 3:4.57574905606752 4:5.04095034776002 5:1.46240915087321 
5.90972784359491 1:-1.16857583251946 2:4.49671455165235 3:3.42141005311016 4:4.37789245785871 5:1.74907321603355 
5.39583128541869 1:0 2:2.61028025642052 3:4.13926851582254 4:6.41174996117488 5:0 
1.68770445845514 1:2.2663984635944 2:1.44778233686229 3:3.74918102923374 4:7.75454833533655 5:-1.38764034839882 
-0.716487296569698 1:3.81204634519068 2:1.78747237697046 3:3.6912083332771 4:8.97743195450489 5:-3.82645000952824 
4.10835091478989 1:2.70314912862948 2:3.59125558906443 3:2.99632233774432 4:8.18538359089516 5:-3.90013359916837 
4.26477521993133 1:2.70314912862948 2:5.61159419789314 3:0.327770976123576 4:6.64800572032056 5:-1.13547508771221 
8.45389434413397 1:2.3271342412988 2:7.91812460476247 3:-0.954531790623037 4:5.43576623225928 5:-0.860017176191752 
7.8817599585083 1:2.72740848666619 2:7.28410680166056 3:1.56802042851623 4:3.83016081810834 5:-0.854377354329383 
9.31182698284996 1:5.11525224473814 2:5.23880694596883 3:4.37789245785871 4:1.74907321603355 5:1.681349900965 
-7.83781202885197 1:3.8802084060952 2:4.57574905606752 3:5.04095034776002 4:1.46240915087321 5:3.8506996920737 
7.66235784920633 1:4.49671455165235 2:3.42141005311016 3:4.37789245785871 4:1.74907321603355 5:3.56403562691336 
5.39488930592711 1:2.61028025642052 2:4.13926851582254 3:6.41174996117488 4:0 5:1.67056935028524 
8.97113494511934 1:1.44778233686229 2:3.74918102923374 3:7.75454833533655 4:-1.38764034839882 5:0.281097733382829 
2.35084583988464 1:1.78747237697046 2:3.6912083332771 3:8.97743195450489 4:-3.82645000952824 5:0.848811022551876 
0.520637256176596 1:3.59125558906443 2:2.99632233774432 3:8.18538359089516 4:-3.90013359916837 5:3.09337142436505 
-0.573504901611103 1:5.61159419789314 2:0.327770976123576 3:6.64800572032056 4:-1.13547508771221 5:4.63323344326936 
1.31182786496875 1:7.91812460476247 2:-0.954531790623037 3:5.43576623225928 4:-0.860017176191752 5:5.94371878518674 
-1.7647959736055 1:7.28410680166056 2:1.56802042851623 3:3.83016081810834 4:-0.854377354329383 5:5.90691558356262 
-4.66485435602299 1:5.23880694596883 2:4.37789245785871 3:1.74907321603355 4:1.681349900965 5:3.68713599531261 
-7.58788118601495 1:4.57574905606752 2:5.04095034776002 3:1.46240915087321 4:3.8506996920737 5:0.523252693367704 
2.93525952948186 1:3.42141005311016 2:4.37789245785871 3:1.74907321603355 4:3.56403562691336 5:2.30653040686937 
1.13625133843957 1:4.13926851582254 2:6.41174996117488 3:0 4:1.67056935028524 5:4.65761420413555 
-1.06619357267367 1:3.74918102923374 2:7.75454833533655 3:-1.38764034839882 4:0.281097733382829 5:5.2706350516003 
-1.81565901003255 1:3.6912083332771 2:8.97743195450489 3:-3.82645000952824 4:0.848811022551876 5:4.77144049585041 
-3.06608336088334 1:2.99632233774432 2:8.18538359089516 3:-3.90013359916837 4:3.09337142436505 5:2.88761277362291 
-12.7002489910401 1:0.327770976123576 2:6.64800572032056 3:-1.13547508771221 4:4.63323344326936 5:0 
5.55862725746451 1:-0.954531790623037 2:5.43576623225928 3:-0.860017176191752 4:5.94371878518674 5:-0.253233651539508 
-4.75546308409312 1:1.56802042851623 2:3.83016081810834 3:-0.854377354329383 4:5.90691558356262 5:-1.27368214029326 
10.2989773464613 1:4.37789245785871 2:1.74907321603355 3:1.681349900965 4:3.68713599531261 5:-1.80445026936424 
10.9625709113984 1:5.04095034776002 2:1.46240915087321 3:3.8506996920737 4:0.523252693367704 5:-0.523252693367704 
-13.3949153381104 1:4.37789245785871 2:1.74907321603355 3:3.56403562691336 4:2.30653040686937 5:-1.26625436689265 
-10.5432425657801 1:6.41174996117488 2:0 3:1.67056935028524 4:4.65761420413555 5:-3.31294183141089 
-7.56655754633493 1:7.75454833533655 2:-1.38764034839882 3:0.281097733382829 4:5.2706350516003 5:-2.03215775387111 
-4.75596835258232 1:8.97743195450489 2:-3.82645000952824 3:0.848811022551876 4:4.77144049585041 5:-2.85310885861647 
-9.88216031829621 1:8.18538359089516 2:-3.90013359916837 3:3.09337142436505 4:2.88761277362291 5:-3.4339023437731 
-26.2602393968516 1:6.64800572032056 2:-1.13547508771221 3:4.63323344326936 4:0 5:-1.04654336781649 
10.2352121112866 1:5.43576623225928 2:-0.860017176191752 3:5.94371878518674 4:-0.253233651539508 5:-1.55121661782474 
-12.5576943645041 1:3.83016081810834 2:-0.854377354329383 3:5.90691558356262 4:-1.27368214029326 5:-2.11892990699383 
-26.9086852881189 1:1.74907321603355 2:1.681349900965 3:3.68713599531261 4:-1.80445026936424 5:-1.6086819893455 
-26.9086852881189 1:1.46240915087321 2:3.8506996920737 3:0.523252693367704 4:-0.523252693367704 5:-1.6086819893455 
-16.8690682353685 1:1.74907321603355 2:3.56403562691336 3:2.30653040686937 4:-1.26625436689265 5:-2.10608285818239 
-3.45542495977784 1:0 2:1.67056935028524 3:4.65761420413555 4:-3.31294183141089 5:-11.7933835039642 
1.58465981441564 1:-1.38764034839882 2:0.281097733382829 3:5.2706350516003 4:-2.03215775387111 5:-13.9931100831133 
0.0436995382778546 1:-3.82645000952824 2:0.848811022551876 3:4.77144049585041 4:-2.85310885861647 5:-13.0333768495006 
0.426230228044607 1:-3.90013359916837 2:3.09337142436505 3:2.88761277362291 4:-3.4339023437731 5:-11.5871716637972 
5.11828668361178 1:-1.13547508771221 2:4.63323344326936 3:0 4:-1.04654336781649 5:-12.848401737295 
-5.03634124603919 1:-0.860017176191752 2:5.94371878518674 3:-0.253233651539508 4:-1.55121661782474 5:-12.7578832774508 
-0.482640533499906 1:-0.854377354329383 2:5.90691558356262 3:-1.27368214029326 4:-2.11892990699383 5:-11.7760151981176 
-2.1749854061843 1:1.681349900965 2:3.68713599531261 3:-1.80445026936424 4:-1.6086819893455 5:-12.5850162927921 
-1.63205629585142 1:3.8506996920737 2:0.523252693367704 3:-0.523252693367704 4:-1.6086819893455 5:-13.321126257429 
1.9300053533874 1:3.56403562691336 2:2.30653040686937 3:-1.26625436689265 4:-2.10608285818239 5:-15.374743254843 
-1.54100968344001 1:1.67056935028524 2:4.65761420413555 3:-3.31294183141089 4:-11.7933835039642 5:-2.50280057019308 
-9.25856887535707 1:0.281097733382829 2:5.2706350516003 3:-2.03215775387111 4:-13.9931100831133 5:0 
5.25901943001419 1:0.848811022551876 2:4.77144049585041 3:-2.85310885861647 4:-13.0333768495006 5:0.717858462712373 
-3.85317422366791 1:3.09337142436505 2:2.88761277362291 3:-3.4339023437731 4:-11.5871716637972 5:0.711974112294778 
-2.85714847730927 1:4.63323344326936 2:0 3:-1.04654336781649 4:-12.848401737295 5:-0.717858462712373 
5.20991642629574 1:5.94371878518674 2:-0.253233651539508 3:-1.55121661782474 4:-12.7578832774508 5:-2.17192496932364 
-10.2178135080798 1:5.90691558356262 2:-1.27368214029326 3:-2.11892990699383 4:-11.7760151981176 5:-2.56619903211366 
-0.112139736390557 1:3.68713599531261 2:-1.80445026936424 3:-1.6086819893455 4:-12.5850162927921 5:-2.24685179091111 
-0.27567615213033 1:0.523252693367704 2:-0.523252693367704 3:-1.6086819893455 4:-13.321126257429 5:-1.51074182627422 
-0.986293940137691 1:2.30653040686937 2:-1.26625436689265 3:-2.10608285818239 4:-15.374743254843 5:0 
-0.229207004500673 1:4.65761420413555 2:-3.31294183141089 3:-11.7933835039642 4:-2.50280057019308 5:-3.84582518191756 
3.3726889548978 1:5.2706350516003 2:-2.03215775387111 3:-13.9931100831133 4:0 5:-6.575203101767 
-0.942085295474554 1:4.77144049585041 2:-2.85310885861647 3:-13.0333768495006 4:0.717858462712373 5:-4.89333327341246 
-0.797864762823622 1:2.88761277362291 2:-3.4339023437731 3:-11.5871716637972 4:0.711974112294778 5:-4.45821326527405 
-1.18400262370634 1:0 2:-1.04654336781649 3:-12.848401737295 4:-0.717858462712373 5:-5.38753807828543 
-4.52323596135556 1:-0.253233651539508 2:-1.55121661782474 3:-12.7578832774508 4:-2.17192496932364 5:-5.95856899842442 
10.0936349057426 1:-1.27368214029326 2:-2.11892990699383 3:-11.7760151981176 4:-2.56619903211366 5:-7.3926106087367 
2.67747648473541 1:-1.80445026936424 2:-1.6086819893455 3:-12.5850162927921 4:-2.24685179091111 5:-4.87570697007769 
1.28336531635308 1:-0.523252693367704 2:-1.6086819893455 3:-13.321126257429 4:-1.51074182627422 5:-2.77725782186491 
3.73461669577048 1:-1.26625436689265 2:-2.10608285818239 3:-15.374743254843 4:0 5:-2.77725782186491 
2.74390203134545 1:-3.31294183141089 2:-11.7933835039642 3:-2.50280057019308 4:-3.84582518191756 5:-0.403997780174015 
5.15780775114207 1:-2.03215775387111 2:-13.9931100831133 3:0 4:-6.575203101767 5:2.03931586418435 
-0.929690055180973 1:-2.85310885861647 2:-13.0333768495006 3:0.717858462712373 4:-4.89333327341246 5:0.396618721760111 
5.51554835548669 1:-3.4339023437731 2:-11.5871716637972 3:0.711974112294778 4:-4.45821326527405 5:-0.393029362843267 
-2.34105550150267 1:-1.04654336781649 2:-12.848401737295 3:-0.717858462712373 4:-5.38753807828543 5:2.77725782186491 
2.77147121555059 1:-1.55121661782474 2:-12.7578832774508 3:-2.17192496932364 4:-5.95856899842442 5:4.83046795745552 
0.265095386356927 1:-2.11892990699383 2:-11.7760151981176 3:-2.56619903211366 4:-7.3926106087367 5:8.14141274799169 
-0.792306827229968 1:-1.6086819893455 2:-12.5850162927921 3:-2.24685179091111 4:-4.87570697007769 5:6.38644879635191 
-0.266547539006914 1:-1.6086819893455 2:-13.321126257429 3:-1.51074182627422 4:-2.77725782186491 5:3.91521239621482 
-0.415806169270795 1:-2.10608285818239 2:-15.374743254843 3:0 4:-2.77725782186491 5:4.28799964813913 
-1.61808963761863 1:-11.7933835039642 2:-2.50280057019308 3:-3.84582518191756 4:-0.403997780174015 5:4.24982296209158 
-1.90498465490121 1:-13.9931100831133 2:0 3:-6.575203101767 4:2.03931586418435 5:4.53588723758265 
-0.352436915202596 1:-13.0333768495006 2:0.717858462712373 3:-4.89333327341246 4:0.396618721760111 5:4.13926851582254 
3.16689859832826 1:-11.5871716637972 2:0.711974112294778 3:-4.45821326527405 4:-0.393029362843267 5:3.77885608893997 
2.52975946883523 1:-12.848401737295 2:-0.717858462712373 3:-5.38753807828543 4:2.77725782186491 5:2.61028025642052 
-2.82998497434714 1:-12.7578832774508 2:-2.17192496932364 3:-5.95856899842442 4:4.83046795745552 5:2.22763947111519 
3.34437971612111 1:-11.7760151981176 2:-2.56619903211366 3:-7.3926106087367 4:8.14141274799169 5:0.369614555996378 
3.54676073943006 1:-12.5850162927921 2:-2.24685179091111 3:-4.87570697007769 4:6.38644879635191 5:0.736109964636888 
-0.393162933122147 1:-13.321126257429 2:-1.51074182627422 3:-2.77725782186491 4:3.91521239621482 5:0.74240180792069 
3.17213712083247 1:-15.374743254843 2:0 3:-2.77725782186491 4:4.28799964813913 5:0 
6.40024706803872 1:-2.50280057019308 2:-3.84582518191756 3:-0.403997780174015 4:4.24982296209158 5:-0.369614555996378 
13.0650878259936 1:0 2:-6.575203101767 3:2.03931586418435 4:4.53588723758265 5:-0.723840892391969 
-4.58365705885244 1:0.717858462712373 2:-4.89333327341246 3:0.396618721760111 4:4.13926851582254 5:1.06363148457849 
-5.7636976985598 1:0.711974112294778 2:-4.45821326527405 3:-0.393029362843267 4:3.77885608893997 5:1.42404391146105 
12.1452833244101 1:-0.717858462712373 2:-5.38753807828543 3:2.77725782186491 4:2.61028025642052 5:1.42404391146105 
3.59159552823509 1:-2.17192496932364 2:-5.95856899842442 3:4.83046795745552 4:2.22763947111519 5:1.42404391146105 
-2.45621077610072 1:-2.56619903211366 2:-7.3926106087367 3:8.14141274799169 4:0.369614555996378 5:3.53279623417428 
1.94317776098555 1:-2.24685179091111 2:-4.87570697007769 3:6.38644879635191 4:0.736109964636888 5:3.50427489067182 
-6.20299761493585 1:-1.51074182627422 2:-2.77725782186491 3:3.91521239621482 4:0.74240180792069 5:3.53279623417428 
1.04151496464501 1:0 2:-2.77725782186491 3:4.28799964813913 4:0 5:3.56178592097951 
16.2558061370624 1:-3.84582518191756 2:-0.403997780174015 3:4.24982296209158 4:-0.369614555996378 5:1.45995085702886 
26.9086852881189 1:-6.575203101767 2:2.03931586418435 3:4.53588723758265 4:-0.723840892391969 5:0 
12.6467498980307 1:-4.89333327341246 2:0.396618721760111 3:4.13926851582254 4:1.06363148457849 5:-1.78747237697046 
-9.75811784452912 1:-4.45821326527405 2:-0.393029362843267 3:3.77885608893997 4:1.42404391146105 5:-0.706185448748675 
-4.80273499377524 1:-5.38753807828543 2:2.77725782186491 3:2.61028025642052 4:1.42404391146105 5:0 
11.7069160387093 1:-5.95856899842442 2:4.83046795745552 3:2.22763947111519 4:1.42404391146105 5:0.348832784582109 
-0.68963706118934 1:-7.3926106087367 2:8.14141274799169 3:0.369614555996378 4:3.53279623417428 5:-1.02999566398121 
-0.130899384561937 1:-4.87570697007769 2:6.38644879635191 3:0.736109964636888 4:3.50427489067182 5:-1.02191651816859 
2.57550054431358 1:-2.77725782186491 2:3.91521239621482 3:0.74240180792069 4:3.53279623417428 5:-1.02999566398121 
-3.17147456641499 1:-2.77725782186491 2:4.28799964813913 3:0 4:3.56178592097951 5:-0.343317583839386 
13.6371247664715 1:-0.403997780174015 2:4.24982296209158 3:-0.369614555996378 4:1.45995085702886 5:1.4124642691606 
-9.20724510385369 1:2.03931586418435 2:4.53588723758265 3:-0.723840892391969 4:0 5:2.48235837250324 
-20.6270430624351 1:0.396618721760111 2:4.13926851582254 3:1.06363148457849 4:-1.78747237697046 5:1.08128692822178 
