svm_type epsilon_svr
kernel_type rbf
gamma 0.840896415253714
nr_class 2
total_sv 651
rho -0.838384856737592
SV
1.00966410758551 1:0.917435023637703 2:0.32191049815391 3:-2.93322287726689 4:1.81741163899165 5:-2.10684123722813 
-0.768092707990777 1:0.848184621245895 2:0.255456213566996 3:-2.72402781533869 4:1.72799252237477 5:-1.52957546685868 
1.4387789232517 1:0.832136044715792 2:0.0333880697169331 3:-2.6717555105694 4:1.49885540870622 5:-1.20140360627845 
-1.49698068263373 1:1.10800072542365 2:-0.142991194115938 3:-2.32944444221688 4:1.42617145052251 5:-0.888310418863147 
0.52139322776407 1:0.868868318199834 2:-0.0566244431255747 3:-2.3326726821248 4:0.945754687655676 5:-0.68258156218759 
0.351921897340368 1:1.41239849544745 2:-1.19025215776545 3:-1.03003735439278 4:0.477503963820825 5:-0.576576244615801 
-0.712190890115527 1:0.977176919661726 2:-1.08648841695964 3:-0.776086967245115 4:0.460784252198154 5:-0.797501372238996 
2.88790898414066 1:0.775161523921097 2:-0.973165963616651 3:-0.513109290430425 4:0.0822015053156377 5:-0.822909088327117 
-1.08328492485652 1:0.547239410985823 2:-0.81805173997429 3:-0.876531162659244 4:0.027315971988795 5:-0.383253227466485 
-0.457054317206611 1:0.79471871186656 2:-1.03703459226958 3:-0.880063488125726 4:-0.202177724705344 5:-0.116715211648 
-1.03041990932445 1:0.744363396916947 2:-1.40272110618773 3:-0.138484285535379 4:-0.337188723484561 5:-0.00336361489119419 
-0.858463602043304 1:0.169104063419789 2:-0.992259830921549 3:-0.601580291307036 4:-0.0676514805932005 5:-0.216924824444931 
-0.902200963526416 1:-0.315493853171134 2:0.273088797730825 3:-0.855711960145689 4:-0.206489988858749 5:-0.126385503024151 
-0.628162725513716 1:-0.502509185861744 2:0.904139287477168 3:-0.0393327692334466 4:-1.47448003906572 5:0.537975264689505 
0.177391222469657 1:-0.0646386602658922 2:0.341921695509528 3:0.0376356641247355 4:-1.42252469459105 5:0.97052409248235 
-0.501285179902168 1:-0.525413730179825 2:0.0702097172752936 3:0.377580918176479 4:-1.75253657678636 5:1.74372655859907 
-4 1:-0.0469238232713387 2:-0.770478922528461 3:0.0872795890269007 4:-0.797308453189816 5:1.25755606471407 
0.966649729796559 1:0.232756624365127 2:-0.813453835855027 3:0.580231377733531 4:-1.13442531614365 5:1.25590506809314 
-0.647311161773086 1:-0.284630169488054 2:-0.0854528966181878 3:0.310913830961379 4:-0.949279373358625 5:1.16755940323028 
-4 1:-1.52187568544724 2:0.852600962638572 3:0.0981021579499863 4:-0.958298870879748 5:1.19516654569032 
2.34537278155551 1:-1.48657355623358 2:0.908639628262931 3:0.0831477273737224 4:-0.937148564341328 5:1.11950196660069 
0.911855424626968 1:-2.00581477537631 2:0.725622043148988 3:0.413821694400163 4:-0.955643595141797 5:0.963339922834683 
-0.27134351747599 1:-1.88417592552685 2:-0.679461732667752 3:1.27588987827068 4:-1.13288640412619 5:1.2705013308572 
-0.0342906543649499 1:-1.6247557521877 2:-1.48689507559272 3:2.36914198996159 4:-2.06952519591486 5:2.08044311630391 
-0.432526932202791 1:-1.19427209051719 2:-1.85554536591495 3:1.75368712747344 4:-2.33274624063045 5:2.74071784166572 
-0.488281904725969 1:-0.783161306964875 2:-2.05153195591672 3:1.8703041692516 4:-1.86664758873936 5:1.71424876933099 
1.22782329260495 1:-0.461292463706409 2:-2.35706524930146 3:1.89828555560942 4:-2.00012351532792 5:1.64800212890803 
0.944021974065378 1:0.0235403362268904 2:-3.02269227498844 3:2.51696456862804 4:-2.61555808442111 5:2.14192283943899 
0.87483805528727 1:0.32191049815391 2:-2.93322287726689 3:1.81741163899165 4:-2.10684123722813 5:1.78454391438136 
-0.766994198810004 1:0.0333880697169331 2:-2.6717555105694 3:1.49885540870622 4:-1.20140360627845 5:1.6214598060055 
1.28280698170088 1:-0.142991194115938 2:-2.32944444221688 3:1.42617145052251 4:-0.888310418863147 5:1.23033382310243 
0.935429922691748 1:-0.0566244431255747 2:-2.3326726821248 3:0.945754687655676 4:-0.68258156218759 5:1.93628417869789 
-0.303846034422448 1:-1.08648841695964 2:-0.776086967245115 3:0.460784252198154 4:-0.797501372238996 5:1.95368706726189 
0.781107275304252 1:-0.973165963616651 2:-0.513109290430425 3:0.0822015053156377 4:-0.822909088327117 5:2.22116455756711 
3.43934037526024 1:-0.81805173997429 2:-0.876531162659244 3:0.027315971988795 4:-0.383253227466485 5:1.47652991772542 
-2.89673304152233 1:-1.03703459226958 2:-0.880063488125726 3:-0.202177724705344 4:-0.116715211648 5:1.3062158122719 
1.01922758842354 1:-1.40272110618773 2:-0.138484285535379 3:-0.337188723484561 4:-0.00336361489119419 5:1.24441353021627 
1.53206249951616 1:-0.992259830921549 2:-0.601580291307036 3:-0.0676514805932005 4:-0.216924824444931 5:1.30168876333214 
4 1:0.273088797730825 2:-0.855711960145689 3:-0.206489988858749 4:-0.126385503024151 5:0.683028792388152 
3.11936716580289 1:0.904139287477168 2:-0.0393327692334466 3:-1.47448003906572 4:0.537975264689505 5:0.30928574732445 
-1.60973218746412 1:0.341921695509528 2:0.0376356641247355 3:-1.42252469459105 4:0.97052409248235 5:0.161387657259526 
1.05780260555276 1:1.11478126256608 2:-0.576369533274024 3:-1.36163964651979 4:1.26116122055904 5:0.411166380306716 
1.90135457488443 1:0.0702097172752936 2:0.377580918176479 3:-1.75253657678636 4:1.74372655859907 5:-0.167597801277353 
2.06731899194199 1:-0.770478922528461 2:0.0872795890269007 3:-0.797308453189816 4:1.25755606471407 5:0.0358103775799368 
-0.152503986092351 1:-0.813453835855027 2:0.580231377733531 3:-1.13442531614365 4:1.25590506809314 5:0.127096448036701 
0.732283427412461 1:-0.0854528966181878 2:0.310913830961379 3:-0.949279373358625 4:1.16755940323028 5:-0.311746901275223 
3.08138856430571 1:0.852600962638572 2:0.0981021579499863 3:-0.958298870879748 4:1.19516654569032 5:-0.403780095021045 
-4 1:0.908639628262931 2:0.0831477273737224 3:-0.937148564341328 4:1.11950196660069 5:0.0279156541087566 
3.72125040122999 1:0.725622043148988 2:0.413821694400163 3:-0.955643595141797 4:0.963339922834683 5:0.785960879401681 
1.50720092251646 1:-0.679461732667752 2:1.27588987827068 3:-1.13288640412619 4:1.2705013308572 5:0.628839253999525 
0.790965722078315 1:-1.48689507559272 2:2.36914198996159 3:-2.06952519591486 4:2.08044311630391 5:0.579494252414969 
0.0908464366086688 1:-1.70705572737426 2:1.99766258831415 3:-2.51860906632104 4:2.30970062112572 5:0.877146374604498 
1.43675821909573 1:-1.85554536591495 2:1.75368712747344 3:-2.33274624063045 4:2.74071784166572 5:0.44456762351941 
0.671389361353358 1:-2.05153195591672 2:1.8703041692516 3:-1.86664758873936 4:1.71424876933099 5:1.55576330909808 
-1.05898835140842 1:-2.35706524930146 2:1.89828555560942 3:-2.00012351532792 4:1.64800212890803 5:2.3573723089183 
0.0857782611453011 1:-3.02269227498844 2:2.51696456862804 3:-2.61555808442111 4:2.14192283943899 5:2.4484444667213 
1.00114168411908 1:-2.93322287726689 2:1.81741163899165 3:-2.10684123722813 4:1.78454391438136 5:2.55484697782311 
0.957833024741882 1:-2.6717555105694 2:1.49885540870622 3:-1.20140360627845 4:1.6214598060055 5:2.13472594757933 
0.0756939910640456 1:-2.3326726821248 2:0.945754687655676 3:-0.68258156218759 4:1.93628417869789 5:2.22953611708059 
0.98475557323407 1:-0.776086967245115 2:0.460784252198154 3:-0.797501372238996 4:1.95368706726189 5:1.78378592411579 
0.0649546643582713 1:-0.513109290430425 2:0.0822015053156377 3:-0.822909088327117 4:2.22116455756711 5:1.87291749156913 
0.700131320653732 1:-0.876531162659244 2:0.027315971988795 3:-0.383253227466485 4:1.47652991772542 5:2.21813896225194 
-1.84322545935121 1:-0.880063488125726 2:-0.202177724705344 3:-0.116715211648 4:1.3062158122719 5:1.9875313162832 
-1.82669212562642 1:-0.601580291307036 2:-0.0676514805932005 3:-0.216924824444931 4:1.30168876333214 5:2.40026573394712 
-0.787247110517967 1:-0.855711960145689 2:-0.206489988858749 3:-0.126385503024151 4:0.683028792388152 5:2.94371923174119 
-0.24525192017883 1:-0.0393327692334466 2:-1.47448003906572 3:0.537975264689505 4:0.30928574732445 5:3.39974256779367 
0.25319741876546 1:0.0376356641247355 2:-1.42252469459105 3:0.97052409248235 4:0.161387657259526 5:3.02302752622547 
-1.31492300172456 1:0.377580918176479 2:-1.75253657678636 3:1.74372655859907 4:-0.167597801277353 5:3.61552684415458 
1.55886705691501 1:0.580231377733531 2:-1.13442531614365 3:1.25590506809314 4:0.127096448036701 5:3.36718644586771 
-1.11621183117642 1:0.310913830961379 2:-0.949279373358625 3:1.16755940323028 4:-0.311746901275223 5:3.58559772323819 
0.179358295704602 1:0.0981021579499863 2:-0.958298870879748 3:1.19516654569032 4:-0.403780095021045 5:3.17028001652404 
-0.809067075930992 1:0.0831477273737224 2:-0.937148564341328 3:1.11950196660069 4:0.0279156541087566 5:2.75115415341585 
-1.12997535635957 1:0.413821694400163 2:-0.955643595141797 3:0.963339922834683 4:0.785960879401681 5:2.42152176611996 
-1.50993652605413 1:1.27588987827068 2:-1.13288640412619 3:1.2705013308572 4:0.628839253999525 5:2.27048785687463 
-0.421104694495053 1:2.36914198996159 2:-2.06952519591486 3:2.08044311630391 4:0.579494252414969 5:2.58037320416284 
-0.312698326361432 1:1.99766258831415 2:-2.51860906632104 3:2.30970062112572 4:0.877146374604498 5:2.66953683254969 
-1.17625333763502 1:1.75368712747344 2:-2.33274624063045 3:2.74071784166572 4:0.44456762351941 5:2.87217145549739 
-0.266821722285776 1:1.8703041692516 2:-1.86664758873936 3:1.71424876933099 4:1.55576330909808 5:2.15066725215256 
2.0706009303701 1:1.89828555560942 2:-2.00012351532792 3:1.64800212890803 4:2.3573723089183 5:1.32249415882275 
-0.162959839136941 1:2.51696456862804 2:-2.61555808442111 3:2.14192283943899 4:2.4484444667213 5:1.28070136157326 
-2.5393048288487 1:1.81741163899165 2:-2.10684123722813 3:1.78454391438136 4:2.55484697782311 5:1.71200004504577 
1.59848398014728 1:1.72799252237477 2:-1.52957546685868 3:1.53641226745909 4:2.21856554186406 5:1.87488852945923 
-2.1619796778345 1:1.49885540870622 2:-1.20140360627845 3:1.6214598060055 4:2.13472594757933 5:1.9565656930296 
0.593543216310398 1:1.42617145052251 2:-0.888310418863147 3:1.23033382310243 4:2.4463519212258 5:1.51223810907855 
3.23943814447591 1:0.945754687655676 2:-0.68258156218759 3:1.93628417869789 4:2.22953611708059 5:1.41100350714289 
-3.30176785074406 1:0.477503963820825 2:-0.576576244615801 3:1.74558368215623 4:2.06576912512664 5:1.45850655073421 
1.20012274965792 1:0.460784252198154 2:-0.797501372238996 3:1.95368706726189 4:1.78378592411579 5:1.79856494257948 
-1.3063869592535 1:0.027315971988795 2:-0.383253227466485 3:1.47652991772542 4:2.21813896225194 5:1.08283578280646 
4 1:-0.202177724705344 2:-0.116715211648 3:1.3062158122719 4:1.9875313162832 5:0.886890972281895 
2.53979768883698 1:-0.337188723484561 2:-0.00336361489119419 3:1.24441353021627 4:2.14669899970379 5:0.466758890083518 
-0.662685133743701 1:-0.0676514805932005 2:-0.216924824444931 3:1.30168876333214 4:2.40026573394712 5:0.566045092761458 
-0.430058650853889 1:-0.206489988858749 2:-0.126385503024151 3:0.683028792388152 4:2.94371923174119 5:0.254025716318118 
0.56077961663697 1:-1.47448003906572 2:0.537975264689505 3:0.30928574732445 4:3.39974256779367 5:0.215235861022833 
-2.10024598695016 1:-1.42252469459105 2:0.97052409248235 3:0.161387657259526 4:3.02302752622547 5:0.0733062666858242 
0.759708206133775 1:-1.36163964651979 2:1.26116122055904 3:0.411166380306716 4:2.77307711166843 5:0.431295268925291 
0.819093478425215 1:-1.75253657678636 2:1.74372655859907 3:-0.167597801277353 4:3.61552684415458 5:-0.422123347167203 
-1.25329397982197 1:-1.13442531614365 2:1.25590506809314 3:0.127096448036701 4:3.36718644586771 5:0.133952265472947 
-1.07830522601413 1:-0.949279373358625 2:1.16755940323028 3:-0.311746901275223 4:3.58559772323819 5:-0.143169578820856 
3.27004900703338 1:-0.958298870879748 2:1.19516654569032 3:-0.403780095021045 4:3.17028001652404 5:-0.0263205219263707 
0.997087526187229 1:-0.937148564341328 2:1.11950196660069 3:0.0279156541087566 4:2.75115415341585 5:-0.206890885785427 
2.73813072405806 1:-0.955643595141797 2:0.963339922834683 3:0.785960879401681 4:2.42152176611996 5:-0.396596109413538 
-1.62159478838008 1:-1.13288640412619 2:1.2705013308572 3:0.628839253999525 4:2.27048785687463 5:-0.184961247043747 
0.838205378732773 1:-2.33274624063045 2:2.74071784166572 3:0.44456762351941 4:2.87217145549739 5:-0.781354784220767 
0.618422526959001 1:-1.86664758873936 2:1.71424876933099 3:1.55576330909808 4:2.15066725215256 5:-0.257429483450977 
1.00354726208563 1:-2.00012351532792 2:1.64800212890803 3:2.3573723089183 4:1.32249415882275 5:0.293427265193813 
-0.0467665980834698 1:-2.61555808442111 2:2.14192283943899 3:2.4484444667213 4:1.28070136157326 5:0.318646036828651 
-0.097286923610993 1:-2.10684123722813 2:1.78454391438136 3:2.55484697782311 4:1.71200004504577 5:-0.113523656539449 
-1.23048169502594 1:-1.52957546685868 2:1.53641226745909 3:2.21856554186406 4:1.87488852945923 5:0.164523380211401 
1.29431859888434 1:-1.20140360627845 2:1.6214598060055 3:2.13472594757933 4:1.9565656930296 5:-0.0474388819248883 
-0.324262843665177 1:-0.888310418863147 2:1.23033382310243 3:2.4463519212258 4:1.51223810907855 5:0.0613843040587536 
0.138631257656096 1:-0.68258156218759 2:1.93628417869789 3:2.22953611708059 4:1.41100350714289 5:-0.505323146742898 
0.273303362747504 1:-0.576576244615801 2:1.74558368215623 3:2.06576912512664 4:1.45850655073421 5:-0.189849705227463 
-4 1:-0.797501372238996 2:1.95368706726189 3:1.78378592411579 4:1.79856494257948 5:0.0483506913611986 
-0.143206264484082 1:-0.822909088327117 2:2.22116455756711 3:1.87291749156913 4:1.44092763045118 5:0.181185069390066 
-0.55594039469984 1:-0.383253227466485 2:1.47652991772542 3:2.21813896225194 4:1.08283578280646 5:0.745148338114632 
-4 1:-0.00336361489119419 2:1.24441353021627 3:2.14669899970379 4:0.466758890083518 5:1.31761734457476 
0.681818497534904 1:-0.216924824444931 2:1.30168876333214 3:2.40026573394712 4:0.566045092761458 5:1.27312663624295 
-0.311408781945225 1:-0.126385503024151 2:0.683028792388152 3:2.94371923174119 4:0.254025716318118 5:0.935423178888417 
0.264816608836509 1:0.537975264689505 2:0.30928574732445 3:3.39974256779367 4:0.215235861022833 5:0.979774891785645 
2.849123517081 1:0.97052409248235 2:0.161387657259526 3:3.02302752622547 4:0.0733062666858242 5:1.45008771465513 
1.53408226363984 1:1.74372655859907 2:-0.167597801277353 3:3.61552684415458 4:-0.422123347167203 5:1.77108972143563 
4 1:1.25755606471407 2:0.0358103775799368 3:3.41721789758616 4:-0.0528240214981768 5:1.71610404828253 
-4 1:1.25590506809314 2:0.127096448036701 3:3.36718644586771 4:0.133952265472947 5:1.37355932797911 
-4 1:1.16755940323028 2:-0.311746901275223 3:3.58559772323819 4:-0.143169578820856 5:1.79480468337716 
-3.1472482436816 1:1.19516654569032 2:-0.403780095021045 3:3.17028001652404 4:-0.0263205219263707 5:2.589467495747 
0.797148327386029 1:1.11950196660069 2:0.0279156541087566 3:2.75115415341585 4:-0.206890885785427 5:2.67064679335633 
-2.90937849753353 1:0.963339922834683 2:0.785960879401681 3:2.42152176611996 4:-0.396596109413538 5:2.66587906603899 
-4 1:1.2705013308572 2:0.628839253999525 3:2.27048785687463 4:-0.184961247043747 5:2.15536698350434 
-4 1:2.08044311630391 2:0.579494252414969 3:2.58037320416284 4:-0.343844620089495 5:1.86142031559795 
3.05986192694106 1:2.30970062112572 2:0.877146374604498 3:2.66953683254969 4:-0.463543388129795 5:1.70037886833683 
-2.95165750900703 1:2.74071784166572 2:0.44456762351941 3:2.87217145549739 4:-0.781354784220767 5:1.94388849063598 
-2.96054509501942 1:1.71424876933099 2:1.55576330909808 3:2.15066725215256 4:-0.257429483450977 5:1.33059129974353 
0.00862172743729571 1:1.64800212890803 2:2.3573723089183 3:1.32249415882275 4:0.293427265193813 5:0.712816028378782 
-0.64774115576467 1:2.14192283943899 2:2.4484444667213 3:1.28070136157326 4:0.318646036828651 5:0.690621413203862 
0.132964317863162 1:1.78454391438136 2:2.55484697782311 3:1.71200004504577 4:-0.113523656539449 5:0.773884015514392 
-4 1:1.53641226745909 2:2.21856554186406 3:1.87488852945923 4:0.164523380211401 5:0.0707659458710097 
2.59544872868452 1:1.6214598060055 2:2.13472594757933 3:1.9565656930296 4:-0.0474388819248883 5:-0.253684046961133 
-4 1:1.23033382310243 2:2.4463519212258 3:1.51223810907855 4:0.0613843040587536 5:-0.486391102460493 
-0.955406378553835 1:1.93628417869789 2:2.22953611708059 3:1.41100350714289 4:-0.505323146742898 5:-0.201727962844789 
3.97000223003164 1:1.74558368215623 2:2.06576912512664 3:1.45850655073421 4:-0.189849705227463 5:-0.479231121417278 
-2.37097458739999 1:1.95368706726189 2:1.78378592411579 3:1.79856494257948 4:0.0483506913611986 5:-1.15827454047444 
-1.48002400638341 1:2.22116455756711 2:1.87291749156913 3:1.44092763045118 4:0.181185069390066 5:-0.733142211596549 
-4 1:1.47652991772542 2:2.21813896225194 3:1.08283578280646 4:0.745148338114632 5:-0.818886674691655 
-4 1:1.3062158122719 2:1.9875313162832 3:0.886890972281895 4:1.30467562537935 5:-1.02480923240686 
-4 1:1.24441353021627 2:2.14669899970379 3:0.466758890083518 4:1.31761734457476 5:-0.813817195087818 
-0.546451754093379 1:1.30168876333214 2:2.40026573394712 3:0.566045092761458 4:1.27312663624295 5:-0.700311373177698 
-0.965991685663851 1:0.683028792388152 2:2.94371923174119 3:0.254025716318118 4:0.935423178888417 5:-0.120557440530478 
-0.979473173987154 1:0.30928574732445 2:3.39974256779367 3:0.215235861022833 4:0.979774891785645 5:-0.0972411681004814 
0.261273903684772 1:0.161387657259526 2:3.02302752622547 3:0.0733062666858242 4:1.45008771465513 5:-0.611184157549483 
-0.561957787551975 1:0.411166380306716 2:2.77307711166843 3:0.431295268925291 4:1.72235955890856 5:-1.02954685323482 
-0.681363476797249 1:-0.167597801277353 2:3.61552684415458 3:-0.422123347167203 4:1.77108972143563 5:-0.676686260645942 
-0.232804750740319 1:0.0358103775799368 2:3.41721789758616 3:-0.0528240214981768 4:1.71610404828253 5:-1.30156989006194 
0.0369116636929407 1:0.127096448036701 2:3.36718644586771 3:0.133952265472947 4:1.37355932797911 5:-1.68471028064987 
0.629380408801624 1:-0.311746901275223 2:3.58559772323819 3:-0.143169578820856 4:1.79480468337716 5:-2.42015700993932 
-0.230187637758126 1:0.0279156541087566 2:2.75115415341585 3:-0.206890885785427 4:2.67064679335633 5:-2.45899929497595 
0.787230856460739 1:0.785960879401681 2:2.42152176611996 3:-0.396596109413538 4:2.66587906603899 5:-2.95556306937659 
-0.117138792252659 1:0.628839253999525 2:2.27048785687463 3:-0.184961247043747 4:2.15536698350434 5:-1.84287240688921 
0.0816066540241513 1:0.877146374604498 2:2.66953683254969 3:-0.463543388129795 4:1.70037886833683 5:-1.55957964622302 
1.61298597559245 1:1.55576330909808 2:2.15066725215256 3:-0.257429483450977 4:1.33059129974353 5:-1.8210706768639 
4 1:2.3573723089183 2:1.32249415882275 3:0.293427265193813 4:0.712816028378782 5:-2.01380563216973 
-0.756534313991372 1:2.55484697782311 2:1.71200004504577 3:-0.113523656539449 4:0.773884015514392 5:-1.41845209231382 
-0.0382555693029258 1:2.21856554186406 2:1.87488852945923 3:0.164523380211401 4:0.0707659458710097 5:-1.20095250673278 
-0.39697944066617 1:2.13472594757933 2:1.9565656930296 3:-0.0474388819248883 4:-0.253684046961133 5:-0.208456984031491 
2.77089675191148 1:2.4463519212258 2:1.51223810907855 3:0.0613843040587536 4:-0.486391102460493 5:-0.0603065346229226 
1.64230032556842 1:2.22953611708059 2:1.41100350714289 3:-0.505323146742898 4:-0.201727962844789 5:-0.114194338113194 
-4 1:2.06576912512664 2:1.45850655073421 3:-0.189849705227463 4:-0.479231121417278 5:0.0795814746977985 
1.32984929747252 1:1.78378592411579 2:1.79856494257948 3:0.0483506913611986 4:-1.15827454047444 5:-0.0228554382927015 
-1.10554396680462 1:1.87291749156913 2:1.44092763045118 3:0.181185069390066 4:-0.733142211596549 5:-0.479735943441773 
-0.334229656118639 1:1.9875313162832 2:0.886890972281895 3:1.30467562537935 4:-1.02480923240686 5:-1.22618601313436 
4 1:2.14669899970379 2:0.466758890083518 3:1.31761734457476 4:-0.813817195087818 5:-0.869007584386194 
-0.834928348270598 1:2.40026573394712 2:0.566045092761458 3:1.27312663624295 4:-0.700311373177698 5:-0.833178902095888 
-0.0525946076368084 1:2.94371923174119 2:0.254025716318118 3:0.935423178888417 4:-0.120557440530478 5:-0.474002415874164 
0.454656821429577 1:3.02302752622547 2:0.0733062666858242 3:1.45008771465513 4:-0.611184157549483 5:-0.367295928612199 
-0.751807358191726 1:2.77307711166843 2:0.431295268925291 3:1.72235955890856 4:-1.02954685323482 5:-0.202655807208219 
-0.651170075500565 1:3.61552684415458 2:-0.422123347167203 3:1.77108972143563 4:-0.676686260645942 5:-0.326946635283853 
0.614936400076267 1:3.41721789758616 2:-0.0528240214981768 3:1.71610404828253 4:-1.30156989006194 5:-0.0289261109202243 
0.10170337987166 1:3.58559772323819 2:-0.143169578820856 3:1.79480468337716 4:-2.42015700993932 5:1.39144583067154 
0.643258496732145 1:3.17028001652404 2:-0.0263205219263707 3:2.589467495747 4:-2.84657370149195 5:1.01771207454537 
-0.087069107514148 1:2.75115415341585 2:-0.206890885785427 3:2.67064679335633 4:-2.45899929497595 5:0.976711245657169 
0.0531422499236755 1:2.42152176611996 2:-0.396596109413538 3:2.66587906603899 4:-2.95556306937659 5:1.64898230498771 
0.54593722380158 1:2.66953683254969 2:-0.463543388129795 3:1.70037886833683 4:-1.55957964622302 5:0.775782333189667 
0.152295384732714 1:1.32249415882275 2:0.293427265193813 3:0.712816028378782 4:-2.01380563216973 5:1.62732531519767 
0.525119164179425 1:1.28070136157326 2:0.318646036828651 3:0.690621413203862 4:-1.67744963774439 5:1.2503212882168 
-0.385816360987228 1:1.71200004504577 2:-0.113523656539449 3:0.773884015514392 4:-1.41845209231382 5:1.16886341123537 
1.18774509368578 1:1.87488852945923 2:0.164523380211401 3:0.0707659458710097 4:-1.20095250673278 5:1.36399013006909 
-0.256682360753585 1:1.9565656930296 2:-0.0474388819248883 3:-0.253684046961133 4:-0.208456984031491 5:0.994725767198457 
-2.77363721785938 1:1.41100350714289 2:-0.505323146742898 3:-0.201727962844789 4:-0.114194338113194 5:1.29740494715964 
-0.0605993117371293 1:1.45850655073421 2:-0.189849705227463 3:-0.479231121417278 4:0.0795814746977985 5:1.01918811285011 
0.0829811388250789 1:1.79856494257948 2:0.0483506913611986 3:-1.15827454047444 4:-0.0228554382927015 5:1.52930057888927 
0.278881827810365 1:1.44092763045118 2:0.181185069390066 3:-0.733142211596549 4:-0.479735943441773 5:1.0106623251978 
-1.18627991890295 1:1.08283578280646 2:0.745148338114632 3:-0.818886674691655 4:-1.09147113083465 5:1.34238320390456 
2.71187431476185 1:0.886890972281895 2:1.30467562537935 3:-1.02480923240686 4:-1.22618601313436 5:1.67396493384762 
-1.26280716224175 1:0.466758890083518 2:1.31761734457476 3:-0.813817195087818 4:-0.869007584386194 5:1.65522674510763 
1.88398309937612 1:0.566045092761458 2:1.27312663624295 3:-0.700311373177698 4:-0.833178902095888 5:1.38329061512659 
4 1:0.254025716318118 2:0.935423178888417 3:-0.120557440530478 4:-0.474002415874164 5:0.634350509587245 
-0.71115081715515 1:0.215235861022833 2:0.979774891785645 3:-0.0972411681004814 4:-0.520626177128314 5:0.631715495729113 
-1.68949241805277 1:0.0733062666858242 2:1.45008771465513 3:-0.611184157549483 4:-0.367295928612199 5:1.01656629269118 
0.527548493862048 1:0.431295268925291 2:1.72235955890856 3:-1.02954685323482 4:-0.202655807208219 5:0.578271274520192 
0.634117567025988 1:-0.422123347167203 2:1.77108972143563 3:-0.676686260645942 4:-0.326946635283853 5:0.606395392669068 
1.53784667880976 1:0.133952265472947 2:1.37355932797911 3:-1.68471028064987 4:0.614936299818858 5:1.30193871548299 
0.77324111165613 1:-0.143169578820856 2:1.79480468337716 3:-2.42015700993932 4:1.39144583067154 5:1.35058935761045 
0.261619987916266 1:-0.206890885785427 2:2.67064679335633 3:-2.45899929497595 4:0.976711245657169 5:1.2663064333359 
-1.16988750474652 1:-0.396596109413538 2:2.66587906603899 3:-2.95556306937659 4:1.64898230498771 5:1.17432809166056 
-4 1:-0.343844620089495 2:1.86142031559795 3:-2.05012009401617 4:1.03156494564822 5:1.3690025026118 
-0.22787049979369 1:-0.463543388129795 2:1.70037886833683 3:-1.55957964622302 4:0.775782333189667 5:1.5063533929502 
2.20683021918093 1:-0.781354784220767 2:1.94388849063598 3:-2.07241540644794 4:1.03659449811566 5:1.38005129966485 
-0.649791986736072 1:-0.113523656539449 2:0.773884015514392 3:-1.41845209231382 4:1.16886341123537 5:1.36084702368806 
0.476535927824734 1:0.164523380211401 2:0.0707659458710097 3:-1.20095250673278 4:1.36399013006909 5:1.53112234111314 
4 1:-0.0474388819248883 2:-0.253684046961133 3:-0.208456984031491 4:0.994725767198457 5:1.0994401296939 
-2.55113227428533 1:0.0613843040587536 2:-0.486391102460493 3:-0.0603065346229226 4:1.37551800686264 5:0.911300687345262 
-0.995907259183805 1:-0.505323146742898 2:-0.201727962844789 3:-0.114194338113194 4:1.29740494715964 5:1.34773224704934 
-3.46110385096217 1:-0.189849705227463 2:-0.479231121417278 3:0.0795814746977985 4:1.01918811285011 5:1.47275319068454 
2.19432420792256 1:0.0483506913611986 2:-1.15827454047444 3:-0.0228554382927015 4:1.52930057888927 5:1.14229663495715 
-2.77152991458977 1:0.181185069390066 2:-0.733142211596549 3:-0.479735943441773 4:1.0106623251978 5:1.22167264066189 
1.28361099261371 1:0.745148338114632 2:-0.818886674691655 3:-1.09147113083465 4:1.34238320390456 5:1.44355821725526 
-0.509360954056489 1:1.30467562537935 2:-1.02480923240686 3:-1.22618601313436 4:1.67396493384762 5:1.74297188494541 
-3.44267053905944 1:1.31761734457476 2:-0.813817195087818 3:-0.869007584386194 4:1.65522674510763 5:1.5291970888867 
0.918599459676089 1:1.27312663624295 2:-0.700311373177698 3:-0.833178902095888 4:1.38329061512659 5:1.92144819886622 
1.98816830661484 1:0.935423178888417 2:-0.120557440530478 3:-0.474002415874164 4:0.634350509587245 5:2.00222089772084 
-4 1:0.979774891785645 2:-0.0972411681004814 3:-0.520626177128314 4:0.631715495729113 5:1.8722546985769 
-4 1:1.45008771465513 2:-0.611184157549483 3:-0.367295928612199 4:1.01656629269118 5:1.12030190346419 
-1.15333802343644 1:1.72235955890856 2:-1.02954685323482 3:-0.202655807208219 4:0.578271274520192 5:1.23918481590426 
1.27024943633267 1:1.77108972143563 2:-0.676686260645942 3:-0.326946635283853 4:0.606395392669068 5:1.05664796619402 
-1.10624934501365 1:1.71610404828253 2:-1.30156989006194 3:-0.0289261109202243 4:1.209510252162 5:0.75154855361137 
4 1:1.37355932797911 2:-1.68471028064987 3:0.614936299818858 4:1.30193871548299 5:0.607769369247091 
1.22013614844823 1:1.79480468337716 2:-2.42015700993932 3:1.39144583067154 4:1.35058935761045 5:0.244994876341842 
-0.331989557664945 1:2.589467495747 2:-2.84657370149195 3:1.01771207454537 4:1.59272345539714 5:0.0972442557666042 
-0.598267111685047 1:2.66587906603899 2:-2.95556306937659 3:1.64898230498771 4:1.17432809166056 5:-0.139423705655028 
2.33715728377103 1:2.15536698350434 2:-1.84287240688921 3:0.733270152699639 4:1.21399448720227 5:0.244016337145014 
-0.728493644415766 1:1.86142031559795 2:-2.05012009401617 3:1.03156494564822 4:1.3690025026118 5:-0.102682823169031 
-4 1:1.70037886833683 2:-1.55957964622302 3:0.775782333189667 4:1.5063533929502 5:0.247978044049013 
-4 1:1.94388849063598 2:-2.07241540644794 3:1.03659449811566 4:1.38005129966485 5:0.76336111262223 
0.857971474765741 1:1.33059129974353 2:-1.8210706768639 3:1.23325183404788 4:1.39271382696959 5:0.486945969060093 
-4 1:0.712816028378782 2:-2.01380563216973 3:1.62732531519767 4:1.32549555208819 5:1.1301606550695 
-4 1:0.773884015514392 2:-1.41845209231382 3:1.16886341123537 4:1.36084702368806 5:0.745178295009374 
-4 1:0.0707659458710097 2:-1.20095250673278 3:1.36399013006909 4:1.53112234111314 5:0.841345635798518 
-4 1:-0.253684046961133 2:-0.208456984031491 3:0.994725767198457 4:1.0994401296939 5:0.924416026575114 
-1.08098582082307 1:-0.486391102460493 2:-0.0603065346229226 3:1.37551800686264 4:0.911300687345262 5:0.438607935414925 
-4 1:-0.201727962844789 2:-0.114194338113194 3:1.29740494715964 4:1.34773224704934 5:0.118804977727693 
-4 1:-0.479231121417278 2:0.0795814746977985 3:1.01918811285011 4:1.47275319068454 5:0.0951741724554811 
-4 1:-1.15827454047444 2:-0.0228554382927015 3:1.52930057888927 4:1.14229663495715 5:0.751137837303917 
-0.291469384438798 1:-0.818886674691655 2:-1.09147113083465 3:1.34238320390456 4:1.44355821725526 5:0.637069024375281 
-1.28237163161701 1:-1.02480923240686 2:-1.22618601313436 3:1.67396493384762 4:1.74297188494541 5:0.0545882381386864 
1.85871973831601 1:-0.813817195087818 2:-0.869007584386194 3:1.65522674510763 4:1.5291970888867 5:-0.0492353905258813 
-0.672422773617004 1:-0.700311373177698 2:-0.833178902095888 3:1.38329061512659 4:1.92144819886622 5:-0.413495649082085 
-0.167126138674637 1:-0.0972411681004814 2:-0.520626177128314 3:0.631715495729113 4:1.8722546985769 5:-0.0927012948463091 
4 1:-0.611184157549483 2:-0.367295928612199 3:1.01656629269118 4:1.12030190346419 5:0.547748291034145 
-0.651387784572179 1:-1.02954685323482 2:-0.202655807208219 3:0.578271274520192 4:1.23918481590426 5:0.982495465965494 
-0.304193908511373 1:-0.676686260645942 2:-0.326946635283853 3:0.606395392669068 4:1.05664796619402 5:1.15159691715636 
1.1396418817447 1:-1.30156989006194 2:-0.0289261109202243 3:1.209510252162 4:0.75154855361137 5:0.965607586930162 
-1.46582406417366 1:-1.68471028064987 2:0.614936299818858 3:1.30193871548299 4:0.607769369247091 5:0.41314843695468 
-4 1:-2.42015700993932 2:1.39144583067154 3:1.35058935761045 4:0.244994876341842 5:-0.101616416316785 
0.265281715479954 1:-2.45899929497595 2:0.976711245657169 3:1.2663064333359 4:0.182522444124888 5:0.00356319746854794 
2.43027035964313 1:-2.95556306937659 2:1.64898230498771 3:1.17432809166056 4:-0.139423705655028 5:0.0335895617707749 
1.37271409051587 1:-1.84287240688921 2:0.733270152699639 3:1.21399448720227 4:0.244016337145014 5:-0.194738446462894 
2.57766611580523 1:-2.05012009401617 2:1.03156494564822 3:1.3690025026118 4:-0.102682823169031 5:-0.438552700009565 
0.178060575828287 1:-1.55957964622302 2:0.775782333189667 3:1.5063533929502 4:0.247978044049013 5:-1.19214327193169 
1.66267019958511 1:-2.07241540644794 2:1.03659449811566 3:1.38005129966485 4:0.76336111262223 5:-1.05624277881513 
-2.70847055667334 1:-1.8210706768639 2:1.23325183404788 3:1.39271382696959 4:0.486945969060093 5:-0.934316031850546 
0.263495779686918 1:-2.01380563216973 2:1.62732531519767 3:1.32549555208819 4:1.1301606550695 5:-1.98890127903359 
-0.261670928385581 1:-1.67744963774439 2:1.2503212882168 3:1.27588513658834 4:1.13775296469152 5:-1.51945881082107 
1.30896594979309 1:-1.41845209231382 2:1.16886341123537 3:1.36084702368806 4:0.745178295009374 5:-2.11232847659595 
0.710435353181034 1:-1.20095250673278 2:1.36399013006909 3:1.53112234111314 4:0.841345635798518 5:-2.38384095388251 
0.273798344280351 1:-0.0603065346229226 2:1.37551800686264 3:0.911300687345262 4:0.438607935414925 5:-1.2582553791082 
-2.35251128523809 1:-0.114194338113194 2:1.29740494715964 3:1.34773224704934 4:0.118804977727693 5:-1.41274089915142 
2.18868280824214 1:0.0795814746977985 2:1.01918811285011 3:1.47275319068454 4:0.0951741724554811 5:-1.87138957197246 
-0.266068861170736 1:-0.479735943441773 2:1.0106623251978 3:1.22167264066189 4:0.914448411835123 5:-1.0321359545058 
1.50594060931808 1:-1.09147113083465 2:1.34238320390456 3:1.44355821725526 4:0.637069024375281 5:-0.797792631454319 
2.42661648591407 1:-1.22618601313436 2:1.67396493384762 3:1.74297188494541 4:0.0545882381386864 5:-0.0300613037618191 
-0.817191701503516 1:-0.869007584386194 2:1.65522674510763 3:1.5291970888867 4:-0.0492353905258813 5:0.0862550243705407 
-0.767358681563123 1:-0.833178902095888 2:1.38329061512659 3:1.92144819886622 4:-0.413495649082085 5:-0.0655497084441237 
-0.728981598967115 1:-0.474002415874164 2:0.634350509587245 3:2.00222089772084 4:-0.0108036455732652 5:-0.213346984372231 
1.02260900579848 1:-0.520626177128314 2:0.631715495729113 3:1.8722546985769 4:-0.0927012948463091 5:-0.340370729269601 
-0.411079756303486 1:-0.367295928612199 2:1.01656629269118 3:1.12030190346419 4:0.547748291034145 5:-0.426978391691613 
2.24061682065989 1:-0.202655807208219 2:0.578271274520192 3:1.23918481590426 4:0.982495465965494 5:-0.586433905482009 
2.43126165697589 1:-0.326946635283853 2:0.606395392669068 3:1.05664796619402 4:1.15159691715636 5:-0.4091911481511 
-3.00893539934596 1:-0.0289261109202243 2:1.209510252162 3:0.75154855361137 4:0.965607586930162 5:-0.441069367970393 
2.32797050339532 1:0.614936299818858 2:1.30193871548299 3:0.607769369247091 4:0.41314843695468 5:-0.280855204704134 
3.50327862790921 1:1.39144583067154 2:1.35058935761045 3:0.244994876341842 4:-0.101616416316785 5:0.479852348785403 
-2.79706683519783 1:1.01771207454537 2:1.59272345539714 3:0.0972442557666042 4:-0.104110576339567 5:1.16658236556724 
4 1:0.976711245657169 2:1.2663064333359 3:0.182522444124888 4:0.00356319746854794 5:1.14930792442367 
-1.22570718043512 1:1.64898230498771 2:1.17432809166056 3:-0.139423705655028 4:0.0335895617707749 5:1.6787155906318 
3.51380459556702 1:0.733270152699639 2:1.21399448720227 3:0.244016337145014 4:-0.194738446462894 5:1.92516065545649 
0.851046579707024 1:1.03156494564822 2:1.3690025026118 3:-0.102682823169031 4:-0.438552700009565 5:2.42547145664336 
1.049030821072 1:0.775782333189667 2:1.5063533929502 3:0.247978044049013 4:-1.19214327193169 5:2.62493465876257 
4 1:1.03659449811566 2:1.38005129966485 3:0.76336111262223 4:-1.05624277881513 5:1.87499926470189 
-0.736536123457156 1:1.23325183404788 2:1.39271382696959 3:0.486945969060093 4:-0.934316031850546 5:1.85781839029162 
3.02774728507057 1:1.62732531519767 2:1.32549555208819 3:1.1301606550695 4:-1.98890127903359 5:2.1386714882567 
0.867217793875268 1:1.2503212882168 2:1.27588513658834 3:1.13775296469152 4:-1.51945881082107 5:2.26091071711774 
-0.104498130253715 1:1.16886341123537 2:1.36084702368806 3:0.745178295009374 4:-2.11232847659595 5:3.05253820111373 
0.484828375122581 1:1.36399013006909 2:1.53112234111314 3:0.841345635798518 4:-2.38384095388251 5:2.92122987946479 
-4 1:0.994725767198457 2:1.0994401296939 3:0.924416026575114 4:-1.5217445188402 5:2.301352754706 
0.777773598501747 1:1.37551800686264 2:0.911300687345262 3:0.438607935414925 4:-1.2582553791082 5:2.12650277984605 
-0.948821152814059 1:1.29740494715964 2:1.34773224704934 3:0.118804977727693 4:-1.41274089915142 5:2.35468767103986 
0.30717091172674 1:1.01918811285011 2:1.47275319068454 3:0.0951741724554811 4:-1.87138957197246 5:2.88720296349867 
-0.648496781132426 1:1.52930057888927 2:1.14229663495715 3:0.751137837303917 4:-1.60097956871144 5:2.4151677170305 
4 1:1.0106623251978 2:1.22167264066189 3:0.914448411835123 4:-1.0321359545058 5:2.23132021257277 
-2.73634361229445 1:1.34238320390456 2:1.44355821725526 3:0.637069024375281 4:-0.797792631454319 5:2.42832604094407 
1.76096147322956 1:1.67396493384762 2:1.74297188494541 3:0.0545882381386864 4:-0.0300613037618191 5:1.7338908928807 
0.634282687653204 1:1.65522674510763 2:1.5291970888867 3:-0.0492353905258813 4:0.0862550243705407 5:1.58011013982908 
1.18517506343669 1:0.634350509587245 2:2.00222089772084 3:-0.0108036455732652 4:-0.213346984372231 5:1.46428332410182 
-2.15623305163029 1:0.631715495729113 2:1.8722546985769 3:-0.0927012948463091 4:-0.340370729269601 5:1.80046898396506 
-4 1:1.01656629269118 2:1.12030190346419 3:0.547748291034145 4:-0.426978391691613 5:1.88522300045388 
-4 1:0.578271274520192 2:1.23918481590426 3:0.982495465965494 4:-0.586433905482009 5:1.76188259553354 
0.35420315783556 1:0.606395392669068 2:1.05664796619402 3:1.15159691715636 4:-0.4091911481511 5:1.16986176375744 
-3.07941876484373 1:1.209510252162 2:0.75154855361137 3:0.965607586930162 4:-0.441069367970393 5:1.39592551034693 
0.136910667569385 1:1.30193871548299 2:0.607769369247091 3:0.41314843695468 4:-0.280855204704134 5:1.58296681657246 
2.57999095676883 1:1.35058935761045 2:0.244994876341842 3:-0.101616416316785 4:0.479852348785403 5:1.33640665757144 
-2.22976321163077 1:1.59272345539714 2:0.0972442557666042 3:-0.104110576339567 4:1.16658236556724 5:1.7431194297429 
1.54083070111194 1:1.17432809166056 2:-0.139423705655028 3:0.0335895617707749 4:1.6787155906318 5:1.48713410245267 
-2.85177830841957 1:1.21399448720227 2:0.244016337145014 3:-0.194738446462894 4:1.92516065545649 5:1.74496832027864 
-0.753069970041856 1:1.3690025026118 2:-0.102682823169031 3:-0.438552700009565 4:2.42547145664336 5:1.70520199144737 
-1.51144044212538 1:1.38005129966485 2:0.76336111262223 3:-1.05624277881513 4:1.87499926470189 5:2.07435196053467 
2.91682011638921 1:1.39271382696959 2:0.486945969060093 3:-0.934316031850546 4:1.85781839029162 5:1.74337774704623 
-0.683412913882636 1:1.32549555208819 2:1.1301606550695 3:-1.98890127903359 4:2.1386714882567 5:2.11025131297284 
3.90283215908905 1:1.27588513658834 2:1.13775296469152 3:-1.51945881082107 4:2.26091071711774 5:1.30200422214468 
0.957638876150362 1:1.36084702368806 2:0.745178295009374 3:-2.11232847659595 4:3.05253820111373 5:1.06222389595128 
-0.711136506202779 1:1.53112234111314 2:0.841345635798518 3:-2.38384095388251 4:2.92122987946479 5:1.42587828580805 
0.00428710516640424 1:1.0994401296939 2:0.924416026575114 3:-1.5217445188402 4:2.301352754706 5:0.700399006787267 
-1.32623509817513 1:0.911300687345262 2:0.438607935414925 3:-1.2582553791082 4:2.12650277984605 5:1.23298163798298 
-1.4091716323239 1:1.47275319068454 2:0.0951741724554811 3:-1.87138957197246 4:2.88720296349867 5:1.14233220948345 
-1.37713168987038 1:1.14229663495715 2:0.751137837303917 3:-1.60097956871144 4:2.4151677170305 5:1.3879415007084 
-3.19221778301312 1:1.22167264066189 2:0.914448411835123 3:-1.0321359545058 4:2.23132021257277 5:1.47936632453418 
4 1:1.44355821725526 2:0.637069024375281 3:-0.797792631454319 4:2.42832604094407 5:1.37761682373996 
-1.42865002410051 1:1.74297188494541 2:0.0545882381386864 3:-0.0300613037618191 4:1.7338908928807 5:1.58676290902995 
2.64854533303975 1:1.92144819886622 2:-0.413495649082085 3:-0.0655497084441237 4:1.54020692172407 5:1.42471208966559 
0.798531926260226 1:2.00222089772084 2:-0.0108036455732652 3:-0.213346984372231 4:1.46428332410182 5:1.23388054530178 
4 1:1.12030190346419 2:0.547748291034145 3:-0.426978391691613 4:1.88522300045388 5:0.543926428784003 
4 1:1.23918481590426 2:0.982495465965494 3:-0.586433905482009 4:1.76188259553354 5:0.730449070139905 
2.77104008769417 1:0.75154855361137 2:0.965607586930162 3:-0.441069367970393 4:1.39592551034693 5:1.01444308743686 
-4 1:0.607769369247091 2:0.41314843695468 3:-0.280855204704134 4:1.58296681657246 5:0.88131800858342 
2.10228138150871 1:0.244994876341842 2:-0.101616416316785 3:0.479852348785403 4:1.33640665757144 5:1.47363815037167 
4 1:0.0972442557666042 2:-0.104110576339567 3:1.16658236556724 4:1.7431194297429 5:0.58525885912335 
-4 1:0.182522444124888 2:0.00356319746854794 3:1.14930792442367 4:1.82882930980726 5:0.670003678941677 
2.34579373083349 1:0.244016337145014 2:-0.194738446462894 3:1.92516065545649 4:1.74496832027864 5:0.274899499692927 
0.923271329529429 1:-0.102682823169031 2:-0.438552700009565 3:2.42547145664336 4:1.70520199144737 5:0.401403228515962 
2.90897736893521 1:0.247978044049013 2:-1.19214327193169 3:2.62493465876257 4:1.55847476321913 5:0.415343087896813 
1.04051347066098 1:0.76336111262223 2:-1.05624277881513 3:1.87499926470189 4:2.07435196053467 5:0.335429246094154 
3.95066810090486 1:0.486945969060093 2:-0.934316031850546 3:1.85781839029162 4:1.74337774704623 5:0.707785262342853 
0.0915664577856306 1:1.1301606550695 2:-1.98890127903359 3:2.1386714882567 4:2.11025131297284 5:0.187200027360523 
0.310690855359729 1:1.13775296469152 2:-1.51945881082107 3:2.26091071711774 4:1.30200422214468 5:0.743611942122557 
1.01851105611848 1:0.745178295009374 2:-2.11232847659595 3:3.05253820111373 4:1.06222389595128 5:0.937361441483953 
-0.361257947130098 1:0.841345635798518 2:-2.38384095388251 3:2.92122987946479 4:1.42587828580805 5:0.547324756807699 
1.08789215311433 1:0.924416026575114 2:-1.5217445188402 3:2.301352754706 4:0.700399006787267 5:0.898387979695459 
1.45933023007791 1:0.438607935414925 2:-1.2582553791082 3:2.12650277984605 4:1.23298163798298 5:0.345016640305573 
-4 1:0.118804977727693 2:-1.41274089915142 3:2.35468767103986 4:1.2689476787989 5:0.288117185101955 
2.3437948399369 1:0.0951741724554811 2:-1.87138957197246 3:2.88720296349867 4:1.14233220948345 5:0.208431481583027 
0.420986190085574 1:0.751137837303917 2:-1.60097956871144 3:2.4151677170305 4:1.3879415007084 5:0.189844744765111 
1.63738043403923 1:0.914448411835123 2:-1.0321359545058 3:2.23132021257277 4:1.47936632453418 5:0.0962881514682934 
4 1:0.637069024375281 2:-0.797792631454319 3:2.42832604094407 4:1.37761682373996 5:0.492030833891643 
-2.82849827566585 1:-0.0492353905258813 2:0.0862550243705407 3:1.58011013982908 4:1.62663131441882 5:0.79412653635127 
-0.839411931778191 1:-0.413495649082085 2:-0.0655497084441237 3:1.54020692172407 4:1.42471208966559 5:1.24420477283747 
-1.26148725919715 1:-0.0108036455732652 2:-0.213346984372231 3:1.46428332410182 4:1.23388054530178 5:1.35847647339444 
4 1:-0.0927012948463091 2:-0.340370729269601 3:1.80046898396506 4:1.16970566130812 5:0.963804972137838 
-0.289599698723773 1:0.547748291034145 2:-0.426978391691613 3:1.88522300045388 4:0.543926428784003 5:1.73532910450156 
0.167688633275554 1:0.982495465965494 2:-0.586433905482009 3:1.76188259553354 4:0.730449070139905 5:1.35178182854276 
2.18102791166781 1:1.15159691715636 2:-0.4091911481511 3:1.16986176375744 4:1.17113125426367 5:1.45676009852274 
1.01077543500859 1:0.965607586930162 2:-0.441069367970393 3:1.39592551034693 4:1.01444308743686 5:1.35035255395906 
3.86281183999092 1:0.41314843695468 2:-0.280855204704134 3:1.58296681657246 4:0.88131800858342 5:1.2279079533609 
2.30156015058836 1:-0.101616416316785 2:0.479852348785403 3:1.33640665757144 4:1.47363815037167 5:1.2161931723742 
4 1:-0.104110576339567 2:1.16658236556724 3:1.7431194297429 4:0.58525885912335 5:1.34381284961629 
0.647494768622093 1:0.00356319746854794 2:1.14930792442367 3:1.82882930980726 4:0.670003678941677 5:0.779518521389422 
4 1:0.0335895617707749 2:1.6787155906318 3:1.48713410245267 4:0.803589910515168 5:0.940871435703583 
2.59285013361836 1:-0.194738446462894 2:1.92516065545649 3:1.74496832027864 4:0.274899499692927 5:1.28168896769996 
-2.4687409689393 1:-0.438552700009565 2:2.42547145664336 3:1.70520199144737 4:0.401403228515962 5:1.26880084305312 
4 1:-1.19214327193169 2:2.62493465876257 3:1.55847476321913 4:0.415343087896813 5:1.32960419575827 
-0.440548107988945 1:-1.05624277881513 2:1.87499926470189 3:2.07435196053467 4:0.335429246094154 5:0.766122126318658 
-0.50605826606108 1:-0.934316031850546 2:1.85781839029162 3:1.74337774704623 4:0.707785262342853 5:0.75850579015988 
-0.81901854705665 1:-1.98890127903359 2:2.1386714882567 3:2.11025131297284 4:0.187200027360523 5:0.821111017127318 
-1.26110952069269 1:-2.38384095388251 2:2.92122987946479 3:1.42587828580805 4:0.547324756807699 5:0.648929843865931 
-0.772066270536171 1:-1.5217445188402 2:2.301352754706 3:0.700399006787267 4:0.898387979695459 5:1.69972282788287 
0.404711594334175 1:-1.2582553791082 2:2.12650277984605 3:1.23298163798298 4:0.345016640305573 5:2.18605820460995 
4 1:-1.41274089915142 2:2.35468767103986 3:1.2689476787989 4:0.288117185101955 5:2.09179153434267 
-2.33396134921065 1:-1.87138957197246 2:2.88720296349867 3:1.14233220948345 4:0.208431481583027 5:2.3909929942973 
-4 1:-1.60097956871144 2:2.4151677170305 3:1.3879415007084 4:0.189844744765111 5:1.90022956405866 
-1.86195238929803 1:-1.0321359545058 2:2.23132021257277 3:1.47936632453418 4:0.0962881514682934 5:1.53443614855919 
-4 1:-0.797792631454319 2:2.42832604094407 3:1.37761682373996 4:0.492030833891643 5:1.21336388838835 
-4 1:-0.0300613037618191 2:1.7338908928807 3:1.58676290902995 4:0.691665526677543 5:1.06154532330169 
-4 1:0.0862550243705407 2:1.58011013982908 3:1.62663131441882 4:0.79412653635127 5:1.08757411903766 
-4 1:-0.0655497084441237 2:1.54020692172407 3:1.42471208966559 4:1.24420477283747 5:0.987014049333057 
-4 1:-0.213346984372231 2:1.46428332410182 3:1.23388054530178 4:1.35847647339444 5:1.47986519113124 
-4 1:-0.426978391691613 2:1.88522300045388 3:0.543926428784003 4:1.73532910450156 5:1.42676227893745 
-1.73750277521863 1:-0.586433905482009 2:1.76188259553354 3:0.730449070139905 4:1.35178182854276 5:2.09151136632788 
-4 1:-0.4091911481511 2:1.16986176375744 3:1.17113125426367 4:1.45676009852274 5:1.90897220600985 
4 1:-0.441069367970393 2:1.39592551034693 3:1.01444308743686 4:1.35035255395906 5:2.1357033085712 
-3.1301525178175 1:-0.280855204704134 2:1.58296681657246 3:0.88131800858342 4:1.2279079533609 5:2.35647937660408 
-4 1:0.479852348785403 2:1.33640665757144 3:1.47363815037167 4:1.2161931723742 5:1.43617111080565 
-2.93560496753338 1:1.16658236556724 2:1.7431194297429 3:0.58525885912335 4:1.34381284961629 5:0.726155739384682 
-3.84155769405648 1:1.14930792442367 2:1.82882930980726 3:0.670003678941677 4:0.779518521389422 5:0.75825763874029 
-4 1:1.6787155906318 2:1.48713410245267 3:0.803589910515168 4:0.940871435703583 5:0.614902856930133 
-1.45612469801562 1:1.92516065545649 2:1.74496832027864 3:0.274899499692927 4:1.28168896769996 5:-0.659018586378846 
-1.21738012364243 1:2.42547145664336 2:1.70520199144737 3:0.401403228515962 4:1.26880084305312 5:-1.16217752623573 
2.5171525323412 1:2.62493465876257 2:1.55847476321913 3:0.415343087896813 4:1.32960419575827 5:-0.965285662869997 
3.75631146284906 1:1.87499926470189 2:2.07435196053467 3:0.335429246094154 4:0.766122126318658 5:-0.933351958926343 
-0.391417166627298 1:2.26091071711774 2:1.30200422214468 3:0.743611942122557 4:0.477667709500862 5:-0.17548665937932 
-1.05242609981209 1:3.05253820111373 2:1.06222389595128 3:0.937361441483953 4:0.538650094567794 5:0.0696175065873827 
-2.286044018202 1:2.92122987946479 2:1.42587828580805 3:0.547324756807699 4:0.648929843865931 5:-0.696664808268199 
-2.42431564832155 1:2.301352754706 2:0.700399006787267 3:0.898387979695459 4:1.69972282788287 5:-1.04962675852005 
0.444691885267062 1:2.12650277984605 2:1.23298163798298 3:0.345016640305573 4:2.18605820460995 5:-0.834024720806115 
-4 1:2.35468767103986 2:1.2689476787989 3:0.288117185101955 4:2.09179153434267 5:-0.606923082513999 
-2.39996967812767 1:2.88720296349867 2:1.14233220948345 3:0.208431481583027 4:2.3909929942973 5:-1.65054272525036 
4 1:2.4151677170305 2:1.3879415007084 3:0.189844744765111 4:1.90022956405866 5:-1.78497200146781 
-2.72194424320134 1:2.23132021257277 2:1.47936632453418 3:0.0962881514682934 4:1.53443614855919 5:-1.94880419349563 
-3.91816132055337 1:2.42832604094407 2:1.37761682373996 3:0.492030833891643 4:1.21336388838835 5:-2.31382605164856 
-0.839507841357009 1:1.7338908928807 2:1.58676290902995 3:0.691665526677543 4:1.06154532330169 5:-2.51649463082315 
2.91030315389518 1:1.54020692172407 2:1.42471208966559 3:1.24420477283747 4:0.987014049333057 5:-3.9855266185953 
-3.380402609715 1:1.46428332410182 2:1.23388054530178 3:1.35847647339444 4:1.47986519113124 5:-4.05513806919191 
2.42385726455298 1:1.80046898396506 2:1.16970566130812 3:0.963804972137838 4:1.5471995478392 5:-2.74677265560217 
0.367373288839867 1:1.88522300045388 2:0.543926428784003 3:1.73532910450156 4:1.42676227893745 5:-3.15464619126091 
0.407228316412939 1:1.76188259553354 2:0.730449070139905 3:1.35178182854276 4:2.09151136632788 5:-4.1276341410776 
3.85362524662386 1:1.16986176375744 2:1.17113125426367 3:1.45676009852274 4:1.90897220600985 5:-4.02270292507576 
-3.74518196170899 1:1.39592551034693 2:1.01444308743686 3:1.35035255395906 4:2.1357033085712 5:-3.63073487398724 
2.1910401146925 1:1.58296681657246 2:0.88131800858342 3:1.2279079533609 4:2.35647937660408 5:-3.73480747164936 
-0.282462656393108 1:1.33640665757144 2:1.47363815037167 3:1.2161931723742 4:1.43617111080565 5:-3.18045743675772 
-0.379564333664995 1:1.7431194297429 2:0.58525885912335 3:1.34381284961629 4:0.726155739384682 5:-2.35776880723026 
0.962726329149132 1:1.82882930980726 2:0.670003678941677 3:0.779518521389422 4:0.75825763874029 5:-2.62680354701734 
-0.745029604926844 1:1.48713410245267 2:0.803589910515168 3:0.940871435703583 4:0.614902856930133 5:-2.43794004732663 
-3.0465681435421 1:1.74496832027864 2:0.274899499692927 3:1.28168896769996 4:-0.659018586378846 5:-0.321743618139703 
-4 1:1.70520199144737 2:0.401403228515962 3:1.26880084305312 4:-1.16217752623573 5:0.111200314802673 
2.33265338500649 1:1.55847476321913 2:0.415343087896813 3:1.32960419575827 4:-0.965285662869997 5:0.346272005228743 
-1.82685530843159 1:1.74337774704623 2:0.707785262342853 3:0.75850579015988 4:-0.997714880555334 5:0.548473069645583 
1.7582744986049 1:2.11025131297284 2:0.187200027360523 3:0.821111017127318 4:-0.808612977553258 5:0.493373871981628 
-2.75978459870636 1:1.06222389595128 2:0.937361441483953 3:0.538650094567794 4:0.0696175065873827 5:-0.184148785231697 
2.98252664673964 1:1.42587828580805 2:0.547324756807699 3:0.648929843865931 4:-0.696664808268199 5:0.0117245433343349 
0.347357122855407 1:0.700399006787267 2:0.898387979695459 3:1.69972282788287 4:-1.04962675852005 5:-1.05893808329749 
-2.09354834828848 1:1.23298163798298 2:0.345016640305573 3:2.18605820460995 4:-0.834024720806115 5:-1.71807671917126 
2.55174298727659 1:1.2689476787989 2:0.288117185101955 3:2.09179153434267 4:-0.606923082513999 5:-2.21177600839302 
1.89326653625783 1:1.14233220948345 2:0.208431481583027 3:2.3909929942973 4:-1.65054272525036 5:-1.33824229301092 
0.869136574025111 1:1.47936632453418 2:0.0962881514682934 3:1.53443614855919 4:-1.94880419349563 5:-0.159863611741429 
1.15023973023878 1:1.37761682373996 2:0.492030833891643 3:1.21336388838835 4:-2.31382605164856 5:-0.214347411219062 
1.15221597399303 1:1.58676290902995 2:0.691665526677543 3:1.06154532330169 4:-2.51649463082315 5:0.727857396913034 
0.426851888296775 1:1.62663131441882 2:0.79412653635127 3:1.08757411903766 4:-3.27862107665138 5:1.59748365834114 
-0.373007290575646 1:1.42471208966559 2:1.24420477283747 3:0.987014049333057 4:-3.9855266185953 5:2.43119029664856 
0.652571964291907 1:1.23388054530178 2:1.35847647339444 3:1.47986519113124 4:-4.05513806919191 5:1.98856058971439 
-2.58324688048368 1:1.16970566130812 2:0.963804972137838 3:1.5471995478392 4:-2.74677265560217 5:1.49063782153847 
-0.0558393305880629 1:0.543926428784003 2:1.73532910450156 3:1.42676227893745 4:-3.15464619126091 5:1.65544005904859 
0.548271594545303 1:0.730449070139905 2:1.35178182854276 3:2.09151136632788 4:-4.1276341410776 5:1.92544238897829 
-1.01404924653948 1:1.17113125426367 2:1.45676009852274 3:1.90897220600985 4:-4.02270292507576 5:2.15328783381916 
0.108187596493976 1:1.01444308743686 2:1.35035255395906 3:2.1357033085712 4:-3.63073487398724 5:1.65522175191373 
0.149122287472787 1:1.47363815037167 2:1.2161931723742 3:1.43617111080565 4:-3.18045743675772 5:1.68712813175009 
1.04087718678141 1:0.58525885912335 2:1.34381284961629 3:0.726155739384682 4:-2.35776880723026 5:1.30698381033492 
3.33926440518183 1:0.670003678941677 2:0.779518521389422 3:0.75825763874029 4:-2.62680354701734 5:1.65401351680559 
-4 1:0.803589910515168 2:0.940871435703583 3:0.614902856930133 4:-2.43794004732663 5:1.50747621495864 
-1.57707882083946 1:0.274899499692927 2:1.28168896769996 3:-0.659018586378846 4:-0.321743618139703 5:0.130111496780172 
2.04019317457256 1:0.401403228515962 2:1.26880084305312 3:-1.16217752623573 4:0.111200314802673 5:0.00324283845563045 
-1.0378705971585 1:0.415343087896813 2:1.32960419575827 3:-0.965285662869997 4:0.346272005228743 5:0.286300045321841 
-0.135921666720054 1:0.335429246094154 2:0.766122126318658 3:-0.933351958926343 4:0.369368124224501 5:1.01713845143578 
-4 1:0.707785262342853 2:0.75850579015988 3:-0.997714880555334 4:0.548473069645583 5:0.81986721709093 
-2.54872588693543 1:0.187200027360523 2:0.821111017127318 3:-0.808612977553258 4:0.493373871981628 5:1.18137627390551 
-4 1:0.743611942122557 2:0.477667709500862 3:-0.17548665937932 4:-0.0648684933003185 5:0.979725825783495 
-1.72577098949968 1:0.937361441483953 2:0.538650094567794 3:0.0696175065873827 4:-0.184148785231697 5:0.828015468563326 
4 1:0.547324756807699 2:0.648929843865931 3:-0.696664808268199 4:0.0117245433343349 5:1.09421325650914 
-2.04766648727018 1:0.898387979695459 2:1.69972282788287 3:-1.04962675852005 4:-1.05893808329749 5:1.78709680082365 
0.335759804760986 1:0.345016640305573 2:2.18605820460995 3:-0.834024720806115 4:-1.71807671917126 5:1.96495297520891 
0.586939986262345 1:0.189844744765111 2:1.90022956405866 3:-1.78497200146781 4:-0.129182177301246 5:1.64468328843435 
0.0106071389259431 1:0.0962881514682934 2:1.53443614855919 3:-1.94880419349563 4:-0.159863611741429 5:2.01888407997664 
0.25557304100187 1:0.492030833891643 2:1.21336388838835 3:-2.31382605164856 4:-0.214347411219062 5:2.55850731503666 
0.897472402252571 1:1.24420477283747 2:0.987014049333057 3:-3.9855266185953 4:2.43119029664856 5:0.652295935354585 
-0.657917665563784 1:1.35847647339444 2:1.47986519113124 3:-4.05513806919191 4:1.98856058971439 5:0.791391800051899 
1.07696735264741 1:0.963804972137838 2:1.5471995478392 3:-2.74677265560217 4:1.49063782153847 5:0.037810124895854 
0.250187145098454 1:1.73532910450156 2:1.42676227893745 3:-3.15464619126091 4:1.65544005904859 5:0.556015439794999 
0.341161988640609 1:1.35178182854276 2:2.09151136632788 3:-4.1276341410776 4:1.92544238897829 5:0.924711890908414 
1.25483431154527 1:1.45676009852274 2:1.90897220600985 3:-4.02270292507576 4:2.15328783381916 5:0.51171787319646 
-0.15144749773385 1:1.2161931723742 2:1.43617111080565 3:-3.18045743675772 4:1.68712813175009 5:0.571034210047294 
-0.0241213012359794 1:1.34381284961629 2:0.726155739384682 3:-2.35776880723026 4:1.30698381033492 5:0.950398727769386 
0.484853665730781 1:0.779518521389422 2:0.75825763874029 3:-2.62680354701734 4:1.65401351680559 5:0.947382866897373 
-0.341652636597523 1:0.940871435703583 2:0.614902856930133 3:-2.43794004732663 4:1.50747621495864 5:0.707764730527893 
4 1:1.28168896769996 2:-0.659018586378846 3:-0.321743618139703 4:0.130111496780172 5:1.23308281625443 
1.00578794163417 1:1.26880084305312 2:-1.16217752623573 3:0.111200314802673 4:0.00324283845563045 5:1.47436517938044 
-0.708100537011504 1:1.32960419575827 2:-0.965285662869997 3:0.346272005228743 4:0.286300045321841 5:0.934728832743525 
-4 1:0.766122126318658 2:-0.933351958926343 3:0.369368124224501 4:1.01713845143578 5:0.687128456300057 
1.00376421113582 1:0.75850579015988 2:-0.997714880555334 3:0.548473069645583 4:0.81986721709093 5:0.596735394427617 
4 1:0.821111017127318 2:-0.808612977553258 3:0.493373871981628 4:1.18137627390551 5:0.420080876710216 
0.997319165449302 1:0.477667709500862 2:-0.17548665937932 3:-0.0648684933003185 4:0.979725825783495 5:0.445058381568986 
-0.0888890769761184 1:0.538650094567794 2:0.0696175065873827 3:-0.184148785231697 4:0.828015468563326 5:0.896374360742769 
3.73779704058963 1:0.648929843865931 2:-0.696664808268199 3:0.0117245433343349 4:1.09421325650914 5:1.28719018269789 
2.94406403706641 1:1.69972282788287 2:-1.04962675852005 3:-1.05893808329749 4:1.78709680082365 5:1.06506310118495 
-0.910243201244678 1:2.18605820460995 2:-0.834024720806115 3:-1.71807671917126 4:1.96495297520891 5:1.13560140499263 
1.46667379552253 1:2.09179153434267 2:-0.606923082513999 3:-2.21177600839302 4:2.49287272968113 5:1.04926964056582 
0.597573679476576 1:2.3909929942973 2:-1.65054272525036 3:-1.33824229301092 4:2.58956965027934 5:0.805779503023141 
2.47492601565561 1:1.90022956405866 2:-1.78497200146781 3:-0.129182177301246 4:1.64468328843435 5:1.21746540876897 
-2.4207511110782 1:1.53443614855919 2:-1.94880419349563 3:-0.159863611741429 4:2.01888407997664 5:1.31026999185853 
0.224269342514561 1:1.21336388838835 2:-2.31382605164856 3:-0.214347411219062 4:2.55850731503666 5:1.30190002675894 
1.70950598771349 1:1.06154532330169 2:-2.51649463082315 3:0.727857396913034 4:1.85270119979708 5:0.982902054805512 
-1.16226014077628 1:1.08757411903766 2:-3.27862107665138 3:1.59748365834114 4:1.02924378058464 5:1.62575946859285 
-0.062230973084938 1:0.987014049333057 2:-3.9855266185953 3:2.43119029664856 4:0.652295935354585 5:2.11198988384811 
1.69144918745207 1:1.47986519113124 2:-4.05513806919191 3:1.98856058971439 4:0.791391800051899 5:2.08230344491884 
1.23032697228688 1:1.5471995478392 2:-2.74677265560217 3:1.49063782153847 4:0.037810124895854 5:2.42478285069225 
-0.75732353575782 1:1.42676227893745 2:-3.15464619126091 3:1.65544005904859 4:0.556015439794999 5:2.04124396816048 
-0.608531244253293 1:2.09151136632788 2:-4.1276341410776 3:1.92544238897829 4:0.924711890908414 5:2.08894468364518 
-0.820841617810159 1:1.90897220600985 2:-4.02270292507576 3:2.15328783381916 4:0.51171787319646 5:2.46210551373975 
1.00296364406302 1:2.35647937660408 2:-3.73480747164936 3:1.88110916704414 4:0.623246876316141 5:1.90538192667726 
4 1:0.726155739384682 2:-2.35776880723026 3:1.30698381033492 4:0.950398727769386 5:1.65666438982344 
2.64394497299098 1:0.75825763874029 2:-2.62680354701734 3:1.65401351680559 4:0.947382866897373 5:1.77472932875542 
-2.55536894780859 1:0.614902856930133 2:-2.43794004732663 3:1.50747621495864 4:0.707764730527893 5:1.8945921990388 
4 1:-0.659018586378846 2:-0.321743618139703 3:0.130111496780172 4:1.23308281625443 5:2.12543524372504 
0.644722805485466 1:-1.16217752623573 2:0.111200314802673 3:0.00324283845563045 4:1.47436517938044 5:1.92686703756686 
-0.0244350144929424 1:-0.933351958926343 2:0.369368124224501 3:1.01713845143578 4:0.687128456300057 5:1.62172688584197 
0.923400017258652 1:-0.808612977553258 2:0.493373871981628 3:1.18137627390551 4:0.420080876710216 5:1.82233154586666 
0.776407296754159 1:-0.17548665937932 2:-0.0648684933003185 3:0.979725825783495 4:0.445058381568986 5:2.16907857294681 
-2.12764724781412 1:0.0696175065873827 2:-0.184148785231697 3:0.828015468563326 4:0.896374360742769 5:1.80754062194239 
2.66020851934611 1:-0.696664808268199 2:0.0117245433343349 3:1.09421325650914 4:1.28719018269789 5:1.61154171182929 
0.493694938048953 1:-1.04962675852005 2:-1.05893808329749 3:1.78709680082365 4:1.06506310118495 5:1.80829658099357 
0.218039848077504 1:-0.834024720806115 2:-1.71807671917126 3:1.96495297520891 4:1.13560140499263 5:1.72403638314194 
-0.244141304782552 1:-0.606923082513999 2:-2.21177600839302 3:2.49287272968113 4:1.04926964056582 5:1.76149903945979 
-0.57198486339282 1:-1.65054272525036 2:-1.33824229301092 3:2.58956965027934 4:0.805779503023141 5:2.0281180146652 
-1.54305291415505 1:-1.78497200146781 2:-0.129182177301246 3:1.64468328843435 4:1.21746540876897 5:1.51654885416304 
3.05597923132798 1:-1.94880419349563 2:-0.159863611741429 3:2.01888407997664 4:1.31026999185853 5:0.870752047503842 
-0.711210823223622 1:-2.31382605164856 2:-0.214347411219062 3:2.55850731503666 4:1.30190002675894 5:0.788104179967819 
0.3576858948611 1:-2.51649463082315 2:0.727857396913034 3:1.85270119979708 4:0.982902054805512 5:1.48478547832482 
0.58883663427306 1:-3.9855266185953 2:2.43119029664856 3:0.652295935354585 4:2.11198988384811 5:1.22182201143404 
-1.34362838060205 1:-2.74677265560217 2:1.49063782153847 3:0.037810124895854 4:2.42478285069225 5:1.60224996372293 
1.18758515286608 1:-3.15464619126091 2:1.65544005904859 3:0.556015439794999 4:2.04124396816048 5:1.45295446528126 
1.64109171580161 1:-4.1276341410776 2:1.92544238897829 3:0.924711890908414 4:2.08894468364518 5:1.19901713353756 
-0.843752444821375 1:-4.02270292507576 2:2.15328783381916 3:0.51171787319646 4:2.46210551373975 5:0.956007931238556 
-2.26999221804935 1:-3.73480747164936 2:1.88110916704414 3:0.623246876316141 4:1.90538192667726 5:1.42526158646823 
-1.50255047956533 1:-2.35776880723026 2:1.30698381033492 3:0.950398727769386 4:1.65666438982344 5:2.08643360271106 
1.545960961001 1:-2.43794004732663 2:1.50747621495864 3:0.707764730527893 4:1.8945921990388 5:1.89272463991941 
-3.70529561088893 1:-0.321743618139703 2:0.130111496780172 3:1.23308281625443 4:2.12543524372504 5:1.54697124377572 
3.59612456687619 1:0.111200314802673 2:0.00324283845563045 3:1.47436517938044 4:1.92686703756686 5:1.42001302143151 
4 1:0.369368124224501 2:1.01713845143578 3:0.687128456300057 4:1.62172688584197 5:1.20705458307802 
-4 1:0.548473069645583 2:0.81986721709093 3:0.596735394427617 4:1.79958766792483 5:1.3287418965799 
1.86809511960153 1:0.493373871981628 2:1.18137627390551 3:0.420080876710216 4:1.82233154586666 5:1.71497799306324 
1.7589604068333 1:-0.0648684933003185 2:0.979725825783495 3:0.445058381568986 4:2.16907857294681 5:1.40640791130742 
-0.546852572324981 1:-0.184148785231697 2:0.828015468563326 3:0.896374360742769 4:1.80754062194239 5:1.1433992130486 
4 1:0.0117245433343349 2:1.09421325650914 3:1.28719018269789 4:1.61154171182929 5:1.14558024221285 
4 1:-1.05893808329749 2:1.78709680082365 3:1.06506310118495 4:1.80829658099357 5:1.04171064618139 
-0.179907847411645 1:-1.71807671917126 2:1.96495297520891 3:1.13560140499263 4:1.72403638314194 5:0.683227517467921 
0.569716561275248 1:-2.21177600839302 2:2.49287272968113 3:1.04926964056582 4:1.76149903945979 5:0.595086965107949 
0.74792985860788 1:-1.33824229301092 2:2.58956965027934 3:0.805779503023141 4:2.0281180146652 5:0.362267767688262 
3.30947642580784 1:-0.129182177301246 2:1.64468328843435 3:1.21746540876897 4:1.51654885416304 5:0.337480003055957 
4 1:-0.159863611741429 2:2.01888407997664 3:1.31026999185853 4:0.870752047503842 5:1.17786571219369 
1.51276542507237 1:-0.214347411219062 2:2.55850731503666 3:1.30190002675894 4:0.788104179967819 5:1.39196021047043 
3.59524634790484 1:0.727857396913034 2:1.85270119979708 3:0.982902054805512 4:1.48478547832482 5:0.923959907537242 
4 1:1.59748365834114 2:1.02924378058464 3:1.62575946859285 4:1.50486391193829 5:0.849951885967304 
1.28709304356303 1:2.43119029664856 2:0.652295935354585 3:2.11198988384811 4:1.22182201143404 5:0.847305327533654 
-3.74644462007876 1:1.98856058971439 2:0.791391800051899 3:2.08230344491884 4:1.55392553448488 5:0.766061398953433 
2.94297119770068 1:1.49063782153847 2:0.037810124895854 3:2.42478285069225 4:1.60224996372293 5:0.315008295946262 
0.172900633309788 1:1.92544238897829 2:0.924711890908414 3:2.08894468364518 4:1.19901713353756 5:1.07454436183607 
4 1:1.65522175191373 2:0.52771461102159 3:2.11026206646645 4:1.3864870878022 5:0.426269597093087 
-4 1:1.88110916704414 2:0.623246876316141 3:1.90538192667726 4:1.42526158646823 5:0.383208904214261 
-4 1:1.68712813175009 2:0.571034210047294 3:2.16860656981743 4:1.49415787319604 5:0.590165445519597 
-4 1:1.30698381033492 2:0.950398727769386 3:1.65666438982344 4:2.08643360271106 5:0.507557817868465 
-2.70858002200817 1:1.65401351680559 2:0.947382866897373 3:1.77472932875542 4:2.03202630876178 5:0.880937764318723 
4 1:1.50747621495864 2:0.707764730527893 3:1.8945921990388 4:1.89272463991941 5:1.03776828418267 
-4 1:0.130111496780172 2:1.23308281625443 3:2.12543524372504 4:1.54697124377572 5:0.817980973865406 
4 1:0.00324283845563045 2:1.47436517938044 3:1.92686703756686 4:1.42001302143151 5:1.01734256515136 
4 1:0.286300045321841 2:0.934728832743525 3:1.90965338573776 4:1.18923986617703 5:1.17737110673519 
-1.84596883051066 1:0.81986721709093 2:0.596735394427617 3:1.79958766792483 4:1.3287418965799 5:0.894408278031467 
2.4597058268872 1:1.18137627390551 2:0.420080876710216 3:1.82233154586666 4:1.71497799306324 5:0.37178924328698 
3.13203780301735 1:0.979725825783495 2:0.445058381568986 3:2.16907857294681 4:1.40640791130742 5:0.837428137603302 
-4 1:0.828015468563326 2:0.896374360742769 3:1.80754062194239 4:1.1433992130486 5:1.34881605572423 
1.60304357733367 1:1.09421325650914 2:1.28719018269789 3:1.61154171182929 4:1.14558024221285 5:1.4163697963455 
-0.40262094864862 1:2.49287272968113 2:1.04926964056582 3:1.76149903945979 4:0.595086965107949 5:1.84520013676734 
0.160099327088409 1:2.58956965027934 2:0.805779503023141 3:2.0281180146652 4:0.362267767688262 5:1.92583228724872 
-3.12189943393081 1:1.64468328843435 2:1.21746540876897 3:1.51654885416304 4:0.337480003055957 5:1.96670846151568 
1.38778626578596 1:2.01888407997664 2:1.31026999185853 3:0.870752047503842 4:1.17786571219369 5:1.68409939574059 
4 1:2.55850731503666 2:1.30190002675894 3:0.788104179967819 4:1.39196021047043 5:-0.288571674716076 
1.49899980278469 1:1.85270119979708 2:0.982902054805512 3:1.48478547832482 4:0.923959907537242 5:-0.0714308899833593 
-4 1:1.02924378058464 2:1.62575946859285 3:1.50486391193829 4:0.849951885967304 5:-0.343184555471243 
4 1:0.652295935354585 2:2.11198988384811 3:1.22182201143404 4:0.847305327533654 5:-0.804135476936318 
2.47293872659984 1:0.791391800051899 2:2.08230344491884 3:1.55392553448488 4:0.766061398953433 5:-1.64679224712949 
2.13833562382781 1:0.037810124895854 2:2.42478285069225 3:1.60224996372293 4:0.315008295946262 5:-0.598211289811346 
-4 1:0.556015439794999 2:2.04124396816048 3:1.45295446528126 4:0.72340095425143 5:-0.957117779005312 
4 1:0.924711890908414 2:2.08894468364518 3:1.19901713353756 4:1.07454436183607 5:-0.898771219390948 
4 1:0.51171787319646 2:2.46210551373975 3:0.956007931238556 4:0.536859097921472 5:-0.283999354317599 
-3.97693556126853 1:0.52771461102159 2:2.11026206646645 3:1.3864870878022 4:0.426269597093087 5:-0.157652970024325 
4 1:0.623246876316141 2:1.90538192667726 3:1.42526158646823 4:0.383208904214261 5:-1.02251163046998 
-0.336078764198532 1:0.571034210047294 2:2.16860656981743 3:1.49415787319604 4:0.590165445519597 5:-1.1848737852449 
1.79051659514224 1:0.950398727769386 2:1.65666438982344 3:2.08643360271106 4:0.507557817868465 5:-1.18679790234384 
-0.159215194156327 1:0.947382866897373 2:1.77472932875542 3:2.03202630876178 4:0.880937764318723 5:-1.63522210032565 
-2.20247557331333 1:0.707764730527893 2:1.8945921990388 3:1.89272463991941 4:1.03776828418267 5:-1.10483601243576 
4 1:1.23308281625443 2:2.12543524372504 3:1.54697124377572 4:0.817980973865406 5:-0.728595274987631 
4 1:1.47436517938044 2:1.92686703756686 3:1.42001302143151 4:1.01734256515136 5:-0.128080218749105 
-4 1:0.687128456300057 2:1.62172688584197 3:1.20705458307802 4:1.33741126364191 5:-0.0331928142750737 
2.98263754383577 1:0.596735394427617 2:1.79958766792483 3:1.3287418965799 4:0.894408278031467 5:0.231726703461232 
4 1:0.420080876710216 2:1.82233154586666 3:1.71497799306324 4:0.37178924328698 5:0.142695705892448 
-4 1:0.445058381568986 2:2.16907857294681 3:1.40640791130742 4:0.837428137603302 5:-0.621263861204957 
3.395866393747 1:1.28719018269789 2:1.61154171182929 3:1.14558024221285 4:1.4163697963455 5:-0.804372690155031 
-2.8743062986451 1:1.13560140499263 2:1.72403638314194 3:0.683227517467921 4:2.01632468956241 5:-0.334195112615587 
4 1:1.04926964056582 2:1.76149903945979 3:0.595086965107949 4:1.84520013676734 5:-0.161291662141849 
4 1:0.805779503023141 2:2.0281180146652 3:0.362267767688262 4:1.92583228724872 5:-0.0298899957083876 
4 1:1.21746540876897 2:1.51654885416304 3:0.337480003055957 4:1.96670846151568 5:0.0415184727794227 
4 1:1.31026999185853 2:0.870752047503842 3:1.17786571219369 4:1.68409939574059 5:0.217307018768409 
4 1:1.30190002675894 2:0.788104179967819 3:1.39196021047043 4:-0.288571674716076 5:1.56994964583848 
0.835193240394755 1:0.982902054805512 2:1.48478547832482 3:0.923959907537242 4:-0.0714308899833593 5:1.6494727731684 
4 1:1.62575946859285 2:1.50486391193829 3:0.849951885967304 4:-0.343184555471243 5:2.09557022917504 
-1.01654109763638 1:2.11198988384811 2:1.22182201143404 3:0.847305327533654 4:-0.804135476936318 5:3.1215048248991 
4 1:2.08230344491884 2:1.55392553448488 3:0.766061398953433 4:-1.64679224712949 5:3.73499731476459 
2.21756285684313 1:2.42478285069225 2:1.60224996372293 3:0.315008295946262 4:-0.598211289811346 5:2.93134343897634 
4 1:2.04124396816048 2:1.45295446528126 3:0.72340095425143 4:-0.957117779005312 5:2.81437764656931 
4 1:2.08894468364518 2:1.19901713353756 3:1.07454436183607 4:-0.898771219390948 5:2.86313492402015 
0.55608596381613 1:2.46210551373975 2:0.956007931238556 3:0.536859097921472 4:-0.283999354317599 5:2.62000762872838 
0.423112191788084 1:2.11026206646645 2:1.3864870878022 3:0.426269597093087 4:-0.157652970024325 5:2.44206785034247 
-1.64851737560719 1:1.90538192667726 2:1.42526158646823 3:0.383208904214261 4:-1.02251163046998 5:3.81521094572794 
-4 1:2.16860656981743 2:1.49415787319604 3:0.590165445519597 4:-1.1848737852449 5:3.52240784709039 
1.38811666695293 1:1.65666438982344 2:2.08643360271106 3:0.507557817868465 4:-1.18679790234384 5:3.25158752418315 
-3.63120212157871 1:1.77472932875542 2:2.03202630876178 3:0.880937764318723 4:-1.63522210032565 5:3.01020192786319 
1.27527278465781 1:1.8945921990388 2:1.89272463991941 3:1.03776828418267 4:-1.10483601243576 5:2.54559152629934 
-4 1:2.12543524372504 2:1.54697124377572 3:0.817980973865406 4:-0.728595274987631 5:2.57634516718452 
4 1:1.92686703756686 2:1.42001302143151 3:1.01734256515136 4:-0.128080218749105 5:1.98699580249921 
1.1366685812539 1:1.90965338573776 2:1.18923986617703 3:1.17737110673519 4:-0.185188184028018 5:2.17879140554027 
1.78595510472058 1:1.62172688584197 2:1.20705458307802 3:1.33741126364191 4:-0.0331928142750737 5:2.20640647839581 
-4 1:1.79958766792483 2:1.3287418965799 3:0.894408278031467 4:0.231726703461232 5:2.02851824136236 
-2.1920133307914 1:1.82233154586666 2:1.71497799306324 3:0.37178924328698 4:0.142695705892448 5:2.45029100263685 
-3.53981282123866 1:2.16907857294681 2:1.40640791130742 3:0.837428137603302 4:-0.621263861204957 5:2.07365055438276 
-4 1:1.80754062194239 2:1.1433992130486 3:1.34881605572423 4:-0.688286927486992 5:2.31460005275159 
-4 1:1.61154171182929 2:1.14558024221285 3:1.4163697963455 4:-0.804372690155031 5:2.29928112541233 
3.03585847344464 1:1.80829658099357 2:1.04171064618139 3:1.50001755103801 4:-0.592712378174598 5:2.09181923263095 
4 1:1.72403638314194 2:0.683227517467921 3:2.01632468956241 4:-0.334195112615587 5:2.00811347280552 
-4 1:1.76149903945979 2:0.595086965107949 3:1.84520013676734 4:-0.161291662141849 5:1.90050571417957 
0.707181857630787 1:2.0281180146652 2:0.362267767688262 3:1.92583228724872 4:-0.0298899957083876 5:2.10067963802723 
3.81585546737845 1:1.51654885416304 2:0.337480003055957 3:1.96670846151568 4:0.0415184727794227 5:2.1048447139866 
3.19107298234339 1:0.870752047503842 2:1.17786571219369 3:1.68409939574059 4:0.217307018768409 5:1.93869490879766 
-0.145547098519587 1:0.788104179967819 2:1.39196021047043 3:-0.288571674716076 4:1.56994964583848 5:2.24768957248322 
4 1:1.48478547832482 2:0.923959907537242 3:-0.0714308899833593 4:1.6494727731684 5:1.50744052391163 
-0.15590309670709 1:1.50486391193829 2:0.849951885967304 3:-0.343184555471243 4:2.09557022917504 5:1.5818518842186 
1.03741299486623 1:1.22182201143404 2:0.847305327533654 3:-0.804135476936318 4:3.1215048248991 5:1.18809680043772 
0.741599357419613 1:1.60224996372293 2:0.315008295946262 3:-0.598211289811346 4:2.93134343897634 5:1.52254955958195 
-0.187672261830738 1:1.45295446528126 2:0.72340095425143 3:-0.957117779005312 4:2.81437764656931 5:1.94984847123556 
4 1:1.3864870878022 2:0.426269597093087 3:-0.157652970024325 4:2.44206785034247 5:1.09564362628447 
0.393451435067834 1:1.42526158646823 2:0.383208904214261 3:-1.02251163046998 4:3.81521094572794 5:-0.114354367891201 
0.790291030077261 1:1.49415787319604 2:0.590165445519597 3:-1.1848737852449 4:3.52240784709039 5:0.491514458555953 
-0.480355881414103 1:2.08643360271106 2:0.507557817868465 3:-1.18679790234384 4:3.25158752418315 5:0.605979707206261 
0.758123046907717 1:2.03202630876178 2:0.880937764318723 3:-1.63522210032565 4:3.01020192786319 5:0.434293163806165 
-0.866056416659869 1:1.89272463991941 2:1.03776828418267 3:-1.10483601243576 4:2.54559152629934 5:0.996347588576896 
-4 1:1.54697124377572 2:0.817980973865406 3:-0.728595274987631 4:2.57634516718452 5:0.923193980429859 
-4 1:1.42001302143151 2:1.01734256515136 3:-0.128080218749105 4:1.98699580249921 5:1.14244714791445 
-1.2874202882725 1:1.18923986617703 2:1.17737110673519 3:-0.185188184028018 4:2.17879140554027 5:0.932173962679173 
4 1:1.20705458307802 2:1.33741126364191 3:-0.0331928142750737 4:2.20640647839581 5:0.881368714233632 
-1.67010805234193 1:1.3287418965799 2:0.894408278031467 3:0.231726703461232 4:2.02851824136236 5:0.516269575866746 
-4 1:1.71497799306324 2:0.37178924328698 3:0.142695705892448 4:2.45029100263685 5:0.583172957844091 
-4 1:1.40640791130742 2:0.837428137603302 3:-0.621263861204957 4:2.07365055438276 5:0.79926356901403 
-2.8397707804193 1:1.1433992130486 2:1.34881605572423 3:-0.688286927486992 4:2.31460005275159 5:0.089322681498194 
4 1:1.14558024221285 2:1.4163697963455 3:-0.804372690155031 4:2.29928112541233 5:0.0396072615551635 
-3.62299261094165 1:1.04171064618139 2:1.50001755103801 3:-0.592712378174598 4:2.09181923263095 5:0.37279295395356 
0.88557266157693 1:0.683227517467921 2:2.01632468956241 3:-0.334195112615587 4:2.00811347280552 5:0.177942064567782 
0.735480578246658 1:0.595086965107949 2:1.84520013676734 3:-0.161291662141849 4:1.90050571417957 5:0.238364134854763 
-3.4912141038447 1:0.362267767688262 2:1.92583228724872 3:-0.0298899957083876 4:2.10067963802723 5:0.452787872554072 
-4 1:0.337480003055957 2:1.96670846151568 3:0.0415184727794227 4:2.1048447139866 5:0.589017489104959 
-4 1:1.17786571219369 2:1.68409939574059 3:0.217307018768409 4:1.93869490879766 5:0.54607902303494 
-4 1:1.39196021047043 2:-0.288571674716076 3:1.56994964583848 4:2.24768957248322 5:0.702784567500236 
-4 1:0.923959907537242 2:-0.0714308899833593 3:1.6494727731684 4:1.50744052391163 5:1.25240613143962 
-4 1:0.849951885967304 2:-0.343184555471243 3:2.09557022917504 4:1.5818518842186 5:0.339295658582017 
0.279430703042956 1:0.847305327533654 2:-0.804135476936318 3:3.1215048248991 4:1.18809680043772 5:0.53314568754268 
-3.62664301936844 1:0.766061398953433 2:-1.64679224712949 3:3.73499731476459 4:1.47142236639048 5:1.0085085844457 
-0.0302242169276655 1:0.315008295946262 2:-0.598211289811346 3:2.93134343897634 4:1.52254955958195 5:1.0408011385667 
-3.89940808322952 1:0.72340095425143 2:-0.957117779005312 3:2.81437764656931 4:1.94984847123556 5:0.625044432358468 
-4 1:1.07454436183607 2:-0.898771219390948 3:2.86313492402015 4:1.61201630133059 5:0.456354014745752 
-4 1:0.536859097921472 2:-0.283999354317599 3:2.62000762872838 4:1.50615344194924 5:0.632860468601137 
-4 1:0.426269597093087 2:-0.157652970024325 3:2.44206785034247 4:1.09564362628447 5:1.29288178368334 
