svm_type epsilon_svr
kernel_type rbf
gamma 0.03125
nr_class 2
total_sv 352
rho -0.0119707078387157
SV
0.0625 1:-0.102729267246347 2:0.0260379398329176 3:0.16358703487645 4:-0.0122497278552342 5:-0.0246614665583253 
0.0625 1:0.14030108435532 2:-0.0249917584163377 3:0.0374044543568255 4:0.121190285562743 5:-0.247866126025634 
0.0625 1:0.16358703487645 2:-0.0122497278552342 3:-0.0246614665583253 4:-0.0248806824684887 5:0.0495421490268141 
0.0625 1:0.0374044543568255 2:0.121190285562743 3:-0.247866126025634 4:0.235980510088112 5:-0.0846432030668956 
0.0625 1:-0.0122497278552342 2:-0.0246614665583253 3:-0.0248806824684887 4:0.0495421490268141 5:-0.0246614665583253 
0.0625 1:0.121190285562743 2:-0.247866126025634 3:0.235980510088112 4:-0.0846432030668956 5:0.0365895190299433 
0.0625 1:-0.0246614665583253 2:-0.0248806824684887 3:0.0495421490268141 4:-0.0246614665583253 5:0.156547282182867 
0.0625 1:0.134380605719227 2:0.14903450282101 3:0.101795157994402 4:-0.261784893381406 5:0 
0.0625 1:0.273028980306405 2:0.151884907208324 3:-0.172773499282495 4:0 5:-0.184143724314262 
0.0625 1:0.14903450282101 2:0.101795157994402 3:-0.261784893381406 4:0 5:-0.146463020465163 
0.0625 1:0.151884907208324 2:-0.172773499282495 3:0 4:-0.184143724314262 5:0.0444304304582612 
0.0625 1:0.101795157994402 2:-0.261784893381406 3:0 4:-0.146463020465163 5:0.275178035544163 
0.0625 1:-0.172773499282495 2:0 3:-0.184143724314262 4:0.0444304304582612 5:0.232508256483515 
0.0625 1:-0.261784893381406 2:0 3:-0.146463020465163 4:0.275178035544163 5:0.221623925002322 
0.0625 1:0 2:-0.184143724314262 3:0.0444304304582612 4:0.232508256483515 5:0.0402749156748916 
0.0625 1:0 2:-0.146463020465163 3:0.275178035544163 4:0.221623925002322 5:-0.221623925002322 
0.0625 1:-0.184143724314262 2:0.0444304304582612 3:0.232508256483515 4:0.0402749156748916 5:0.00997882820702481 
0.0625 1:-0.146463020465163 2:0.275178035544163 3:0.221623925002322 4:-0.221623925002322 5:0.231292529943974 
0.0625 1:0.0444304304582612 2:0.232508256483515 3:0.0402749156748916 4:0.00997882820702481 5:0.229402725249067 
0.0625 1:0.275178035544163 2:0.221623925002322 3:-0.221623925002322 4:0.231292529943974 5:0.104207099847629 
0.0625 1:0.232508256483515 2:0.0402749156748916 3:0.00997882820702481 4:0.229402725249067 5:-0.170265490064104 
0.0625 1:0.221623925002322 2:-0.221623925002322 3:0.231292529943974 4:0.104207099847629 5:0.00928378412428943 
0.0625 1:0.0402749156748916 2:0.00997882820702481 3:0.229402725249067 4:-0.170265490064104 5:0.278281144051277 
0.0625 1:-0.221623925002322 2:0.231292529943974 3:0.104207099847629 4:0.00928378412428943 5:0.273511309273868 
0.0625 1:0.00997882820702481 2:0.229402725249067 3:-0.170265490064104 4:0.278281144051277 5:0.277194612547467 
0.0625 1:0.231292529943974 2:0.104207099847629 3:0.00928378412428943 4:0.273511309273868 5:0.279739145752144 
0.0625 1:0.279739145752144 2:0.233389988526551 3:-0.00700640753183544 4:0.273785161912251 5:-0.197662690988427 
0.0625 1:0.281281679818453 2:0.0359319227982158 3:0.193115072851659 4:0.0658632351961862 5:-0.119692939333709 
0.0625 1:0.233389988526551 2:-0.00700640753183544 3:0.273785161912251 4:-0.197662690988427 5:0.0136207487635003 
0.0625 1:0.0359319227982158 2:0.193115072851659 3:0.0658632351961862 4:-0.119692939333709 5:-0.132154006009519 
0.0625 1:-0.00700640753183544 2:0.273785161912251 3:-0.197662690988427 4:0.0136207487635003 5:-0.263383898479147 
0.0625 1:0.193115072851659 2:0.0658632351961862 3:-0.119692939333709 4:-0.132154006009519 5:0.00711323978113762 
0.0625 1:0.273785161912251 2:-0.197662690988427 3:0.0136207487635003 4:-0.263383898479147 5:0.276938686941776 
-0.0625 1:-0.119692939333709 2:-0.132154006009519 3:0.00711323978113762 4:0.277093122007472 5:0.131966583708904 
-0.0625 1:0.0136207487635003 2:-0.263383898479147 3:0.276938686941776 4:0.132055542959734 5:0.281981531890477 
-0.0625 1:-0.132154006009519 2:0.00711323978113762 3:0.277093122007472 4:0.131966583708904 5:0.252232346060239 
-0.0625 1:-0.263383898479147 2:0.276938686941776 3:0.132055542959734 4:0.281981531890477 5:0.250829660815412 
-0.0625 1:0.00711323978113762 2:0.277093122007472 3:0.131966583708904 4:0.252232346060239 5:0.194984227076359 
-0.0625 1:0.276938686941776 2:0.132055542959734 3:0.281981531890477 4:0.250829660815412 5:-0.0811378070577482 
-0.0625 1:0.277093122007472 2:0.131966583708904 3:0.252232346060239 4:0.194984227076359 5:-0.25737716870732 
-0.0625 1:0.132055542959734 2:0.281981531890477 3:0.250829660815412 4:-0.0811378070577482 5:-0.25855831279648 
-0.0625 1:0.131966583708904 2:0.252232346060239 3:0.194984227076359 4:-0.25737716870732 5:-0.270796679489964 
-0.0625 1:0.281981531890477 2:0.250829660815412 3:-0.0811378070577482 4:-0.25855831279648 5:-0.271598485829522 
0.0625 1:-0.270796679489964 2:-0.271838056882955 3:-0.270262337092009 4:-0.26524544382579 5:-0.265093082334604 
0.0625 1:-0.271598485829522 2:-0.271425597243547 3:-0.268240785412595 4:-0.261154119666632 5:-0.268545279114008 
0.0625 1:-0.271838056882955 2:-0.270262337092009 3:-0.26524544382579 4:-0.265093082334604 5:-0.211713535613487 
0.0625 1:-0.271425597243547 2:-0.268240785412595 3:-0.261154119666632 4:-0.268545279114008 5:-0.159989735387004 
-0.0625 1:-0.270262337092009 2:-0.26524544382579 3:-0.265093082334604 4:-0.211713535613487 5:0.780135075733417 
-0.0625 1:-0.268240785412595 2:-0.261154119666632 3:-0.268545279114008 4:-0.159989735387004 5:0.784581555377736 
-0.0625 1:-0.26524544382579 2:-0.265093082334604 3:-0.211713535613487 4:0.780135075733417 5:-0.155543255742686 
0.0625 1:0.780135075733417 2:-0.155543255742686 3:-0.0321734386806212 4:0 5:-0.124055384689479 
0.0625 1:0.784581555377736 2:-0.159989735387004 3:-0.0331253374646547 4:0.0331253374646547 5:-0.152252181468802 
0.0625 1:-0.155543255742686 2:-0.0321734386806212 3:0 4:-0.124055384689479 5:-0.156509864868229 
0.0625 1:-0.159989735387004 2:-0.0331253374646547 3:0.0331253374646547 4:-0.152252181468802 5:-0.161012596113708 
-0.0625 1:0.0331253374646547 2:-0.152252181468802 3:-0.161012596113708 4:0.161012596113708 5:0.160472623052736 
-0.0625 1:-0.124055384689479 2:-0.156509864868229 3:0 4:0.156509864868229 5:0.16421472992122 
-0.0625 1:-0.152252181468802 2:-0.161012596113708 3:0.161012596113708 4:0.160472623052736 5:0.159533676999442 
-0.0625 1:-0.156509864868229 2:0 3:0.156509864868229 4:0.16421472992122 5:0.155112167131411 
-0.0625 1:-0.161012596113708 2:0.161012596113708 3:0.160472623052736 4:0.159533676999442 5:0 
-0.0625 1:0 2:0.156509864868229 3:0.16421472992122 4:0.155112167131411 5:-0.155112167131411 
-0.0625 1:0.161012596113708 2:0.160472623052736 3:0.159533676999442 4:0 5:-0.159533676999442 
-0.0625 1:0.156509864868229 2:0.16421472992122 3:0.155112167131411 4:-0.155112167131411 5:-0.15577110859376 
-0.0625 1:0.160472623052736 2:0.159533676999442 3:0 4:-0.159533676999442 5:-0.15179336540878 
-0.0625 1:0.16421472992122 2:0.155112167131411 3:-0.155112167131411 4:-0.15577110859376 5:-0.15602506284388 
-0.0625 1:0.159533676999442 2:0 3:-0.159533676999442 4:-0.15179336540878 5:-0.151337307021215 
-0.0625 1:0.155112167131411 2:-0.155112167131411 3:-0.15577110859376 4:-0.15602506284388 5:-0.146389350372184 
-0.0625 1:0 2:-0.159533676999442 3:-0.15179336540878 4:-0.151337307021215 5:0.00913233549897748 
0.0625 1:-0.151337307021215 2:0.00913233549897748 3:-0.149818143701714 4:-0.158292822120439 5:-0.156997689834892 
0.0625 1:-0.146389350372184 2:0.00937708866100632 3:-0.153938904334143 4:-0.162900267361296 5:-0.0316281144562504 
0.0625 1:0.00913233549897748 2:-0.149818143701714 3:-0.158292822120439 4:-0.156997689834892 5:0.021448827924106 
0.0625 1:0.00937708866100632 2:-0.153938904334143 3:-0.162900267361296 4:-0.0316281144562504 5:0.0629028347642546 
0.0625 1:-0.149818143701714 2:-0.158292822120439 3:-0.156997689834892 4:0.021448827924106 5:0.165918689833159 
0.0625 1:-0.153938904334143 2:-0.162900267361296 3:-0.0316281144562504 4:0.0629028347642546 5:0.161141374303672 
0.0625 1:-0.158292822120439 2:-0.156997689834892 3:0.021448827924106 4:0.165918689833159 5:0.15663153660689 
0.0625 1:-0.162900267361296 2:-0.0316281144562504 3:0.0629028347642546 4:0.161141374303672 5:0.124423077083764 
0.0625 1:-0.156997689834892 2:0.021448827924106 3:0.165918689833159 4:0.15663153660689 5:0 
0.0625 1:-0.0316281144562504 2:0.0629028347642546 3:0.161141374303672 4:0.124423077083764 5:-0.0952152466931172 
0.0625 1:0.021448827924106 2:0.165918689833159 3:0.15663153660689 4:0 5:0 
0.0625 1:0.0629028347642546 2:0.161141374303672 3:0.124423077083764 4:-0.0952152466931172 5:0.104561026151743 
0.0625 1:0.165918689833159 2:0.15663153660689 3:0 4:0 5:0.111977265793912 
0.0625 1:0.161141374303672 2:0.124423077083764 3:-0.0952152466931172 4:0.104561026151743 5:0.109781064545523 
0.0625 1:0.15663153660689 2:0 3:0 4:0.111977265793912 5:0.10766936444727 
0.0625 1:0.124423077083764 2:-0.0952152466931172 3:0.104561026151743 4:0.109781064545523 5:0.105637380076743 
0.0625 1:0 2:0 3:0.111977265793912 4:0.10766936444727 5:0.103680680697883 
0.0625 1:-0.0952152466931172 2:0.104561026151743 3:0.109781064545523 4:0.105637380076743 5:0.101795157994403 
0.0625 1:0 2:0.111977265793912 3:0.10766936444727 4:0.103680680697883 5:0.0999769972630677 
0.0625 1:0.104561026151743 2:0.109781064545523 3:0.105637380076743 4:0.101795157994403 5:0.0982226516415681 
0.0625 1:0.111977265793912 2:0.10766936444727 3:0.103680680697883 4:0.0999769972630677 5:0.104424616475676 
0.0625 1:0.109781064545523 2:0.105637380076743 3:0.101795157994403 4:0.0982226516415681 5:0.0557441138609223 
0.0625 1:0.10766936444727 2:0.103680680697883 3:0.0999769972630677 4:0.104424616475676 5:0 
0.0625 1:0.105637380076743 2:0.101795157994403 3:0.0982226516415681 4:0.0557441138609223 5:0 
0.0625 1:0.103680680697883 2:0.0999769972630677 3:0.104424616475676 4:0 5:0.0546555954760398 
0.0625 1:0.101795157994403 2:0.0982226516415681 3:0.0557441138609223 4:0 5:0.108264370741157 
0.0625 1:0.0999769972630677 2:0.104424616475676 3:0 4:0.0546555954760398 5:0.106210077438838 
0.0625 1:0.0982226516415681 2:0.0557441138609223 3:0 4:0.108264370741157 5:0.104232300810516 
0.0625 1:0.104424616475676 2:0 3:0.0546555954760398 4:0.106210077438838 5:0.102326843502216 
0.0625 1:0.0557441138609223 2:0 3:0.108264370741157 4:0.104232300810516 5:0.100489809676444 
0.0625 1:0 2:0.0546555954760398 3:0.106210077438838 4:0.102326843502216 5:0.105637380076744 
0.0625 1:0 2:0.108264370741157 3:0.104232300810516 4:0.100489809676444 5:0.110594468439696 
0.0625 1:0.0546555954760398 2:0.106210077438838 3:0.102326843502216 4:0.105637380076744 5:0.108451661363339 
0.0625 1:0.108264370741157 2:0.104232300810516 3:0.100489809676444 4:0.110594468439696 5:0.106390321129697 
0.0625 1:0.106210077438838 2:0.102326843502216 3:0.105637380076744 4:0.108451661363339 5:0.104405887977389 
0.0625 1:0.104232300810516 2:0.100489809676444 3:0.110594468439696 4:0.106390321129697 5:0.102494136234387 
0.0625 1:0.102326843502216 2:0.105637380076744 3:0.108451661363339 4:0.104405887977389 5:0.106823271018294 
0.0625 1:0.100489809676444 2:0.110594468439696 3:0.106390321129697 4:0.102494136234387 5:0.110990422243088 
0.0625 1:0.105637380076744 2:0.108451661363339 3:0.104405887977389 4:0.106823271018294 5:0.108832391990271 
0.0625 1:0.110594468439696 2:0.106390321129697 3:0.102494136234387 4:0.110990422243088 5:0.106756690023867 
0.0625 1:0.108451661363339 2:0.104405887977389 3:0.106823271018294 4:0.108832391990271 5:0.104758692784181 
0.0625 1:0.106390321129697 2:0.102494136234387 3:0.110990422243088 4:0.106756690023867 5:0.10843783888711 
0.0625 1:0.104405887977389 2:0.106823271018294 3:0.108832391990271 4:0.104758692784181 5:0.111977265793911 
0.0625 1:0.102494136234387 2:0.110990422243088 3:0.106756690023867 4:0.10843783888711 5:0.109781064545523 
0.0625 1:0.101795157994402 2:0 3:0.0982226516415681 4:0 5:-0.0733419691730808 
0.0625 1:0 2:0.0999769972630677 3:0.0965288190044179 4:-0.0965288190044179 5:-0.0495421490268141 
0.0625 1:0 2:0.0982226516415681 3:0 4:-0.0733419691730808 5:-0.0499845130494599 
0.0625 1:0.0999769972630677 2:0.0965288190044179 3:-0.0965288190044179 4:-0.0495421490268141 5:-0.0504348482362537 
0.0625 1:0.0982226516415681 2:0 3:-0.0733419691730808 4:-0.0499845130494599 5:-0.0508933720062154 
0.0625 1:0.0965288190044179 2:-0.0965288190044179 3:-0.0495421490268141 4:-0.0504348482362537 5:-0.0513603097581483 
0.0625 1:0 2:-0.0733419691730808 3:-0.0499845130494599 4:-0.0508933720062154 5:-0.0518358952401315 
0.0625 1:-0.0965288190044179 2:-0.0495421490268141 3:-0.0504348482362537 4:-0.0513603097581483 5:0.101795157994402 
0.0625 1:-0.0733419691730808 2:-0.0499845130494599 3:-0.0508933720062154 4:-0.0518358952401315 5:0.250082148900842 
0.0625 1:-0.0495421490268141 2:-0.0504348482362537 3:-0.0513603097581483 4:0.101795157994402 5:0.262231136243647 
0.0625 1:-0.0499845130494599 2:-0.0508933720062154 3:-0.0518358952401315 4:0.250082148900842 5:0.273295773267334 
0.0625 1:-0.0504348482362537 2:-0.0513603097581483 3:0.101795157994402 4:0.262231136243647 5:0.260565525752681 
0.0625 1:0.101795157994402 2:0.262231136243647 3:0.260565525752681 4:0.276187362726429 5:0.16416120910614 
0.0625 1:0.250082148900842 2:0.273295773267334 3:0.268750616629962 4:0.263192516417094 5:0.0356572764409841 
0.0625 1:0.262231136243647 2:0.260565525752681 3:0.276187362726429 4:0.16416120910614 5:0 
0.0625 1:0.273295773267334 2:0.268750616629962 3:0.263192516417094 4:0.0356572764409841 5:0.138253204109926 
0.0625 1:0.260565525752681 2:0.276187362726429 3:0.16416120910614 4:0 5:0.10432480872914 
0.0625 1:0.268750616629962 2:0.263192516417094 3:0.0356572764409841 4:0.138253204109926 5:-0.15602506284388 
0.0625 1:0.276187362726429 2:0.16416120910614 3:0 4:0.10432480872914 5:-0.249763149715646 
0.0625 1:0.263192516417094 2:0.0356572764409841 3:0.138253204109926 4:-0.15602506284388 5:0 
0.0625 1:0.16416120910614 2:0 3:0.10432480872914 4:-0.249763149715646 5:0.266778754380414 
0.0625 1:0.0356572764409841 2:0.138253204109926 3:-0.15602506284388 4:0 5:0.271636826205897 
0.0625 1:0 2:0.10432480872914 3:-0.249763149715646 4:0.266778754380414 5:0.27447905730418 
0.0625 1:0.138253204109926 2:-0.15602506284388 3:0 4:0.271636826205897 5:0.262362674031095 
0.0625 1:0.10432480872914 2:-0.249763149715646 3:0.266778754380414 4:0.27447905730418 5:0.263981094629795 
0.0625 1:-0.15602506284388 2:0 3:0.271636826205897 4:0.262362674031095 5:0.280139440117856 
0.0625 1:-0.249763149715646 2:0.266778754380414 3:0.27447905730418 4:0.263981094629795 5:0.0554287092352613 
0.0625 1:0 2:0.271636826205897 3:0.262362674031095 4:0.280139440117856 5:0.0528139884963386 
0.0625 1:0.162646649062978 2:0.0669129476958221 3:0.065350634087262 4:-0.154928145675938 5:-0.164008484602079 
0.0625 1:0.0226645638928539 2:0.174998127095574 3:-0.0643490028912197 4:-0.249473856309623 5:-0.0720827391837206 
0.0625 1:0.0669129476958221 2:0.065350634087262 3:-0.154928145675938 4:-0.164008484602079 5:0.0478483163896639 
0.0625 1:-0.164008484602079 2:0.0478483163896639 3:0.161307249342829 4:0 5:-0.0910343112298987 
0.0625 1:0.0829411304407328 2:0 3:0.0203568777092207 4:-0.0203568777092207 5:-0.0411633646102897 
0.0625 1:-0.039703620980086 2:-0.020065020313882 3:0.059768641293968 4:0 5:-0.120841428037836 
0.0625 1:-0.0593462163092682 2:0.0199222075713039 3:0.0197814134087821 4:0 5:-0.059768641293968 
0.0625 1:-0.020065020313882 2:0.059768641293968 3:0 4:-0.120841428037836 5:0.120841428037836 
-0.0625 1:0 2:-0.0175490126411271 3:-0.0354315914299791 4:0.0177718587339553 5:-0.0356572764409841 
-0.0625 1:-0.0175490126411271 2:-0.0354315914299791 3:0.0177718587339553 4:-0.0536577137016653 5:0.0713174463976891 
-0.0625 1:-0.0175490126411271 2:-0.0354315914299791 3:0.0177718587339553 4:-0.0356572764409841 5:0.0883056940669967 
-0.0625 1:-0.0354315914299791 2:0.0177718587339553 3:-0.0536577137016653 4:0.0713174463976891 5:0.0175490126411271 
-0.0625 1:-0.0354315914299791 2:0.0177718587339553 3:-0.0356572764409841 4:0.0883056940669967 5:0 
-0.0625 1:0.0177718587339553 2:-0.0536577137016653 3:0.0713174463976891 4:0.0175490126411271 5:-0.106983404794902 
-0.0625 1:0.0177718587339553 2:-0.0356572764409841 3:0.0883056940669967 4:0 5:-0.198086758612519 
-0.0625 1:-0.0536577137016653 2:0.0713174463976891 3:0.0175490126411271 4:-0.106983404794902 5:-0.0365895190299419 
-0.0625 1:-0.0356572764409841 2:0.0883056940669967 3:0 4:-0.198086758612519 5:0.0370741624988131 
-0.0625 1:0.0713174463976891 2:0.0175490126411271 3:-0.106983404794902 4:-0.0365895190299419 5:-0.0557970306184468 
0.0625 1:-0.0430632855028364 2:0.0854740718250299 3:0.0417777658304431 4:-0.105637380076743 5:-0.065350634087262 
0.0625 1:0.0430632855028364 2:-0.021448827924106 3:0.126294731013396 4:-0.126294731013396 5:-0.065350634087262 
0.0625 1:0.0854740718250299 2:0.0417777658304431 3:-0.105637380076743 4:-0.065350634087262 5:0.086799462011368 
0.0625 1:-0.021448827924106 2:0.126294731013396 3:-0.126294731013396 4:-0.065350634087262 5:0.129210248333562 
0.0625 1:0.0417777658304431 2:-0.105637380076743 3:-0.065350634087262 4:0.086799462011368 5:-0.086799462011368 
0.0625 1:0.126294731013396 2:-0.126294731013396 3:-0.065350634087262 4:0.129210248333562 5:0 
0.0625 1:-0.105637380076743 2:-0.065350634087262 3:0.086799462011368 4:-0.086799462011368 5:0.191645365100658 
0.0625 1:-0.126294731013396 2:-0.065350634087262 3:0.129210248333562 4:0 5:0.0624351167670968 
0.0625 1:0.0191062745098586 2:0.0565485565586509 3:0.0370741624988131 4:-0.151337307021216 5:-0.019505712019988 
0.0625 1:0.0565485565586509 2:0.0370741624988131 3:-0.151337307021216 4:-0.019505712019988 5:-0.0394240087379643 
0.0625 1:0.0569319629488758 2:0.0373213308814598 3:-0.113490883971919 4:0.0573206041011189 5:-0.0766913274134294 
0.0625 1:0 2:0.0349886849299889 3:-0.0349886849299889 4:0.0866650760331166 5:-0.122096667463096 
0.0625 1:0.100575790365678 2:0.0164168115621565 3:0.0647209954955903 4:0.015949093565003 5:-0.0643490028912197 
0.0625 1:0.0333225167361577 2:0.0654780348450029 3:-0.0162264706455956 4:0.0162264706455956 5:-0.0162264706455956 
0.0625 1:0.0164168115621565 2:0.0647209954955903 3:0.015949093565003 4:-0.0643490028912197 5:0 
0.0625 1:0.0654780348450029 2:-0.0162264706455956 3:0.0162264706455956 4:-0.0162264706455956 5:-0.0327378977315301 
0.0625 1:0.0647209954955903 2:0.015949093565003 3:-0.0643490028912197 4:0 5:0 
0.0625 1:-0.0162264706455956 2:0.0162264706455956 3:-0.0162264706455956 4:-0.0327378977315301 5:0.0970869006227498 
0.0625 1:0.015949093565003 2:-0.0643490028912197 3:0 4:0 5:0.0483999093262167 
0.0625 1:0.0162264706455956 2:-0.0162264706455956 3:-0.0327378977315301 4:0.0970869006227498 5:-0.0970869006227498 
0.0625 1:-0.0643490028912197 2:0 3:0 4:0.0483999093262167 5:0 
0.0625 1:-0.0162264706455956 2:-0.0327378977315301 3:0.0970869006227498 4:-0.0970869006227498 5:0 
0.0625 1:0.0483999093262167 2:0 3:0.918862192942253 4:-0.105637380076743 5:-0.109781064545522 
0.0625 1:-0.0970869006227498 2:0 3:0.870336220491303 4:0.0359627004521401 5:-0.24896920322118 
0.0625 1:0 2:0.918862192942253 3:-0.105637380076743 4:-0.109781064545522 5:-0.0884651891151918 
0.0625 1:0 2:0.870336220491303 3:0.0359627004521401 4:-0.24896920322118 5:0.176575728009519 
0.0625 1:0.918862192942253 2:-0.105637380076743 3:-0.109781064545522 4:-0.0884651891151918 5:0.149985431434702 
0.0625 1:0.870336220491303 2:0.0359627004521401 3:-0.24896920322118 4:0.176575728009519 5:0.107899976875616 
0.0625 1:-0.105637380076743 2:-0.109781064545522 3:-0.0884651891151918 4:0.149985431434702 5:-0.0367496528065536 
0.0625 1:0.0359627004521401 2:-0.24896920322118 3:0.176575728009519 4:0.107899976875616 5:-0.169691853757664 
0.0625 1:-0.109781064545522 2:-0.0884651891151918 3:0.149985431434702 4:-0.0367496528065536 5:0.0969467760527505 
0.0625 1:-0.24896920322118 2:0.176575728009519 3:0.107899976875616 4:-0.169691853757664 5:0.193115072851659 
0.0625 1:-0.0884651891151918 2:0.149985431434702 3:-0.0367496528065536 4:0.0969467760527505 5:0.173192865280352 
-0.0625 1:0.158693574980666 2:0.0437361765085317 3:0.11686570942164 4:-0.0313916375966101 5:0.193115072851659 
0.0625 1:-0.224862766859245 2:0.175320617832432 3:0 4:0 5:-0.229046995649876 
-0.0625 1:0 2:0 3:-0.229046995649876 4:0.208981975335994 5:-0.020209895361011 
-0.0625 1:-0.0405667730702316 2:-0.0411633646102897 3:0 4:0.101795157994403 5:-0.020065020313882 
-0.0625 1:0 2:-0.229046995649876 3:0.208981975335994 4:-0.020209895361011 5:-0.0511725102111307 
-0.0625 1:-0.0411633646102897 2:0 3:0.101795157994403 4:-0.020065020313882 5:-0.0303698279223717 
-0.0625 1:-0.229046995649876 2:0.208981975335994 3:-0.020209895361011 4:-0.0511725102111307 5:0.140989574912836 
-0.0625 1:0 2:0.101795157994403 3:-0.020065020313882 4:-0.0303698279223717 5:0.0504348482362537 
-0.0625 1:0.208981975335994 2:-0.020209895361011 3:-0.0511725102111307 4:0.140989574912836 5:-0.0197117599679238 
-0.0625 1:0.101795157994403 2:-0.020065020313882 3:-0.0303698279223717 4:0.0504348482362537 5:0.0298303890588888 
-0.0625 1:-0.020209895361011 2:-0.0511725102111307 3:0.140989574912836 4:-0.0197117599679238 5:-0.121277814944912 
-0.0625 1:-0.020065020313882 2:-0.0303698279223717 3:0.0504348482362537 4:0.0298303890588888 5:-0.248049292491522 
-0.0625 1:-0.0511725102111307 2:0.140989574912836 3:-0.0197117599679238 4:-0.121277814944912 5:-0.259558036009969 
-0.0625 1:-0.121277814944912 2:-0.259558036009969 3:-0.261118371566738 4:-0.193115072851662 5:0.142906402010178 
-0.0625 1:-0.248049292491522 2:-0.260301948526866 3:-0.196505816267487 4:-0.130212238087406 5:0.142906402010178 
-0.0625 1:-0.259558036009969 2:-0.261118371566738 3:-0.193115072851662 4:0.142906402010178 5:-0.129609187703197 
-0.0625 1:-0.260301948526866 2:-0.196505816267487 3:-0.130212238087406 4:0.142906402010178 5:-0.012694163922772 
-0.0625 1:-0.261118371566738 2:-0.193115072851662 3:0.142906402010178 4:-0.129609187703197 5:-0.0132972143069807 
-0.0625 1:-0.196505816267487 2:-0.130212238087406 3:0.142906402010178 4:-0.012694163922772 5:-0.0643490028912169 
-0.0625 1:-0.193115072851662 2:0.142906402010178 3:-0.129609187703197 4:-0.0132972143069807 5:0 
-0.0625 1:-0.130212238087406 2:0.142906402010178 3:-0.012694163922772 4:-0.0643490028912169 5:-0.202429751489197 
-0.0625 1:0.142906402010178 2:-0.129609187703197 3:-0.0132972143069807 4:0 5:-0.265446186705888 
-0.0625 1:0.142906402010178 2:-0.012694163922772 3:-0.0643490028912169 4:-0.202429751489197 5:-0.12887967041288 
-0.0625 1:-0.129609187703197 2:-0.0132972143069807 3:0 4:-0.265446186705888 5:-0.0146932534119667 
-0.0625 1:-0.012694163922772 2:-0.0643490028912169 3:-0.202429751489197 4:-0.12887967041288 5:0.029157121433927 
-0.0625 1:-0.0132972143069807 2:0 3:-0.265446186705888 4:-0.0146932534119667 5:-0.0898170647017056 
-0.0625 1:-0.0643490028912169 2:-0.202429751489197 3:-0.12887967041288 4:0.029157121433927 5:-0.0291571214339269 
-0.0625 1:0 2:-0.265446186705888 3:-0.0146932534119667 4:-0.0898170647017056 5:-0.0305911061032448 
-0.0625 1:-0.202429751489197 2:-0.12887967041288 3:0.029157121433927 4:-0.0291571214339269 5:-0.260922981643272 
-0.0625 1:-0.265446186705888 2:-0.0146932534119667 3:-0.0898170647017056 4:-0.0305911061032448 5:0.0153373443881655 
-0.0625 1:-0.12887967041288 2:0.029157121433927 3:-0.0291571214339269 4:-0.260922981643272 5:0.125821557426355 
-0.0625 1:-0.0146932534119667 2:-0.0898170647017056 3:-0.0305911061032448 4:0.0153373443881655 5:-0.141158901814521 
-0.0625 1:0.029157121433927 2:-0.0291571214339269 3:-0.260922981643272 4:0.125821557426355 5:-0.257566266588162 
-0.0625 1:-0.0898170647017056 2:-0.0305911061032448 3:0.0153373443881655 4:-0.141158901814521 5:-0.252338180575708 
-0.0625 1:-0.0291571214339269 2:-0.260922981643272 3:0.125821557426355 4:-0.257566266588162 5:-0.246617382597617 
-0.0625 1:-0.0305911061032448 2:0.0153373443881655 3:-0.141158901814521 4:-0.252338180575708 5:-0.257990494892622 
-0.0625 1:-0.260922981643272 2:0.125821557426355 3:-0.257566266588162 4:-0.246617382597617 5:-0.0936227190574641 
0.0625 1:-0.257566266588162 2:-0.246617382597617 3:-0.0936227190574641 4:-0.259172612886178 5:-0.0209668272316765 
-0.0625 1:-0.250829660815414 2:0.0861316680567573 3:-0.0212857173883834 4:-0.131229892469631 5:0.256581809232557 
-0.0625 1:-0.0209668272316765 2:0 3:-0.0424107863221935 4:0 5:0.18598371014704 
-0.0625 1:0.0861316680567573 2:-0.0212857173883834 3:-0.131229892469631 4:0.256581809232557 5:0.0203568777092207 
-0.0625 1:0 2:-0.0424107863221935 3:0 4:0.18598371014704 5:0.0982226516415667 
-0.0625 1:-0.0212857173883834 2:-0.131229892469631 3:0.256581809232557 4:0.0203568777092207 5:0.079978536654979 
-0.0625 1:-0.0424107863221935 2:0 3:0.18598371014704 4:0.0982226516415667 5:-0.118287671955449 
-0.0625 1:-0.131229892469631 2:0.256581809232557 3:0.0203568777092207 4:0.079978536654979 5:-0.183276544804932 
-0.0625 1:0 2:0.18598371014704 3:0.0982226516415667 4:-0.118287671955449 5:-0.0817301376805214 
-0.0625 1:0.256581809232557 2:0.0203568777092207 3:0.079978536654979 4:-0.183276544804932 5:-0.0854740718250299 
-0.0625 1:0.18598371014704 2:0.0982226516415667 3:-0.118287671955449 4:-0.0817301376805214 5:-0.260565525752681 
-0.0625 1:0.0203568777092207 2:0.079978536654979 3:-0.183276544804932 4:-0.0854740718250299 5:-0.249473856309623 
-0.0625 1:0.0982226516415667 2:-0.118287671955449 3:-0.0817301376805214 4:-0.260565525752681 5:-0.237350453775161 
-0.0625 1:0.079978536654979 2:-0.183276544804932 3:-0.0854740718250299 4:-0.249473856309623 5:-0.22206817061842 
-0.0625 1:-0.183276544804932 2:-0.0854740718250299 3:-0.249473856309623 4:-0.22206817061842 5:0 
-0.0625 1:-0.0854740718250299 2:-0.249473856309623 3:-0.22206817061842 4:0 5:-0.025797955407214 
-0.0625 1:-0.260565525752681 2:-0.237350453775161 3:-0.152713780295805 4:-0.0528139884963386 5:0.0788519283292562 
-0.0625 1:-0.249473856309623 2:-0.22206817061842 3:0 4:-0.025797955407214 5:0.126675840462888 
-0.0625 1:-0.237350453775161 2:-0.152713780295805 3:-0.0528139884963386 4:0.0788519283292562 5:0 
-0.0625 1:-0.22206817061842 2:0 3:-0.025797955407214 4:0.126675840462888 5:-0.259357472929668 
-0.0625 1:-0.152713780295805 2:-0.0528139884963386 3:0.0788519283292562 4:0 5:-0.215418444622267 
-0.0625 1:-0.0528139884963386 2:0.0788519283292562 3:0 4:-0.215418444622267 5:-0.0852570989674755 
-0.0625 1:0.126675840462888 2:-0.259357472929668 3:-0.18245936113444 4:-0.0438503748458922 5:0.0727069020467087 
0.0625 1:-0.0475772080212534 2:0.0632582481794332 3:0.031100968276694 4:0.0154218480893961 5:-0.125821557426358 
0.0625 1:0.0316281144562504 2:0.0156810401581798 3:0.0155936801498244 4:-0.0312747203080042 5:-0.0636177009020883 
-0.0625 1:0.0636177009020883 2:0.0312747203080042 3:0.121717365565707 4:-0.0149283465722977 5:0.0883986628736986 
-0.0625 1:0.0478483163896639 2:0.0779732410366942 3:0.12040817080495 4:-0.0445482880278064 5:0.102864112885176 
-0.0625 1:0.0312747203080042 2:0.121717365565707 3:-0.0149283465722977 4:0.0883986628736986 5:-0.0145405955434501 
-0.0625 1:0.0779732410366942 2:0.12040817080495 3:-0.0445482880278064 4:0.102864112885176 5:-0.163386651274154 
-0.0625 1:0.121717365565707 2:-0.0149283465722977 3:0.0883986628736986 4:-0.0145405955434501 5:-0.134380605719227 
-0.0625 1:0.12040817080495 2:-0.0445482880278064 3:0.102864112885176 4:-0.163386651274154 5:0 
-0.0625 1:-0.0149283465722977 2:0.0883986628736986 3:-0.0145405955434501 4:-0.134380605719227 5:0.0455141466804094 
-0.0625 1:-0.100575790365676 2:0.0170156046647678 3:-0.0513603097581483 4:-0.0173316860097458 5:0.0173316860097458 
-0.0625 1:0.0169127907160177 2:-0.0339283953807856 3:-0.0516763911031262 4:-0.0526484176260141 5:0.0699801036357599 
-0.0625 1:0.0170156046647678 2:-0.0513603097581483 3:-0.0173316860097458 4:0.0173316860097458 5:0.0343447050933805 
-0.0625 1:-0.0339283953807856 2:-0.0516763911031262 3:-0.0526484176260141 4:0.0699801036357599 5:0.068273100474166 
-0.0625 1:-0.0513603097581483 2:-0.0173316860097458 3:0.0173316860097458 4:0.0343447050933805 5:-0.0691160633919881 
-0.0625 1:-0.0516763911031262 2:-0.0526484176260141 3:0.0699801036357599 4:0.068273100474166 5:-0.0856047864839118 
0.0625 1:-0.0691160633919881 2:-0.106983404794903 3:-0.111235498637729 4:-0.155543255742686 5:-0.040274915674893 
0.0625 1:-0.0856047864839118 2:-0.235658575721494 3:-0.0573206041011175 4:-0.0193707233123119 5:-0.243549921087913 
0.0625 1:-0.106983404794903 2:-0.111235498637729 3:-0.155543255742686 4:-0.040274915674893 5:-0.210554745140521 
0.0625 1:-0.235658575721494 2:-0.0573206041011175 3:-0.0193707233123119 4:-0.243549921087913 5:0.0420918961654866 
0.0625 1:-0.111235498637729 2:-0.155543255742686 3:-0.040274915674893 4:-0.210554745140521 5:0.270751868386719 
0.0625 1:-0.0573206041011175 2:-0.0193707233123119 3:-0.243549921087913 4:0.0420918961654866 5:0.162309717573257 
0.0625 1:-0.155543255742686 2:-0.040274915674893 3:-0.210554745140521 4:0.270751868386719 5:-0.0601971232461983 
0.0625 1:-0.0193707233123119 2:-0.243549921087913 3:0.0420918961654866 4:0.162309717573257 5:-0.1003354143642 
0.0625 1:-0.040274915674893 2:-0.210554745140521 3:0.270751868386719 4:-0.0601971232461983 5:0.119126844004149 
0.0625 1:-0.243549921087913 2:0.0420918961654866 3:0.162309717573257 4:-0.1003354143642 5:0.197198309677122 
0.0625 1:0 2:-0.0526484176260141 3:0.10432480872914 4:-0.0343447050933805 5:-0.0347713582986076 
0.0625 1:-0.0526484176260141 2:0.10432480872914 3:-0.0343447050933805 4:-0.0347713582986076 5:0.0347713582986076 
0.0625 1:0.0352087453371523 2:0.0691160633919881 3:-0.0691160633919881 4:0.0691160633919881 5:-0.157982522430804 
0.0625 1:0.10432480872914 2:-0.0343447050933805 3:-0.0347713582986076 4:0.0347713582986076 5:-0.0173316860097458 
0.0625 1:0.0475772080212534 2:0.0156810401581798 3:0.0155936801498244 4:-0.0788519283292576 5:-0.0483999093262153 
0.0625 1:0.0473091546144302 2:0.0465228163660901 3:-0.0938319709805202 4:0 5:-0.015949093565003 
0.0625 1:0 2:-0.015949093565003 3:0.031807823508829 4:-0.015858729943826 5:0.124423077083765 
0.0625 1:-0.0309291362162656 2:0.0766913274134294 3:0.0746459796077867 4:0 5:-0.18261202732922 
-0.0625 1:0.0766913274134294 2:0.0746459796077867 3:0 4:-0.18261202732922 5:0.269636394595416 
-0.0625 1:0.0898170647017056 2:0.0870243672661955 3:-0.146581047002571 4:0.0150083917085691 5:0.243549921087913 
-0.0625 1:0.0746459796077867 2:0 3:-0.18261202732922 4:0.269636394595416 5:0 
-0.0625 1:0.0870243672661955 2:-0.146581047002571 3:0.0150083917085691 4:0.243549921087913 5:-0.0275771526005862 
-0.0625 1:0 2:-0.18261202732922 3:0.269636394595416 4:0 5:0.0284170800930025 
-0.0625 1:-0.18261202732922 2:0.269636394595416 3:0 4:0.0284170800930025 5:0 
-0.0625 1:0.0150083917085691 2:0.243549921087913 3:-0.0275771526005862 4:-0.186195271187727 5:0.213772423788313 
-0.0625 1:0.269636394595416 2:0 3:0.0284170800930025 4:0 5:-0.0284170800930025 
-0.0625 1:0.0284170800930025 2:0 3:-0.0284170800930025 4:-0.253955354437236 5:-0.0156810401581798 
-0.0625 1:0 2:-0.0284170800930025 3:-0.253955354437236 4:-0.0156810401581798 5:-0.0316281144562504 
-0.0625 1:0.213772423788313 2:-0.243549921087913 3:-0.153833123813838 4:0 5:-0.015858729943826 
-0.0625 1:-0.0284170800930025 2:-0.253955354437236 3:-0.0156810401581798 4:-0.0316281144562504 5:-0.0643490028912183 
-0.0625 1:-0.243549921087913 2:-0.153833123813838 3:0 4:-0.015858729943826 5:-0.146923083826785 
-0.0625 1:-0.253955354437236 2:-0.0156810401581798 3:-0.0316281144562504 4:-0.0643490028912183 5:-0.0327378977315329 
-0.0625 1:-0.153833123813838 2:0 3:-0.015858729943826 4:-0.146923083826785 5:0.0825740809355665 
-0.0625 1:-0.0156810401581798 2:-0.0316281144562504 3:-0.0643490028912183 4:-0.0327378977315329 5:-0.0498361832040336 
-0.0625 1:0 2:-0.015858729943826 3:-0.146923083826785 4:0.0825740809355665 5:-0.116298083432441 
-0.0625 1:-0.0316281144562504 2:-0.0643490028912183 3:-0.0327378977315329 4:-0.0498361832040336 5:-0.155064415890783 
-0.0625 1:-0.015858729943826 2:-0.146923083826785 3:0.0825740809355665 4:-0.116298083432441 5:-0.0170156046647678 
-0.0625 1:-0.0643490028912183 2:-0.0327378977315329 3:-0.0498361832040336 4:-0.155064415890783 5:-0.0177718587339539 
-0.0625 1:-0.146923083826785 2:0.0825740809355665 3:-0.116298083432441 4:-0.0170156046647678 5:-0.249763149715646 
-0.0625 1:-0.0327378977315329 2:-0.0498361832040336 3:-0.155064415890783 4:-0.0177718587339539 5:-0.261435338794943 
-0.0625 1:0.0825740809355665 2:-0.116298083432441 3:-0.0170156046647678 4:-0.249763149715646 5:-0.253746866235771 
-0.0625 1:-0.0498361832040336 2:-0.155064415890783 3:-0.0177718587339539 4:-0.261435338794943 5:-0.24532992645631 
-0.0625 1:-0.116298083432441 2:-0.0170156046647678 3:-0.249763149715646 4:-0.253746866235771 5:-0.256581809232557 
-0.0625 1:-0.155064415890783 2:-0.0177718587339539 3:-0.261435338794943 4:-0.24532992645631 5:-0.131229892469628 
-0.0625 1:-0.0170156046647678 2:-0.249763149715646 3:-0.253746866235771 4:-0.256581809232557 5:0 
-0.0625 1:-0.0177718587339539 2:-0.261435338794943 3:-0.24532992645631 4:-0.131229892469628 5:0.0663839418012553 
-0.0625 1:-0.249763149715646 2:-0.253746866235771 3:-0.256581809232557 4:0 5:0 
-0.0625 1:-0.261435338794943 2:-0.24532992645631 3:-0.131229892469628 4:0.0663839418012553 5:-0.180647086323658 
-0.0625 1:-0.256581809232557 2:0 3:0 4:-0.233389988526551 5:-0.0244460798206973 
-0.0625 1:-0.131229892469628 2:0.0663839418012553 3:-0.180647086323658 4:-0.193115072851659 5:-0.0251038305809726 
-0.0625 1:0 2:0 3:-0.233389988526551 4:-0.0244460798206973 5:-0.203657677960952 
-0.0625 1:0.0663839418012553 2:-0.180647086323658 3:-0.193115072851659 4:-0.0251038305809726 5:-0.129011698353166 
-0.0625 1:0 2:-0.233389988526551 3:-0.0244460798206973 4:-0.203657677960952 5:0.0262824311068186 
-0.0625 1:-0.180647086323658 2:-0.193115072851659 3:-0.0251038305809726 4:-0.129011698353166 5:0.0523203709397361 
-0.0625 1:-0.233389988526551 2:-0.0244460798206973 3:-0.203657677960952 4:0.0262824311068186 5:0 
-0.0625 1:-0.193115072851659 2:-0.0251038305809726 3:-0.129011698353166 4:0.0523203709397361 5:-0.159989735387006 
-0.0625 1:-0.0244460798206973 2:-0.203657677960952 3:0.0262824311068186 4:0 5:0 
-0.0625 1:-0.0251038305809726 2:-0.129011698353166 3:0.0523203709397361 4:-0.159989735387006 5:0 
-0.0625 1:-0.203657677960952 2:0.0262824311068186 3:0 4:0 5:-0.245929061347999 
-0.0625 1:-0.129011698353166 2:0.0523203709397361 3:-0.159989735387006 4:0 5:-0.246545168401525 
-0.0625 1:0.0262824311068186 2:0 3:0 4:-0.245929061347999 5:-0.269636394595416 
-0.0625 1:0.0523203709397361 2:-0.159989735387006 3:0 4:-0.246545168401525 5:-0.135068491987802 
-0.0625 1:0 2:0 3:-0.245929061347999 4:-0.269636394595416 5:-0.0316281144562504 
-0.0625 1:-0.159989735387006 2:0 3:-0.246545168401525 4:-0.135068491987802 5:0.0498731830698317 
-0.0625 1:0 2:-0.245929061347999 3:-0.269636394595416 4:-0.0316281144562504 5:0.0190197222023809 
-0.0625 1:0 2:-0.246545168401525 3:-0.135068491987802 4:0.0498731830698317 5:-0.198416321306507 
-0.0625 1:-0.245929061347999 2:-0.269636394595416 3:-0.0316281144562504 4:0.0190197222023809 5:-0.149231960289785 
-0.0625 1:-0.246545168401525 2:-0.135068491987802 3:0.0498731830698317 4:-0.198416321306507 5:-0.0603413191274079 
-0.0625 1:-0.269636394595416 2:-0.0316281144562504 3:0.0190197222023809 4:-0.149231960289785 5:-0.178870470365904 
-0.0625 1:-0.198416321306507 2:-0.0603413191274079 3:-0.174779510440057 4:0.00720478736911632 5:-0.0362108329240451 
-0.0625 1:-0.094892421210091 2:0.0160404928808348 3:0 4:-0.0402749156748916 5:0.111340863052018 
-0.0625 1:0.0160404928808348 2:0 3:-0.0402749156748916 4:0.111340863052018 5:-0.119465856703342 
-0.0625 1:0 2:-0.0402749156748916 3:0.111340863052018 4:-0.119465856703342 5:0.00812499365132373 
-0.0625 1:-0.0160404928808348 2:-0.00805484972400668 3:-0.0406256528907473 4:0 5:0.048680502614754 
-0.0625 1:-0.0402749156748916 2:0.111340863052018 3:-0.119465856703342 4:0.00812499365132373 5:0.0402749156748916 
-0.0625 1:-0.00805484972400668 2:-0.0406256528907473 3:0 4:0.048680502614754 5:-0.0899044929270242 
-0.0625 1:0.111340863052018 2:-0.119465856703342 3:0.00812499365132373 4:0.0402749156748916 5:0.023889689947082 
-0.0625 1:-0.0406256528907473 2:0 3:0.048680502614754 4:-0.0899044929270242 5:0 
-0.0625 1:-0.119465856703342 2:0.00812499365132373 3:0.0402749156748916 4:0.023889689947082 5:-0.248600420829677 
-0.0625 1:0 2:0.048680502614754 3:-0.0899044929270242 4:0 5:-0.188965245038204 
-0.0625 1:0.048680502614754 2:-0.0899044929270242 3:0 4:-0.188965245038204 5:0 
-0.0625 1:0.0402749156748916 2:0.023889689947082 3:-0.248600420829677 4:-0.0790995340039254 5:-0.0631054375183118 
-0.0625 1:0.0315094323409667 2:0.010424810364935 3:0.010386128233833 4:-0.0312747203080042 5:0.0208885920741712 
-0.0625 1:0.0104637817092362 2:0.020810938598768 3:-0.020810938598768 4:-0.0209668272316751 5:0.0313916375966101 
-0.0625 1:0.010424810364935 2:0.010386128233833 3:-0.0312747203080042 4:0.0208885920741712 5:-0.0208885920741712 
-0.0625 1:0.020810938598768 2:-0.020810938598768 3:-0.0209668272316751 4:0.0313916375966101 5:0.010386128233833 
-0.0625 1:-0.0209668272316751 2:0.0313916375966101 3:0.010386128233833 4:-0.11642374543823 5:0 
