svm_type epsilon_svr
kernel_type rbf
gamma 0.773428468500461
nr_class 2
total_sv 390
rho -0.320507308848767
SV
78.1706413553067 1:-0.141831020621929 2:0.208408232207968 3:-0.0403064842471318 4:0.0727308197872487 5:0.130621253825056 
78.1706413553067 1:0.0727308197872487 2:0.130621253825056 3:0.24003913278933 4:-0.00499607058977623 5:-0.12324384663017 
-78.1706413553067 1:0.24003913278933 2:-0.00499607058977623 3:-0.12324384663017 4:0.183905964397881 5:-0.131070746665813 
-78.1706413553067 1:-0.12324384663017 2:0.183905964397881 3:-0.131070746665813 4:-0.343514914831728 5:-0.00107248938727907 
-78.1706413553067 1:-0.343514914831728 2:-0.00107248938727907 3:-0.0168354065665445 4:0.0703666708558982 5:0.0251835969427675 
78.1706413553067 1:-0.0168354065665445 2:0.0703666708558982 3:0.0251835969427675 4:-0.201133996838417 5:0.0752287666117822 
78.1706413553067 1:0.0251835969427675 2:-0.201133996838417 3:0.0752287666117822 4:0.362804568092903 5:0.0372804645063176 
78.1706413553067 1:-0.201133996838417 2:0.0752287666117822 3:0.362804568092903 4:0.0372804645063176 5:0.143021492823572 
78.1706413553067 1:0.0372804645063176 2:0.143021492823572 3:0.298097651968704 4:-0.139999907825595 5:-0.100000989546046 
-78.1706413553067 1:0.143021492823572 2:0.298097651968704 3:-0.139999907825595 4:-0.100000989546046 5:0.316880756968348 
-78.1706413553067 1:-0.139999907825595 2:-0.100000989546046 3:0.316880756968348 4:-0.205004273502908 5:-0.0154995644158619 
78.1706413553067 1:-0.0454418432822371 2:-0.0431207187380731 3:0.062466144738356 4:0.0299439134682637 5:0.0595056855524903 
-78.1706413553067 1:-0.0431207187380731 2:0.062466144738356 3:0.0299439134682637 4:0.0595056855524903 5:0.298137930359222 
78.1706413553067 1:0.0595056855524903 2:0.298137930359222 3:-0.198272185394098 4:0.00483066258478358 5:0.0981169924606259 
-78.1706413553067 1:-0.198272185394098 2:0.00483066258478358 3:0.0981169924606259 4:0.149103905124383 5:-0.154599005559416 
-78.1706413553067 1:0.00483066258478358 2:0.0981169924606259 3:0.149103905124383 4:-0.154599005559416 5:-0.174295505404943 
-78.1706413553067 1:0.0981169924606259 2:0.149103905124383 3:-0.154599005559416 4:-0.174295505404943 5:-0.432819324878343 
-78.1706413553067 1:-0.154599005559416 2:-0.174295505404943 3:-0.432819324878343 4:-0.459965293199681 5:0.271579959201882 
24.0878303259313 1:-0.174295505404943 2:-0.432819324878343 3:-0.459965293199681 4:0.271579959201882 5:-0.419830802631046 
12.8811615802906 1:-0.432819324878343 2:-0.459965293199681 3:0.271579959201882 4:-0.419830802631046 5:0.186447456968252 
-54.1324672068189 1:0.271579959201882 2:-0.419830802631046 3:0.186447456968252 4:0.323128850431267 5:-0.0269830677097053 
-78.1706413553067 1:-0.419830802631046 2:0.186447456968252 3:0.323128850431267 4:-0.0269830677097053 5:-0.246936732013188 
32.4266464984206 1:0.186447456968252 2:0.323128850431267 3:-0.0269830677097053 4:-0.246936732013188 5:-0.407601293258884 
-78.1706413553067 1:0.323128850431267 2:-0.0269830677097053 3:-0.246936732013188 4:-0.407601293258884 5:0.0592623322226156 
78.1706413553067 1:-0.0269830677097053 2:-0.246936732013188 3:-0.407601293258884 4:0.0592623322226156 5:-0.180298716078445 
78.1706413553067 1:-0.407601293258884 2:0.0592623322226156 3:-0.180298716078445 4:0.373839517009502 5:0.0215353893449408 
78.1706413553067 1:0.0592623322226156 2:-0.180298716078445 3:0.373839517009502 4:0.0215353893449408 5:0.348815860249911 
78.1706413553067 1:0.373839517009502 2:0.0215353893449408 3:0.348815860249911 4:0.136116716327274 5:0.0509854659855302 
78.1706413553067 1:0.0215353893449408 2:0.348815860249911 3:0.136116716327274 4:0.0509854659855302 5:0.184921160682181 
78.1706413553067 1:0.348815860249911 2:0.136116716327274 3:0.0509854659855302 4:0.184921160682181 5:0.146084600586878 
-78.1706413553067 1:0.140346764262525 2:-0.0845003557602431 3:-0.0758108564184977 4:-0.07988361625401 5:0.113284382125339 
78.1706413553067 1:-0.07988361625401 2:0.113284382125339 3:-0.407747380748425 4:-0.133660761807239 5:0.0753940884788921 
-78.1706413553067 1:-0.407747380748425 2:-0.133660761807239 3:0.0753940884788921 4:0.194703244365902 5:0.0127480478853011 
78.1706413553067 1:0.0753940884788921 2:0.194703244365902 3:0.0127480478853011 4:-0.382304040741083 5:0.0812897994064818 
-24.2808010503372 1:0.0127480478853011 2:-0.382304040741083 3:0.0812897994064818 4:0.355085733247076 5:-0.0670238843697648 
-78.1706413553067 1:0.0812897994064818 2:0.355085733247076 3:-0.0670238843697648 4:-0.0785007019279869 5:0.0614120329920599 
-78.1706413553067 1:0.355085733247076 2:-0.0670238843697648 3:-0.0785007019279869 4:0.0614120329920599 5:-0.463984515274081 
51.2505268061356 1:-0.0785007019279869 2:0.0614120329920599 3:-0.463984515274081 4:-0.200349672887172 5:-0.0537426111396961 
37.7158109984189 1:0.0614120329920599 2:-0.463984515274081 3:-0.200349672887172 4:-0.0537426111396961 5:0.20637361215311 
77.1951390825035 1:-0.463984515274081 2:-0.200349672887172 3:-0.0537426111396961 4:0.20637361215311 5:0.176504433626541 
-78.1706413553067 1:-0.200349672887172 2:-0.0537426111396961 3:0.20637361215311 4:0.176504433626541 5:0.0941563899520298 
-78.1706413553067 1:-0.0537426111396961 2:0.20637361215311 3:0.176504433626541 4:0.0941563899520298 5:-0.294259784018078 
-78.1706413553067 1:0.20637361215311 2:0.176504433626541 3:0.0941563899520298 4:-0.294259784018078 5:-0.501075576734291 
9.53218944579954 1:0.176504433626541 2:0.0941563899520298 3:-0.294259784018078 4:-0.501075576734291 5:-0.481235784214749 
34.4460388245652 1:0.0941563899520298 2:-0.294259784018078 3:-0.501075576734291 4:-0.481235784214749 5:0.21172661289868 
16.0648419666359 1:-0.294259784018078 2:-0.501075576734291 3:-0.481235784214749 4:0.21172661289868 5:0.0436554494193371 
-3.57087060575141 1:-0.501075576734291 2:-0.481235784214749 3:0.21172661289868 4:0.0436554494193371 5:-0.0710511191029679 
-78.1706413553067 1:-0.481235784214749 2:0.21172661289868 3:0.0436554494193371 4:-0.0710511191029679 5:-0.00532777295750645 
78.1706413553067 1:0.21172661289868 2:0.0436554494193371 3:-0.0710511191029679 4:-0.00532777295750645 5:-0.268386864816534 
78.1706413553067 1:0.19605741144386 2:0.0457608573914511 3:-0.0432620296406431 4:0.133266037604241 5:0.111274227378495 
78.1706413553067 1:-0.0432620296406431 2:0.133266037604241 3:0.111274227378495 4:0.403375293566256 5:0.0244686185198649 
78.1706413553067 1:0.403375293566256 2:0.0244686185198649 3:0.239144565655321 4:-0.0315916477125427 5:0.0105485456777944 
-78.1706413553067 1:0.0244686185198649 2:0.239144565655321 3:-0.0315916477125427 4:0.0105485456777944 5:0.0794611925636997 
78.1706413553067 1:0.239144565655321 2:-0.0315916477125427 3:0.0105485456777944 4:0.0794611925636997 5:-0.207070006802632 
78.1706413553067 1:-0.0315916477125427 2:0.0105485456777944 3:0.0794611925636997 4:-0.207070006802632 5:0.196843472755531 
-78.1706413553067 1:0.0794611925636997 2:-0.207070006802632 3:0.196843472755531 4:0.44131767407737 5:-0.030574133245103 
-78.1706413553067 1:0.196843472755531 2:0.44131767407737 3:-0.030574133245103 4:-0.320915643184437 5:0.13001967367373 
22.5508766138617 1:0.44131767407737 2:-0.030574133245103 3:-0.320915643184437 4:0.13001967367373 5:-0.381113993832529 
78.1706413553067 1:0.0386754359044806 2:0.0439912354478012 3:0.0848445914281932 4:-0.0883562999419058 5:0.0357155234733763 
-78.1706413553067 1:-0.0195855274235806 2:-0.108262761342554 3:0.00156377532221388 4:0.0120956274757562 5:0.116851094648099 
-78.1706413553067 1:0.00156377532221388 2:0.0120956274757562 3:0.116851094648099 4:-0.239538976149329 5:-0.00991848084008821 
-78.1706413553067 1:0.116851094648099 2:-0.239538976149329 3:-0.00991848084008821 4:-0.185940724488546 5:0.0880073183858709 
-78.1706413553067 1:-0.0657676750514961 2:-0.132352185661196 3:-0.00460721864879172 4:-0.0392350305609771 5:0.110391754669332 
-78.1706413553067 1:-0.00460721864879172 2:-0.0392350305609771 3:0.110391754669332 4:-0.348232139774953 5:0.00177732925407681 
-78.1706413553067 1:-0.0392350305609771 2:0.110391754669332 3:-0.348232139774953 4:0.00177732925407681 5:-0.283003848558593 
71.5914368325087 1:0.110391754669332 2:-0.348232139774953 3:0.00177732925407681 4:-0.283003848558593 5:-0.113383339210353 
-78.1706413553067 1:0.1539617858546 2:0.0383749905981811 3:0.0980144270965436 4:-0.0998727531848316 5:-0.0746497170247223 
-78.1706413553067 1:0.0383749905981811 2:0.0980144270965436 3:-0.0998727531848316 4:-0.0746497170247223 5:-0.383716077687535 
78.1706413553067 1:-0.0998727531848316 2:-0.0746497170247223 3:-0.383716077687535 4:-0.299220281833057 5:0.0074699759940872 
-78.1706413553067 1:-0.383716077687535 2:-0.299220281833057 3:0.0074699759940872 4:0.29179326393481 5:-0.0710169276855145 
78.1706413553067 1:-0.299220281833057 2:0.0074699759940872 3:0.29179326393481 4:-0.0710169276855145 5:-0.266366620180576 
78.1706413553067 1:0.0074699759940872 2:0.29179326393481 3:-0.0710169276855145 4:-0.266366620180576 5:0.077227935341181 
78.1706413553067 1:-0.0710169276855145 2:-0.266366620180576 3:0.077227935341181 4:0.349532353544711 5:0.0184047523473311 
30.8243445113587 1:0.077227935341181 2:0.349532353544711 3:0.0184047523473311 4:0.282963633541367 5:-0.0597679548258558 
78.1706413553067 1:0.282963633541367 2:-0.0597679548258558 3:0.177812961245765 4:-0.123507651923986 5:-0.0124115051391752 
-78.1706413553067 1:-0.123507651923986 2:-0.0124115051391752 3:0.20799646295963 4:0.0336152371428731 5:0.0659743542149632 
78.1706413553067 1:-0.0124115051391752 2:0.20799646295963 3:0.0336152371428731 4:0.0659743542149632 5:-0.172214948835341 
78.1706413553067 1:0.0336152371428731 2:0.0659743542149632 3:-0.172214948835341 4:0.166768620057529 5:0.065450854341195 
78.1706413553067 1:-0.172214948835341 2:0.166768620057529 3:0.065450854341195 4:0.271116072417035 5:-0.102030432928031 
-25.2398319546164 1:0.166768620057529 2:0.065450854341195 3:0.271116072417035 4:-0.102030432928031 5:0.18709959656576 
-78.1706413553067 1:-0.0890420141160382 2:0.0422643666163327 3:0.0989508626728684 4:0.0555653574995312 5:0.0508997400959003 
-78.1706413553067 1:0.0555653574995312 2:0.0508997400959003 3:-0.197111459881405 4:0.116613008173484 5:0.120617048448816 
78.1706413553067 1:0.0508997400959003 2:-0.197111459881405 3:0.116613008173484 4:0.120617048448816 5:-0.156466622033626 
-78.1706413553067 1:-0.197111459881405 2:0.116613008173484 3:0.120617048448816 4:-0.156466622033626 5:0.275855020647201 
-34.9708477851707 1:0.116613008173484 2:0.120617048448816 3:-0.156466622033626 4:0.275855020647201 5:-0.347366692292577 
-48.6001970130423 1:-0.156466622033626 2:0.275855020647201 3:-0.347366692292577 4:-0.112267269204956 5:0.0411870589621526 
25.9317698521832 1:0.275855020647201 2:-0.347366692292577 3:-0.112267269204956 4:0.0411870589621526 5:-0.145304145023279 
78.1706413553067 1:0.0411870589621526 2:-0.145304145023279 3:0.195026176144993 4:0.0713620040362995 5:0.0394179945645295 
-78.1706413553067 1:0.0394179945645295 2:0.379811970709365 3:0.0590679115338693 4:0.00607379782429482 5:0.1541409079856 
-78.1706413553067 1:0.00607379782429482 2:0.1541409079856 3:-0.255671324637783 4:-0.0724356504293917 5:0.0274914179453056 
-78.1706413553067 1:0.1541409079856 2:-0.255671324637783 3:-0.0724356504293917 4:0.0274914179453056 5:-0.136550907435644 
-78.1706413553067 1:-0.136550907435644 2:-0.218457482321572 3:-0.167270807481372 4:0.179023149873349 5:0.0535013429356587 
-78.1706413553067 1:0.179023149873349 2:0.0535013429356587 3:-0.173284265878197 4:0.0376158328651734 5:0.0991062163805984 
78.1706413553067 1:-0.173284265878197 2:0.0376158328651734 3:0.0991062163805984 4:-0.174307342076454 5:-0.00174170968004782 
78.1706413553067 1:0.0376158328651734 2:0.0991062163805984 3:-0.174307342076454 4:-0.00174170968004782 5:0.319707289737665 
78.1706413553067 1:0.274906807473279 2:0.01877679087178 3:0.0898909896684103 4:0.0288748777905503 5:0.00649764490126816 
78.1706413553067 1:0.01877679087178 2:0.0898909896684103 3:0.0288748777905503 4:0.00649764490126816 5:0.344550682421001 
-15.9117653075465 1:0.0288748777905503 2:0.00649764490126816 3:0.344550682421001 4:0.386877212636284 5:0.0978957099714788 
-63.3990630321025 1:0.00649764490126816 2:0.344550682421001 3:0.386877212636284 4:0.0978957099714788 5:-0.0790496165905509 
78.1706413553067 1:0.386877212636284 2:0.0978957099714788 3:-0.0790496165905509 4:-0.0143689568216447 5:0.0191569129552161 
78.1706413553067 1:0.0978957099714788 2:-0.0790496165905509 3:-0.0143689568216447 4:0.0191569129552161 5:0.233460707631526 
-78.1706413553067 1:-0.0143689568216447 2:0.0191569129552161 3:0.233460707631526 4:0.244805487200169 5:-0.0429062309219736 
78.1706413553067 1:0.0191569129552161 2:0.233460707631526 3:0.244805487200169 4:-0.0429062309219736 5:-0.169511005724643 
-78.1706413553067 1:0.244805487200169 2:-0.0429062309219736 3:-0.169511005724643 4:0.20964119560983 5:-0.0407094265764003 
78.1706413553067 1:0.0213395805758995 2:0.119939185657542 3:0.116685001189036 4:-0.0555491095043901 5:-0.102137341495352 
-78.1706413553067 1:0.119939185657542 2:0.116685001189036 3:-0.0555491095043901 4:-0.102137341495352 5:0.351290851533654 
-33.0807669287924 1:-0.0555491095043901 2:-0.102137341495352 3:0.351290851533654 4:-0.0858668331248273 5:0.0679527200384047 
-78.1706413553067 1:-0.102137341495352 2:0.351290851533654 3:-0.0858668331248273 4:0.0679527200384047 5:-0.0383073921060568 
78.1706413553067 1:-0.0383073921060568 2:-0.2603510086822 3:0.0587267346112634 4:0.0696518924314118 5:-0.0752687380427241 
-78.1706413553067 1:-0.0752687380427241 2:0.282849852576711 3:0.0843951290604564 4:0.13267381544951 5:-0.104714285668923 
78.1706413553067 1:0.0843951290604564 2:0.13267381544951 3:-0.104714285668923 4:-0.128808152220738 5:0.0718722445008142 
78.1706413553067 1:0.0718722445008142 2:0.189510688906241 3:0.0870581581043294 4:0.0700155054831668 5:-0.0432124106951868 
-78.1706413553067 1:-0.0432124106951868 2:0.181768903355791 3:-0.0133271193044828 4:0.0422359554889203 5:-0.0130517767612498 
-78.1706413553067 1:0.181768903355791 2:-0.0133271193044828 3:0.0422359554889203 4:-0.0130517767612498 5:-0.263685428323243 
-78.1706413553067 1:0.083162938598051 2:-0.0743484907709488 3:0.0925314023317331 4:-0.143925579627819 5:0.120774620655466 
78.1706413553067 1:0.0925314023317331 2:-0.143925579627819 3:0.120774620655466 4:-0.18011435102606 5:0.144087821322323 
-78.1706413553067 1:-0.143925579627819 2:0.120774620655466 3:-0.18011435102606 4:0.144087821322323 5:0.184254249838271 
-78.1706413553067 1:0.120774620655466 2:-0.18011435102606 3:0.144087821322323 4:0.184254249838271 5:-0.21086513460638 
78.1706413553067 1:-0.21086513460638 2:-0.187591643492543 3:-0.0537105019024561 4:-0.0484734224935284 5:0.0565116857559143 
78.1706413553067 1:-0.0484734224935284 2:0.0565116857559143 3:0.18391663335151 4:0.00986131074765127 5:-0.0652204255840188 
78.1706413553067 1:0.0565116857559143 2:0.18391663335151 3:0.00986131074765127 4:-0.0652204255840188 5:0.221522598940533 
78.1706413553067 1:-0.0652204255840188 2:0.221522598940533 3:0.214198358974519 4:0.0875754248582791 5:-0.0795919755000799 
-78.1706413553067 1:0.0875754248582791 2:-0.0795919755000799 3:0.260191997816235 4:-0.0619687830261224 5:0.0245494193145808 
78.1706413553067 1:-0.0795919755000799 2:0.260191997816235 3:-0.0619687830261224 4:0.0245494193145808 5:-0.171107495174413 
78.1706413553067 1:0.260191997816235 2:-0.0619687830261224 3:0.0245494193145808 4:-0.171107495174413 5:0.183111328286811 
-78.1706413553067 1:0.0696613000714609 2:0.087482227738686 3:0.0103648832699681 4:-0.126946907862891 5:0.0554595426007347 
78.1706413553067 1:-0.126946907862891 2:0.0554595426007347 3:-0.284629085518546 4:0.120148248896359 5:0.148927981556163 
-78.1706413553067 1:0.0554595426007347 2:-0.284629085518546 3:0.120148248896359 4:0.148927981556163 5:0.290312373662622 
20.371925454413 1:-0.284629085518546 2:0.120148248896359 3:0.148927981556163 4:0.290312373662622 5:-0.149771139148365 
78.1706413553067 1:0.290312373662622 2:-0.149771139148365 3:0.109849439092521 4:-0.0290408940057318 5:0.0514351822505205 
-78.1706413553067 1:-0.0290408940057318 2:0.0514351822505205 3:0.307227598566619 4:-0.00316191967529204 5:-0.0514421825522482 
-78.1706413553067 1:-0.0514421825522482 2:-0.261373079719024 3:0.000882439281835886 4:-0.0904156943335593 5:0.0864077176543011 
-78.1706413553067 1:0.0864077176543011 2:-0.160364216990117 3:-0.170476860226919 4:0.0737553209252699 5:-0.0277461647664638 
-78.1706413553067 1:-0.160364216990117 2:-0.170476860226919 3:0.0737553209252699 4:-0.0277461647664638 5:-0.177624324884818 
-78.1706413553067 1:-0.177624324884818 2:-0.263996733800021 3:-0.120352200632399 4:0.00614604783052691 5:0.0103161496822328 
78.1706413553067 1:-0.263996733800021 2:-0.120352200632399 3:0.00614604783052691 4:0.0103161496822328 5:-0.232267402223771 
-78.1706413553067 1:0.00614604783052691 2:0.0103161496822328 3:-0.232267402223771 4:0.334381950736938 5:0.0340910162977464 
-78.1706413553067 1:0.0103161496822328 2:-0.232267402223771 3:0.334381950736938 4:0.0340910162977464 5:-0.117858612715273 
-78.1706413553067 1:-0.117858612715273 2:0.00443324276398791 3:0.126137148111647 4:0.0763710733762729 5:0.134666784395773 
-78.1706413553067 1:0.0763710733762729 2:0.134666784395773 3:-0.171093135000652 4:0.0298070262845429 5:0.0699474739029707 
-78.1706413553067 1:0.134666784395773 2:-0.171093135000652 3:0.0298070262845429 4:0.0699474739029707 5:-0.279251999995453 
-78.1706413553067 1:-0.171093135000652 2:0.0298070262845429 3:0.0699474739029707 4:-0.279251999995453 5:-0.267614078407795 
-19.8407869070207 1:-0.279251999995453 2:-0.267614078407795 3:-0.406511493367322 4:0.0417072032102427 5:0.238172229964671 
78.1706413553067 1:-0.267614078407795 2:-0.406511493367322 3:0.0417072032102427 4:0.238172229964671 5:-0.360641640055749 
-33.1374860769117 1:-0.406511493367322 2:0.0417072032102427 3:0.238172229964671 4:-0.360641640055749 5:0.431475184586151 
-33.0993234495908 1:0.238172229964671 2:-0.360641640055749 3:0.431475184586151 4:-0.128166185954388 5:0.21503316875405 
-78.1706413553067 1:0.431475184586151 2:-0.128166185954388 3:0.21503316875405 4:-0.232923951357066 5:-0.0038573229309363 
78.1706413553067 1:-0.128166185954388 2:0.21503316875405 3:-0.232923951357066 4:-0.0038573229309363 5:-0.290488723143126 
78.1706413553067 1:-0.0038573229309363 2:-0.290488723143126 3:0.283196879826535 4:0.133525971201432 5:-0.0421920655540478 
-78.1706413553067 1:-0.0421920655540478 2:0.35400863230688 3:-0.0281021394165551 4:-0.0274087148489669 5:0.130976131918709 
-78.1706413553067 1:-0.0281021394165551 2:-0.0274087148489669 3:0.130976131918709 4:-0.296052639000711 5:0.0498924015213713 
-78.1706413553067 1:-0.0274087148489669 2:0.130976131918709 3:-0.296052639000711 4:0.0498924015213713 5:-0.346823174041624 
78.1706413553067 1:0.130976131918709 2:-0.296052639000711 3:0.0498924015213713 4:-0.346823174041624 5:-0.201742638639219 
23.6859557522016 1:-0.296052639000711 2:0.0498924015213713 3:-0.346823174041624 4:-0.201742638639219 5:0.226840478439177 
78.1706413553067 1:0.0498924015213713 2:-0.346823174041624 3:-0.201742638639219 4:0.226840478439177 5:0.148446888971418 
-12.8587528985715 1:-0.201742638639219 2:0.226840478439177 3:0.148446888971418 4:0.300022455964176 5:0.105635182757179 
-78.1706413553067 1:0.132324847450347 2:-0.00744572027442117 3:-0.0936811041535904 4:0.133305034847528 5:0.0770040952914546 
78.1706413553067 1:-0.00744572027442117 2:-0.0936811041535904 3:0.133305034847528 4:0.0770040952914546 5:-0.191008674593044 
78.1706413553067 1:-0.045107741143173 2:0.0484446755204118 3:0.0828039236609149 4:0.0793090964681911 5:0.124075748433526 
-78.1706413553067 1:0.124075748433526 2:0.209008902499107 3:-0.0760480174506492 4:-0.0422634370383321 5:0.0215832939778063 
-78.1706413553067 1:0.209008902499107 2:-0.0760480174506492 3:-0.0422634370383321 4:0.0215832939778063 5:-0.273052353914176 
78.1706413553067 1:-0.0422634370383321 2:0.0215832939778063 3:-0.273052353914176 4:-0.140267800842044 5:0.00472608965295987 
78.1706413553067 1:0.00472608965295987 2:0.215172616038229 3:-0.0208818220631895 4:-0.166326251439803 5:0.103994416963436 
-78.1706413553067 1:0.215172616038229 2:-0.0208818220631895 3:-0.166326251439803 4:0.103994416963436 5:0.164020491645542 
78.1706413553067 1:-0.166326251439803 2:0.103994416963436 3:0.164020491645542 4:-0.140591923428745 5:0.0100665561394048 
78.1706413553067 1:0.103994416963436 2:0.164020491645542 3:-0.140591923428745 4:0.0100665561394048 5:0.281865395573669 
28.8315729188799 1:0.107297791546617 2:-0.040237040538367 3:0.00938912888607335 4:0.000694008540028729 5:-0.114019446110915 
-78.1706413553067 1:0.00938912888607335 2:0.000694008540028729 3:-0.114019446110915 4:0.154095609317163 5:0.141288312365848 
78.1706413553067 1:-0.149167456574002 2:0.126481601280146 3:-0.0869630982979298 4:0.0175533492701419 5:0.135707842057733 
-38.8202539002632 1:0.126481601280146 2:-0.0869630982979298 3:0.0175533492701419 4:0.135707842057733 5:0.185335831579146 
78.1706413553067 1:0.0175533492701419 2:0.135707842057733 3:0.185335831579146 4:-0.144723371570447 5:0.0918585655067956 
-78.1706413553067 1:0.185335831579146 2:-0.144723371570447 3:0.0918585655067956 4:0.195708418388407 5:0.0355843842112928 
-78.1706413553067 1:-0.144723371570447 2:0.0918585655067956 3:0.195708418388407 4:0.0355843842112928 5:-0.184184812813135 
78.1706413553067 1:0.195708418388407 2:0.0355843842112928 3:-0.184184812813135 4:-0.223626642317871 5:-0.00210448034341893 
78.1706413553067 1:-0.184184812813135 2:-0.223626642317871 3:-0.00210448034341893 4:0.191164465530605 5:0.0820597020946847 
-78.1706413553067 1:0.191164465530605 2:0.0820597020946847 3:0.223364409062316 4:-0.116030849409945 5:0.0230672927131778 
-78.1706413553067 1:-0.0665661206458641 2:-0.103595168324743 3:0.0918866300685542 4:0.101330058202956 5:-0.118593991513477 
-78.1706413553067 1:0.0918866300685542 2:0.101330058202956 3:-0.118593991513477 4:-0.132238137039639 5:0.0624900011941459 
78.1706413553067 1:-0.132238137039639 2:0.0624900011941459 3:-0.199774853646796 4:0.124740325203446 5:-0.0617864139242894 
5.14307417755471 1:0.0624900011941459 2:-0.199774853646796 3:0.124740325203446 4:-0.0617864139242894 5:0.359637204292965 
-39.4780058353713 1:-0.199774853646796 2:0.124740325203446 3:-0.0617864139242894 4:0.359637204292965 5:0.171750365918534 
78.1706413553067 1:0.124740325203446 2:-0.0617864139242894 3:0.359637204292965 4:0.171750365918534 5:-0.045636094051789 
78.1706413553067 1:0.171750365918534 2:-0.045636094051789 3:0.313552690862178 4:0.0222809152694136 5:-0.108739862654209 
-78.1706413553067 1:0.313552690862178 2:0.0222809152694136 3:-0.108739862654209 4:0.245217142166991 5:-0.0929972467766483 
78.1706413553067 1:0.245217142166991 2:-0.0929972467766483 3:-0.210643562077622 4:-0.00342592471638416 5:0.0208699959550046 
-78.1706413553067 1:-0.0929972467766483 2:-0.210643562077622 3:-0.00342592471638416 4:0.0208699959550046 5:0.224269488062832 
-78.1706413553067 1:-0.210643562077622 2:-0.00342592471638416 3:0.0208699959550046 4:0.224269488062832 5:-0.121936701059906 
-78.1706413553067 1:-0.00342592471638416 2:0.0208699959550046 3:0.224269488062832 4:-0.121936701059906 5:-0.174822589369308 
78.1706413553067 1:0.0174109876412851 2:-0.00345252793960007 3:0.134716698931078 4:-0.0279285914642415 5:0.0945898694739451 
-78.1706413553067 1:-0.0279285914642415 2:0.0945898694739451 3:0.204141485446031 4:0.00170062582451996 5:-0.023924878889773 
-78.1706413553067 1:0.0945898694739451 2:0.204141485446031 3:0.00170062582451996 4:-0.023924878889773 5:-0.242674233433999 
-13.9583801152702 1:-0.023924878889773 2:-0.242674233433999 3:-0.439126864789465 4:-0.133791196214972 5:0.129536117252468 
-42.7972288505285 1:-0.439126864789465 2:-0.133791196214972 3:0.129536117252468 4:-0.181078089944576 5:-0.0174345572956235 
78.1706413553067 1:0.129536117252468 2:-0.181078089944576 3:-0.0174345572956235 4:-0.213604244411914 5:-0.109607247337283 
-78.1706413553067 1:-0.0174345572956235 2:-0.213604244411914 3:-0.109607247337283 4:0.256372645900229 5:0.0302850382581955 
78.1706413553067 1:-0.213604244411914 2:-0.109607247337283 3:0.256372645900229 4:0.0302850382581955 5:-0.343114595658622 
-78.1706413553067 1:-0.109607247337283 2:0.256372645900229 3:0.0302850382581955 4:-0.343114595658622 5:0.314592525546697 
78.1706413553067 1:0.0302850382581955 2:-0.343114595658622 3:0.314592525546697 4:-0.477906903180147 5:0.0761522304469057 
5.67291541450073 1:-0.343114595658622 2:0.314592525546697 3:-0.477906903180147 4:0.0761522304469057 5:0.443811444820978 
-4.01828422557193 1:-0.477906903180147 2:0.0761522304469057 3:0.443811444820978 4:-0.0465746080715937 5:-0.0996206965705461 
78.1706413553067 1:0.0761522304469057 2:0.443811444820978 3:-0.0465746080715937 4:-0.0996206965705461 5:-0.264720552796035 
33.2521483516611 1:0.443811444820978 2:-0.0465746080715937 3:-0.0996206965705461 4:-0.264720552796035 5:0.392647913196135 
78.1706413553067 1:-0.0996206965705461 2:-0.264720552796035 3:0.392647913196135 4:0.232269839940818 5:-0.0289021012214487 
-4.52360713764009 1:0.392647913196135 2:0.232269839940818 3:-0.0289021012214487 4:0.306515946797101 5:0.0898386342225025 
78.1706413553067 1:0.104852006628445 2:0.11206583415912 3:-0.0437747527276296 4:-0.142912360095377 5:0.0345491764031959 
78.1706413553067 1:-0.0437747527276296 2:-0.142912360095377 3:0.0345491764031959 4:0.293820642559628 5:0.118779698629877 
-78.1706413553067 1:0.118779698629877 2:0.148572544331609 3:0.136021422130558 4:0.0979284051391753 5:0.0145941484685473 
-78.1706413553067 1:0.136021422130558 2:0.0979284051391753 3:0.0145941484685473 4:-0.210595806009332 5:0.0195868816044929 
78.1706413553067 1:0.0979284051391753 2:0.0145941484685473 3:-0.210595806009332 4:0.0195868816044929 5:-0.168233482686177 
-14.1158922122614 1:-0.168233482686177 2:0.390708233534252 3:0.0150223059468479 4:-0.00561060428374324 5:0.0578274472456554 
-78.1706413553067 1:-0.122824897571311 2:-0.00458942104812344 3:0.10231198179526 4:0.0934356444851442 5:0.0280506202694322 
78.1706413553067 1:0.0280506202694322 2:-0.256572655905702 3:0.0969902233140639 4:-0.0264458085723896 5:-0.118978469662228 
-78.1706413553067 1:0.0969902233140639 2:-0.0264458085723896 3:-0.118978469662228 4:0.547071836058286 5:0.172149375970067 
-78.1706413553067 1:-0.0641936262838539 2:0.296569179312111 3:0.0731667774582683 4:-0.0767697038864168 5:0.110629699699218 
-78.1706413553067 1:0.0731667774582683 2:-0.0767697038864168 3:0.110629699699218 4:-0.186503559410455 5:0.0602107039518947 
-78.1706413553067 1:-0.0767697038864168 2:0.110629699699218 3:-0.186503559410455 4:0.0602107039518947 5:-0.112569643138278 
78.1706413553067 1:0.110629699699218 2:-0.186503559410455 3:0.0602107039518947 4:-0.112569643138278 5:-0.134283685752812 
-78.1706413553067 1:-0.186503559410455 2:0.0602107039518947 3:-0.112569643138278 4:-0.134283685752812 5:0.220829071462236 
78.1706413553067 1:0.220829071462236 2:-0.393912713973337 3:0.176177733062862 4:0.0648603410867758 5:-0.0119755649680757 
33.728140947038 1:-0.393912713973337 2:0.176177733062862 3:0.0648603410867758 4:-0.0119755649680757 5:0.25165739770712 
-78.1706413553067 1:0.25165739770712 2:0.174720247752163 3:0.0304119412621338 4:0.00433700689551865 5:0.0189078939710986 
-78.1706413553067 1:0.00433700689551865 2:0.0189078939710986 3:-0.248555605230333 4:-0.123416071387379 5:0.0623516779246424 
-78.1706413553067 1:0.0623516779246424 2:-0.296223467170675 3:0.144194210463817 4:0.017830551269433 5:-0.000576088764472201 
78.1706413553067 1:-0.296223467170675 2:0.144194210463817 3:0.017830551269433 4:-0.000576088764472201 5:-0.10933989848315 
78.1706413553067 1:0.017830551269433 2:-0.000576088764472201 3:-0.10933989848315 4:0.249846394234425 5:-0.00610261820567375 
78.1706413553067 1:0.249846394234425 2:-0.00610261820567375 3:0.224918131293965 4:0.018987613391384 5:-0.0326348356421661 
-78.1706413553067 1:-0.0326348356421661 2:0.151937896780182 3:-0.068089656769736 4:0.0608690892676026 5:0.0453544297496059 
78.1706413553067 1:0.151937896780182 2:-0.068089656769736 3:0.0608690892676026 4:0.0453544297496059 5:-0.263946394368771 
-78.1706413553067 1:0.0453544297496059 2:-0.263946394368771 3:0.23389594912238 4:-0.013640088328841 5:-0.0220382852109867 
-63.4415099665579 1:-0.263946394368771 2:0.23389594912238 3:-0.013640088328841 4:-0.0220382852109867 5:-0.175313283925614 
-68.1496196974663 1:-0.013640088328841 2:-0.0220382852109867 3:-0.175313283925614 4:-0.168394559073956 5:0.0294302884164236 
78.1706413553067 1:-0.0220382852109867 2:-0.175313283925614 3:-0.168394559073956 4:0.0294302884164236 5:-0.0615941186545116 
78.1706413553067 1:-0.168394559073956 2:0.0294302884164236 3:-0.0615941186545116 4:0.240083841122577 5:0.116464592820089 
-78.1706413553067 1:0.276832298574696 2:0.128645186208002 3:0.0827081352283603 4:0.0316983193005844 5:-0.0522615699079524 
78.1706413553067 1:0.128645186208002 2:0.0827081352283603 3:0.0316983193005844 4:-0.0522615699079524 5:-0.183401678183401 
-78.1706413553067 1:0.0827081352283603 2:0.0316983193005844 3:-0.0522615699079524 4:-0.183401678183401 5:0.184187822327158 
-78.1706413553067 1:-0.183401678183401 2:0.184187822327158 3:-0.0946323326051943 4:0.0831982357458976 5:-0.0668337514243829 
78.1706413553067 1:0.184187822327158 2:-0.0946323326051943 3:0.0831982357458976 4:-0.0668337514243829 5:-0.185583486982696 
78.1706413553067 1:-0.185583486982696 2:0.242551855017926 3:0.0733633779146707 4:-0.126455668316466 5:0.119458562229257 
78.1706413553067 1:0.242551855017926 2:0.0733633779146707 3:-0.126455668316466 4:0.119458562229257 5:0.179584825625225 
-78.1706413553067 1:-0.126455668316466 2:0.119458562229257 3:0.179584825625225 4:0.143912741997497 5:-0.0302287320707496 
-78.1706413553067 1:0.179584825625225 2:0.143912741997497 3:-0.0302287320707496 4:-0.289998934470084 5:0.0406119029486912 
78.1706413553067 1:0.0406119029486912 2:-0.224963481773948 3:0.0200412745048358 4:0.0243323159262302 5:0.0466305150811074 
78.1706413553067 1:-0.111307007650176 2:0.0769075884323307 3:0.0341110691745658 4:0.098915699968145 5:-0.0309182480007806 
-78.1706413553067 1:0.0769075884323307 2:0.0341110691745658 3:0.098915699968145 4:-0.0309182480007806 5:0.254626112057802 
78.1706413553067 1:0.098915699968145 2:-0.0309182480007806 3:0.254626112057802 4:-0.141474039401096 5:0.109194155597099 
23.6544443495806 1:0.254626112057802 2:-0.141474039401096 3:0.109194155597099 4:0.319292459724165 5:-0.0304649274834469 
-78.1706413553067 1:0.109194155597099 2:0.319292459724165 3:-0.0304649274834469 4:0.0743467726598766 5:-0.0481110333227043 
-78.1706413553067 1:0.319292459724165 2:-0.0304649274834469 3:0.0743467726598766 4:-0.0481110333227043 5:-0.330504076950389 
-4.72922498372577 1:0.0743467726598766 2:-0.0481110333227043 3:-0.330504076950389 4:-0.36874774452372 5:-0.106466514098427 
-78.1706413553067 1:-0.0481110333227043 2:-0.330504076950389 3:-0.36874774452372 4:-0.106466514098427 5:0.0301946588771958 
-26.9677928970644 1:-0.330504076950389 2:-0.36874774452372 3:-0.106466514098427 4:0.0301946588771958 5:-0.613658337649527 
-65.192442336241 1:-0.106466514098427 2:0.0301946588771958 3:-0.613658337649527 4:-0.16939338153028 5:0.0923715470434892 
-48.158744985164 1:0.0301946588771958 2:-0.613658337649527 3:-0.16939338153028 4:0.0923715470434892 5:-0.270114511875276 
78.1706413553067 1:-0.16939338153028 2:0.0923715470434892 3:-0.270114511875276 4:0.000534512134097093 5:-0.107213841475084 
-78.1706413553067 1:-0.270114511875276 2:0.000534512134097093 3:-0.107213841475084 4:0.414275256528311 5:0.176953346810385 
-6.7481923703701 1:0.000534512134097093 2:-0.107213841475084 3:0.414275256528311 4:0.176953346810385 5:-0.430516808712007 
-78.1706413553067 1:0.176953346810385 2:-0.430516808712007 3:0.259210916575536 4:0.268686595322665 5:0.112143732626783 
-12.8660428508148 1:0.268686595322665 2:0.112143732626783 3:-0.525127123150611 4:-0.149210053513004 5:-0.21332174877332 
-78.1706413553067 1:0.112143732626783 2:-0.525127123150611 3:-0.149210053513004 4:-0.21332174877332 5:-0.150383580066688 
-78.1706413553067 1:-0.525127123150611 2:-0.149210053513004 3:-0.21332174877332 4:-0.150383580066688 5:-0.0920862451773056 
-78.1706413553067 1:-0.149210053513004 2:-0.21332174877332 3:-0.150383580066688 4:-0.0920862451773056 5:-0.375643854609898 
48.8577462433125 1:-0.21332174877332 2:-0.150383580066688 3:-0.0920862451773056 4:-0.375643854609898 5:-0.471092947291126 
78.1706413553067 1:-0.150383580066688 2:-0.0920862451773056 3:-0.375643854609898 4:-0.471092947291126 5:0.211280576458709 
5.00470678259695 1:-0.0920862451773056 2:-0.375643854609898 3:-0.471092947291126 4:0.211280576458709 5:0.673216634695269 
-17.9675276324539 1:-0.375643854609898 2:-0.471092947291126 3:0.211280576458709 4:0.673216634695269 5:-0.14477982006784 
35.9585936692905 1:0.211280576458709 2:0.673216634695269 3:-0.14477982006784 4:-0.286565965216097 5:0.0348734575046879 
-24.0267955093596 1:0.673216634695269 2:-0.14477982006784 3:-0.286565965216097 4:0.0348734575046879 5:0.318416749173087 
57.4824781762328 1:-0.286565965216097 2:0.0348734575046879 3:0.318416749173087 4:-0.11291477535352 5:0.014677627579768 
-78.1706413553067 1:0.0348734575046879 2:0.318416749173087 3:-0.11291477535352 4:0.014677627579768 5:0.143522564060959 
26.5456780440743 1:0.318416749173087 2:-0.11291477535352 3:0.014677627579768 4:0.143522564060959 5:-0.273988592591096 
78.1706413553067 1:-0.11291477535352 2:0.014677627579768 3:0.143522564060959 4:-0.273988592591096 5:0.147795850621535 
-18.5878850968535 1:0.014677627579768 2:0.143522564060959 3:-0.273988592591096 4:0.147795850621535 5:0.704051132126488 
58.9280071307811 1:0.143522564060959 2:-0.273988592591096 3:0.147795850621535 4:0.704051132126488 5:0.100191385012131 
-29.6271251508068 1:-0.273988592591096 2:0.147795850621535 3:0.704051132126488 4:0.100191385012131 5:0.238745573706837 
-23.0185850917345 1:0.147795850621535 2:0.704051132126488 3:0.100191385012131 4:0.238745573706837 5:-0.255733061129006 
-78.1706413553067 1:-0.255733061129006 2:0.11205926447278 3:-0.141522912947598 4:0.066669882557988 5:0.102680104464912 
-78.1706413553067 1:0.11205926447278 2:-0.141522912947598 3:0.066669882557988 4:0.102680104464912 5:-0.308550749055071 
-78.1706413553067 1:0.066669882557988 2:0.102680104464912 3:-0.308550749055071 4:-0.407467404297577 5:-0.141744690926042 
78.1706413553067 1:-0.308550749055071 2:-0.407467404297577 3:-0.141744690926042 4:-0.195272072284652 5:0.0188033140488691 
-24.5501479982319 1:-0.407467404297577 2:-0.141744690926042 3:-0.195272072284652 4:0.0188033140488691 5:0.603645372394338 
-23.3740208061545 1:-0.141744690926042 2:-0.195272072284652 3:0.0188033140488691 4:0.603645372394338 5:-0.232426410396662 
23.559449167754 1:-0.195272072284652 2:0.0188033140488691 3:0.603645372394338 4:-0.232426410396662 5:-0.184309456479134 
36.5975847384661 1:0.0188033140488691 2:0.603645372394338 3:-0.232426410396662 4:-0.184309456479134 5:0.494604187251588 
78.1706413553067 1:-0.184309456479134 2:0.494604187251588 3:0.165853496035383 4:0.0480380356181054 5:-0.0643353107939799 
-78.1706413553067 1:-0.0421610527302548 2:-0.11844138939557 3:0.17674785827924 4:0.00828183747531452 5:0.0277404029254311 
-78.1706413553067 1:0.0277404029254311 2:-0.106110142231434 3:-0.0931850332592086 4:-0.057900745450324 5:0.0565502612915588 
78.1706413553067 1:-0.0931850332592086 2:-0.057900745450324 3:0.0565502612915588 4:-0.15360390756965 5:0.0211930320301929 
78.1706413553067 1:-0.057900745450324 2:0.0565502612915588 3:-0.15360390756965 4:0.0211930320301929 5:0.414999137332432 
-78.1706413553067 1:0.19934411192074 2:-0.0107772406953591 3:0.0835809105936753 4:-0.0588934637411307 5:0.00821336611542569 
78.1706413553067 1:-0.030997521139144 2:0.133452071729308 3:0.0790143824606067 4:0.0152851948168041 5:0.000580280197937906 
-78.1706413553067 1:0.0790143824606067 2:0.0152851948168041 3:0.000580280197937906 4:0.151702190238826 5:0.0551140770474244 
-78.1706413553067 1:0.0152851948168041 2:0.000580280197937906 3:0.151702190238826 4:0.0551140770474244 5:-0.346895521157907 
-48.9556885649571 1:0.151702190238826 2:0.0551140770474244 3:-0.346895521157907 4:-0.186679185534259 5:0.0222766575424169 
78.1706413553067 1:0.0551140770474244 2:-0.346895521157907 3:-0.186679185534259 4:0.0222766575424169 5:-0.106067950469125 
78.1706413553067 1:-0.138621833412743 2:0.143036997269157 3:-0.0597786563926961 4:-0.0926547383338582 5:0.173500233926527 
78.1706413553067 1:0.0789793263208382 2:0.0451687450881715 3:-0.0670630334452922 4:-0.0264180137331988 5:-0.043340514955359 
78.1706413553067 1:0.100557329759156 2:-0.114337598181126 3:0.0129251457869247 4:0.0796951605283079 5:-0.0726016280438284 
78.1706413553067 1:0.0129251457869247 2:0.0796951605283079 3:-0.0726016280438284 4:0.271633050380961 5:0.0583676747370682 
-78.1706413553067 1:0.0796951605283079 2:-0.0726016280438284 3:0.271633050380961 4:0.0583676747370682 5:0.146490395094811 
78.1706413553067 1:0.271633050380961 2:0.0583676747370682 3:0.146490395094811 4:-0.143519018956749 5:0.0533978023634628 
78.1706413553067 1:0.0533978023634628 2:0.116085914074738 3:0.00379155797344584 4:0.107186523438232 5:0.0416928044750585 
78.1706413553067 1:0.116085914074738 2:0.00379155797344584 3:0.107186523438232 4:0.0416928044750585 5:0.140840065788178 
-78.1706413553067 1:0.00379155797344584 2:0.107186523438232 3:0.0416928044750585 4:0.140840065788178 5:0.151944599087015 
-78.1706413553067 1:0.140840065788178 2:0.151944599087015 3:-0.200842600752287 4:-0.040348139203346 5:0.0252824243207796 
78.1706413553067 1:-0.040348139203346 2:0.0252824243207796 3:-0.17573825877598 4:0.0137378120851265 5:-0.0180187371250138 
-78.1706413553067 1:0.0137378120851265 2:-0.0180187371250138 3:0.317241174899503 4:0.0477902081494461 5:0.0682607598816437 
78.1706413553067 1:0.0477902081494461 2:0.0682607598816437 3:-0.13411682135517 4:0.0436870054546425 5:-0.0122558958267347 
-78.1706413553067 1:0.0081773776247501 2:-0.0395418459832879 3:0.103022341461114 4:0.0934162064088713 5:-0.0469099345432087 
78.1706413553067 1:-0.0395418459832879 2:0.103022341461114 3:0.0934162064088713 4:-0.0469099345432087 5:-0.343755944766858 
78.1706413553067 1:0.103022341461114 2:0.0934162064088713 3:-0.0469099345432087 4:-0.343755944766858 5:0.0950273663291614 
78.1706413553067 1:-0.343755944766858 2:0.0950273663291614 3:0.290289266323079 4:0.0659002060845115 5:-0.0601581186123207 
78.1706413553067 1:0.0950273663291614 2:0.290289266323079 3:0.0659002060845115 4:-0.0601581186123207 5:0.21058519548006 
78.1706413553067 1:-0.0172811852229561 2:0.000628056494064211 3:0.067207403170578 4:-0.0162041025849338 5:0.0681826429401481 
-78.1706413553067 1:-0.0201404259995086 2:-0.104758855224412 3:0.101948058427887 4:-0.0312639143987004 5:-0.0754366624629157 
78.1706413553067 1:0.101948058427887 2:-0.0312639143987004 3:-0.0754366624629157 4:-0.123023984774385 5:0.119459047757277 
-78.1706413553067 1:0.228244917276406 2:-0.0195685618005565 3:-0.0996536027936091 4:-0.0201288473913997 5:-0.0564999597078006 
78.1706413553067 1:-0.262761489937687 2:0.0481391373718565 3:-0.051555241871781 4:-0.0623447362185513 5:0.179533950217372 
78.1706413553067 1:0.179533950217372 2:0.22833935188742 3:-0.00112433901508487 4:0.0198170214060627 5:-0.0618060729620386 
-78.1706413553067 1:0.22833935188742 2:-0.00112433901508487 3:0.0198170214060627 4:-0.0618060729620386 5:0.159996368953641 
78.1706413553067 1:-0.00112433901508487 2:0.0198170214060627 3:-0.0618060729620386 4:0.159996368953641 5:-0.143583858675962 
78.1706413553067 1:0.0198170214060627 2:-0.0618060729620386 3:0.159996368953641 4:-0.143583858675962 5:0.203026968182809 
-78.1706413553067 1:-0.0618060729620386 2:0.159996368953641 3:-0.143583858675962 4:0.203026968182809 5:0.201368174090763 
-17.4531875308772 1:0.159996368953641 2:-0.143583858675962 3:0.203026968182809 4:0.201368174090763 5:-0.334176857760283 
-10.5573885732928 1:-0.143583858675962 2:0.203026968182809 3:0.201368174090763 4:-0.334176857760283 5:-0.00165427265946491 
78.1706413553067 1:0.203026968182809 2:0.201368174090763 3:-0.334176857760283 4:-0.00165427265946491 5:-0.0430170590756258 
39.7417777975237 1:0.201368174090763 2:-0.334176857760283 3:-0.00165427265946491 4:-0.0430170590756258 5:0.197049978008335 
78.1706413553067 1:-0.334176857760283 2:-0.00165427265946491 3:-0.0430170590756258 4:0.197049978008335 5:0.141620978299587 
-78.1706413553067 1:-0.00710390300713489 2:-0.034908717317139 3:0.0928742105522275 4:0.0242096282930342 5:-0.0233704614096168 
78.1706413553067 1:0.0928742105522275 2:0.0242096282930342 3:-0.0233704614096168 4:-0.156389272004898 5:-0.0971785839023597 
78.1706413553067 1:0.0242096282930342 2:-0.0233704614096168 3:-0.156389272004898 4:-0.0971785839023597 5:0.270374645774176 
-78.1706413553067 1:0.058731730806454 2:-0.0584163981253286 3:-0.00134735625573032 4:-0.0368920319341579 5:0.00355943429804197 
-7.87776569037408 1:-0.00134735625573032 2:-0.0368920319341579 3:0.00355943429804197 4:-1 5:0.134084502834644 
0.509633326817152 1:-0.0368920319341579 2:0.00355943429804197 3:-1 4:0.134084502834644 5:-0.149398072958931 
-14.2642441636737 1:0.00355943429804197 2:-1 3:0.134084502834644 4:-0.149398072958931 5:-0.348830181848699 
16.3534273438939 1:-1 2:0.134084502834644 3:-0.149398072958931 4:-0.348830181848699 5:-0.364707666333405 
25.892993603534 1:-0.149398072958931 2:-0.348830181848699 3:-0.364707666333405 4:0.509344687194329 5:-0.0204562931308212 
-11.4602941835615 1:-0.348830181848699 2:-0.364707666333405 3:0.509344687194329 4:-0.0204562931308212 5:0.237699307189896 
-78.1706413553067 1:0.509344687194329 2:-0.0204562931308212 3:0.237699307189896 4:0.0486282056951278 5:0.077018871647453 
22.0824962613213 1:-0.0204562931308212 2:0.237699307189896 3:0.0486282056951278 4:0.077018871647453 5:-0.581545728328179 
78.1706413553067 1:0.237699307189896 2:0.0486282056951278 3:0.077018871647453 4:-0.581545728328179 5:0.0959505970957835 
78.1706413553067 1:0.077018871647453 2:-0.581545728328179 3:0.0959505970957835 4:0.14042287244927 5:-0.0668688485275508 
42.2900182517673 1:-0.581545728328179 2:0.0959505970957835 3:0.14042287244927 4:-0.0668688485275508 5:0.32315597316064 
78.1706413553067 1:0.0959505970957835 2:0.14042287244927 3:-0.0668688485275508 4:0.32315597316064 5:0.199368203205498 
-32.3844295566244 1:0.466801869362527 2:-0.0113502590641978 3:0.0712737480423925 4:0.00857034726057398 5:-0.152616248847795 
78.1706413553067 1:-0.0113502590641978 2:0.0712737480423925 3:0.00857034726057398 4:-0.152616248847795 5:-0.205326353530987 
78.1706413553067 1:-0.152616248847795 2:-0.205326353530987 3:0.177042721435945 4:-0.0503486815033904 5:0.127381947750905 
78.1706413553067 1:0.127381947750905 2:0.21970480694882 3:0.0492468182490282 4:0.0804736022411367 5:0.00757246760416842 
-78.1706413553067 1:0.21970480694882 2:0.0492468182490282 3:0.0804736022411367 4:0.00757246760416842 5:0.113019136872459 
78.1706413553067 1:0.0492468182490282 2:0.0804736022411367 3:0.00757246760416842 4:0.113019136872459 5:-0.157738868504869 
78.1706413553067 1:0.00757246760416842 2:0.113019136872459 3:-0.157738868504869 4:0.183601823865713 5:0.128377106185844 
78.1706413553067 1:0.128377106185844 2:0.289996967422998 3:0.0173007580182133 4:0.00892690558260637 5:-0.0932883469840726 
78.1706413553067 1:0.00892690558260637 2:-0.0932883469840726 3:0.268059402940625 4:-0.102761870834811 5:-0.0337803565314998 
-78.1706413553067 1:-0.102761870834811 2:-0.0337803565314998 3:0.273480598713774 4:-0.0863715212733052 5:-0.028211049799517 
78.1706413553067 1:0.273480598713774 2:-0.0863715212733052 3:-0.028211049799517 4:-0.217174407005673 5:0.033853185643725 
-78.1706413553067 1:0.0998268437262304 2:0.108076689636261 3:0.0884690530284591 4:-0.10219678723969 5:0.110012472172448 
78.1706413553067 1:0.108076689636261 2:0.0884690530284591 3:-0.10219678723969 4:0.110012472172448 5:-0.439852165275122 
-14.9960167200244 1:0.0884690530284591 2:-0.10219678723969 3:0.110012472172448 4:-0.439852165275122 5:0.327076731209029 
78.1706413553067 1:0.327076731209029 2:-0.0598874442303965 3:-0.00180005868538561 4:0.167583051673411 5:-0.0177581915917952 
-78.1706413553067 1:-0.0177581915917952 2:0.205117549002556 3:0.0101659697754722 4:0.00956126846322609 5:0.0346653851045975 
78.1706413553067 1:0.205117549002556 2:0.0101659697754722 3:0.00956126846322609 4:0.0346653851045975 5:-0.27733515147464 
78.1706413553067 1:0.00956126846322609 2:0.0346653851045975 3:-0.27733515147464 4:0.174711441119526 5:0.0448142445366058 
78.1706413553067 1:-0.27733515147464 2:0.174711441119526 3:0.0448142445366058 4:0.193721423007733 5:0.040762696297626 
-78.1706413553067 1:0.0448142445366058 2:0.193721423007733 3:0.040762696297626 4:0.172781387632802 5:0.0576986616885473 
-78.1706413553067 1:0.193721423007733 2:0.040762696297626 3:0.172781387632802 4:0.0576986616885473 5:-0.168680369883579 
-78.1706413553067 1:0.040762696297626 2:0.172781387632802 3:0.0576986616885473 4:-0.168680369883579 5:-0.289395886392928 
78.1706413553067 1:0.172781387632802 2:0.0576986616885473 3:-0.168680369883579 4:-0.289395886392928 5:-0.479958823706889 
-78.1706413553067 1:-0.168680369883579 2:-0.289395886392928 3:-0.479958823706889 4:0.290889813752308 5:0.0430639698661809 
-0.500980343759063 1:-0.289395886392928 2:-0.479958823706889 3:0.290889813752308 4:0.0430639698661809 5:-0.324079881824161 
36.2164529320738 1:0.290889813752308 2:0.0430639698661809 3:-0.324079881824161 4:0.383832246110462 5:0.172966666179654 
-78.1706413553067 1:0.383832246110462 2:0.172966666179654 3:0.236351020351855 4:-0.0228558474396796 5:0.0568337303014789 
28.3343587857934 1:0.172966666179654 2:0.236351020351855 3:-0.0228558474396796 4:0.0568337303014789 5:-0.329536076446389 
-78.1706413553067 1:0.236351020351855 2:-0.0228558474396796 3:0.0568337303014789 4:-0.329536076446389 5:0.151671752367653 
-27.8419438717176 1:-0.0228558474396796 2:0.0568337303014789 3:-0.329536076446389 4:0.151671752367653 5:-0.305297243652029 
-78.1706413553067 1:0.0568337303014789 2:-0.329536076446389 3:0.151671752367653 4:-0.305297243652029 5:-0.114988011722344 
78.1706413553067 1:-0.329536076446389 2:0.151671752367653 3:-0.305297243652029 4:-0.114988011722344 5:-0.090844154462628 
78.1706413553067 1:-0.114988011722344 2:-0.090844154462628 3:0.205667422126843 4:0.04625364264659 5:0.0198653168417849 
-78.1706413553067 1:0.338634544785272 2:0.0949931877582708 3:-0.0171755800531755 4:0.132242517860494 5:0.0649022370811542 
78.1706413553067 1:-0.0171755800531755 2:0.132242517860494 3:0.0649022370811542 4:-0.39386258180254 5:0.1655204395546 
78.1706413553067 1:0.489719555406973 2:0.0608705670895884 3:-0.0861012668020559 4:-0.0473411907953507 5:-0.0587736417018352 
-78.1706413553067 1:0.0608705670895884 2:-0.0861012668020559 3:-0.0473411907953507 4:-0.0587736417018352 5:0.121585024992505 
7.24150693520599 1:-0.0861012668020559 2:-0.0473411907953507 3:-0.0587736417018352 4:0.121585024992505 5:-0.323122644300866 
-78.1706413553067 1:-0.0473411907953507 2:-0.0587736417018352 3:0.121585024992505 4:-0.323122644300866 5:0.130295183429479 
-78.1706413553067 1:0.121585024992505 2:-0.323122644300866 3:0.130295183429479 4:-0.571422406363596 5:0.0556381525659261 
-4.16693729206883 1:-0.323122644300866 2:0.130295183429479 3:-0.571422406363596 4:0.0556381525659261 5:-0.762195789807214 
8.126628756335 1:0.130295183429479 2:-0.571422406363596 3:0.0556381525659261 4:-0.762195789807214 5:-0.412506291313872 
-78.1706413553067 1:-0.412506291313872 2:0.324971458528637 3:-0.193693065327981 4:0.0524520783138547 5:0.13041974746411 
53.2207893124424 1:0.324971458528637 2:-0.193693065327981 3:0.0524520783138547 4:0.13041974746411 5:-0.708447447823022 
2.84481491396339 1:-0.193693065327981 2:0.0524520783138547 3:0.13041974746411 4:-0.708447447823022 5:0.52350938812006 
11.0712134794878 1:0.0524520783138547 2:0.13041974746411 3:-0.708447447823022 4:0.52350938812006 5:0.147634849691675 
