svm_type epsilon_svr
kernel_type rbf
gamma 8
nr_class 2
total_sv 694
rho 0.0652875116736468
SV
-0.353553390593274 1:0 2:0.118343195266272 3:0.124260355029586 4:0.130177514792899 5:0.136094674556213 
-0.353553390593274 1:0.118343195266272 2:0.124260355029586 3:0.130177514792899 4:0.136094674556213 5:0.142011834319527 
0.105226975763915 1:0.124260355029586 2:0.130177514792899 3:0.136094674556213 4:0.142011834319527 5:-0.14792899408284 
0.020548478816267 1:0.130177514792899 2:0.136094674556213 3:0.142011834319527 4:-0.14792899408284 5:-0.142011834319527 
-0.353553390593274 1:0.136094674556213 2:0.142011834319527 3:-0.14792899408284 4:-0.142011834319527 5:-0.136094674556213 
-0.252973294302177 1:0.142011834319527 2:-0.14792899408284 3:-0.142011834319527 4:-0.136094674556213 5:0.124260355029586 
-0.353553390593274 1:-0.14792899408284 2:-0.142011834319527 3:-0.136094674556213 4:0.124260355029586 5:0.124260355029586 
0.353553390593274 1:-0.142011834319527 2:-0.136094674556213 3:0.124260355029586 4:0.124260355029586 5:0 
0.353553390593274 1:-0.136094674556213 2:0.124260355029586 3:0.124260355029586 4:0 5:-0.118343195266272 
0.353553390593274 1:0.124260355029586 2:0.124260355029586 3:0 4:-0.118343195266272 5:-0.118343195266272 
0.353553390593274 1:0.124260355029586 2:0 3:-0.118343195266272 4:-0.118343195266272 5:0.0591715976331361 
0.353553390593274 1:0 2:-0.118343195266272 3:-0.118343195266272 4:0.0591715976331361 5:0.130177514792899 
0.353553390593274 1:-0.118343195266272 2:-0.118343195266272 3:0.0591715976331361 4:0.130177514792899 5:0.136094674556213 
0.353553390593274 1:-0.118343195266272 2:0.0591715976331361 3:0.130177514792899 4:0.136094674556213 5:-0.029585798816568 
0.353553390593274 1:0.0591715976331361 2:0.130177514792899 3:0.136094674556213 4:-0.029585798816568 5:0 
0.353553390593274 1:0.130177514792899 2:0.136094674556213 3:-0.029585798816568 4:0 5:0.029585798816568 
0.353553390593274 1:0.136094674556213 2:-0.029585798816568 3:0 4:0.029585798816568 5:0.029585798816568 
0.353553390593274 1:-0.029585798816568 2:0 3:0.029585798816568 4:0.029585798816568 5:0.14792899408284 
0.353553390593274 1:0 2:0.029585798816568 3:0.029585798816568 4:0.14792899408284 5:0.153846153846154 
0.353553390593274 1:0.029585798816568 2:0.029585798816568 3:0.14792899408284 4:0.153846153846154 5:0.159763313609467 
0.353553390593274 1:0.029585798816568 2:0.14792899408284 3:0.153846153846154 4:0.159763313609467 5:-0.165680473372781 
0.353553390593274 1:0.14792899408284 2:0.153846153846154 3:0.159763313609467 4:-0.165680473372781 5:0.00591715976331361 
0.353553390593274 1:0.153846153846154 2:0.159763313609467 3:-0.165680473372781 4:0.00591715976331361 5:0.159763313609467 
0.353553390593274 1:0.159763313609467 2:-0.165680473372781 3:0.00591715976331361 4:0.159763313609467 5:0.130177514792899 
0.353553390593274 1:-0.165680473372781 2:0.00591715976331361 3:0.159763313609467 4:0.130177514792899 5:0.0118343195266272 
0.353553390593274 1:0.00591715976331361 2:0.159763313609467 3:0.130177514792899 4:0.0118343195266272 5:-0.130177514792899 
0.353553390593274 1:0.159763313609467 2:0.130177514792899 3:0.0118343195266272 4:-0.130177514792899 5:0 
0.353553390593274 1:0.130177514792899 2:0.0118343195266272 3:-0.130177514792899 4:0 5:0 
-0.353553390593274 1:0.0118343195266272 2:-0.130177514792899 3:0 4:0 5:0.14792899408284 
-0.353553390593274 1:-0.130177514792899 2:0 3:0 4:0.14792899408284 5:0.177514792899408 
-0.353553390593274 1:0 2:0 3:0.14792899408284 4:0.177514792899408 5:0.0591715976331361 
-0.353553390593274 1:0 2:0.14792899408284 3:0.177514792899408 4:0.0591715976331361 5:-0.14792899408284 
-0.353553390593274 1:0.14792899408284 2:0.177514792899408 3:0.0591715976331361 4:-0.14792899408284 5:0.0591715976331361 
0.279592139178041 1:0.177514792899408 2:0.0591715976331361 3:-0.14792899408284 4:0.0591715976331361 5:-0.183431952662722 
0.353553390593274 1:0.0591715976331361 2:-0.14792899408284 3:0.0591715976331361 4:-0.183431952662722 5:0.153846153846154 
0.0398674002102918 1:-0.14792899408284 2:0.0591715976331361 3:-0.183431952662722 4:0.153846153846154 5:0.0591715976331361 
0.353553390593274 1:0.0591715976331361 2:-0.183431952662722 3:0.153846153846154 4:0.0591715976331361 5:-0.183431952662722 
0.353553390593274 1:-0.183431952662722 2:0.153846153846154 3:0.0591715976331361 4:-0.183431952662722 5:-0.177514792899408 
0.353553390593274 1:0.153846153846154 2:0.0591715976331361 3:-0.183431952662722 4:-0.177514792899408 5:0.165680473372781 
0.353553390593274 1:0.0591715976331361 2:-0.183431952662722 3:-0.177514792899408 4:0.165680473372781 5:0.165680473372781 
0.324652782047335 1:-0.183431952662722 2:-0.177514792899408 3:0.165680473372781 4:0.165680473372781 5:-0.118343195266272 
0.353553390593274 1:-0.177514792899408 2:0.165680473372781 3:0.165680473372781 4:-0.118343195266272 5:0 
0.296723027052527 1:0.165680473372781 2:0.165680473372781 3:-0.118343195266272 4:0 5:0.177514792899408 
-0.353553390593274 1:0.165680473372781 2:-0.118343195266272 3:0 4:0.177514792899408 5:0.14792899408284 
-0.353553390593274 1:-0.118343195266272 2:0 3:0.177514792899408 4:0.14792899408284 5:-0.195266272189349 
-0.353553390593274 1:0 2:0.177514792899408 3:0.14792899408284 4:-0.195266272189349 5:-0.100591715976331 
-0.353553390593274 1:0.177514792899408 2:0.14792899408284 3:-0.195266272189349 4:-0.100591715976331 5:0.177514792899408 
0.0787959244931226 1:0.14792899408284 2:-0.195266272189349 3:-0.100591715976331 4:0.177514792899408 5:-0.0591715976331361 
0.353553390593274 1:-0.195266272189349 2:-0.100591715976331 3:0.177514792899408 4:-0.0591715976331361 5:-0.183431952662722 
-0.353553390593274 1:-0.100591715976331 2:0.177514792899408 3:-0.0591715976331361 4:-0.183431952662722 5:0.0355029585798817 
-0.353553390593274 1:0.177514792899408 2:-0.0591715976331361 3:-0.183431952662722 4:0.0355029585798817 5:-0.0591715976331361 
-0.353553390593274 1:-0.0591715976331361 2:-0.183431952662722 3:0.0355029585798817 4:-0.0591715976331361 5:0 
-0.353553390593274 1:-0.183431952662722 2:0.0355029585798817 3:-0.0591715976331361 4:0 5:0.0591715976331361 
-0.353553390593274 1:0.0355029585798817 2:-0.0591715976331361 3:0 4:0.0591715976331361 5:0 
-0.353553390593274 1:-0.0591715976331361 2:0 3:0.0591715976331361 4:0 5:-0.177514792899408 
0.217868206863479 1:0 2:0.0591715976331361 3:0 4:-0.177514792899408 5:-0.171597633136095 
-0.146529591381587 1:0.0591715976331361 2:0 3:-0.177514792899408 4:-0.171597633136095 5:0.159763313609467 
-0.353553390593274 1:0 2:-0.177514792899408 3:-0.171597633136095 4:0.159763313609467 5:0 
-0.353553390593274 1:-0.177514792899408 2:-0.171597633136095 3:0.159763313609467 4:0 5:-0.0946745562130177 
-0.353553390593274 1:-0.171597633136095 2:0.159763313609467 3:0 4:-0.0946745562130177 5:-0.159763313609467 
-0.353553390593274 1:0.159763313609467 2:0 3:-0.0946745562130177 4:-0.159763313609467 5:0.118343195266272 
-0.0566783931858696 1:0 2:-0.0946745562130177 3:-0.159763313609467 4:0.118343195266272 5:0 
-0.353553390593274 1:-0.0946745562130177 2:-0.159763313609467 3:0.118343195266272 4:0 5:-0.0887573964497041 
-0.0291326347341483 1:-0.159763313609467 2:0.118343195266272 3:0 4:-0.0887573964497041 5:-0.159763313609467 
-0.0385772290599356 1:0.118343195266272 2:0 3:-0.0887573964497041 4:-0.159763313609467 5:0 
-0.353553390593274 1:0 2:-0.0887573964497041 3:-0.159763313609467 4:0 5:0.14792899408284 
-0.353553390593274 1:-0.0887573964497041 2:-0.159763313609467 3:0 4:0.14792899408284 5:0.0177514792899408 
-0.209981761143443 1:-0.159763313609467 2:0 3:0.14792899408284 4:0.0177514792899408 5:-0.124260355029586 
0.353553390593274 1:0 2:0.14792899408284 3:0.0177514792899408 4:-0.124260355029586 5:-0.118343195266272 
0.353553390593274 1:0.14792899408284 2:0.0177514792899408 3:-0.124260355029586 4:-0.118343195266272 5:0.0828402366863905 
0.353553390593274 1:0.0177514792899408 2:-0.124260355029586 3:-0.118343195266272 4:0.0828402366863905 5:0.00591715976331361 
0.353553390593274 1:-0.124260355029586 2:-0.118343195266272 3:0.0828402366863905 4:0.00591715976331361 5:-0.029585798816568 
0.353553390593274 1:-0.118343195266272 2:0.0828402366863905 3:0.00591715976331361 4:-0.029585798816568 5:0.029585798816568 
-0.353553390593274 1:0.0828402366863905 2:0.00591715976331361 3:-0.029585798816568 4:0.029585798816568 5:0.0355029585798817 
-0.353553390593274 1:0.00591715976331361 2:-0.029585798816568 3:0.029585798816568 4:0.0355029585798817 5:0.0236686390532544 
-0.353553390593274 1:-0.029585798816568 2:0.029585798816568 3:0.0355029585798817 4:0.0236686390532544 5:0.0887573964497041 
-0.353553390593274 1:0.029585798816568 2:0.0355029585798817 3:0.0236686390532544 4:0.0887573964497041 5:-0.118343195266272 
-0.353553390593274 1:0.0355029585798817 2:0.0236686390532544 3:0.0887573964497041 4:-0.118343195266272 5:0.029585798816568 
-0.353553390593274 1:0.0236686390532544 2:0.0887573964497041 3:-0.118343195266272 4:0.029585798816568 5:-0.0591715976331361 
-0.353553390593274 1:0.0887573964497041 2:-0.118343195266272 3:0.029585798816568 4:-0.0591715976331361 5:0.029585798816568 
-0.353553390593274 1:-0.118343195266272 2:0.029585798816568 3:-0.0591715976331361 4:0.029585798816568 5:-0.0887573964497041 
-0.353553390593274 1:0.029585798816568 2:-0.0591715976331361 3:0.029585798816568 4:-0.0887573964497041 5:-0.14792899408284 
0.353553390593274 1:-0.0591715976331361 2:0.029585798816568 3:-0.0887573964497041 4:-0.14792899408284 5:-0.142011834319527 
0.353553390593274 1:0.029585798816568 2:-0.0887573964497041 3:-0.14792899408284 4:-0.142011834319527 5:-0.130177514792899 
0.353553390593274 1:-0.0887573964497041 2:-0.14792899408284 3:-0.142011834319527 4:-0.130177514792899 5:-0.0532544378698225 
0.353553390593274 1:-0.14792899408284 2:-0.142011834319527 3:-0.130177514792899 4:-0.0532544378698225 5:0.0473372781065089 
0.353553390593274 1:-0.142011834319527 2:-0.130177514792899 3:-0.0532544378698225 4:0.0473372781065089 5:0.0532544378698225 
0.353553390593274 1:-0.130177514792899 2:-0.0532544378698225 3:0.0473372781065089 4:0.0532544378698225 5:0.130177514792899 
0.353553390593274 1:-0.0532544378698225 2:0.0473372781065089 3:0.0532544378698225 4:0.130177514792899 5:0.136094674556213 
0.353553390593274 1:0.0473372781065089 2:0.0532544378698225 3:0.130177514792899 4:0.136094674556213 5:0.0769230769230769 
0.353553390593274 1:0.0532544378698225 2:0.130177514792899 3:0.136094674556213 4:0.0769230769230769 5:0 
0.353553390593274 1:0.130177514792899 2:0.136094674556213 3:0.0769230769230769 4:0 5:0.14792899408284 
-0.353553390593274 1:0.136094674556213 2:0.0769230769230769 3:0 4:0.14792899408284 5:0.153846153846154 
-0.353553390593274 1:0.0769230769230769 2:0 3:0.14792899408284 4:0.153846153846154 5:0.159763313609467 
-0.353553390593274 1:0 2:0.14792899408284 3:0.153846153846154 4:0.159763313609467 5:-0.165680473372781 
-0.353553390593274 1:0.14792899408284 2:0.153846153846154 3:0.159763313609467 4:-0.165680473372781 5:-0.106508875739645 
-0.353553390593274 1:0.153846153846154 2:0.159763313609467 3:-0.165680473372781 4:-0.106508875739645 5:0.14792899408284 
-0.353553390593274 1:0.159763313609467 2:-0.165680473372781 3:-0.106508875739645 4:0.14792899408284 5:-0.0946745562130177 
-0.017987705719675 1:-0.165680473372781 2:-0.106508875739645 3:0.14792899408284 4:-0.0946745562130177 5:-1 
-0.0774733838917493 1:-0.106508875739645 2:0.14792899408284 3:-0.0946745562130177 4:-1 5:0 
-0.0470241943148645 1:0.14792899408284 2:-0.0946745562130177 3:-1 4:0 5:-0.0118343195266272 
-0.00754430825243933 1:-1 2:0 3:-0.0118343195266272 4:-0.0591715976331361 5:-0.0118343195266272 
-0.353553390593274 1:0 2:-0.0118343195266272 3:-0.0591715976331361 4:-0.0118343195266272 5:-0.00591715976331361 
-0.353553390593274 1:-0.0118343195266272 2:-0.0591715976331361 3:-0.0118343195266272 4:-0.00591715976331361 5:-0.0591715976331361 
-0.353553390593274 1:-0.0591715976331361 2:-0.0118343195266272 3:-0.00591715976331361 4:-0.0591715976331361 5:0.0177514792899408 
-0.353553390593274 1:-0.0118343195266272 2:-0.00591715976331361 3:-0.0591715976331361 4:0.0177514792899408 5:-0.00591715976331361 
-0.353553390593274 1:-0.00591715976331361 2:-0.0591715976331361 3:0.0177514792899408 4:-0.00591715976331361 5:-0.0236686390532544 
-0.353553390593274 1:-0.0591715976331361 2:0.0177514792899408 3:-0.00591715976331361 4:-0.0236686390532544 5:-0.029585798816568 
-0.353553390593274 1:-0.00591715976331361 2:-0.0236686390532544 3:-0.029585798816568 4:-0.100591715976331 5:0.0414201183431953 
-0.353553390593274 1:-0.0236686390532544 2:-0.029585798816568 3:-0.100591715976331 4:0.0414201183431953 5:0.0473372781065089 
-0.353553390593274 1:-0.029585798816568 2:-0.100591715976331 3:0.0414201183431953 4:0.0473372781065089 5:-0.0473372781065089 
-0.353553390593274 1:-0.100591715976331 2:0.0414201183431953 3:0.0473372781065089 4:-0.0473372781065089 5:-0.0591715976331361 
-0.353553390593274 1:0.0414201183431953 2:0.0473372781065089 3:-0.0473372781065089 4:-0.0591715976331361 5:-0.00591715976331361 
0.353553390593274 1:0.0473372781065089 2:-0.0473372781065089 3:-0.0591715976331361 4:-0.00591715976331361 5:-0.0769230769230769 
-0.353553390593274 1:-0.0473372781065089 2:-0.0591715976331361 3:-0.00591715976331361 4:-0.0769230769230769 5:-0.00591715976331361 
-0.353553390593274 1:-0.0591715976331361 2:-0.00591715976331361 3:-0.0769230769230769 4:-0.00591715976331361 5:0.029585798816568 
0.353553390593274 1:-0.00591715976331361 2:-0.0769230769230769 3:-0.00591715976331361 4:0.029585798816568 5:-0.0236686390532544 
0.353553390593274 1:-0.0769230769230769 2:-0.00591715976331361 3:0.029585798816568 4:-0.0236686390532544 5:0 
0.353553390593274 1:-0.00591715976331361 2:0.029585798816568 3:-0.0236686390532544 4:0 5:0 
0.353553390593274 1:0.029585798816568 2:-0.0236686390532544 3:0 4:0 5:-0.0355029585798817 
0.353553390593274 1:-0.0236686390532544 2:0 3:0 4:-0.0355029585798817 5:-0.029585798816568 
-0.353553390593274 1:0 2:0 3:-0.0355029585798817 4:-0.029585798816568 5:0.0828402366863905 
-0.353553390593274 1:0 2:-0.0355029585798817 3:-0.029585798816568 4:0.0828402366863905 5:0.0887573964497041 
0.353553390593274 1:-0.0355029585798817 2:-0.029585798816568 3:0.0828402366863905 4:0.0887573964497041 5:-0.0769230769230769 
0.0605716044822427 1:-0.029585798816568 2:0.0828402366863905 3:0.0887573964497041 4:-0.0769230769230769 5:-0.0177514792899408 
-0.351305469133411 1:0.0828402366863905 2:0.0887573964497041 3:-0.0769230769230769 4:-0.0177514792899408 5:-0.00591715976331361 
0.353553390593274 1:0.0887573964497041 2:-0.0769230769230769 3:-0.0177514792899408 4:-0.00591715976331361 5:-0.029585798816568 
0.353553390593274 1:-0.0769230769230769 2:-0.0177514792899408 3:-0.00591715976331361 4:-0.029585798816568 5:0.00591715976331361 
-0.353553390593274 1:-0.0177514792899408 2:-0.00591715976331361 3:-0.029585798816568 4:0.00591715976331361 5:0.0532544378698225 
-0.353553390593274 1:-0.029585798816568 2:0.00591715976331361 3:0.0532544378698225 4:-0.0118343195266272 5:-0.0118343195266272 
-0.353553390593274 1:0.00591715976331361 2:0.0532544378698225 3:-0.0118343195266272 4:-0.0118343195266272 5:0 
-0.353553390593274 1:0.0532544378698225 2:-0.0118343195266272 3:-0.0118343195266272 4:0 5:0 
-0.353553390593274 1:-0.0118343195266272 2:-0.0118343195266272 3:0 4:0 5:0 
-0.353553390593274 1:-0.0118343195266272 2:0 3:0 4:0 5:-0.0118343195266272 
-0.353553390593274 1:0 2:0 3:0 4:-0.0118343195266272 5:-0.0414201183431953 
-0.353553390593274 1:0 2:0 3:-0.0118343195266272 4:-0.0414201183431953 5:-0.0532544378698225 
-0.353553390593274 1:0 2:-0.0118343195266272 3:-0.0414201183431953 4:-0.0532544378698225 5:0 
-0.353553390593274 1:-0.0118343195266272 2:-0.0414201183431953 3:-0.0532544378698225 4:0 5:-0.0118343195266272 
-0.353553390593274 1:-0.0414201183431953 2:-0.0532544378698225 3:0 4:-0.0118343195266272 5:-0.0177514792899408 
-0.353553390593274 1:-0.0532544378698225 2:0 3:-0.0118343195266272 4:-0.0177514792899408 5:-0.0118343195266272 
-0.353553390593274 1:0 2:-0.0118343195266272 3:-0.0177514792899408 4:-0.0118343195266272 5:-0.0650887573964497 
-0.353553390593274 1:-0.0118343195266272 2:-0.0177514792899408 3:-0.0118343195266272 4:-0.0650887573964497 5:-0.029585798816568 
-0.353553390593274 1:-0.0177514792899408 2:-0.0118343195266272 3:-0.0650887573964497 4:-0.029585798816568 5:-0.0710059171597633 
-0.353553390593274 1:-0.0118343195266272 2:-0.0650887573964497 3:-0.029585798816568 4:-0.0710059171597633 5:-0.029585798816568 
-0.353553390593274 1:-0.0650887573964497 2:-0.029585798816568 3:-0.0710059171597633 4:-0.029585798816568 5:0 
-0.353553390593274 1:-0.029585798816568 2:-0.0710059171597633 3:-0.029585798816568 4:0 5:0.0177514792899408 
-0.353553390593274 1:-0.0710059171597633 2:-0.029585798816568 3:0 4:0.0177514792899408 5:-0.0473372781065089 
0.353553390593274 1:-0.029585798816568 2:0 3:0.0177514792899408 4:-0.0473372781065089 5:-0.029585798816568 
0.353553390593274 1:0 2:0.0177514792899408 3:-0.0473372781065089 4:-0.029585798816568 5:-0.0710059171597633 
0.353553390593274 1:0.0177514792899408 2:-0.0473372781065089 3:-0.029585798816568 4:-0.0710059171597633 5:-0.0650887573964497 
0.353553390593274 1:-0.0473372781065089 2:-0.029585798816568 3:-0.0710059171597633 4:-0.0650887573964497 5:0.00591715976331361 
0.353553390593274 1:-0.029585798816568 2:-0.0710059171597633 3:-0.0650887573964497 4:0.00591715976331361 5:0.0591715976331361 
-0.353553390593274 1:-0.0710059171597633 2:-0.0650887573964497 3:0.00591715976331361 4:0.0591715976331361 5:0.0650887573964497 
-0.353553390593274 1:-0.0650887573964497 2:0.00591715976331361 3:0.0591715976331361 4:0.0650887573964497 5:0.0650887573964497 
-0.353553390593274 1:0.00591715976331361 2:0.0591715976331361 3:0.0650887573964497 4:0.0650887573964497 5:-0.0591715976331361 
-0.353553390593274 1:0.0591715976331361 2:0.0650887573964497 3:0.0650887573964497 4:-0.0591715976331361 5:-0.0532544378698225 
-0.353553390593274 1:0.0650887573964497 2:0.0650887573964497 3:-0.0591715976331361 4:-0.0532544378698225 5:0.0236686390532544 
0.353553390593274 1:0.0650887573964497 2:-0.0591715976331361 3:-0.0532544378698225 4:0.0236686390532544 5:-0.029585798816568 
0.353553390593274 1:-0.0591715976331361 2:-0.0532544378698225 3:0.0236686390532544 4:-0.029585798816568 5:-0.0414201183431953 
0.353553390593274 1:-0.0532544378698225 2:0.0236686390532544 3:-0.029585798816568 4:-0.0414201183431953 5:-0.0177514792899408 
0.353553390593274 1:0.0236686390532544 2:-0.029585798816568 3:-0.0414201183431953 4:-0.0177514792899408 5:0.029585798816568 
-0.353553390593274 1:-0.0414201183431953 2:-0.0177514792899408 3:0.029585798816568 4:0.0118343195266272 5:0.0118343195266272 
0.353553390593274 1:-0.0177514792899408 2:0.029585798816568 3:0.0118343195266272 4:0.0118343195266272 5:-0.0236686390532544 
-0.353553390593274 1:0.029585798816568 2:0.0118343195266272 3:0.0118343195266272 4:-0.0236686390532544 5:0.029585798816568 
0.353553390593274 1:0.0118343195266272 2:0.0118343195266272 3:-0.0236686390532544 4:0.029585798816568 5:-0.0236686390532544 
0.00202887023507137 1:0.0118343195266272 2:-0.0236686390532544 3:0.029585798816568 4:-0.0236686390532544 5:0 
0.353553390593274 1:-0.0236686390532544 2:0.029585798816568 3:-0.0236686390532544 4:0 5:0 
0.353553390593274 1:0.029585798816568 2:-0.0236686390532544 3:0 4:0 5:-0.00591715976331361 
-0.353553390593274 1:0 2:0 3:-0.00591715976331361 4:0 5:0.0236686390532544 
-0.315217243406268 1:-0.00591715976331361 2:0 3:0.0236686390532544 4:-0.0236686390532544 5:0 
0.255227214262516 1:0 2:0.0236686390532544 3:-0.0236686390532544 4:0 5:0 
0.353553390593274 1:0.0236686390532544 2:-0.0236686390532544 3:0 4:0 5:-0.0118343195266272 
0.353553390593274 1:0 2:-0.0118343195266272 3:0 4:0 5:0 
0.353553390593274 1:-0.0118343195266272 2:0 3:0 4:0 5:0.0118343195266272 
0.353553390593274 1:0 2:0 3:0 4:0.0118343195266272 5:-0.00591715976331361 
0.353553390593274 1:0 2:0 3:0.0118343195266272 4:-0.00591715976331361 5:-0.0118343195266272 
0.353553390593274 1:0 2:0.0118343195266272 3:-0.00591715976331361 4:-0.0118343195266272 5:0.00591715976331361 
0.353553390593274 1:0.0118343195266272 2:-0.00591715976331361 3:-0.0118343195266272 4:0.00591715976331361 5:0.0118343195266272 
0.353553390593274 1:-0.00591715976331361 2:-0.0118343195266272 3:0.00591715976331361 4:0.0118343195266272 5:0.0177514792899408 
0.353553390593274 1:-0.0118343195266272 2:0.00591715976331361 3:0.0118343195266272 4:0.0177514792899408 5:0.0650887573964497 
0.353553390593274 1:0.00591715976331361 2:0.0118343195266272 3:0.0177514792899408 4:0.0650887573964497 5:0.0650887573964497 
0.353553390593274 1:0.0118343195266272 2:0.0177514792899408 3:0.0650887573964497 4:0.0650887573964497 5:0 
0.353553390593274 1:0.0177514792899408 2:0.0650887573964497 3:0.0650887573964497 4:0 5:0.0591715976331361 
0.353553390593274 1:0.0650887573964497 2:0.0650887573964497 3:0 4:0.0591715976331361 5:0.0769230769230769 
-0.353553390593274 1:0.0650887573964497 2:0 3:0.0591715976331361 4:0.0769230769230769 5:0.0769230769230769 
-0.353553390593274 1:0 2:0.0591715976331361 3:0.0769230769230769 4:0.0769230769230769 5:0.0591715976331361 
-0.353553390593274 1:0.0591715976331361 2:0.0769230769230769 3:0.0769230769230769 4:0.0591715976331361 5:0.029585798816568 
-0.353553390593274 1:0.0769230769230769 2:0.0769230769230769 3:0.0591715976331361 4:0.029585798816568 5:-0.0355029585798817 
0.353553390593274 1:0.0591715976331361 2:0.029585798816568 3:-0.0355029585798817 4:-0.0828402366863905 5:-0.0414201183431953 
-0.353553390593274 1:0.029585798816568 2:-0.0355029585798817 3:-0.0828402366863905 4:-0.0414201183431953 5:0.0769230769230769 
-0.353553390593274 1:-0.0414201183431953 2:0.0769230769230769 3:0 4:-0.0355029585798817 5:0.0118343195266272 
-0.353553390593274 1:0.0769230769230769 2:0 3:-0.0355029585798817 4:0.0118343195266272 5:-0.0177514792899408 
-0.353553390593274 1:0 2:-0.0355029585798817 3:0.0118343195266272 4:-0.0177514792899408 5:-0.0118343195266272 
0.353553390593274 1:0.0118343195266272 2:-0.0177514792899408 3:-0.0118343195266272 4:0.0236686390532544 5:-0.0236686390532544 
0.353553390593274 1:-0.0177514792899408 2:-0.0118343195266272 3:0.0236686390532544 4:-0.0236686390532544 5:-0.0177514792899408 
0.353553390593274 1:-0.0118343195266272 2:0.0236686390532544 3:-0.0236686390532544 4:-0.0177514792899408 5:-0.0177514792899408 
-0.353553390593274 1:-0.0236686390532544 2:-0.0177514792899408 3:-0.0177514792899408 4:-0.00591715976331361 5:0.0532544378698225 
-0.353553390593274 1:-0.0177514792899408 2:-0.0177514792899408 3:-0.00591715976331361 4:0.0532544378698225 5:-0.0177514792899408 
-0.353553390593274 1:-0.0177514792899408 2:-0.00591715976331361 3:0.0532544378698225 4:-0.0177514792899408 5:-0.0118343195266272 
-0.353553390593274 1:-0.00591715976331361 2:0.0532544378698225 3:-0.0177514792899408 4:-0.0118343195266272 5:-0.0236686390532544 
-0.353553390593274 1:0.0532544378698225 2:-0.0177514792899408 3:-0.0118343195266272 4:-0.0236686390532544 5:-0.00591715976331361 
-0.353553390593274 1:-0.0177514792899408 2:-0.0118343195266272 3:-0.0236686390532544 4:-0.00591715976331361 5:0.0118343195266272 
-0.353553390593274 1:-0.0118343195266272 2:-0.0236686390532544 3:-0.00591715976331361 4:0.0118343195266272 5:-0.0118343195266272 
-0.353553390593274 1:-0.0236686390532544 2:-0.00591715976331361 3:0.0118343195266272 4:-0.0118343195266272 5:-0.0355029585798817 
-0.353553390593274 1:-0.00591715976331361 2:0.0118343195266272 3:-0.0118343195266272 4:-0.0355029585798817 5:-0.0414201183431953 
-0.353553390593274 1:0.0118343195266272 2:-0.0118343195266272 3:-0.0355029585798817 4:-0.0414201183431953 5:-0.0591715976331361 
0.353553390593274 1:-0.0118343195266272 2:-0.0355029585798817 3:-0.0414201183431953 4:-0.0591715976331361 5:-0.0177514792899408 
0.280540089483608 1:-0.0355029585798817 2:-0.0414201183431953 3:-0.0591715976331361 4:-0.0177514792899408 5:0.0177514792899408 
-0.0659389385629885 1:-0.0414201183431953 2:-0.0591715976331361 3:-0.0177514792899408 4:0.0177514792899408 5:0.0236686390532544 
-0.353553390593274 1:-0.0591715976331361 2:-0.0177514792899408 3:0.0177514792899408 4:0.0236686390532544 5:0 
0.353553390593274 1:-0.0177514792899408 2:0.0177514792899408 3:0.0236686390532544 4:0 5:-0.0650887573964497 
-0.353553390593274 1:0.0177514792899408 2:0.0236686390532544 3:0 4:-0.0650887573964497 5:0.0650887573964497 
0.353553390593274 1:0.0236686390532544 2:0 3:-0.0650887573964497 4:0.0650887573964497 5:-0.029585798816568 
0.353553390593274 1:0 2:-0.0650887573964497 3:0.0650887573964497 4:-0.029585798816568 5:0.0177514792899408 
0.353553390593274 1:-0.0650887573964497 2:0.0650887573964497 3:-0.029585798816568 4:0.0177514792899408 5:0 
-0.16308011689308 1:0.0650887573964497 2:-0.029585798816568 3:0.0177514792899408 4:0 5:-0.0177514792899408 
0.353553390593274 1:-0.029585798816568 2:0.0177514792899408 3:0 4:-0.0177514792899408 5:-0.0355029585798817 
-0.353553390593274 1:0.0177514792899408 2:0 3:-0.0177514792899408 4:-0.0355029585798817 5:0.0355029585798817 
-0.353553390593274 1:0 2:-0.0177514792899408 3:-0.0355029585798817 4:0.0355029585798817 5:0.00591715976331361 
-0.353553390593274 1:-0.0177514792899408 2:-0.0355029585798817 3:0.0355029585798817 4:0.00591715976331361 5:0 
-0.353553390593274 1:-0.0355029585798817 2:0.0355029585798817 3:0.00591715976331361 4:0 5:-0.0236686390532544 
-0.353553390593274 1:0.0355029585798817 2:0.00591715976331361 3:0 4:-0.0236686390532544 5:-0.0118343195266272 
-0.353553390593274 1:0.00591715976331361 2:0 3:-0.0236686390532544 4:-0.0118343195266272 5:-0.0118343195266272 
-0.353553390593274 1:0 2:-0.0236686390532544 3:-0.0118343195266272 4:-0.0118343195266272 5:-0.00591715976331361 
-0.353553390593274 1:-0.0236686390532544 2:-0.0118343195266272 3:-0.0118343195266272 4:-0.00591715976331361 5:0.00591715976331361 
-0.353553390593274 1:-0.0118343195266272 2:-0.0118343195266272 3:-0.00591715976331361 4:0.00591715976331361 5:-0.0177514792899408 
-0.353553390593274 1:-0.0118343195266272 2:-0.00591715976331361 3:0.00591715976331361 4:-0.0177514792899408 5:-0.0236686390532544 
-0.353553390593274 1:-0.00591715976331361 2:0.00591715976331361 3:-0.0177514792899408 4:-0.0236686390532544 5:-0.0118343195266272 
-0.353553390593274 1:0.00591715976331361 2:-0.0177514792899408 3:-0.0236686390532544 4:-0.0118343195266272 5:0.0118343195266272 
-0.353553390593274 1:-0.0177514792899408 2:-0.0236686390532544 3:-0.0118343195266272 4:0.0118343195266272 5:-0.0236686390532544 
0.353553390593274 1:-0.0118343195266272 2:0.0118343195266272 3:-0.0236686390532544 4:-0.0118343195266272 5:0.00591715976331361 
0.353553390593274 1:0.0118343195266272 2:-0.0236686390532544 3:-0.0118343195266272 4:0.00591715976331361 5:-0.0177514792899408 
0.353553390593274 1:-0.0236686390532544 2:-0.0118343195266272 3:0.00591715976331361 4:-0.0177514792899408 5:-0.0118343195266272 
0.353553390593274 1:-0.0118343195266272 2:0.00591715976331361 3:-0.0177514792899408 4:-0.0118343195266272 5:-0.00591715976331361 
-0.353553390593274 1:0.00591715976331361 2:-0.0177514792899408 3:-0.0118343195266272 4:-0.00591715976331361 5:0.0177514792899408 
-0.353553390593274 1:-0.0177514792899408 2:-0.0118343195266272 3:-0.00591715976331361 4:0.0177514792899408 5:0.0355029585798817 
-0.353553390593274 1:-0.00591715976331361 2:0.0177514792899408 3:0.0355029585798817 4:-0.029585798816568 5:0 
-0.353553390593274 1:0.0177514792899408 2:0.0355029585798817 3:-0.029585798816568 4:0 5:-0.0118343195266272 
-0.353553390593274 1:0.0355029585798817 2:-0.029585798816568 3:0 4:-0.0118343195266272 5:-0.00591715976331361 
-0.353553390593274 1:-0.029585798816568 2:0 3:-0.0118343195266272 4:-0.00591715976331361 5:0.00591715976331361 
-0.353553390593274 1:0 2:-0.0118343195266272 3:-0.00591715976331361 4:0.00591715976331361 5:-0.00591715976331361 
-0.353553390593274 1:-0.0118343195266272 2:-0.00591715976331361 3:0.00591715976331361 4:-0.00591715976331361 5:0.00591715976331361 
-0.353553390593274 1:-0.00591715976331361 2:0.00591715976331361 3:-0.00591715976331361 4:0.00591715976331361 5:-0.0236686390532544 
-0.353553390593274 1:0.00591715976331361 2:-0.00591715976331361 3:0.00591715976331361 4:-0.0236686390532544 5:-0.0236686390532544 
-0.353553390593274 1:-0.00591715976331361 2:0.00591715976331361 3:-0.0236686390532544 4:-0.0236686390532544 5:-0.0177514792899408 
-0.353553390593274 1:0.00591715976331361 2:-0.0236686390532544 3:-0.0236686390532544 4:-0.0177514792899408 5:-0.0355029585798817 
-0.353553390593274 1:-0.0236686390532544 2:-0.0236686390532544 3:-0.0177514792899408 4:-0.0355029585798817 5:0.0118343195266272 
0.353553390593274 1:-0.0177514792899408 2:-0.0355029585798817 3:0.0118343195266272 4:-0.0355029585798817 5:-0.0591715976331361 
0.353553390593274 1:-0.0355029585798817 2:0.0118343195266272 3:-0.0355029585798817 4:-0.0591715976331361 5:0.029585798816568 
0.353553390593274 1:0.0118343195266272 2:-0.0355029585798817 3:-0.0591715976331361 4:0.029585798816568 5:-0.0236686390532544 
-0.353553390593274 1:-0.0355029585798817 2:-0.0591715976331361 3:0.029585798816568 4:-0.0236686390532544 5:-0.0236686390532544 
-0.353553390593274 1:-0.0591715976331361 2:0.029585798816568 3:-0.0236686390532544 4:-0.0236686390532544 5:0.0532544378698225 
-0.353553390593274 1:0.029585798816568 2:-0.0236686390532544 3:-0.0236686390532544 4:0.0532544378698225 5:0.00591715976331361 
-0.353553390593274 1:-0.0236686390532544 2:-0.0236686390532544 3:0.0532544378698225 4:0.00591715976331361 5:0.0177514792899408 
-0.353553390593274 1:-0.0236686390532544 2:0.0532544378698225 3:0.00591715976331361 4:0.0177514792899408 5:-0.0591715976331361 
0.353553390593274 1:0.0532544378698225 2:0.00591715976331361 3:0.0177514792899408 4:-0.0591715976331361 5:-0.0532544378698225 
0.353553390593274 1:0.00591715976331361 2:0.0177514792899408 3:-0.0591715976331361 4:-0.0532544378698225 5:-0.0532544378698225 
0.353553390593274 1:0.0177514792899408 2:-0.0591715976331361 3:-0.0532544378698225 4:-0.0532544378698225 5:-0.0236686390532544 
0.353553390593274 1:-0.0591715976331361 2:-0.0532544378698225 3:-0.0532544378698225 4:-0.0236686390532544 5:0.0473372781065089 
0.353553390593274 1:-0.0532544378698225 2:-0.0532544378698225 3:-0.0236686390532544 4:0.0473372781065089 5:0.0236686390532544 
-0.353553390593274 1:-0.0532544378698225 2:-0.0236686390532544 3:0.0473372781065089 4:0.0236686390532544 5:0.0532544378698225 
-0.353553390593274 1:-0.0236686390532544 2:0.0473372781065089 3:0.0236686390532544 4:0.0532544378698225 5:0.0532544378698225 
-0.353553390593274 1:0.0473372781065089 2:0.0236686390532544 3:0.0532544378698225 4:0.0532544378698225 5:-0.0177514792899408 
-0.353553390593274 1:0.0236686390532544 2:0.0532544378698225 3:0.0532544378698225 4:-0.0177514792899408 5:0.00591715976331361 
-0.353553390593274 1:0.0532544378698225 2:0.0532544378698225 3:-0.0177514792899408 4:0.00591715976331361 5:-0.029585798816568 
-0.353553390593274 1:0.0532544378698225 2:-0.0177514792899408 3:0.00591715976331361 4:-0.029585798816568 5:-0.0532544378698225 
-0.353553390593274 1:-0.0177514792899408 2:0.00591715976331361 3:-0.029585798816568 4:-0.0532544378698225 5:0.00591715976331361 
-0.353553390593274 1:0.00591715976331361 2:-0.029585798816568 3:-0.0532544378698225 4:0.00591715976331361 5:-0.00591715976331361 
-0.353553390593274 1:-0.029585798816568 2:-0.0532544378698225 3:0.00591715976331361 4:-0.00591715976331361 5:-0.0473372781065089 
-0.353553390593274 1:-0.0532544378698225 2:0.00591715976331361 3:-0.00591715976331361 4:-0.0473372781065089 5:-0.00591715976331361 
-0.353553390593274 1:0.00591715976331361 2:-0.00591715976331361 3:-0.0473372781065089 4:-0.00591715976331361 5:-0.0473372781065089 
-0.353553390593274 1:-0.00591715976331361 2:-0.0473372781065089 3:-0.00591715976331361 4:-0.0473372781065089 5:-0.0473372781065089 
-0.353553390593274 1:-0.0473372781065089 2:-0.00591715976331361 3:-0.0473372781065089 4:-0.0473372781065089 5:-0.0414201183431953 
-0.353553390593274 1:-0.00591715976331361 2:-0.0473372781065089 3:-0.0473372781065089 4:-0.0414201183431953 5:0.0414201183431953 
-0.353553390593274 1:-0.0473372781065089 2:-0.0473372781065089 3:-0.0414201183431953 4:0.0414201183431953 5:-0.0414201183431953 
-0.353553390593274 1:-0.0473372781065089 2:-0.0414201183431953 3:0.0414201183431953 4:-0.0414201183431953 5:-0.00591715976331361 
-0.353553390593274 1:-0.0414201183431953 2:0.0414201183431953 3:-0.0414201183431953 4:-0.00591715976331361 5:-0.0177514792899408 
-0.353553390593274 1:0.0414201183431953 2:-0.0414201183431953 3:-0.00591715976331361 4:-0.0177514792899408 5:-0.0414201183431953 
0.353553390593274 1:-0.0414201183431953 2:-0.00591715976331361 3:-0.0177514792899408 4:-0.0414201183431953 5:-0.0414201183431953 
0.353553390593274 1:-0.00591715976331361 2:-0.0177514792899408 3:-0.0414201183431953 4:-0.0414201183431953 5:-0.0355029585798817 
0.353553390593274 1:-0.0177514792899408 2:-0.0414201183431953 3:-0.0414201183431953 4:-0.0355029585798817 5:-0.0355029585798817 
0.353553390593274 1:-0.0414201183431953 2:-0.0414201183431953 3:-0.0355029585798817 4:-0.0355029585798817 5:0.0355029585798817 
0.353553390593274 1:-0.0414201183431953 2:-0.0355029585798817 3:-0.0355029585798817 4:0.0355029585798817 5:0.0355029585798817 
-0.353553390593274 1:-0.0355029585798817 2:-0.0355029585798817 3:0.0355029585798817 4:0.0355029585798817 5:0.0355029585798817 
-0.353553390593274 1:-0.0355029585798817 2:0.0355029585798817 3:0.0355029585798817 4:0.0355029585798817 5:-0.0355029585798817 
-0.353553390593274 1:0.0355029585798817 2:0.0355029585798817 3:0.0355029585798817 4:-0.0355029585798817 5:0.0177514792899408 
-0.353553390593274 1:0.0355029585798817 2:0.0355029585798817 3:-0.0355029585798817 4:0.0177514792899408 5:0 
-0.353553390593274 1:0.0355029585798817 2:-0.0355029585798817 3:0.0177514792899408 4:0 5:0 
-0.353553390593274 1:-0.0355029585798817 2:0.0177514792899408 3:0 4:0 5:-0.0355029585798817 
-0.353553390593274 1:0.0177514792899408 2:0 3:0 4:-0.0355029585798817 5:-0.0355029585798817 
-0.353553390593274 1:0 2:0 3:-0.0355029585798817 4:-0.0355029585798817 5:-0.0355029585798817 
-0.353553390593274 1:0 2:-0.0355029585798817 3:-0.0355029585798817 4:-0.0355029585798817 5:-0.029585798816568 
-0.353553390593274 1:-0.0355029585798817 2:-0.0355029585798817 3:-0.0355029585798817 4:-0.029585798816568 5:-0.029585798816568 
-0.353553390593274 1:-0.0355029585798817 2:-0.0355029585798817 3:-0.029585798816568 4:-0.029585798816568 5:-0.029585798816568 
0.353553390593274 1:-0.0355029585798817 2:-0.029585798816568 3:-0.029585798816568 4:-0.029585798816568 5:-0.029585798816568 
0.353553390593274 1:-0.029585798816568 2:-0.029585798816568 3:-0.029585798816568 4:-0.029585798816568 5:-0.0266272189349112 
0.353553390593274 1:-0.029585798816568 2:-0.029585798816568 3:-0.029585798816568 4:-0.0266272189349112 5:0.0029585798816568 
0.353553390593274 1:-0.029585798816568 2:-0.029585798816568 3:-0.0266272189349112 4:0.0029585798816568 5:0.0029585798816568 
0.353553390593274 1:-0.029585798816568 2:-0.0266272189349112 3:0.0029585798816568 4:0.0029585798816568 5:0.0029585798816568 
0.353553390593274 1:-0.0266272189349112 2:0.0029585798816568 3:0.0029585798816568 4:0.0029585798816568 5:0.0029585798816568 
-0.353553390593274 1:0.0029585798816568 2:0.0029585798816568 3:0.0029585798816568 4:0.0029585798816568 5:0.0029585798816568 
-0.353553390593274 1:0.0029585798816568 2:0.0029585798816568 3:0.0029585798816568 4:0.0029585798816568 5:0.0029585798816568 
-0.353553390593274 1:0.0029585798816568 2:0.0029585798816568 3:0.0029585798816568 4:0.0029585798816568 5:0.00887573964497041 
-0.353553390593274 1:0.0029585798816568 2:0.0029585798816568 3:0.0029585798816568 4:0.00887573964497041 5:-0.00591715976331361 
-0.353553390593274 1:0.0029585798816568 2:0.0029585798816568 3:0.00887573964497041 4:-0.00591715976331361 5:-0.00591715976331361 
-0.353553390593274 1:0.0029585798816568 2:0.00887573964497041 3:-0.00591715976331361 4:-0.00591715976331361 5:-0.00887573964497041 
-0.353553390593274 1:0.00887573964497041 2:-0.00591715976331361 3:-0.00591715976331361 4:-0.00887573964497041 5:-0.00887573964497041 
-0.353553390593274 1:-0.00591715976331361 2:-0.00591715976331361 3:-0.00887573964497041 4:-0.00887573964497041 5:-0.00887573964497041 
-0.353553390593274 1:-0.00591715976331361 2:-0.00887573964497041 3:-0.00887573964497041 4:-0.00887573964497041 5:0.00591715976331361 
-0.353553390593274 1:-0.00887573964497041 2:-0.00887573964497041 3:-0.00887573964497041 4:0.00591715976331361 5:-0.00887573964497041 
-0.353553390593274 1:-0.00887573964497041 2:-0.00887573964497041 3:0.00591715976331361 4:-0.00887573964497041 5:-0.014792899408284 
-0.353553390593274 1:-0.00887573964497041 2:0.00591715976331361 3:-0.00887573964497041 4:-0.014792899408284 5:-0.00887573964497041 
-0.353553390593274 1:0.00591715976331361 2:-0.00887573964497041 3:-0.014792899408284 4:-0.00887573964497041 5:-0.00887573964497041 
-0.353553390593274 1:-0.00887573964497041 2:-0.014792899408284 3:-0.00887573964497041 4:-0.00887573964497041 5:-0.00887573964497041 
-0.353553390593274 1:-0.014792899408284 2:-0.00887573964497041 3:-0.00887573964497041 4:-0.00887573964497041 5:-0.00887573964497041 
-0.353553390593274 1:-0.00887573964497041 2:-0.00887573964497041 3:-0.00887573964497041 4:-0.00887573964497041 5:-0.00887573964497041 
-0.353553390593274 1:-0.00887573964497041 2:-0.00887573964497041 3:-0.00887573964497041 4:-0.00887573964497041 5:-0.00887573964497041 
-0.353553390593274 1:-0.00887573964497041 2:-0.00887573964497041 3:-0.00887573964497041 4:-0.00887573964497041 5:-0.00887573964497041 
-0.353553390593274 1:-0.00887573964497041 2:-0.00887573964497041 3:-0.00887573964497041 4:-0.00887573964497041 5:-0.00887573964497041 
-0.353553390593274 1:-0.00887573964497041 2:-0.00887573964497041 3:-0.00887573964497041 4:-0.00887573964497041 5:-0.00887573964497041 
-0.353553390593274 1:-0.00887573964497041 2:-0.00887573964497041 3:-0.00887573964497041 4:-0.00887573964497041 5:-0.00887573964497041 
-0.353553390593274 1:-0.00887573964497041 2:-0.00887573964497041 3:-0.00887573964497041 4:-0.00887573964497041 5:-0.00887573964497041 
-0.353553390593274 1:-0.00887573964497041 2:-0.00887573964497041 3:-0.00887573964497041 4:-0.00887573964497041 5:-0.00591715976331361 
-0.353553390593274 1:-0.00887573964497041 2:-0.00887573964497041 3:-0.00887573964497041 4:-0.00591715976331361 5:-0.00591715976331361 
-0.353553390593274 1:-0.00887573964497041 2:-0.00887573964497041 3:-0.00591715976331361 4:-0.00591715976331361 5:-0.00591715976331361 
-0.353553390593274 1:-0.00887573964497041 2:-0.00591715976331361 3:-0.00591715976331361 4:-0.00591715976331361 5:-0.00591715976331361 
-0.353553390593274 1:-0.00591715976331361 2:-0.00591715976331361 3:-0.00591715976331361 4:-0.00591715976331361 5:-0.00591715976331361 
-0.353553390593274 1:-0.00591715976331361 2:-0.00591715976331361 3:-0.00591715976331361 4:-0.00591715976331361 5:-0.00591715976331361 
-0.353553390593274 1:-0.00591715976331361 2:-0.00591715976331361 3:-0.00591715976331361 4:-0.00591715976331361 5:-0.00591715976331361 
-0.353553390593274 1:-0.00591715976331361 2:-0.00591715976331361 3:-0.00591715976331361 4:-0.00591715976331361 5:-0.00591715976331361 
0.353553390593274 1:-0.00591715976331361 2:-0.00591715976331361 3:-0.00591715976331361 4:-0.00591715976331361 5:-0.00591715976331361 
0.353553390593274 1:-0.00591715976331361 2:-0.00591715976331361 3:-0.00591715976331361 4:-0.00591715976331361 5:0 
-0.353553390593274 1:-0.00591715976331361 2:0 3:0 4:0 5:0 
-0.353553390593274 1:0 2:0 3:0 4:0 5:0 
-0.353553390593274 1:0 2:0 3:0 4:0 5:0 
-0.353553390593274 1:0 2:0 3:0 4:0 5:-0.00591715976331361 
-0.353553390593274 1:0 2:0 3:0 4:-0.00591715976331361 5:-0.00591715976331361 
-0.353553390593274 1:0 2:0 3:-0.00591715976331361 4:-0.00591715976331361 5:-0.00591715976331361 
-0.353553390593274 1:0 2:-0.00591715976331361 3:-0.00591715976331361 4:-0.00591715976331361 5:0 
-0.353553390593274 1:-0.00591715976331361 2:-0.00591715976331361 3:-0.00591715976331361 4:0 5:-0.00591715976331361 
-0.353553390593274 1:-0.00591715976331361 2:-0.00591715976331361 3:0 4:-0.00591715976331361 5:-0.00591715976331361 
-0.353553390593274 1:-0.00591715976331361 2:0 3:-0.00591715976331361 4:-0.00591715976331361 5:-0.00591715976331361 
-0.353553390593274 1:0 2:-0.00591715976331361 3:-0.00591715976331361 4:-0.00591715976331361 5:-0.00591715976331361 
-0.353553390593274 1:-0.00591715976331361 2:-0.00591715976331361 3:-0.00591715976331361 4:-0.00591715976331361 5:0.00591715976331361 
-0.353553390593274 1:-0.00591715976331361 2:-0.00591715976331361 3:-0.00591715976331361 4:0.00591715976331361 5:0.00591715976331361 
0.353553390593274 1:0.00591715976331361 2:0.00591715976331361 3:-0.00591715976331361 4:-0.00887573964497041 5:-0.00887573964497041 
0.353553390593274 1:0.00591715976331361 2:-0.00591715976331361 3:-0.00887573964497041 4:-0.00887573964497041 5:-0.00828402366863904 
0.353553390593274 1:-0.00591715976331361 2:-0.00887573964497041 3:-0.00887573964497041 4:-0.00828402366863904 5:0.00828402366863904 
0.353553390593274 1:-0.00887573964497041 2:-0.00887573964497041 3:-0.00828402366863904 4:0.00828402366863904 5:0.00591715976331361 
0.353553390593274 1:-0.00887573964497041 2:-0.00828402366863904 3:0.00828402366863904 4:0.00591715976331361 5:-0.00591715976331361 
0.353553390593274 1:-0.00828402366863904 2:0.00828402366863904 3:0.00591715976331361 4:-0.00591715976331361 5:0.0029585798816568 
0.353553390593274 1:0.00828402366863904 2:0.00591715976331361 3:-0.00591715976331361 4:0.0029585798816568 5:0 
0.353553390593274 1:0.00591715976331361 2:-0.00591715976331361 3:0.0029585798816568 4:0 5:0.00887573964497041 
0.353553390593274 1:-0.00591715976331361 2:0.0029585798816568 3:0 4:0.00887573964497041 5:0.00887573964497041 
0.353553390593274 1:0.0029585798816568 2:0 3:0.00887573964497041 4:0.00887573964497041 5:0.00887573964497041 
0.353553390593274 1:0 2:0.00887573964497041 3:0.00887573964497041 4:0.00887573964497041 5:0.00887573964497041 
0.353553390593274 1:0.00887573964497041 2:0.00887573964497041 3:0.00887573964497041 4:0.00887573964497041 5:-0.00887573964497041 
0.353553390593274 1:0.00887573964497041 2:0.00887573964497041 3:0.00887573964497041 4:-0.00887573964497041 5:0.00887573964497041 
0.353553390593274 1:0.00887573964497041 2:0.00887573964497041 3:-0.00887573964497041 4:0.00887573964497041 5:0.00887573964497041 
0.353553390593274 1:0.00887573964497041 2:-0.00887573964497041 3:0.00887573964497041 4:0.00887573964497041 5:0.00887573964497041 
0.353553390593274 1:-0.00887573964497041 2:0.00887573964497041 3:0.00887573964497041 4:0.00887573964497041 5:0.00887573964497041 
0.353553390593274 1:0.00887573964497041 2:0.00887573964497041 3:0.00887573964497041 4:0.00887573964497041 5:0.00887573964497041 
-0.353553390593274 1:0.00887573964497041 2:0.00887573964497041 3:0.00887573964497041 4:0.00887573964497041 5:0.00887573964497041 
-0.353553390593274 1:0.00887573964497041 2:0.00887573964497041 3:0.00887573964497041 4:0.00887573964497041 5:0.00887573964497041 
-0.353553390593274 1:0.00887573964497041 2:0.00887573964497041 3:0.00887573964497041 4:0.00887573964497041 5:0.00887573964497041 
-0.353553390593274 1:0.00887573964497041 2:0.00887573964497041 3:0.00887573964497041 4:0.00887573964497041 5:-0.0118343195266272 
0.353553390593274 1:0.00887573964497041 2:0.00887573964497041 3:-0.0118343195266272 4:-0.00887573964497041 5:-0.00887573964497041 
0.353553390593274 1:0.00887573964497041 2:-0.0118343195266272 3:-0.00887573964497041 4:-0.00887573964497041 5:-0.00887573964497041 
0.353553390593274 1:-0.0118343195266272 2:-0.00887573964497041 3:-0.00887573964497041 4:-0.00887573964497041 5:0.0029585798816568 
0.353553390593274 1:-0.00887573964497041 2:-0.00887573964497041 3:-0.00887573964497041 4:0.0029585798816568 5:0.0029585798816568 
0.353553390593274 1:-0.00887573964497041 2:-0.00887573964497041 3:0.0029585798816568 4:0.0029585798816568 5:0.00887573964497041 
0.353553390593274 1:-0.00887573964497041 2:0.0029585798816568 3:0.0029585798816568 4:0.00887573964497041 5:0.00887573964497041 
0.353553390593274 1:0.00887573964497041 2:0.00887573964497041 3:0.00887573964497041 4:0.0118343195266272 5:-0.0118343195266272 
0.353553390593274 1:0.00887573964497041 2:0.00887573964497041 3:0.0118343195266272 4:-0.0118343195266272 5:-0.0118343195266272 
0.353553390593274 1:0.00887573964497041 2:0.0118343195266272 3:-0.0118343195266272 4:-0.0118343195266272 5:0.00887573964497041 
0.353553390593274 1:0.0118343195266272 2:-0.0118343195266272 3:-0.0118343195266272 4:0.00887573964497041 5:0.00887573964497041 
0.353553390593274 1:-0.0118343195266272 2:-0.0118343195266272 3:0.00887573964497041 4:0.00887573964497041 5:0.0118343195266272 
0.353553390593274 1:-0.0118343195266272 2:0.00887573964497041 3:0.00887573964497041 4:0.0118343195266272 5:0.0118343195266272 
0.353553390593274 1:0.00887573964497041 2:0.00887573964497041 3:0.0118343195266272 4:0.0118343195266272 5:0.0118343195266272 
0.353553390593274 1:0.00887573964497041 2:0.0118343195266272 3:0.0118343195266272 4:0.0118343195266272 5:0.0118343195266272 
0.353553390593274 1:0.0118343195266272 2:0.0118343195266272 3:0.0118343195266272 4:0.0118343195266272 5:0.0118343195266272 
0.353553390593274 1:0.0118343195266272 2:0.0118343195266272 3:0.0118343195266272 4:0.0118343195266272 5:0.0118343195266272 
0.353553390593274 1:0.0118343195266272 2:0.0118343195266272 3:0.0118343195266272 4:0.0118343195266272 5:0.0236686390532544 
0.353553390593274 1:0.0118343195266272 2:0.0118343195266272 3:0.0118343195266272 4:0.0236686390532544 5:0.0236686390532544 
0.353553390593274 1:0.0118343195266272 2:0.0118343195266272 3:0.0236686390532544 4:0.0236686390532544 5:0.0236686390532544 
0.353553390593274 1:0.0118343195266272 2:0.0236686390532544 3:0.0236686390532544 4:0.0236686390532544 5:0.0266272189349112 
0.353553390593274 1:0.0236686390532544 2:0.0236686390532544 3:0.0236686390532544 4:0.0266272189349112 5:0.0266272189349112 
0.353553390593274 1:0.0236686390532544 2:0.0236686390532544 3:0.0266272189349112 4:0.0266272189349112 5:0.029585798816568 
0.353553390593274 1:0.0236686390532544 2:0.0266272189349112 3:0.0266272189349112 4:0.029585798816568 5:0.029585798816568 
0.353553390593274 1:0.0266272189349112 2:0.0266272189349112 3:0.029585798816568 4:0.029585798816568 5:0.029585798816568 
-0.353553390593274 1:0.0266272189349112 2:0.029585798816568 3:0.029585798816568 4:0.029585798816568 5:0.029585798816568 
-0.353553390593274 1:0.029585798816568 2:0.029585798816568 3:0.029585798816568 4:0.029585798816568 5:0 
-0.353553390593274 1:0.029585798816568 2:0.029585798816568 3:0.029585798816568 4:0 5:0.0355029585798817 
-0.353553390593274 1:0.029585798816568 2:0.029585798816568 3:0 4:0.0355029585798817 5:0.0355029585798817 
-0.353553390593274 1:0.029585798816568 2:0 3:0.0355029585798817 4:0.0355029585798817 5:-0.0355029585798817 
-0.353553390593274 1:0 2:0.0355029585798817 3:0.0355029585798817 4:-0.0355029585798817 5:-0.0355029585798817 
-0.353553390593274 1:0.0355029585798817 2:0.0355029585798817 3:-0.0355029585798817 4:-0.0355029585798817 5:-0.0355029585798817 
-0.353553390593274 1:0.0355029585798817 2:-0.0355029585798817 3:-0.0355029585798817 4:-0.0355029585798817 5:-0.029585798816568 
-0.353553390593274 1:-0.0355029585798817 2:-0.0355029585798817 3:-0.0355029585798817 4:-0.029585798816568 5:-0.029585798816568 
-0.353553390593274 1:-0.0355029585798817 2:-0.0355029585798817 3:-0.029585798816568 4:-0.029585798816568 5:-0.029585798816568 
-0.353553390593274 1:-0.0355029585798817 2:-0.029585798816568 3:-0.029585798816568 4:-0.029585798816568 5:-0.0266272189349112 
0.353553390593274 1:-0.029585798816568 2:-0.029585798816568 3:-0.029585798816568 4:-0.0266272189349112 5:-0.0266272189349112 
0.353553390593274 1:-0.029585798816568 2:-0.029585798816568 3:-0.0266272189349112 4:-0.0266272189349112 5:-0.0266272189349112 
0.353553390593274 1:-0.029585798816568 2:-0.0266272189349112 3:-0.0266272189349112 4:-0.0266272189349112 5:-0.0236686390532544 
0.353553390593274 1:-0.0266272189349112 2:-0.0266272189349112 3:-0.0266272189349112 4:-0.0236686390532544 5:0.0236686390532544 
0.353553390593274 1:-0.0266272189349112 2:-0.0266272189349112 3:-0.0236686390532544 4:0.0236686390532544 5:0.0236686390532544 
-0.353553390593274 1:-0.0266272189349112 2:-0.0236686390532544 3:0.0236686390532544 4:0.0236686390532544 5:0.0207100591715976 
0.353553390593274 1:-0.0236686390532544 2:0.0236686390532544 3:0.0236686390532544 4:0.0207100591715976 5:-0.0207100591715976 
-0.274989713209905 1:0.0236686390532544 2:0.0236686390532544 3:0.0207100591715976 4:-0.0207100591715976 5:0.0266272189349112 
-0.353553390593274 1:0.0236686390532544 2:0.0207100591715976 3:-0.0207100591715976 4:0.0266272189349112 5:0.0266272189349112 
-0.353553390593274 1:0.0207100591715976 2:-0.0207100591715976 3:0.0266272189349112 4:0.0266272189349112 5:-0.0207100591715976 
-0.353553390593274 1:-0.0207100591715976 2:0.0266272189349112 3:0.0266272189349112 4:-0.0207100591715976 5:-0.0266272189349112 
-0.353553390593274 1:0.0266272189349112 2:0.0266272189349112 3:-0.0207100591715976 4:-0.0266272189349112 5:0.00887573964497041 
-0.353553390593274 1:0.0266272189349112 2:-0.0207100591715976 3:-0.0266272189349112 4:0.00887573964497041 5:0.0118343195266272 
-0.353553390593274 1:-0.0207100591715976 2:-0.0266272189349112 3:0.00887573964497041 4:0.0118343195266272 5:-0.0207100591715976 
-0.353553390593274 1:-0.0266272189349112 2:0.00887573964497041 3:0.0118343195266272 4:-0.0207100591715976 5:-0.0266272189349112 
-0.353553390593274 1:0.00887573964497041 2:0.0118343195266272 3:-0.0207100591715976 4:-0.0266272189349112 5:-0.0236686390532544 
-0.353553390593274 1:0.0118343195266272 2:-0.0207100591715976 3:-0.0266272189349112 4:-0.0236686390532544 5:-0.0236686390532544 
0.353553390593274 1:-0.0207100591715976 2:-0.0266272189349112 3:-0.0236686390532544 4:-0.0236686390532544 5:-0.0207100591715976 
0.353553390593274 1:-0.0266272189349112 2:-0.0236686390532544 3:-0.0236686390532544 4:-0.0207100591715976 5:-0.0207100591715976 
0.353553390593274 1:-0.0236686390532544 2:-0.0236686390532544 3:-0.0207100591715976 4:-0.0207100591715976 5:-0.0207100591715976 
0.353553390593274 1:-0.0236686390532544 2:-0.0207100591715976 3:-0.0207100591715976 4:-0.0207100591715976 5:0.0177514792899408 
0.353553390593274 1:-0.0207100591715976 2:-0.0207100591715976 3:-0.0207100591715976 4:0.0177514792899408 5:0.0207100591715976 
-0.353553390593274 1:-0.0207100591715976 2:-0.0207100591715976 3:0.0177514792899408 4:0.0207100591715976 5:0.00591715976331361 
-0.353553390593274 1:-0.0207100591715976 2:0.0177514792899408 3:0.0207100591715976 4:0.00591715976331361 5:0.0118343195266272 
-0.353553390593274 1:0.0177514792899408 2:0.0207100591715976 3:0.00591715976331361 4:0.0118343195266272 5:-0.0207100591715976 
-0.353553390593274 1:0.0207100591715976 2:0.00591715976331361 3:0.0118343195266272 4:-0.0207100591715976 5:0.0207100591715976 
-0.353553390593274 1:0.00591715976331361 2:0.0118343195266272 3:-0.0207100591715976 4:0.0207100591715976 5:-0.00887573964497041 
0.353553390593274 1:-0.0207100591715976 2:0.0207100591715976 3:-0.00887573964497041 4:-0.0207100591715976 5:-0.0207100591715976 
0.353553390593274 1:0.0207100591715976 2:-0.00887573964497041 3:-0.0207100591715976 4:-0.0207100591715976 5:-0.0177514792899408 
0.353553390593274 1:-0.00887573964497041 2:-0.0207100591715976 3:-0.0207100591715976 4:-0.0177514792899408 5:-0.00887573964497041 
0.353553390593274 1:-0.0207100591715976 2:-0.0207100591715976 3:-0.0177514792899408 4:-0.00887573964497041 5:0.0177514792899408 
0.353553390593274 1:-0.0207100591715976 2:-0.0177514792899408 3:-0.00887573964497041 4:0.0177514792899408 5:0.0177514792899408 
-0.353553390593274 1:-0.0177514792899408 2:-0.00887573964497041 3:0.0177514792899408 4:0.0177514792899408 5:0.0207100591715976 
-0.353553390593274 1:-0.00887573964497041 2:0.0177514792899408 3:0.0177514792899408 4:0.0207100591715976 5:0.0207100591715976 
-0.353553390593274 1:0.0177514792899408 2:0.0177514792899408 3:0.0207100591715976 4:0.0207100591715976 5:0.0207100591715976 
-0.353553390593274 1:0.0177514792899408 2:0.0207100591715976 3:0.0207100591715976 4:0.0207100591715976 5:0.0236686390532544 
-0.353553390593274 1:0.0207100591715976 2:0.0207100591715976 3:0.0207100591715976 4:0.0236686390532544 5:0.0207100591715976 
0.353553390593274 1:0.0207100591715976 2:0.0207100591715976 3:0.0236686390532544 4:0.0207100591715976 5:-0.165680473372781 
0.353553390593274 1:0.0207100591715976 2:0.0236686390532544 3:0.0207100591715976 4:-0.165680473372781 5:0.0177514792899408 
0.240401062849799 1:0.0236686390532544 2:0.0207100591715976 3:-0.165680473372781 4:0.0177514792899408 5:-0.0177514792899408 
0.353553390593274 1:0.0207100591715976 2:-0.165680473372781 3:0.0177514792899408 4:-0.0177514792899408 5:-0.0177514792899408 
-0.353553390593274 1:0.0177514792899408 2:-0.0177514792899408 3:-0.0177514792899408 4:-0.0029585798816568 5:0.014792899408284 
-0.353553390593274 1:-0.0177514792899408 2:-0.0177514792899408 3:-0.0029585798816568 4:0.014792899408284 5:-0.0118343195266272 
-0.353553390593274 1:-0.0177514792899408 2:-0.0029585798816568 3:0.014792899408284 4:-0.0118343195266272 5:-0.00887573964497041 
-0.353553390593274 1:-0.0029585798816568 2:0.014792899408284 3:-0.0118343195266272 4:-0.00887573964497041 5:-0.00887573964497041 
-0.353553390593274 1:0.014792899408284 2:-0.0118343195266272 3:-0.00887573964497041 4:-0.00887573964497041 5:-0.014792899408284 
0.353553390593274 1:-0.0118343195266272 2:-0.00887573964497041 3:-0.00887573964497041 4:-0.014792899408284 5:-0.0118343195266272 
-0.353553390593274 1:-0.00887573964497041 2:-0.014792899408284 3:-0.0118343195266272 4:0.0118343195266272 5:0.00591715976331361 
0.353553390593274 1:-0.014792899408284 2:-0.0118343195266272 3:0.0118343195266272 4:0.00591715976331361 5:-0.014792899408284 
0.353553390593274 1:-0.0118343195266272 2:0.0118343195266272 3:0.00591715976331361 4:-0.014792899408284 5:-0.014792899408284 
-0.353553390593274 1:0.0118343195266272 2:0.00591715976331361 3:-0.014792899408284 4:-0.014792899408284 5:0.0118343195266272 
-0.353553390593274 1:0.00591715976331361 2:-0.014792899408284 3:-0.014792899408284 4:0.0118343195266272 5:0.0118343195266272 
-0.353553390593274 1:-0.014792899408284 2:0.0118343195266272 3:0.0118343195266272 4:-0.014792899408284 5:0.0029585798816568 
-0.353553390593274 1:0.0118343195266272 2:0.0118343195266272 3:-0.014792899408284 4:0.0029585798816568 5:0 
0.353553390593274 1:0.0118343195266272 2:-0.014792899408284 3:0.0029585798816568 4:0 5:-0.00946745562130178 
0.353553390593274 1:-0.014792899408284 2:0.0029585798816568 3:0 4:-0.00946745562130178 5:-0.0142011834319527 
0.353553390593274 1:0.0029585798816568 2:0 3:-0.00946745562130178 4:-0.0142011834319527 5:0.01301775147929 
0.353553390593274 1:0 2:-0.00946745562130178 3:-0.0142011834319527 4:0.01301775147929 5:-0.00828402366863909 
0.353553390593274 1:-0.00946745562130178 2:-0.0142011834319527 3:0.01301775147929 4:-0.00828402366863909 5:0.00532544378698228 
0.353553390593274 1:-0.0142011834319527 2:0.01301775147929 3:-0.00828402366863909 4:0.00532544378698228 5:0.0136094674556213 
-0.353553390593274 1:0.01301775147929 2:-0.00828402366863909 3:0.00532544378698228 4:0.0136094674556213 5:0.014792899408284 
-0.353553390593274 1:0.00532544378698228 2:0.0136094674556213 3:0.014792899408284 4:-0.014792899408284 5:0.0118343195266272 
-0.353553390593274 1:0.0136094674556213 2:0.014792899408284 3:-0.014792899408284 4:0.0118343195266272 5:0 
-0.353553390593274 1:0.014792899408284 2:-0.014792899408284 3:0.0118343195266272 4:0 5:0 
-0.353553390593274 1:-0.014792899408284 2:0.0118343195266272 3:0 4:0 5:-0.00591715976331361 
0.353553390593274 1:0.0118343195266272 2:0 3:0 4:-0.00591715976331361 5:-0.0112426035502958 
0.353553390593274 1:0 2:0 3:-0.00591715976331361 4:-0.0112426035502958 5:-0.00355029585798817 
0.353553390593274 1:0 2:-0.00591715976331361 3:-0.0112426035502958 4:-0.00355029585798817 5:0 
0.353553390593274 1:-0.00591715976331361 2:-0.0112426035502958 3:-0.00355029585798817 4:0 5:-0.00177514792899407 
0.353553390593274 1:-0.0112426035502958 2:-0.00355029585798817 3:0 4:-0.00177514792899407 5:-0.000591715976331369 
0.353553390593274 1:-0.00355029585798817 2:0 3:-0.00177514792899407 4:-0.000591715976331369 5:0.0112426035502958 
0.353553390593274 1:0 2:-0.00177514792899407 3:-0.000591715976331369 4:0.0112426035502958 5:-0.0029585798816568 
0.353553390593274 1:-0.00177514792899407 2:-0.000591715976331369 3:0.0112426035502958 4:-0.0029585798816568 5:0 
0.353553390593274 1:-0.000591715976331369 2:0.0112426035502958 3:-0.0029585798816568 4:0 5:0 
-0.353553390593274 1:0.0112426035502958 2:-0.0029585798816568 3:0 4:0 5:0.00887573964497041 
-0.353553390593274 1:-0.0029585798816568 2:0 3:0 4:0.00887573964497041 5:0.00887573964497041 
0.0230991682879618 1:0.00887573964497041 2:-0.00887573964497041 3:-0.00591715976331361 4:0 5:-0.00355029585798817 
0.353553390593274 1:-0.00591715976331361 2:0 3:-0.00355029585798817 4:0.00650887573964498 5:-0.00591715976331361 
-0.353553390593274 1:-0.00355029585798817 2:0.00650887573964498 3:-0.00591715976331361 4:0.0029585798816568 5:0 
-0.353553390593274 1:0.00650887573964498 2:-0.00591715976331361 3:0.0029585798816568 4:0 5:-0.00355029585798817 
-0.353553390593274 1:-0.00591715976331361 2:0.0029585798816568 3:0 4:-0.00355029585798817 5:-0.0011834319526627 
-0.353553390593274 1:0.0029585798816568 2:0 3:-0.00355029585798817 4:-0.0011834319526627 5:0.00473372781065087 
-0.353553390593274 1:0 2:-0.00355029585798817 3:-0.0011834319526627 4:0.00473372781065087 5:0 
0.353553390593274 1:-0.00355029585798817 2:-0.0011834319526627 3:0.00473372781065087 4:0 5:-0.0118343195266272 
0.353553390593274 1:-0.0011834319526627 2:0.00473372781065087 3:0 4:-0.0118343195266272 5:-0.0112426035502958 
0.353553390593274 1:0 2:-0.0118343195266272 3:-0.0112426035502958 4:0.00532544378698224 5:-0.00591715976331361 
-0.353553390593274 1:-0.0112426035502958 2:0.00532544378698224 3:-0.00591715976331361 4:0.00591715976331361 5:0.0106508875739645 
-0.353553390593274 1:0.00532544378698224 2:-0.00591715976331361 3:0.00591715976331361 4:0.0106508875739645 5:-0.00769230769230768 
-0.353553390593274 1:-0.00591715976331361 2:0.00591715976331361 3:0.0106508875739645 4:-0.00769230769230768 5:-0.00532544378698224 
-0.353553390593274 1:0.00591715976331361 2:0.0106508875739645 3:-0.00769230769230768 4:-0.00532544378698224 5:-0.000591715976331369 
-0.353553390593274 1:0.0106508875739645 2:-0.00769230769230768 3:-0.00532544378698224 4:-0.000591715976331369 5:-0.00236686390532544 
-0.353553390593274 1:-0.00769230769230768 2:-0.00532544378698224 3:-0.000591715976331369 4:-0.00236686390532544 5:-0.00769230769230772 
-0.353553390593274 1:-0.00532544378698224 2:-0.000591715976331369 3:-0.00236686390532544 4:-0.00769230769230772 5:-0.0130177514792899 
-0.353553390593274 1:-0.000591715976331369 2:-0.00236686390532544 3:-0.00769230769230772 4:-0.0130177514792899 5:-0.00650887573964498 
0.353553390593274 1:-0.00769230769230772 2:-0.0130177514792899 3:-0.00650887573964498 4:0 5:-0.00236686390532544 
0.353553390593274 1:-0.0130177514792899 2:-0.00650887573964498 3:0 4:-0.00236686390532544 5:-0.0118343195266272 
0.353553390593274 1:-0.00650887573964498 2:0 3:-0.00236686390532544 4:-0.0118343195266272 5:-0.0112426035502958 
0.353553390593274 1:0 2:-0.00236686390532544 3:-0.0118343195266272 4:-0.0112426035502958 5:0.0106508875739645 
0.353553390593274 1:-0.00236686390532544 2:-0.0118343195266272 3:-0.0112426035502958 4:0.0106508875739645 5:0.00887573964497041 
0.353553390593274 1:0.0106508875739645 2:0.00887573964497041 3:0.0112426035502958 4:0.00414201183431954 5:-0.0124260355029586 
0.353553390593274 1:0.00887573964497041 2:0.0112426035502958 3:0.00414201183431954 4:-0.0124260355029586 5:0.00236686390532544 
0.353553390593274 1:0.00414201183431954 2:-0.0124260355029586 3:0.00236686390532544 4:0.00650887573964498 5:0.00118343195266274 
0.353553390593274 1:0.00236686390532544 2:0.00650887573964498 3:0.00118343195266274 4:0.00532544378698224 5:0.00177514792899407 
0.353553390593274 1:0.00650887573964498 2:0.00118343195266274 3:0.00532544378698224 4:0.00177514792899407 5:0.00355029585798817 
0.353553390593274 1:0.00118343195266274 2:0.00532544378698224 3:0.00177514792899407 4:0.00355029585798817 5:-0.00946745562130178 
0.353553390593274 1:0.00532544378698224 2:0.00177514792899407 3:0.00355029585798817 4:-0.00946745562130178 5:0 
0.353553390593274 1:0.00355029585798817 2:-0.00946745562130178 3:0 4:0.00355029585798817 5:0.00946745562130178 
0.353553390593274 1:0 2:0.00355029585798817 3:0.00946745562130178 4:0.0130177514792899 5:-0.0136094674556213 
0.353553390593274 1:0.00355029585798817 2:0.00946745562130178 3:0.0130177514792899 4:-0.0136094674556213 5:0 
0.353553390593274 1:0.00946745562130178 2:0.0130177514792899 3:-0.0136094674556213 4:0 5:-0.00887573964497041 
0.353553390593274 1:-0.00887573964497041 2:0.01301775147929 3:0.0130177514792899 4:0.00887573964497041 5:-0.0112426035502958 
0.353553390593274 1:0.01301775147929 2:0.0130177514792899 3:0.00887573964497041 4:-0.0112426035502958 5:-0.0136094674556213 
0.353553390593274 1:0.0130177514792899 2:0.00887573964497041 3:-0.0112426035502958 4:-0.0136094674556213 5:-0.00473372781065091 
0.353553390593274 1:0.00887573964497041 2:-0.0112426035502958 3:-0.0136094674556213 4:-0.00473372781065091 5:0.01301775147929 
0.353553390593274 1:-0.0112426035502958 2:-0.0136094674556213 3:-0.00473372781065091 4:0.01301775147929 5:0.0136094674556213 
0.353553390593274 1:-0.0136094674556213 2:-0.00473372781065091 3:0.01301775147929 4:0.0136094674556213 5:0.0124260355029586 
0.353553390593274 1:-0.00473372781065091 2:0.01301775147929 3:0.0136094674556213 4:0.0124260355029586 5:0.014792899408284 
0.353553390593274 1:0.01301775147929 2:0.0136094674556213 3:0.0124260355029586 4:0.014792899408284 5:-0.0118343195266272 
0.353553390593274 1:0.0136094674556213 2:0.0124260355029586 3:0.014792899408284 4:-0.0118343195266272 5:0 
-0.353553390593274 1:0.014792899408284 2:-0.0118343195266272 3:0 4:0.014792899408284 5:0.014792899408284 
-0.353553390593274 1:-0.0118343195266272 2:0 3:0.014792899408284 4:0.014792899408284 5:0.014792899408284 
-0.353553390593274 1:0 2:0.014792899408284 3:0.014792899408284 4:0.014792899408284 5:-0.0118343195266272 
-0.353553390593274 1:0.014792899408284 2:0.014792899408284 3:0.014792899408284 4:-0.0118343195266272 5:0.0029585798816568 
0.353553390593274 1:0.014792899408284 2:-0.0118343195266272 3:0.0029585798816568 4:-0.014792899408284 5:-0.014792899408284 
0.353553390593274 1:-0.0118343195266272 2:0.0029585798816568 3:-0.014792899408284 4:-0.014792899408284 5:-0.00887573964497041 
0.353553390593274 1:0.0029585798816568 2:-0.014792899408284 3:-0.014792899408284 4:-0.00887573964497041 5:0.014792899408284 
0.353553390593274 1:-0.014792899408284 2:-0.014792899408284 3:-0.00887573964497041 4:0.014792899408284 5:-0.0029585798816568 
0.353553390593274 1:-0.014792899408284 2:-0.00887573964497041 3:0.014792899408284 4:-0.0029585798816568 5:0.0029585798816568 
0.353553390593274 1:-0.00887573964497041 2:0.014792899408284 3:-0.0029585798816568 4:0.0029585798816568 5:0.00591715976331361 
0.353553390593274 1:0.014792899408284 2:-0.0029585798816568 3:0.0029585798816568 4:0.00591715976331361 5:0 
0.353553390593274 1:-0.0029585798816568 2:0.0029585798816568 3:0.00591715976331361 4:0 5:0.0029585798816568 
0.353553390593274 1:0.0029585798816568 2:0.00591715976331361 3:0 4:0.0029585798816568 5:0.014792899408284 
0.353553390593274 1:0.00591715976331361 2:0 3:0.0029585798816568 4:0.014792899408284 5:0.014792899408284 
0.353553390593274 1:0 2:0.0029585798816568 3:0.014792899408284 4:0.014792899408284 5:0 
0.353553390593274 1:0.014792899408284 2:0.014792899408284 3:0 4:0.0177514792899408 5:0.0029585798816568 
-0.353553390593274 1:0 2:0.0177514792899408 3:0.0029585798816568 4:0.0118343195266272 5:0.0118343195266272 
0.353553390593274 1:0.0177514792899408 2:0.0029585798816568 3:0.0118343195266272 4:0.0118343195266272 5:-0.0177514792899408 
0.353553390593274 1:0.0029585798816568 2:0.0118343195266272 3:0.0118343195266272 4:-0.0177514792899408 5:-0.00887573964497041 
-0.353553390593274 1:0.0118343195266272 2:0.0118343195266272 3:-0.0177514792899408 4:-0.00887573964497041 5:0.0177514792899408 
0.353553390593274 1:0.0118343195266272 2:-0.0177514792899408 3:-0.00887573964497041 4:0.0177514792899408 5:0 
0.353553390593274 1:0.0177514792899408 2:0 3:0.0029585798816568 4:0 5:-0.00887573964497041 
0.353553390593274 1:0 2:0.0029585798816568 3:0 4:-0.00887573964497041 5:-0.0118343195266272 
0.353553390593274 1:0 2:-0.00887573964497041 3:-0.0118343195266272 4:0.0177514792899408 5:0.0029585798816568 
0.353553390593274 1:-0.00887573964497041 2:-0.0118343195266272 3:0.0177514792899408 4:0.0029585798816568 5:0 
0.353553390593274 1:-0.0118343195266272 2:0.0177514792899408 3:0.0029585798816568 4:0 5:0 
0.353553390593274 1:0.0177514792899408 2:0.0029585798816568 3:0 4:0 5:-0.00591715976331361 
0.353553390593274 1:0.0029585798816568 2:0 3:0 4:-0.00591715976331361 5:0 
0.353553390593274 1:0 2:0 3:-0.00591715976331361 4:0 5:0.014792899408284 
0.353553390593274 1:0 2:-0.00591715976331361 3:0 4:0.014792899408284 5:0.00887573964497041 
0.353553390593274 1:-0.00591715976331361 2:0 3:0.014792899408284 4:0.00887573964497041 5:0 
0.353553390593274 1:0 2:0.014792899408284 3:0.00887573964497041 4:0 5:0.0029585798816568 
-0.353553390593274 1:0.014792899408284 2:0.00887573964497041 3:0 4:0.0029585798816568 5:0.0207100591715976 
-0.353553390593274 1:0.00887573964497041 2:0 3:0.0029585798816568 4:0.0207100591715976 5:0.0207100591715976 
-0.353553390593274 1:0 2:0.0029585798816568 3:0.0207100591715976 4:0.0207100591715976 5:-0.0029585798816568 
-0.353553390593274 1:0.0029585798816568 2:0.0207100591715976 3:0.0207100591715976 4:-0.0029585798816568 5:-0.0207100591715976 
-0.353553390593274 1:0.0207100591715976 2:0.0207100591715976 3:-0.0029585798816568 4:-0.0207100591715976 5:0 
0.353553390593274 1:0.0207100591715976 2:-0.0029585798816568 3:-0.0207100591715976 4:0 5:-0.0177514792899408 
0.353553390593274 1:-0.0029585798816568 2:-0.0207100591715976 3:0 4:-0.0177514792899408 5:-0.014792899408284 
0.353553390593274 1:-0.0207100591715976 2:0 3:-0.0177514792899408 4:-0.014792899408284 5:-0.014792899408284 
0.353553390593274 1:0 2:-0.0177514792899408 3:-0.014792899408284 4:-0.014792899408284 5:0.0177514792899408 
0.353553390593274 1:-0.0177514792899408 2:-0.014792899408284 3:-0.014792899408284 4:0.0177514792899408 5:0.0177514792899408 
-0.353553390593274 1:-0.014792899408284 2:-0.014792899408284 3:0.0177514792899408 4:0.0177514792899408 5:0.0207100591715976 
0.353553390593274 1:-0.014792899408284 2:0.0177514792899408 3:0.0177514792899408 4:0.0207100591715976 5:-0.0207100591715976 
0.353553390593274 1:0.0177514792899408 2:0.0177514792899408 3:0.0207100591715976 4:-0.0207100591715976 5:-0.0177514792899408 
-0.353553390593274 1:0.0177514792899408 2:0.0207100591715976 3:-0.0207100591715976 4:-0.0177514792899408 5:0.0177514792899408 
-0.353553390593274 1:0.0207100591715976 2:-0.0207100591715976 3:-0.0177514792899408 4:0.0177514792899408 5:0.0029585798816568 
-0.353553390593274 1:-0.0207100591715976 2:-0.0177514792899408 3:0.0177514792899408 4:0.0029585798816568 5:0.00887573964497041 
0.353553390593274 1:-0.0177514792899408 2:0.0177514792899408 3:0.0029585798816568 4:0.00887573964497041 5:-0.0029585798816568 
0.353553390593274 1:0.0177514792899408 2:0.0029585798816568 3:0.00887573964497041 4:-0.0029585798816568 5:-0.0177514792899408 
0.353553390593274 1:0.0029585798816568 2:0.00887573964497041 3:-0.0029585798816568 4:-0.0177514792899408 5:-0.0177514792899408 
0.353553390593274 1:0.00887573964497041 2:-0.0029585798816568 3:-0.0177514792899408 4:-0.0177514792899408 5:0.014792899408284 
0.353553390593274 1:-0.0029585798816568 2:-0.0177514792899408 3:-0.0177514792899408 4:0.014792899408284 5:0.00591715976331361 
-0.353553390593274 1:-0.0177514792899408 2:-0.0177514792899408 3:0.014792899408284 4:0.00591715976331361 5:0.0177514792899408 
-0.353553390593274 1:-0.0177514792899408 2:0.014792899408284 3:0.00591715976331361 4:0.0177514792899408 5:-0.00591715976331361 
0.353553390593274 1:0.00591715976331361 2:0.0177514792899408 3:-0.00591715976331361 4:-0.0029585798816568 5:-0.00591715976331361 
0.353553390593274 1:0.0177514792899408 2:-0.00591715976331361 3:-0.0029585798816568 4:-0.00591715976331361 5:0 
0.353553390593274 1:-0.0029585798816568 2:-0.00591715976331361 3:0 4:0 5:-0.00591715976331361 
0.353553390593274 1:-0.00591715976331361 2:0 3:0 4:-0.00591715976331361 5:0.00887573964497041 
0.353553390593274 1:0 2:0 3:-0.00591715976331361 4:0.00887573964497041 5:0.0029585798816568 
0.353553390593274 1:0 2:-0.00591715976331361 3:0.00887573964497041 4:0.0029585798816568 5:0 
0.353553390593274 1:-0.00591715976331361 2:0.00887573964497041 3:0.0029585798816568 4:0 5:-0.00887573964497041 
0.353553390593274 1:0.00887573964497041 2:0.0029585798816568 3:0 4:-0.00887573964497041 5:0.00887573964497041 
0.353553390593274 1:0.0029585798816568 2:0 3:-0.00887573964497041 4:0.00887573964497041 5:0 
0.353553390593274 1:0 2:-0.00887573964497041 3:0.00887573964497041 4:0 5:0.00591715976331361 
0.353553390593274 1:0 2:0.00591715976331361 3:0.0207100591715976 4:0.0029585798816568 5:-0.0118343195266272 
0.353553390593274 1:0.00591715976331361 2:0.0207100591715976 3:0.0029585798816568 4:-0.0118343195266272 5:0 
0.353553390593274 1:0.0207100591715976 2:0.0029585798816568 3:-0.0118343195266272 4:0 5:0 
0.353553390593274 1:0.0029585798816568 2:-0.0118343195266272 3:0 4:0 5:0.00887573964497041 
0.353553390593274 1:-0.0118343195266272 2:0 3:0 4:0.00887573964497041 5:0 
0.353553390593274 1:0 2:0 3:0.00887573964497041 4:0 5:0.00591715976331361 
0.353553390593274 1:0 2:0.00887573964497041 3:0 4:0.00591715976331361 5:0 
0.353553390593274 1:0.00887573964497041 2:0 3:0.00591715976331361 4:0 5:0.0029585798816568 
0.353553390593274 1:0 2:0.00591715976331361 3:0 4:0.0029585798816568 5:0 
0.353553390593274 1:0.00887573964497041 2:0 3:0.0029585798816568 4:0.0029585798816568 5:-0.0029585798816568 
0.353553390593274 1:0 2:0.0029585798816568 3:0.0029585798816568 4:-0.0029585798816568 5:-0.0029585798816568 
0.353553390593274 1:0.0029585798816568 2:0.0029585798816568 3:-0.0029585798816568 4:-0.0029585798816568 5:-0.0029585798816568 
0.353553390593274 1:0.0029585798816568 2:-0.0029585798816568 3:-0.0029585798816568 4:-0.0029585798816568 5:0.00591715976331361 
0.353553390593274 1:-0.0029585798816568 2:-0.0029585798816568 3:-0.0029585798816568 4:0.00591715976331361 5:0.0029585798816568 
0.353553390593274 1:-0.0029585798816568 2:-0.0029585798816568 3:0.00591715976331361 4:0.0029585798816568 5:0.0118343195266272 
0.353553390593274 1:-0.0029585798816568 2:0.00591715976331361 3:0.0029585798816568 4:0.0118343195266272 5:0.0236686390532544 
0.353553390593274 1:0.0029585798816568 2:0.0118343195266272 3:0.0236686390532544 4:0.0029585798816568 5:-0.00591715976331361 
-0.353553390593274 1:0.0236686390532544 2:0.0029585798816568 3:-0.00591715976331361 4:0 5:0.00591715976331361 
-0.353553390593274 1:0.0029585798816568 2:-0.00591715976331361 3:0 4:0.00591715976331361 5:0.0118343195266272 
-0.353553390593274 1:-0.00591715976331361 2:0 3:0.00591715976331361 4:0.0118343195266272 5:-0.00887573964497041 
-0.353553390593274 1:0 2:0.00591715976331361 3:0.0118343195266272 4:-0.00887573964497041 5:0 
0.353553390593274 1:0.0118343195266272 2:-0.00887573964497041 3:0 4:-0.0118343195266272 5:-0.00887573964497041 
0.353553390593274 1:-0.00887573964497041 2:0 3:-0.0118343195266272 4:-0.00887573964497041 5:-0.0118343195266272 
0.353553390593274 1:0 2:-0.0118343195266272 3:-0.00887573964497041 4:-0.0118343195266272 5:0.00591715976331361 
0.353553390593274 1:-0.0118343195266272 2:-0.00887573964497041 3:-0.0118343195266272 4:0.00591715976331361 5:0.00591715976331361 
0.353553390593274 1:-0.00887573964497041 2:-0.0118343195266272 3:0.00591715976331361 4:0.00591715976331361 5:0.0029585798816568 
0.353553390593274 1:-0.0118343195266272 2:0.00591715976331361 3:0.00591715976331361 4:0.0029585798816568 5:-0.0029585798816568 
0.353553390593274 1:0.00591715976331361 2:0.00591715976331361 3:0.0029585798816568 4:-0.0029585798816568 5:0.0236686390532544 
-0.353553390593274 1:0.00591715976331361 2:0.0029585798816568 3:-0.0029585798816568 4:0.0236686390532544 5:0.0118343195266272 
0.353553390593274 1:0.0029585798816568 2:-0.0029585798816568 3:0.0236686390532544 4:0.0118343195266272 5:-0.0177514792899408 
-0.353553390593274 1:-0.0029585798816568 2:0.0236686390532544 3:0.0118343195266272 4:-0.0177514792899408 5:0.0177514792899408 
-0.353553390593274 1:0.0236686390532544 2:0.0118343195266272 3:-0.0177514792899408 4:0.0177514792899408 5:0 
-0.353553390593274 1:0.0118343195266272 2:-0.0177514792899408 3:0.0177514792899408 4:0 5:0 
-0.353553390593274 1:-0.0177514792899408 2:0.0177514792899408 3:0 4:0 5:-0.00591715976331361 
-0.353553390593274 1:0 2:-0.00591715976331361 3:-0.00591715976331361 4:-0.00591715976331361 5:0 
-0.353553390593274 1:-0.00591715976331361 2:-0.00591715976331361 3:-0.00591715976331361 4:0 5:0 
-0.353553390593274 1:-0.00591715976331361 2:-0.00591715976331361 3:0 4:0 5:-0.0029585798816568 
0.353553390593274 1:0 2:0 3:-0.0029585798816568 4:0 5:-0.00887573964497041 
0.353553390593274 1:0 2:-0.0029585798816568 3:0 4:-0.00887573964497041 5:-0.014792899408284 
0.353553390593274 1:-0.0029585798816568 2:0 3:-0.00887573964497041 4:-0.014792899408284 5:0 
0.353553390593274 1:0 2:-0.00887573964497041 3:-0.014792899408284 4:0 5:0.0029585798816568 
0.353553390593274 1:-0.00887573964497041 2:-0.014792899408284 3:0 4:0.0029585798816568 5:0.0207100591715976 
0.353553390593274 1:-0.014792899408284 2:0 3:0.0029585798816568 4:0.0207100591715976 5:0 
0.353553390593274 1:0 2:0.0029585798816568 3:0.0207100591715976 4:0 5:0 
0.353553390593274 1:0.0029585798816568 2:0.0207100591715976 3:0 4:0 5:0.00591715976331361 
0.353553390593274 1:0.0207100591715976 2:0 3:0 4:0.00591715976331361 5:0 
-0.353553390593274 1:0 2:0.00591715976331361 3:0 4:0.00887573964497041 5:0.0236686390532544 
-0.170708966834635 1:0.00591715976331361 2:0 3:0.00887573964497041 4:0.0236686390532544 5:-0.00887573964497041 
-0.353553390593274 1:0.00887573964497041 2:0.0236686390532544 3:-0.00887573964497041 4:-0.014792899408284 5:0.00887573964497041 
-0.353553390593274 1:-0.00887573964497041 2:-0.014792899408284 3:0.00887573964497041 4:-0.00887573964497041 5:0.00887573964497041 
-0.353553390593274 1:-0.014792899408284 2:0.00887573964497041 3:-0.00887573964497041 4:0.00887573964497041 5:-0.00591715976331361 
-0.353553390593274 1:0.00887573964497041 2:-0.00887573964497041 3:0.00887573964497041 4:-0.00591715976331361 5:-0.0029585798816568 
-0.353553390593274 1:-0.00887573964497041 2:0.00887573964497041 3:-0.00591715976331361 4:-0.0029585798816568 5:-0.00591715976331361 
-0.353553390593274 1:0.00887573964497041 2:-0.00591715976331361 3:-0.0029585798816568 4:-0.00591715976331361 5:-0.0029585798816568 
0.353553390593274 1:-0.00591715976331361 2:-0.0029585798816568 3:-0.00591715976331361 4:-0.0029585798816568 5:-0.014792899408284 
-0.353553390593274 1:-0.0029585798816568 2:-0.00591715976331361 3:-0.0029585798816568 4:-0.014792899408284 5:0.00591715976331361 
0.353553390593274 1:-0.00591715976331361 2:-0.0029585798816568 3:-0.014792899408284 4:0.00591715976331361 5:-0.0236686390532544 
0.353553390593274 1:-0.014792899408284 2:0.00591715976331361 3:-0.0236686390532544 4:-0.00591715976331361 5:0.00591715976331361 
0.353553390593274 1:-0.0236686390532544 2:-0.00591715976331361 3:0.00591715976331361 4:0.014792899408284 5:-0.014792899408284 
0.353553390593274 1:-0.00591715976331361 2:0.00591715976331361 3:0.014792899408284 4:-0.014792899408284 5:-0.0029585798816568 
0.353553390593274 1:0.00591715976331361 2:0.014792899408284 3:-0.014792899408284 4:-0.0029585798816568 5:-0.00887573964497041 
0.353553390593274 1:0.014792899408284 2:-0.014792899408284 3:-0.0029585798816568 4:-0.00887573964497041 5:0.0118343195266272 
-0.353553390593274 1:0.0118343195266272 2:0.0118343195266272 3:0 4:-0.0118343195266272 5:0.0029585798816568 
-0.353553390593274 1:0.0118343195266272 2:0 3:-0.0118343195266272 4:0.0029585798816568 5:0.0029585798816568 
-0.353553390593274 1:0 2:-0.0118343195266272 3:0.0029585798816568 4:0.0029585798816568 5:0.00591715976331361 
-0.353553390593274 1:-0.0118343195266272 2:0.0029585798816568 3:0.0029585798816568 4:0.00591715976331361 5:0 
-0.353553390593274 1:0.0029585798816568 2:0.0029585798816568 3:0.00591715976331361 4:0 5:-0.0118343195266272 
0.353553390593274 1:0.00591715976331361 2:0 3:-0.0118343195266272 4:-0.0118343195266272 5:-0.0236686390532544 
0.353553390593274 1:0 2:-0.0118343195266272 3:-0.0118343195266272 4:-0.0236686390532544 5:-0.0207100591715976 
0.353553390593274 1:-0.0118343195266272 2:-0.0118343195266272 3:-0.0236686390532544 4:-0.0207100591715976 5:0.0207100591715976 
-0.353553390593274 1:-0.0118343195266272 2:-0.0236686390532544 3:-0.0207100591715976 4:0.0207100591715976 5:0.0207100591715976 
-0.353553390593274 1:-0.0236686390532544 2:-0.0207100591715976 3:0.0207100591715976 4:0.0207100591715976 5:0 
-0.353553390593274 1:-0.0207100591715976 2:0.0207100591715976 3:0.0207100591715976 4:0 5:-0.00887573964497041 
-0.353553390593274 1:0.0207100591715976 2:0.0207100591715976 3:0 4:-0.00887573964497041 5:-0.0118343195266272 
-0.353553390593274 1:0.0207100591715976 2:0 3:-0.00887573964497041 4:-0.0118343195266272 5:0 
-0.353553390593274 1:0 2:-0.00887573964497041 3:-0.0118343195266272 4:0 5:0.00887573964497041 
-0.353553390593274 1:0 2:0.00887573964497041 3:-0.00591715976331361 4:-0.0177514792899408 5:-0.0029585798816568 
-0.353553390593274 1:0.00887573964497041 2:-0.00591715976331361 3:-0.0177514792899408 4:-0.0029585798816568 5:-0.00591715976331361 
-0.353553390593274 1:-0.00591715976331361 2:-0.0177514792899408 3:-0.0029585798816568 4:-0.00591715976331361 5:0.0118343195266272 
0.353553390593274 1:-0.0029585798816568 2:-0.00591715976331361 3:0.0118343195266272 4:0.0029585798816568 5:-0.014792899408284 
0.353553390593274 1:-0.00591715976331361 2:0.0118343195266272 3:0.0029585798816568 4:-0.014792899408284 5:-0.0118343195266272 
0.353553390593274 1:0.0118343195266272 2:0.0029585798816568 3:-0.014792899408284 4:-0.0118343195266272 5:-0.0177514792899408 
0.353553390593274 1:0.0029585798816568 2:-0.014792899408284 3:-0.0118343195266272 4:-0.0177514792899408 5:0.0177514792899408 
0.353553390593274 1:-0.014792899408284 2:-0.0118343195266272 3:-0.0177514792899408 4:0.0177514792899408 5:0.0207100591715976 
-0.353553390593274 1:-0.0177514792899408 2:0.0177514792899408 3:0.0207100591715976 4:0.0207100591715976 5:0.0118343195266272 
0.353553390593274 1:0.0207100591715976 2:0.0207100591715976 3:0.0118343195266272 4:0.0118343195266272 5:-0.0118343195266272 
0.353553390593274 1:0.0207100591715976 2:0.0118343195266272 3:0.0118343195266272 4:-0.0118343195266272 5:-0.0118343195266272 
0.353553390593274 1:0.0118343195266272 2:0.0118343195266272 3:-0.0118343195266272 4:-0.0118343195266272 5:0.00591715976331361 
-0.353553390593274 1:-0.0118343195266272 2:-0.0118343195266272 3:0.00591715976331361 4:0.00591715976331361 5:0.0207100591715976 
-0.353553390593274 1:-0.0118343195266272 2:0.00591715976331361 3:0.00591715976331361 4:0.0207100591715976 5:0 
-0.353553390593274 1:0.00591715976331361 2:0.00591715976331361 3:0.0207100591715976 4:0 5:-0.00887573964497041 
-0.353553390593274 1:0.00591715976331361 2:0.0207100591715976 3:0 4:-0.00887573964497041 5:-0.0029585798816568 
0.353553390593274 1:-0.00887573964497041 2:-0.0029585798816568 3:-0.014792899408284 4:-0.0029585798816568 5:-0.00887573964497041 
0.353553390593274 1:-0.0029585798816568 2:-0.014792899408284 3:-0.0029585798816568 4:-0.00887573964497041 5:0.014792899408284 
0.353553390593274 1:-0.0029585798816568 2:-0.00887573964497041 3:0.014792899408284 4:0.0029585798816568 5:-0.00887573964497041 
0.353553390593274 1:-0.00887573964497041 2:0.014792899408284 3:0.0029585798816568 4:-0.00887573964497041 5:-0.00887573964497041 
0.353553390593274 1:0.014792899408284 2:0.0029585798816568 3:-0.00887573964497041 4:-0.00887573964497041 5:0.00887573964497041 
0.353553390593274 1:-0.00887573964497041 2:-0.00887573964497041 3:0.00887573964497041 4:0.00887573964497041 5:-0.00591715976331361 
0.353553390593274 1:-0.00591715976331361 2:0 3:0.0029585798816568 4:0.014792899408284 5:-0.0177514792899408 
0.353553390593274 1:0 2:0.0029585798816568 3:0.014792899408284 4:-0.0177514792899408 5:0 
0.353553390593274 1:0.0029585798816568 2:0.014792899408284 3:-0.0177514792899408 4:0 5:-0.00591715976331361 
0.353553390593274 1:0.014792899408284 2:-0.0177514792899408 3:0 4:-0.00591715976331361 5:0.00591715976331361 
-0.353553390593274 1:-0.0177514792899408 2:0 3:-0.00591715976331361 4:0.00591715976331361 5:0.0177514792899408 
-0.353553390593274 1:0 2:-0.00591715976331361 3:0.00591715976331361 4:0.0177514792899408 5:0.0207100591715976 
0.353553390593274 1:0.00591715976331361 2:0.0177514792899408 3:0.0207100591715976 4:0 5:-0.0207100591715976 
0.353553390593274 1:0.0207100591715976 2:0 3:-0.0207100591715976 4:0.0118343195266272 5:-0.0207100591715976 
-0.353553390593274 1:-0.0207100591715976 2:0.0118343195266272 3:-0.0207100591715976 4:0.014792899408284 5:0.00887573964497041 
-0.353553390593274 1:0.0118343195266272 2:-0.0207100591715976 3:0.014792899408284 4:0.00887573964497041 5:0.0029585798816568 
-0.353553390593274 1:-0.0207100591715976 2:0.014792899408284 3:0.00887573964497041 4:0.0029585798816568 5:-0.0029585798816568 
