svm_type epsilon_svr
kernel_type rbf
gamma 7.11857975440882
nr_class 2
total_sv 795
rho 0.0777476867177367
SV
5.92960408327845 1:0.0533170091370093 2:0.103680680697883 3:-0.0513603097581483 4:0.126675840462891 5:1.04083408558608E-17 
5.92960408327845 1:0.0926486869436754 2:0.176575728009519 3:-0.0743156487703851 4:-0.0892713861060652 5:0.187926826051159 
5.92960408327845 1:0.168123314435321 2:-0.0125800586926358 3:0.0868957074630209 4:-0.0617918768820483 5:0.181427964651356 
5.92960408327845 1:0.27297822169317 2:-0.152713780295808 3:0.152713780295808 4:0.109304669625221 5:0.047242612557646 
5.92960408327845 1:0.168123314435321 2:-0.115309325938983 3:0.177375246854134 4:1.38777878078145E-17 5:0.257836068347249 
5.92960408327845 1:0.155543255742686 2:0.0375718171089735 3:0.133602981503231 4:-0.0965288190044179 5:0.189839404429278 
5.92960408327845 1:0.103680680697883 2:-0.0513603097581483 3:0.126675840462891 4:1.04083408558608E-17 5:0.214500870987603 
5.92960408327845 1:0.176575728009519 2:-0.0743156487703851 3:-0.0892713861060652 4:0.187926826051159 5:0.287630491118561 
5.92960408327845 1:-0.0125800586926358 2:0.0868957074630209 3:-0.0617918768820483 4:0.181427964651356 5:0.330982569111141 
2.79493343801227 1:-0.152713780295808 2:0.152713780295808 3:0.109304669625221 4:0.047242612557646 5:0.341368697344974 
-4.23633348295635 1:-0.115309325938983 2:0.177375246854134 3:1.38777878078145E-17 4:0.257836068347249 5:0.356917223596757 
-0.48041673777724 1:0.0375718171089735 2:0.133602981503231 3:-0.0965288190044179 4:0.189839404429278 5:0.385210266534639 
5.92960408327845 1:-0.0513603097581483 2:0.126675840462891 3:1.04083408558608E-17 4:0.214500870987603 5:0.252140388232233 
5.92960408327845 1:-0.0743156487703851 2:-0.0892713861060652 3:0.187926826051159 4:0.287630491118561 5:-0.010955232565994 
-4.06793696069254 1:0.0868957074630209 2:-0.0617918768820483 3:0.181427964651356 4:0.330982569111141 5:-0.0208885920741712 
5.92960408327845 1:0.152713780295808 2:0.109304669625221 3:0.047242612557646 4:0.341368697344974 5:-0.159989735387004 
-1.59385855294279 1:0.177375246854134 2:1.38777878078145E-17 3:0.257836068347249 4:0.356917223596757 5:-0.356917223596757 
3.25506694362718 1:0.133602981503231 2:-0.0965288190044179 3:0.189839404429278 4:0.385210266534639 5:-0.408247913846569 
5.92960408327845 1:0.126675840462891 2:1.04083408558608E-17 3:0.214500870987603 4:0.252140388232233 5:-0.139713293856 
5.92960408327845 1:-0.0892713861060652 2:0.187926826051159 3:0.287630491118561 4:-0.010955232565994 5:0.128715015079 
5.92960408327845 1:-0.0617918768820483 2:0.181427964651356 3:0.330982569111141 4:-0.0208885920741712 5:0.0927949626275146 
0.00440325895546366 1:0.109304669625221 2:0.047242612557646 3:0.341368697344974 4:-0.159989735387004 5:0.350338940081322 
-1.02198285245783 1:1.38777878078145E-17 2:0.257836068347249 3:0.356917223596757 4:-0.356917223596757 5:0.317213602616668 
2.69577943044329 1:-0.0965288190044179 2:0.189839404429278 3:0.385210266534639 4:-0.408247913846569 5:0.275178035544163 
5.92960408327845 1:1.04083408558608E-17 2:0.214500870987603 3:0.252140388232233 4:-0.139713293856 5:0.282762000365431 
5.92960408327845 1:0.187926826051159 2:0.287630491118561 3:-0.010955232565994 4:0.128715015079 5:0.231292529943974 
5.92960408327845 1:0.181427964651356 2:0.330982569111141 3:-0.0208885920741712 4:0.0927949626275146 5:0.279656469130983 
3.24520154000627 1:0.047242612557646 2:0.341368697344974 3:-0.159989735387004 4:0.350338940081322 5:0.113875704789281 
3.40352845840815 1:0.257836068347249 2:0.356917223596757 3:-0.356917223596757 4:0.317213602616668 5:0.069116063391988 
0.48136145154414 1:0.189839404429278 2:0.385210266534639 3:-0.408247913846569 4:0.275178035544163 5:0.344783413915893 
-4.96680404033012 1:0.214500870987603 2:0.252140388232233 3:-0.139713293856 4:0.282762000365431 5:0.33741837923624 
-3.64222595492585 1:0.330982569111141 2:-0.0208885920741712 3:0.0927949626275146 4:0.279656469130983 5:0.38521026653464 
0.533145272512839 1:0.341368697344974 2:-0.159989735387004 3:0.350338940081322 4:0.113875704789281 5:0.562534239150301 
-0.29721863490425 1:0.356917223596757 2:-0.356917223596757 3:0.317213602616668 4:0.069116063391988 5:0.836757436417197 
-0.281003995701692 1:0.385210266534639 2:-0.408247913846569 3:0.275178035544163 4:0.344783413915893 5:0.786640443552562 
-0.315869925213821 1:0.252140388232233 2:-0.139713293856 3:0.282762000365431 4:0.33741837923624 5:0.594408215164136 
-2.93599222086801 1:-0.0208885920741712 2:0.0927949626275146 3:0.279656469130983 4:0.38521026653464 5:0.510328675468328 
-1.53140211841507 1:-0.159989735387004 2:0.350338940081322 3:0.113875704789281 4:0.562534239150301 5:0.500168742906966 
-0.14783794698484 1:-0.356917223596757 2:0.317213602616668 3:0.069116063391988 4:0.836757436417197 5:0.294910230846061 
-0.4468850111432 1:-0.408247913846569 2:0.275178035544163 3:0.344783413915893 4:0.786640443552562 5:0.0691160633919881 
0.341789826730561 1:-0.139713293856 2:0.282762000365431 3:0.33741837923624 4:0.594408215164136 5:0.139285368714136 
-5.92960408327845 1:0.128715015079 2:0.231292529943974 3:0.387002193245786 4:0.506122726746859 5:0.0897432196873239 
-0.295234268923874 1:0.0927949626275146 2:0.279656469130983 3:0.38521026653464 4:0.510328675468328 5:-0.185983710147041 
-1.1204179085506 1:0.350338940081322 2:0.113875704789281 3:0.562534239150301 4:0.500168742906966 5:-0.447425840704074 
-1.28669753797556 1:0.317213602616668 2:0.069116063391988 3:0.836757436417197 4:0.294910230846061 5:-0.24473370556209 
-0.564160560700602 1:0.275178035544163 2:0.344783413915893 3:0.786640443552562 4:0.0691160633919881 5:0.02717553722613 
2.16606236657469 1:0.282762000365431 2:0.33741837923624 3:0.594408215164136 4:0.139285368714136 5:0.152052355779091 
-5.92960408327845 1:0.231292529943974 2:0.387002193245786 3:0.506122726746859 4:0.0897432196873239 5:0.145610331422363 
-2.59675253973097 1:0.279656469130983 2:0.38521026653464 3:0.510328675468328 4:-0.185983710147041 5:0.416172945497514 
-0.811735984140689 1:0.113875704789281 2:0.562534239150301 3:0.500168742906966 4:-0.447425840704074 5:0.690975761791987 
-1.02230824990627 1:0.069116063391988 2:0.836757436417197 3:0.294910230846061 4:-0.24473370556209 5:0.661292051776615 
-1.01790090146664 1:0.344783413915893 2:0.786640443552562 3:0.0691160633919881 4:0.02717553722613 5:0.664866735665623 
1.31143226405729 1:0.33741837923624 2:0.594408215164136 3:0.139285368714136 4:0.152052355779091 5:0.579183156845502 
-4.19501275529212 1:0.387002193245786 2:0.506122726746859 3:0.0897432196873239 4:0.145610331422363 5:0.451673385648141 
-3.29042984806314 1:0.38521026653464 2:0.510328675468328 3:-0.185983710147041 4:0.416172945497514 5:0.189839404429278 
-0.450594798690091 1:0.562534239150301 2:0.500168742906966 3:-0.447425840704074 4:0.690975761791987 5:-0.0888664590388162 
-0.194357983026075 1:0.836757436417197 2:0.294910230846061 3:-0.24473370556209 4:0.661292051776615 5:-0.333189621120925 
-0.198962877599927 1:0.786640443552562 2:0.0691160633919881 3:0.02717553722613 4:0.664866735665623 5:-0.61129460568375 
0.0370420207619686 1:0.594408215164136 2:0.139285368714136 3:0.152052355779091 4:0.579183156845502 5:-0.80001190508024 
-0.427979461899615 1:0.506122726746859 2:0.0897432196873239 3:0.145610331422363 4:0.451673385648141 5:-0.80158239586955 
-0.401188479931231 1:0.510328675468328 2:-0.185983710147041 3:0.416172945497514 4:0.189839404429278 5:-0.812897073464929 
-0.0518461223095228 1:0.500168742906966 2:-0.447425840704074 3:0.690975761791987 4:-0.0888664590388162 5:-0.811264868485664 
-0.00467528457909274 1:0.294910230846061 2:-0.24473370556209 3:0.661292051776615 4:-0.333189621120925 5:-0.807345837800754 
-0.0969033038911188 1:0.0691160633919881 2:0.02717553722613 3:0.664866735665623 4:-0.61129460568375 5:-0.800820502322774 
-0.204644514937154 1:0.139285368714136 2:0.152052355779091 3:0.579183156845502 4:-0.80001190508024 5:-0.800600863252403 
0.368639849402181 1:0.0897432196873239 2:0.145610331422363 3:0.451673385648141 4:-0.80158239586955 5:-0.797940184193235 
0.141506380788297 1:-0.447425840704074 2:0.690975761791987 3:-0.0888664590388162 4:-0.811264868485664 5:-0.689689134167645 
-0.623731643186874 1:-0.24473370556209 2:0.661292051776615 3:-0.333189621120925 4:-0.807345837800754 5:0.303328457785326 
-0.225018690799507 1:0.02717553722613 2:0.664866735665623 3:-0.61129460568375 4:-0.800820502322774 5:0.356046540876723 
-0.208543597056415 1:0.152052355779091 2:0.579183156845502 3:-0.80001190508024 4:-0.800600863252403 5:0.412878284377245 
-0.251527081244833 1:0.145610331422363 2:0.451673385648141 3:-0.80158239586955 4:-0.797940184193235 5:0.464602084603727 
-0.416732845294912 1:0.416172945497514 2:0.189839404429278 3:-0.812897073464929 4:-0.742052061773881 5:0.59241838131011 
-0.450987430863373 1:0.690975761791987 2:-0.0888664590388162 3:-0.811264868485664 4:-0.689689134167645 5:0.591466482526076 
-0.636819772736583 1:0.661292051776615 2:-0.333189621120925 3:-0.807345837800754 4:0.303328457785326 5:-0.187716694423307 
-0.207095573151629 1:0.579183156845502 2:-0.80001190508024 3:-0.800600863252403 4:0.412878284377245 5:-0.156228823370101 
0.00724655182477305 1:-0.0888664590388162 2:-0.811264868485664 3:-0.689689134167645 4:0.591466482526076 5:-0.280139440117856 
-0.0192093554055408 1:-0.61129460568375 2:-0.800820502322774 3:0.356046540876723 4:-0.159989735387004 5:-0.152252181468802 
-0.0389263377070516 1:-0.80001190508024 2:-0.800600863252403 3:0.412878284377245 4:-0.156228823370101 5:0 
-0.0968647563696277 1:-0.80158239586955 2:-0.797940184193235 3:0.464602084603727 4:-0.152252181468802 5:0.160472623052736 
-0.215003487717055 1:-0.811264868485664 2:-0.689689134167645 3:0.591466482526076 4:-0.280139440117856 5:0.481018896165886 
-0.284409201101824 1:-0.807345837800754 2:0.303328457785326 3:-0.187716694423307 4:-0.280565249557708 5:0.47583676192086 
0.205508961926571 1:-0.800820502322774 2:0.356046540876723 3:-0.159989735387004 4:-0.152252181468802 5:0.320006300052178 
0.286074471295232 1:-0.689689134167645 2:0.591466482526076 3:-0.280139440117856 4:0.481018896165886 5:-0.311327042408222 
-0.00456072901664187 1:0.303328457785326 2:-0.187716694423307 3:-0.280565249557708 4:0.47583676192086 5:-0.466908338569051 
-0.31445801891339 1:0.356046540876723 2:-0.159989735387004 3:-0.152252181468802 4:0.320006300052178 5:-0.462664349429437 
3.91893294630674 1:0.412878284377245 2:-0.156228823370101 3:0 4:0.16421472992122 5:-0.458185521809824 
1.6583603471112 1:0.464602084603727 2:-0.152252181468802 3:0.160472623052736 4:2.77555756156289E-17 5:-0.293998336931017 
-0.506907427157278 1:0.59241838131011 2:-0.280565249557708 3:0.320724594789449 4:-0.15577110859376 5:-0.293037324555058 
1.26649692253317 1:0.591466482526076 2:-0.280139440117856 3:0.481018896165886 4:-0.311327042408222 5:-0.292023115223952 
0.452665854838447 1:-0.187716694423307 2:-0.280565249557708 3:0.47583676192086 4:-0.466908338569051 5:-0.290951166045321 
0.607794432121482 1:-0.159989735387004 2:-0.152252181468802 3:0.320006300052178 4:-0.462664349429437 5:-0.298978630323176 
5.92960408327845 1:-0.156228823370101 2:0 3:0.16421472992122 4:-0.458185521809824 5:-0.307462083034433 
4.33472078670237 1:-0.152252181468802 2:0.160472623052736 3:2.77555756156289E-17 4:-0.293998336931017 5:-0.465108655657045 
-0.12227240028047 1:-0.280565249557708 2:0.320724594789449 3:-0.15577110859376 4:-0.293037324555058 5:-0.34846728615169 
2.23184955927752 1:-0.280139440117856 2:0.481018896165886 3:-0.311327042408222 4:-0.292023115223952 5:-0.293841684031225 
0.915479000466075 1:-0.152252181468802 2:0.320006300052178 3:-0.462664349429437 4:-0.298978630323176 5:0.0303698279223731 
4.36857763591764 1:0 2:0.16421472992122 3:-0.458185521809824 4:-0.307462083034433 5:0.192416094611676 
0.731951747471953 1:0.160472623052736 2:2.77555756156289E-17 3:-0.293998336931017 4:-0.465108655657045 5:0.343999054364156 
0.29814015466735 1:0.320724594789449 2:-0.15577110859376 3:-0.293037324555058 4:-0.34846728615169 5:0.34846728615169 
0.524689199992493 1:0.481018896165886 2:-0.311327042408222 3:-0.292023115223952 4:-0.293841684031225 5:0.32255022644005 
0.675160425847491 1:0.47583676192086 2:-0.466908338569051 3:-0.290951166045321 4:-0.131625547053292 5:0.190349204694318 
5.92011154852718 1:0.16421472992122 2:-0.458185521809824 3:-0.307462083034433 4:0.192416094611676 5:0.13376885654239 
1.41123668583961 1:2.77555756156289E-17 2:-0.293998336931017 3:-0.465108655657045 4:0.343999054364156 5:0.111977265793912 
4.17309220860653 1:-0.15577110859376 2:-0.293037324555058 3:-0.34846728615169 4:0.34846728615169 5:0.119126844004149 
0.66179622230115 1:-0.311327042408222 2:-0.292023115223952 3:-0.293841684031225 4:0.32255022644005 5:0.219646630241182 
1.87624691411972 1:-0.466908338569051 2:-0.290951166045321 3:-0.131625547053292 4:0.190349204694318 5:0.319979470774009 
0.919529711492481 1:-0.462664349429437 2:-0.298978630323176 3:0.0303698279223731 4:0.15663153660689 5:0.323327310939065 
-0.32584200548875 1:-0.293998336931017 2:-0.465108655657045 3:0.343999054364156 4:0.111977265793912 5:0.31132704240822 
3.05103746231491 1:-0.293037324555058 2:-0.34846728615169 3:0.34846728615169 4:0.119126844004149 5:0.305655189712714 
-1.00328068976966 1:-0.292023115223952 2:-0.293841684031225 3:0.32255022644005 4:0.219646630241182 5:0.308082294436627 
2.69094171143915 1:-0.290951166045321 2:-0.131625547053292 3:0.190349204694318 4:0.319979470774009 5:0.255761923496894 
1.30847994909334 1:-0.298978630323176 2:0.0303698279223731 3:0.15663153660689 4:0.323327310939065 5:0.204401613738744 
0.221323866566785 1:-0.307462083034433 2:0.192416094611676 3:0.13376885654239 4:0.317213602616669 5:0.15396676550249 
1.84388630005646 1:-0.465108655657045 2:0.343999054364156 3:0.111977265793912 4:0.31132704240822 5:0.159080211951716 
0.539294403278115 1:-0.34846728615169 2:0.34846728615169 3:0.119126844004149 4:0.305655189712714 5:0.164008484602079 
0.664979093769858 1:-0.131625547053292 2:0.190349204694318 3:0.319979470774009 4:0.255761923496894 5:0.212496671551673 
-0.740792274071646 1:0.192416094611676 2:0.13376885654239 3:0.317213602616669 4:0.15396676550249 5:0.312986481228117 
2.07193446197013 1:0.343999054364156 2:0.111977265793912 3:0.31132704240822 4:0.159080211951716 5:0.314174301017798 
-5.92960408327845 1:0.34846728615169 2:0.119126844004149 3:0.305655189712714 4:0.164008484602079 5:0.315316578926655 
-3.61063431979962 1:0.190349204694318 2:0.319979470774009 3:0.255761923496894 4:0.212496671551673 5:0.317474599245836 
-5.92960408327845 1:0.15663153660689 2:0.323327310939065 3:0.204401613738744 4:0.263192516417094 5:0.318494929417472 
-5.65448202424774 1:0.13376885654239 2:0.317213602616669 3:0.15396676550249 4:0.312986481228117 5:0.319478925803779 
5.92960408327845 1:0.119126844004149 2:0.305655189712714 3:0.164008484602079 4:0.315316578926655 5:0.319874879607171 
5.92960408327845 1:0.219646630241182 2:0.308082294436627 3:0.160865672914877 4:0.316415884942298 5:0.320061550985955 
-0.299450933854319 1:0.323327310939065 2:0.204401613738744 3:0.263192516417094 4:0.318494929417472 5:0.320414355792746 
5.92960408327845 1:0.317213602616669 2:0.15396676550249 3:0.312986481228117 4:0.319478925803779 5:0.326184951154065 
5.92960408327845 1:0.305655189712714 2:0.164008484602079 3:0.315316578926655 4:0.319874879607171 5:0.324975593456501 
-5.92960408327845 1:0.255761923496894 2:0.212496671551673 3:0.317474599245836 4:0.320241248501342 5:0.323856283509377 
-5.92960408327845 1:0.204401613738744 2:0.263192516417094 3:0.318494929417472 4:0.320414355792746 5:0.323327310939065 
5.92960408327845 1:0.15396676550249 2:0.312986481228117 3:0.319478925803779 4:0.326184951154065 5:0.317213602616669 
5.92960408327845 1:0.160865672914877 2:0.316415884942298 3:0.320061550985955 4:0.324405323025361 5:0.203657677960952 
1.34337038438979 1:0.212496671551673 2:0.317474599245836 3:0.320241248501342 4:0.323856283509377 5:0.20001780963597 
0.856531786612952 1:0.312986481228117 2:0.319478925803779 3:0.326184951154065 4:0.317213602616669 5:0.0982226516415681 
1.03261730369921 1:0.314174301017798 2:0.319680820359022 3:0.325568350568363 4:0.211350045145154 5:0.0999769972630678 
-3.90187952845763 1:0.316415884942298 2:0.320061550985955 3:0.324405323025361 4:0.203657677960952 5:-0.049542149026814 
0.727808540203299 1:0.318494929417472 2:0.320414355792746 3:0.323327310939065 4:0.196505816267486 5:-0.196505816267486 
1.25981234406292 1:0.319680820359022 2:0.325568350568363 3:0.211350045145154 4:0.0999769972630678 5:-0.151337307021216 
5.92960408327845 1:0.319874879607171 2:0.324975593456501 3:0.207432538071146 4:0.0248806824684873 5:-0.152713780295807 
5.92960408327845 1:0.320061550985955 2:0.324405323025361 3:0.203657677960952 4:-0.049542149026814 5:0 
5.92960408327845 1:0.320241248501342 2:0.323856283509377 3:0.20001780963597 4:-0.123326482222541 5:0.147352881654495 
5.92960408327845 1:0.320414355792746 2:0.323327310939065 3:0.196505816267486 4:-0.196505816267486 5:0.312665984479901 
-0.0525578235541809 1:0.326184951154065 2:0.317213602616669 3:0.0982226516415681 4:-0.174219854228756 5:0.471542026928044 
1.15833266488217 1:0.325568350568363 2:0.211350045145154 3:0.0999769972630678 4:-0.151337307021216 5:0.62459181999073 
0.256648690940448 1:0.324975593456501 2:0.207432538071146 3:0.0248806824684873 4:-0.152713780295807 5:0.792128538798138 
1.43947590179594 1:0.324405323025361 2:0.203657677960952 3:-0.049542149026814 4:0 5:0.798984024722757 
1.22658591926232 1:0.323327310939065 2:0.196505816267486 3:-0.196505816267486 4:0.312665984479901 5:0.700914097585249 
0.884453232713665 1:0.317213602616669 2:0.0982226516415681 3:-0.174219854228756 4:0.471542026928044 5:0.56760040948804 
1.37440595007936 1:0.211350045145154 2:0.0999769972630678 3:-0.151337307021216 4:0.62459181999073 5:0.440348571832568 
-0.226509857603202 1:0.207432538071146 2:0.0248806824684873 3:-0.152713780295807 4:0.792128538798138 5:0.437102996968003 
1.0904612698255 1:0.203657677960952 2:-0.049542149026814 3:0 4:0.798984024722757 5:0.26848601783528 
4.77949548648982 1:0.20001780963597 2:-0.123326482222541 3:0.147352881654495 4:0.805238906314389 5:0.0178854177070302 
-0.538752911816123 1:0.196505816267486 2:-0.196505816267486 3:0.312665984479901 4:0.700914097585249 5:-0.145438340986506 
0.272093629653147 1:0.0982226516415681 2:-0.174219854228756 3:0.471542026928044 4:0.56760040948804 5:-0.0177718587339539 
0.532634857053669 1:0.0999769972630678 2:-0.151337307021216 3:0.62459181999073 4:0.440348571832568 5:0.121340413393908 
0.0153782225242025 1:0.0248806824684873 2:-0.152713780295807 3:0.792128538798138 4:0.437102996968003 5:0.115611763362018 
2.81697652013384 1:-0.049542149026814 2:0 3:0.798984024722757 4:0.26848601783528 5:0.291494661968948 
2.43937407867265 1:-0.123326482222541 2:0.147352881654495 3:0.805238906314389 4:0.0178854177070302 5:0.533999500236992 
0.473076735823864 1:-0.174219854228756 2:0.471542026928044 3:0.56760040948804 4:-0.0177718587339539 5:0.814138940354848 
0.13556856120717 1:-0.151337307021216 2:0.62459181999073 3:0.440348571832568 4:0.121340413393908 5:0.593888861169237 
0.125921635289448 1:-0.152713780295807 2:0.792128538798138 3:0.437102996968003 4:0.115611763362018 5:0.59531610264529 
1.12223737114147 1:0 2:0.798984024722757 3:0.26848601783528 4:0.291494661968948 5:0.581194697246463 
0.776521340439894 1:0.147352881654495 2:0.805238906314389 3:0.0178854177070302 4:0.533999500236992 5:0.583035577515037 
0.686534320864178 1:0.312665984479901 2:0.700914097585249 3:-0.145438340986506 4:0.805238906314389 5:0.439462653690192 
0.519370633536161 1:0.792128538798138 2:0.437102996968003 3:0.115611763362018 4:0.59531610264529 5:0.412728797963821 
-0.0947364031809985 1:0.798984024722757 2:0.26848601783528 3:0.291494661968948 4:0.581194697246463 5:0.351808647832325 
0.19309305249249 1:0.805238906314389 2:0.0178854177070302 3:0.533999500236992 4:0.583035577515037 5:0.337644776158552 
0.0723368368221723 1:0.700914097585249 2:-0.145438340986506 3:0.805238906314389 4:0.439462653690192 5:0.294910230846062 
-0.174037936693267 1:0.56760040948804 2:-0.0177718587339539 3:0.814138940354848 4:0.442878222567305 5:0.133313688097208 
2.35574858321291 1:0.437102996968003 2:0.115611763362018 3:0.59531610264529 4:0.412728797963821 5:-0.138824732105269 
0.885329009269199 1:0.26848601783528 2:0.291494661968948 3:0.581194697246463 4:0.351808647832325 5:-0.253585996190755 
0.298937824774609 1:0.0178854177070302 2:0.533999500236992 3:0.583035577515037 4:0.337644776158552 5:-0.385905598384563 
0.485315715681091 1:-0.145438340986506 2:0.805238906314389 3:0.439462653690192 4:0.294910230846062 5:-0.271088313888353 
2.01308699753851 1:0.121340413393908 2:0.593888861169237 3:0.546680593517909 4:-0.0226645638928539 5:0.0451470811304134 
3.0007586481592 1:0.115611763362018 2:0.59531610264529 3:0.412728797963821 4:-0.138824732105269 5:0.183610621113437 
-2.22899359621532 1:0.291494661968948 2:0.581194697246463 3:0.351808647832325 4:-0.253585996190755 5:0.209155565732492 
-0.789366950966794 1:0.593888861169237 2:0.546680593517909 3:-0.0226645638928539 4:0.0451470811304134 5:0.109781064545525 
1.58623845120251 1:0.59531610264529 2:0.412728797963821 3:-0.138824732105269 4:0.183610621113437 5:0.0658632351961862 
1.47101497512641 1:0.581194697246463 2:0.351808647832325 3:-0.253585996190755 4:0.209155565732492 5:0.131229892469631 
-1.4966372358987 1:0.583035577515037 2:0.337644776158552 3:-0.385905598384563 4:0.277820418984812 5:0.129210248333561 
0.16756228100053 1:0.439462653690192 2:0.294910230846062 3:-0.271088313888353 4:0.0702729381129299 5:0.222264203699529 
2.9869148104107 1:0.442878222567305 2:0.133313688097208 3:-0.156163270884763 4:0.090300035688577 5:0.172304134252893 
5.12505180411946 1:0.546680593517909 2:-0.0226645638928539 3:0.0451470811304134 4:0.109781064545525 5:0.0638596142462995 
0.571580465111528 1:0.412728797963821 2:-0.138824732105269 3:0.183610621113437 4:0.0658632351961862 5:0.127251837655473 
-5.92960408327845 1:0.351808647832325 2:-0.253585996190755 3:0.209155565732492 4:0.131229892469631 5:0.125351916762926 
-0.649721858479361 1:0.337644776158552 2:-0.385905598384563 3:0.277820418984812 4:0.129210248333561 5:0.0624351167670968 
4.14800261939214 1:0.294910230846062 2:-0.271088313888353 3:0.0702729381129299 4:0.222264203699529 5:0.125351916762926 
-5.92960408327845 1:0.133313688097208 2:-0.156163270884763 3:0.090300035688577 4:0.172304134252893 5:0.0619743032090563 
-5.41774401712276 1:-0.138824732105269 2:0.183610621113437 3:0.0658632351961862 4:0.127251837655473 5:0.0817301376805214 
3.27921403545075 1:-0.253585996190755 2:0.209155565732492 3:0.131229892469631 4:0.125351916762926 5:-6.93889390390723E-18 
-5.92960408327845 1:-0.385905598384563 2:0.277820418984812 3:0.129210248333561 4:0.0624351167670968 5:0.0811378070577497 
5.92960408327845 1:-0.156163270884763 2:0.090300035688577 3:0.172304134252893 4:0.0619743032090563 5:-0.020506013673636 
5.92960408327845 1:0.0451470811304134 2:0.109781064545525 3:0.0638596142462995 4:0.103298008149953 5:-6.93889390390723E-18 
-5.92960408327845 1:0.183610621113437 2:0.0658632351961862 3:0.127251837655473 4:0.0817301376805214 5:-6.93889390390723E-18 
-5.92960408327845 1:0.209155565732492 2:0.131229892469631 3:0.125351916762926 4:-6.93889390390723E-18 5:0.0805540009554176 
-5.92960408327845 1:0.277820418984812 2:0.129210248333561 3:0.0624351167670968 4:0.0811378070577497 5:-0.020065020313882 
-5.92960408327845 1:0.0702729381129299 2:0.222264203699529 3:0.125351916762926 4:-0.0411633646102897 5:0.141498778974489 
-5.92960408327845 1:0.090300035688577 2:0.172304134252893 3:0.0619743032090563 4:-0.020506013673636 5:0.179360458699316 
3.48553915503988 1:0.109781064545525 2:0.0638596142462995 3:0.103298008149953 4:-6.93889390390723E-18 5:0.0996211319841611 
5.92960408327845 1:0.0658632351961862 2:0.127251837655473 3:0.0817301376805214 4:-6.93889390390723E-18 5:0.0597686412939681 
-5.92960408327845 1:0.131229892469631 2:0.125351916762926 3:-6.93889390390723E-18 4:0.0805540009554176 5:0.135621048171382 
5.92960408327845 1:0.129210248333561 2:0.0624351167670968 3:0.0811378070577497 4:-0.020065020313882 5:0.118287671955449 
5.92960408327845 1:0.222264203699529 2:0.125351916762926 3:-0.0411633646102897 4:0.141498778974489 5:0 
-1.72554012864114 1:0.172304134252893 2:0.0619743032090563 3:-0.020506013673636 4:0.179360458699316 5:-0.0585190306614806 
5.92960408327845 1:0.0638596142462995 2:0.103298008149953 3:-6.93889390390723E-18 4:0.0996211319841611 5:-0.0196425953291821 
5.92960408327845 1:0.127251837655473 2:0.0817301376805214 3:-6.93889390390723E-18 4:0.0597686412939681 5:0 
-5.92960408327845 1:0.125351916762926 2:-6.93889390390723E-18 3:0.0805540009554176 4:0.135621048171382 5:-0.0961970394334174 
5.92960408327845 1:0.0624351167670968 2:0.0811378070577497 3:-0.020065020313882 4:0.118287671955449 5:-0.0982226516415667 
5.92960408327845 1:0.125351916762926 2:-0.0411633646102897 3:0.141498778974489 4:0 5:-0.039703620980086 
5.92960408327845 1:0.0619743032090563 2:-0.020506013673636 3:0.179360458699316 4:-0.0585190306614806 5:-0.059768641293968 
5.92960408327845 1:0.103298008149953 2:-6.93889390390723E-18 3:0.0996211319841611 4:-0.0196425953291821 5:-0.0197814134087821 
5.92960408327845 1:0.0817301376805214 2:-6.93889390390723E-18 3:0.0597686412939681 4:0 5:3.46944695195361E-18 
5.92960408327845 1:-6.93889390390723E-18 2:0.0805540009554176 3:0.135621048171382 4:-0.0961970394334174 5:-0.0196425953291821 
5.92960408327845 1:0.0811378070577497 2:-0.020065020313882 3:0.118287671955449 4:-0.0982226516415667 5:0.039703620980086 
5.92960408327845 1:-0.0411633646102897 2:0.141498778974489 3:0 4:-0.039703620980086 5:0.039703620980086 
5.92960408327845 1:-0.020506013673636 2:0.179360458699316 3:-0.0585190306614806 4:-0.059768641293968 5:-0.0610727867438677 
5.92960408327845 1:-6.93889390390723E-18 2:0.0996211319841611 3:-0.0196425953291821 4:-0.0197814134087821 5:-0.0399872278851859 
5.92960408327845 1:-6.93889390390723E-18 2:0.0597686412939681 3:0 4:3.46944695195361E-18 5:-6.93889390390723E-18 
5.92960408327845 1:0.0805540009554176 2:0.135621048171382 3:-0.0961970394334174 4:-0.0196425953291821 5:0.0585190306614806 
5.92960408327845 1:0.141498778974489 2:0 3:-0.039703620980086 4:0.039703620980086 5:0.0968628953129222 
2.85149854463324 1:0.179360458699316 2:-0.0585190306614806 3:-0.059768641293968 4:-0.0610727867438677 5:0.236681062800435 
-5.92960408327845 1:0.0996211319841611 2:-0.0196425953291821 3:-0.0197814134087821 4:-0.0399872278851859 5:0.250254255664354 
-5.92960408327845 1:0.0597686412939681 2:0 3:3.46944695195361E-18 4:-6.93889390390723E-18 5:0.208840161106834 
-5.92960408327845 1:0.135621048171382 2:-0.0961970394334174 3:-0.0196425953291821 4:0.0585190306614806 5:0.131966583708906 
-5.92960408327845 1:0.118287671955449 2:-0.0982226516415667 3:0.039703620980086 4:0.0968628953129222 5:0.111977265793912 
-5.92960408327845 1:0 2:-0.039703620980086 3:0.039703620980086 4:0.0968628953129222 5:0.130212238087406 
-5.92960408327845 1:-0.0585190306614806 2:-0.059768641293968 3:-0.0610727867438677 4:0.236681062800435 5:0.165238299361524 
-5.92960408327845 1:-0.0196425953291821 2:-0.0197814134087821 3:-0.0399872278851859 4:0.250254255664354 5:0.108364178487693 
-5.92960408327845 1:0 2:3.46944695195361E-18 3:-6.93889390390723E-18 4:0.208840161106834 5:0.107669364447268 
-5.92960408327845 1:-0.0982226516415667 2:0.039703620980086 3:0.0968628953129222 4:0.111977265793912 5:0.125218377088395 
-5.92960408327845 1:-0.039703620980086 2:0.039703620980086 3:0.0968628953129222 4:0.130212238087406 5:0.106983404794902 
-5.92960408327845 1:-0.059768641293968 2:-0.0610727867438677 3:0.236681062800435 4:0.165238299361524 5:0.0529806040711062 
-5.92960408327845 1:-0.0197814134087821 2:-0.0399872278851859 3:0.250254255664354 4:0.108364178487693 5:0.0352087453371508 
-5.92960408327845 1:3.46944695195361E-18 2:-6.93889390390723E-18 3:0.208840161106834 4:0.107669364447268 5:0 
-5.92960408327845 1:-0.0196425953291821 2:0.0585190306614806 3:0.131966583708906 4:0.108364178487693 5:0.0176597326960238 
-5.92960408327845 1:0.039703620980086 2:0.0968628953129222 3:0.111977265793912 4:0.125218377088395 5:-0.0529806040711062 
-5.92960408327845 1:0.039703620980086 2:0.0968628953129222 3:0.130212238087406 4:0.106983404794902 5:-0.0529806040711062 
-5.92960408327845 1:-0.0610727867438677 2:0.236681062800435 3:0.165238299361524 4:0.0529806040711062 5:-0.0352087453371508 
-5.92960408327845 1:0.0585190306614806 2:0.131966583708906 3:0.108364178487693 4:0.0176597326960238 5:-0.0533170091370078 
-5.92960408327845 1:0.0968628953129222 2:0.111977265793912 3:0.125218377088395 4:-0.0529806040711062 5:0.0354315914299791 
-5.92960408327845 1:0.0968628953129222 2:0.130212238087406 3:0.106983404794902 4:-0.0529806040711062 5:0.070420276359968 
-4.86495251105859 1:0.236681062800435 2:0.165238299361524 3:0.0529806040711062 4:-0.0352087453371508 5:0.0352087453371508 
2.35857694427727 1:0.250254255664354 2:0.108364178487693 3:0.0352087453371508 4:-0.0352087453371508 5:0.0526484176260127 
5.92960408327845 1:0.208840161106834 2:0.107669364447268 3:0 4:-0.0713174463976891 5:-0.0181169457560856 
5.92960408327845 1:0.131966583708906 2:0.108364178487693 3:0.0176597326960238 4:-0.0533170091370078 5:-0.109781064545522 
5.92960408327845 1:0.111977265793912 2:0.125218377088395 3:-0.0529806040711062 4:0.0354315914299791 5:-0.126023911183717 
5.83462539770954 1:0.130212238087406 2:0.106983404794902 3:-0.0529806040711062 4:0.070420276359968 5:-0.161012596113705 
5.92960408327845 1:0.165238299361524 2:0.0529806040711062 3:-0.0352087453371508 4:0.0352087453371508 5:-0.19936995444329 
5.92960408327845 1:0.108364178487693 2:0.0352087453371508 3:-0.0352087453371508 4:0.0526484176260127 5:-0.351498210484092 
-4.31171458678766 1:0.107669364447268 2:0 3:-0.0713174463976891 4:-0.0181169457560856 5:-0.187926826051158 
5.92960408327845 1:0.108364178487693 2:0.0176597326960238 3:-0.0533170091370078 4:-0.109781064545522 5:-0.233389988526552 
5.92960408327845 1:0.125218377088395 2:-0.0529806040711062 3:0.0354315914299791 4:-0.126023911183717 5:-0.352795331943642 
2.27410096476354 1:0.106983404794902 2:-0.0529806040711062 3:0.070420276359968 4:-0.161012596113705 5:-0.373762159175319 
-5.92960408327845 1:0.0529806040711062 2:-0.0352087453371508 3:0.0352087453371508 4:-0.19936995444329 5:-0.317965128556872 
5.92960408327845 1:0.0352087453371508 2:-0.0352087453371508 3:0.0526484176260127 4:-0.351498210484092 5:-0.204401613738743 
-5.92960408327845 1:0 2:-0.0713174463976891 3:-0.0181169457560856 4:-0.187926826051158 5:-0.243549921087913 
4.61192757205982 1:-0.0529806040711062 2:0.0354315914299791 3:-0.126023911183717 4:-0.352795331943642 5:0.0208109385987665 
1.42795587622025 1:-0.0529806040711062 2:0.070420276359968 3:-0.161012596113705 4:-0.373762159175319 5:0.0417777658304431 
-5.92960408327845 1:-0.0352087453371508 2:0.0352087453371508 3:-0.19936995444329 4:-0.317965128556872 5:0.0624351167670968 
-5.92960408327845 1:-0.0352087453371508 2:0.0526484176260127 3:-0.351498210484092 4:-0.204401613738743 5:0.0835601857009069 
-5.92960408327845 1:-0.0713174463976891 2:-0.0181169457560856 3:-0.187926826051158 4:-0.243549921087913 5:0.104066199374543 
5.92960408327845 1:-0.0533170091370078 2:-0.109781064545522 3:-0.233389988526552 4:-0.103298008149953 5:-0.0211250689338101 
5.92960408327845 1:0.0354315914299791 2:-0.126023911183717 3:-0.352795331943642 4:0.0208109385987665 5:-0.0841885521526365 
1.11987933860861 1:0.0352087453371508 2:-0.19936995444329 3:-0.317965128556872 4:0.0624351167670968 5:-0.0835601857009069 
2.69037813674694 1:0.0526484176260127 2:-0.351498210484092 3:-0.204401613738743 4:0.0835601857009069 5:-0.0835601857009069 
5.92960408327845 1:-0.0181169457560856 2:-0.187926826051158 3:-0.243549921087913 4:0.104066199374543 5:-0.0829411304407328 
5.92960408327845 1:-0.109781064545522 2:-0.233389988526552 3:-0.103298008149953 4:-0.0211250689338101 5:-0.0427345453124894 
5.92960408327845 1:-0.126023911183717 2:-0.352795331943642 3:0.0208109385987665 4:-0.0841885521526365 5:0 
4.36322812454212 1:-0.161012596113705 2:-0.373762159175319 3:0.0417777658304431 4:-0.0841885521526365 5:0 
-1.35155759927858 1:-0.19936995444329 2:-0.317965128556872 3:0.0624351167670968 4:-0.0835601857009069 5:-0.0212857173883834 
5.92960408327845 1:-0.351498210484092 2:-0.204401613738743 3:0.0835601857009069 4:-0.0835601857009069 5:-0.0643490028912198 
5.92960408327845 1:-0.187926826051158 2:-0.243549921087913 3:0.104066199374543 4:-0.0829411304407328 5:-0.0854740718250299 
5.92960408327845 1:-0.233389988526552 2:-0.103298008149953 3:-0.0211250689338101 4:-0.0427345453124894 5:0.021448827924106 
0.315162775430732 1:-0.373762159175319 2:0.0417777658304431 3:-0.0841885521526365 4:0 5:-0.021448827924106 
5.92960408327845 1:-0.317965128556872 2:0.0624351167670968 3:-0.0835601857009069 4:-0.0212857173883834 5:0.0841885521526365 
-1.09371946846051 1:-0.204401613738743 2:0.0835601857009069 3:-0.0835601857009069 4:-0.0643490028912198 5:0.147909188592127 
5.92960408327845 1:-0.103298008149953 2:-0.0211250689338101 3:-0.0427345453124894 4:0.021448827924106 5:-0.021448827924106 
5.92960408327845 1:0.0208109385987665 2:-0.0841885521526365 3:0 4:0.0424107863221935 5:-0.129210248333562 
5.92960408327845 1:0.0417777658304431 2:-0.0841885521526365 3:0 4:-0.021448827924106 5:-0.065350634087262 
5.92960408327845 1:0.0624351167670968 2:-0.0835601857009069 3:-0.0212857173883834 4:0.0841885521526365 5:-0.0841885521526365 
5.92960408327845 1:0.0835601857009069 2:-0.0835601857009069 3:-0.0643490028912198 4:0.147909188592127 5:-0.0624351167670968 
5.92960408327845 1:0.104066199374543 2:-0.0829411304407328 3:-0.0854740718250299 4:0.0216144575787304 5:-0.065350634087262 
5.92960408327845 1:-0.0211250689338101 2:-0.0427345453124894 3:0.021448827924106 4:-0.021448827924106 5:0.0638596142462995 
5.92960408327845 1:-0.0841885521526365 2:0 3:0.0424107863221935 4:-0.129210248333562 5:0.191645365100658 
5.92960408327845 1:-0.0841885521526365 2:0 3:-0.021448827924106 4:-0.065350634087262 5:0.191645365100658 
5.92960408327845 1:-0.0835601857009069 2:-0.0212857173883834 3:0.0841885521526365 4:-0.0841885521526365 5:0.165918689833158 
5.92960408327845 1:-0.0835601857009069 2:-0.0643490028912198 3:0.147909188592127 4:-0.0624351167670968 5:0.143572923824846 
3.44660966878128 1:-0.0829411304407328 2:-0.0854740718250299 3:0.0216144575787304 4:-0.065350634087262 5:0.332129388467676 
2.33278650258695 1:-0.0427345453124894 2:0.021448827924106 3:-0.021448827924106 4:0.0638596142462995 5:0.241795575466413 
5.92960408327845 1:0 2:-0.021448827924106 3:-0.065350634087262 4:0.191645365100658 5:0.198598048840899 
-2.53907959591546 1:-0.0212857173883834 2:0.0841885521526365 3:-0.0841885521526365 4:0.165918689833158 5:0.15663153660689 
5.92960408327845 1:-0.0643490028912198 2:0.147909188592127 3:-0.0624351167670968 4:0.143572923824846 5:0.11746024178315 
5.69665062000778 1:-0.0854740718250299 2:0.0216144575787304 3:-0.065350634087262 4:0.332129388467676 5:0.133768856542391 
5.92960408327845 1:0.021448827924106 2:-0.021448827924106 3:0.0638596142462995 4:0.241795575466413 5:0.0761695530904588 
5.10717127624763 1:0.0424107863221935 2:-0.129210248333562 3:0.191645365100658 4:0.198598048840899 5:0.112728993567323 
5.92960408327845 1:-0.021448827924106 2:-0.065350634087262 3:0.191645365100658 4:0.198598048840899 5:0.0942532938303356 
-0.869890953251631 1:0.0841885521526365 2:-0.0841885521526365 3:0.165918689833158 4:0.15663153660689 5:-0.057714587963752 
-5.92960408327845 1:0.147909188592127 2:-0.0624351167670968 3:0.143572923824846 4:0.11746024178315 5:-0.0192375901415829 
5.92960408327845 1:0.0216144575787304 2:-0.065350634087262 3:0.332129388467676 4:0.133768856542391 5:-0.133768856542391 
5.92960408327845 1:-0.021448827924106 2:0.0638596142462995 3:0.241795575466413 4:0.0761695530904588 5:-0.0188489489893399 
5.92960408327845 1:-0.129210248333562 2:0.191645365100658 3:0.198598048840899 4:0.112728993567323 5:-0.210267027779168 
5.92960408327845 1:-0.065350634087262 2:0.191645365100658 3:0.198598048840899 4:0.0942532938303356 5:-0.132861607284229 
-0.839066670964901 1:-0.0624351167670968 2:0.143572923824846 3:0.11746024178315 4:-0.0192375901415829 5:0.131966583708906 
-1.99510781845249 1:-0.065350634087262 2:0.332129388467676 3:0.133768856542391 4:-0.133768856542391 5:0.207432538071146 
5.92960408327845 1:0.0638596142462995 2:0.241795575466413 3:0.0761695530904588 4:-0.0188489489893399 5:0.129352444393814 
-1.954554568852 1:0.191645365100658 2:0.198598048840899 3:0.0942532938303356 4:-0.132861607284229 5:0.224044209067925 
-5.92960408327845 1:0.165918689833158 2:0.15663153660689 3:-0.057714587963752 4:0.114263144522403 5:0.145438340986506 
-5.92960408327845 1:0.143572923824846 2:0.11746024178315 3:-0.0192375901415829 4:0.131966583708906 5:0.126023911183717 
-3.4576598400318 1:0.332129388467676 2:0.133768856542391 3:-0.133768856542391 4:0.207432538071146 5:0.0894343921537747 
5.92960408327845 1:0.241795575466413 2:0.0761695530904588 3:-0.0188489489893399 4:0.129352444393814 5:0.0713174463976891 
5.92960408327845 1:0.198598048840899 2:0.112728993567323 3:-0.210267027779168 4:0.24685654680911 5:0.0894343921537747 
5.92960408327845 1:0.198598048840899 2:0.0942532938303356 3:-0.132861607284229 4:0.224044209067925 5:0.0708660217781349 
5.92960408327845 1:0.15663153660689 2:-0.057714587963752 3:0.114263144522403 4:0.145438340986506 5:0.0526484176260127 
5.92960408327845 1:0.11746024178315 2:-0.0192375901415829 3:0.131966583708906 4:0.126023911183717 5:0.0175490126411271 
5.92960408327845 1:0.133768856542391 2:-0.133768856542391 3:0.207432538071146 4:0.0894343921537747 5:0 
5.92960408327845 1:0.0761695530904588 2:-0.0188489489893399 3:0.129352444393814 4:0.0713174463976891 5:0.0523203709397347 
3.26947500119283 1:0.112728993567323 2:-0.210267027779168 3:0.24685654680911 4:0.0894343921537747 5:0.0866650760331166 
5.92960408327845 1:0.0942532938303356 2:-0.132861607284229 3:0.224044209067925 4:0.0708660217781349 5:0.0691160633919895 
5.92960408327845 1:-0.057714587963752 2:0.114263144522403 3:0.145438340986506 4:0.0526484176260127 5:-0.070420276359968 
5.92960408327845 1:-0.0192375901415829 2:0.131966583708906 3:0.126023911183717 4:0.0175490126411271 5:0.0691160633919895 
5.92960408327845 1:-0.133768856542391 2:0.207432538071146 3:0.0894343921537747 4:0 5:0.137404683194759 
5.92960408327845 1:-0.0188489489893399 2:0.129352444393814 3:0.0713174463976891 4:0.0523203709397347 5:0.134920495459059 
5.92960408327845 1:-0.210267027779168 2:0.24685654680911 3:0.0894343921537747 4:0.0866650760331166 5:0.0840621238978003 
5.92960408327845 1:-0.132861607284229 2:0.224044209067925 3:0.0708660217781349 4:0.0691160633919895 5:0.116992601927834 
5.92960408327845 1:0.114263144522403 2:0.145438340986506 3:0.0526484176260127 4:-0.070420276359968 5:0.271636826205899 
5.92960408327845 1:0.131966583708906 2:0.126023911183717 3:0.0175490126411271 4:0.0691160633919895 5:0.181713597423424 
5.92960408327845 1:0.207432538071146 2:0.0894343921537747 3:0 4:0.137404683194759 5:0.0825740809355651 
5.92960408327845 1:0.129352444393814 2:0.0713174463976891 3:0.0523203709397347 4:0.134920495459059 5:0.0970869006227498 
5.92960408327845 1:0.24685654680911 2:0.0894343921537747 3:0.0866650760331166 4:0.0840621238978003 5:0.0654780348450029 
5.92960408327845 1:0.224044209067925 2:0.0708660217781349 3:0.0691160633919895 4:0.116992601927834 5:0.0163210861693736 
5.92960408327845 1:0.145438340986506 2:0.0526484176260127 3:-0.070420276359968 4:0.271636826205899 5:-0.0162264706455956 
5.92960408327845 1:0.126023911183717 2:0.0175490126411271 3:0.0691160633919895 4:0.181713597423424 5:-0.0483999093262167 
5.92960408327845 1:0.0894343921537747 2:0 3:0.137404683194759 4:0.0825740809355651 5:-0.0327378977315301 
5.92960408327845 1:0.0713174463976891 2:0.0523203709397347 3:0.134920495459059 4:0.0970869006227498 5:-0.0643490028912197 
5.92960408327845 1:0.0894343921537747 2:0.0866650760331166 3:0.0840621238978003 4:0.0654780348450029 5:0.0481225322456242 
5.92960408327845 1:0.0708660217781349 2:0.0691160633919895 3:0.116992601927834 4:0.0163210861693736 5:0.0483999093262167 
5.92960408327845 1:0.0526484176260127 2:-0.070420276359968 3:0.271636826205899 4:-0.0162264706455956 5:-0.0327378977315301 
5.92960408327845 1:0.0175490126411271 2:0.0691160633919895 3:0.181713597423424 4:-0.0483999093262167 5:0.0483999093262167 
5.92960408327845 1:0 2:0.137404683194759 3:0.0825740809355651 4:-0.0327378977315301 5:0 
-0.421301554377435 1:0.0523203709397347 2:0.134920495459059 3:0.0970869006227498 4:-0.0643490028912197 5:0.96726210226847 
1.56610746287381 1:0.0866650760331166 2:0.0840621238978003 3:0.0654780348450029 4:0.0481225322456242 5:0.773249319868553 
-0.158677573147132 1:0.0691160633919895 2:0.116992601927834 3:0.0163210861693736 4:0.0483999093262167 5:0.813224812865511 
0.276160503254961 1:-0.070420276359968 2:0.271636826205899 3:-0.0162264706455956 4:-0.0327378977315301 5:0.906298920943443 
-0.867071281580574 1:0.0691160633919895 2:0.181713597423424 3:-0.0483999093262167 4:0.0483999093262167 5:0.703443748319989 
-2.22316716795496 1:0.137404683194759 2:0.0825740809355651 3:-0.0327378977315301 4:0 5:0.657329717722263 
1.14906262928579 1:0.134920495459059 2:0.0970869006227498 3:-0.0643490028912197 4:0.96726210226847 5:-0.303883633737456 
1.24513105310033 1:0.0840621238978003 2:0.0654780348450029 3:0.0481225322456242 4:0.773249319868553 5:-0.0364307747595213 
-2.17571202322649 1:0.116992601927834 2:0.0163210861693736 3:0.0483999093262167 4:0.813224812865511 5:-0.0482608222260115 
-0.749188343180834 1:0.271636826205899 2:-0.0162264706455956 3:-0.0327378977315301 4:0.906298920943443 5:0.0355065016639546 
-4.19203154993815 1:0.181713597423424 2:-0.0483999093262167 3:0.0483999093262167 4:0.703443748319989 5:0.0247705895129568 
1.70090081238889 1:0.0825740809355651 2:-0.0327378977315301 3:0 4:0.657329717722263 5:0.114783851127471 
0.413796692957644 1:0.0970869006227498 2:-0.0643490028912197 3:0.96726210226847 4:-0.303883633737456 5:0.210182554680899 
2.29089430754825 1:0.0654780348450029 2:0.0481225322456242 3:0.773249319868553 4:-0.0364307747595213 5:0.131323195969611 
0.984686074072129 1:0.0163210861693736 2:0.0483999093262167 3:0.813224812865511 4:-0.0482608222260115 5:0.233389988526549 
-2.12499312391099 1:-0.0162264706455956 2:-0.0327378977315301 3:0.906298920943443 4:0.0355065016639546 5:0.18211679407466 
-3.46223038649139 1:-0.0483999093262167 2:0.0483999093262167 3:0.703443748319989 4:0.0247705895129568 5:0.358306248299897 
-1.05313286486923 1:-0.0327378977315301 2:0 3:0.657329717722263 4:0.114783851127471 5:0.395544824340856 
-0.293497593823115 1:-0.0643490028912197 2:0.96726210226847 3:-0.303883633737456 4:0.210182554680899 5:0.315085850064591 
0.212326064138529 1:0.0481225322456242 2:0.773249319868553 3:-0.0364307747595213 4:0.131323195969611 5:0.319295460910837 
1.6676866446268 1:0.0483999093262167 2:0.813224812865511 3:-0.0482608222260115 4:0.233389988526549 5:0.109781064545522 
-1.12359938952538 1:-0.0327378977315301 2:0.906298920943443 3:0.0355065016639546 4:0.18211679407466 5:0.129210248333561 
-0.663799019856478 1:0.0483999093262167 2:0.703443748319989 3:0.0247705895129568 4:0.358306248299897 5:0.219032464940313 
-1.40484505315669 1:0 2:0.657329717722263 3:0.114783851127471 4:0.395544824340856 5:0.278589144676689 
-0.167653678542448 1:0.96726210226847 2:-0.303883633737456 3:0.210182554680899 4:0.315085850064591 5:0.135045702157539 
-0.8731303121574 1:0.773249319868553 2:-0.0364307747595213 3:0.131323195969611 4:0.319295460910837 5:-0.0631393316041961 
-0.298549177678584 1:0.813224812865511 2:-0.0482608222260115 3:0.233389988526549 4:0.109781064545522 5:0.156997689834895 
-1.15017382683881 1:0.906298920943443 2:0.0355065016639546 3:0.18211679407466 4:0.129210248333561 5:0.143572923824846 
2.96102074712281 1:0.703443748319989 2:0.0247705895129568 3:0.358306248299897 4:0.219032464940313 5:-0.0100504896043192 
-4.76820150223641 1:0.657329717722263 2:0.114783851127471 3:0.395544824340856 4:0.278589144676689 5:-0.0495421490268126 
-5.92960408327845 1:-0.303883633737456 2:0.210182554680899 3:0.315085850064591 4:0.135045702157539 5:-0.0203568777092207 
-5.92960408327845 1:-0.0364307747595213 2:0.131323195969611 3:0.319295460910837 4:-0.0631393316041961 5:0.175320617832432 
-5.92960408327845 1:-0.0482608222260115 2:0.233389988526549 3:0.109781064545522 4:0.156997689834895 5:-0.0513603097581497 
-3.45533203493505 1:0.0355065016639546 2:0.18211679407466 3:0.129210248333561 4:0.143572923824846 5:-0.229046995649876 
-5.92960408327845 1:0.0247705895129568 2:0.358306248299897 3:0.219032464940313 4:-0.0100504896043192 5:-0.0817301376805214 
-5.92960408327845 1:0.114783851127471 2:0.395544824340856 3:0.278589144676689 4:-0.0495421490268126 5:-0.020065020313882 
-5.92960408327845 1:0.210182554680899 2:0.315085850064591 3:0.135045702157539 4:-0.0203568777092207 5:0.0606317933841137 
-5.92960408327845 1:0.131323195969611 2:0.319295460910837 3:-0.0631393316041961 4:0.175320617832432 5:-0.040274915674893 
-5.92960408327845 1:0.233389988526549 2:0.109781064545522 3:0.156997689834895 4:-0.0513603097581497 5:0.0817301376805214 
-5.92960408327845 1:0.18211679407466 2:0.129210248333561 3:0.143572923824846 4:-0.229046995649876 5:0.137599569763853 
-5.92960408327845 1:0.358306248299897 2:0.219032464940313 3:-0.0100504896043192 4:-0.0817301376805214 5:0.0513603097581497 
-5.92960408327845 1:0.395544824340856 2:0.278589144676689 3:-0.0495421490268126 4:-0.020065020313882 5:0.0696071693406947 
-5.92960408327845 1:0.315085850064591 2:0.135045702157539 3:-0.0203568777092207 4:0.0606317933841137 5:-6.93889390390723E-18 
-5.92960408327845 1:0.319295460910837 2:-0.0631393316041961 3:0.175320617832432 4:-0.040274915674893 5:0.0701053047337818 
-5.92960408327845 1:0.109781064545522 2:0.156997689834895 3:-0.0513603097581497 4:0.0817301376805214 5:0.0498954093727708 
-5.92960408327845 1:0.129210248333561 2:0.143572923824846 3:-0.229046995649876 4:0.137599569763853 5:1.38777878078145E-17 
-5.92960408327845 1:0.219032464940313 2:-0.0100504896043192 3:-0.0817301376805214 4:0.0513603097581497 5:-0.167784055196379 
-5.92960408327845 1:0.278589144676689 2:-0.0495421490268126 3:-0.020065020313882 4:0.0696071693406947 5:-0.400547610922805 
-3.62180474930441 1:0.135045702157539 2:-0.0203568777092207 3:0.0606317933841137 4:-6.93889390390723E-18 5:-0.478520851959499 
-1.33194739691353 1:-0.0631393316041961 2:0.175320617832432 3:-0.040274915674893 4:0.0701053047337818 5:-0.641954222521619 
2.87910637958336 1:0.156997689834895 2:-0.0513603097581497 3:0.0817301376805214 4:0.0498954093727708 5:-0.704857057285875 
-0.941521539207482 1:0.143572923824846 2:-0.229046995649876 3:0.137599569763853 4:1.38777878078145E-17 5:-0.713791480428369 
-5.92960408327845 1:-0.0100504896043192 2:-0.0817301376805214 3:0.0513603097581497 4:-0.167784055196379 5:-0.587020002881759 
-5.92960408327845 1:-0.0495421490268126 2:-0.020065020313882 3:0.0696071693406947 4:-0.400547610922805 5:-0.311327042408222 
-5.92960408327845 1:-0.0203568777092207 2:0.0606317933841137 3:-6.93889390390723E-18 4:-0.478520851959499 5:-0.183811652344715 
-2.55065230216218 1:0.175320617832432 2:-0.040274915674893 3:0.0701053047337818 4:-0.641954222521619 5:-0.179817858544681 
2.37707832270313 1:-0.0513603097581497 2:0.0817301376805214 3:0.0498954093727708 4:-0.704857057285875 5:0 
-3.55955406396229 1:-0.229046995649876 2:0.137599569763853 3:1.38777878078145E-17 4:-0.713791480428369 5:0 
-5.92960408327845 1:-0.0817301376805214 2:0.0513603097581497 3:-0.167784055196379 4:-0.587020002881759 5:0.065863235196189 
-5.92960408327845 1:-0.020065020313882 2:0.0696071693406947 3:-0.400547610922805 4:-0.311327042408222 5:-0.142906402010178 
5.92960408327845 1:0.0606317933841137 2:-6.93889390390723E-18 3:-0.478520851959499 4:-0.183811652344715 5:-0.279472918303186 
-4.57352349226161 1:-0.040274915674893 2:0.0701053047337818 3:-0.641954222521619 4:-0.179817858544681 5:-0.278743401012869 
-2.05271052564806 1:0.0817301376805214 2:0.0498954093727708 3:-0.704857057285875 4:0 5:-0.395658424793294 
-3.26078076581276 1:0.137599569763853 2:1.38777878078145E-17 3:-0.713791480428369 4:0 5:-0.280139440117855 
-5.92960408327845 1:0.0513603097581497 2:-0.167784055196379 3:-0.587020002881759 4:0.065863235196189 5:-0.30215230046815 
-2.68411542373745 1:0.0696071693406947 2:-0.400547610922805 3:-0.311327042408222 4:-0.142906402010178 5:-0.36995650481956 
-5.92960408327845 1:-6.93889390390723E-18 2:-0.478520851959499 3:-0.183811652344715 4:-0.279472918303186 5:-0.12887967041288 
-5.7874404191426 1:0.0701053047337818 2:-0.641954222521619 3:-0.179817858544681 4:-0.278743401012869 5:-0.135101424216917 
-1.68278151219559 1:0.0498954093727708 2:-0.704857057285875 3:0 4:-0.395658424793294 5:-0.260922981643272 
-2.68720044813684 1:1.38777878078145E-17 2:-0.713791480428369 3:0 4:-0.280139440117855 5:-0.105070826416785 
-5.92960408327845 1:-0.167784055196379 2:-0.587020002881759 3:0.065863235196189 4:-0.30215230046815 5:-0.164258545650844 
-5.92960408327845 1:-0.400547610922805 2:-0.311327042408222 3:-0.142906402010178 4:-0.36995650481956 5:-0.1564126635296 
-5.92960408327845 1:-0.478520851959499 2:-0.183811652344715 3:-0.279472918303186 4:-0.12887967041288 5:-0.392667690805079 
0.0783363407818786 1:-0.641954222521619 2:-0.179817858544681 3:-0.278743401012869 4:-0.135101424216917 5:-0.378159738002063 
0.398050316455496 1:-0.713791480428369 2:0 3:-0.280139440117855 4:-0.105070826416785 5:-0.65148757728285 
-0.339573328071499 1:-0.587020002881759 2:0.065863235196189 3:-0.30215230046815 4:-0.164258545650844 5:-0.597806368243243 
-0.515067604362838 1:-0.183811652344715 2:-0.279472918303186 3:-0.12887967041288 4:-0.392667690805079 5:-0.599412714541259 
5.92960408327845 1:0 2:-0.395658424793294 3:-0.260922981643272 4:-0.378362091759424 5:-0.373762159175319 
1.73139470329065 1:0 2:-0.280139440117855 3:-0.105070826416785 4:-0.65148757728285 5:-0.262920644400223 
1.49421388803092 1:-0.142906402010178 2:-0.36995650481956 3:-0.1564126635296 4:-0.608551327109896 5:-0.18598371014704 
1.3075268219284 1:-0.278743401012869 2:-0.135101424216917 3:-0.378159738002063 4:-0.607042807349603 5:-0.0663839418012567 
-5.92960408327845 1:-0.395658424793294 2:-0.260922981643272 3:-0.378362091759424 4:-0.373762159175319 5:-0.0424107863221935 
-3.07307249961092 1:-0.280139440117855 2:-0.105070826416785 3:-0.65148757728285 4:-0.262920644400223 5:0.104066199374543 
0.720869311926011 1:-0.30215230046815 2:-0.164258545650844 3:-0.597806368243243 4:-0.280139440117855 5:0.143572923824846 
1.1951264527419 1:-0.36995650481956 2:-0.1564126635296 3:-0.608551327109896 4:-0.18598371014704 5:0.145708794472147 
-1.05891684160816 1:-0.12887967041288 2:-0.392667690805079 3:-0.599412714541259 4:-0.06337761355387 5:0.284206361788607 
-4.64571196212393 1:-0.260922981643272 2:-0.378362091759424 3:-0.373762159175319 4:-0.0424107863221935 5:0.165918689833158 
-1.27059062794368 1:-0.105070826416785 2:-0.65148757728285 3:-0.262920644400223 4:0.104066199374543 5:-0.0829411304407328 
-2.97874624365226 1:-0.164258545650844 2:-0.597806368243243 3:-0.280139440117855 4:0.143572923824846 5:-0.101795157994403 
-0.185701655582152 1:-0.392667690805079 2:-0.599412714541259 3:-0.06337761355387 4:0.284206361788607 5:-0.460583335388651 
-0.161694088548744 1:-0.378159738002063 2:-0.607042807349603 3:-0.0663839418012567 4:0.356917223596757 5:-0.518224472939585 
-0.00556055921783401 1:-0.378362091759424 2:-0.373762159175319 3:-0.0424107863221935 4:0.165918689833158 5:-0.579646117208363 
0.145207248812473 1:-0.65148757728285 2:-0.262920644400223 3:0.104066199374543 4:-0.0829411304407328 5:-0.557016098753073 
-0.0527298574389495 1:-0.608551327109896 2:-0.18598371014704 3:0.145708794472147 4:-0.188772079974983 5:-0.471542026928043 
-0.679173112339142 1:-0.599412714541259 2:-0.06337761355387 3:0.284206361788607 4:-0.460583335388651 5:-0.442878222567305 
-0.419329540497178 1:-0.607042807349603 2:-0.0663839418012567 3:0.356917223596757 4:-0.518224472939585 5:-0.247866126025634 
-0.757696584943116 1:-0.373762159175319 2:-0.0424107863221935 3:0.165918689833158 4:-0.579646117208363 5:-0.126675840462888 
-3.5717447764806 1:-0.262920644400223 2:0.104066199374543 3:-0.0829411304407328 4:-0.557016098753073 5:0.100877885055674 
5.92960408327845 1:-0.280139440117855 2:0.143572923824846 3:-0.101795157994403 4:-0.650629759823647 5:0.0260379398329176 
3.03061007406114 1:-0.18598371014704 2:0.145708794472147 3:-0.188772079974983 4:-0.471542026928043 5:-0.158479587873994 
-1.27101566442804 1:-0.06337761355387 2:0.284206361788607 3:-0.460583335388651 4:-0.442878222567305 5:-0.136566516293011 
1.00146332281449 1:-0.0663839418012567 2:0.356917223596757 3:-0.518224472939585 4:-0.247866126025634 5:-0.31514099360122 
5.92960408327845 1:-0.0424107863221935 2:0.165918689833158 3:-0.579646117208363 4:-0.126675840462888 5:-0.300675543589743 
3.45805467483142 1:0.104066199374543 2:-0.0829411304407328 3:-0.557016098753073 4:0.100877885055674 5:-0.48566720891 
5.92960408327845 1:0.143572923824846 2:-0.101795157994403 3:-0.650629759823647 4:0.0260379398329176 5:-0.32968158914467 
0.72998323517483 1:0.145708794472147 2:-0.188772079974983 3:-0.471542026928043 4:-0.158479587873994 5:-0.153602833933623 
-0.424471419907721 1:0.284206361788607 2:-0.460583335388651 3:-0.442878222567305 4:-0.136566516293011 5:-0.173192865280354 
-0.0874969533058438 1:0.356917223596757 2:-0.518224472939585 3:-0.247866126025634 4:-0.31514099360122 5:-0.164258545650843 
5.92960408327845 1:0.165918689833158 2:-0.579646117208363 3:-0.126675840462888 4:-0.300675543589743 5:-0.0879357663128782 
2.53890898768379 1:-0.0829411304407328 2:-0.557016098753073 3:0.100877885055674 4:-0.48566720891 5:-0.151337307021216 
5.92960408327845 1:-0.101795157994403 2:-0.650629759823647 3:0.0260379398329176 4:-0.32968158914467 5:-0.211921806631662 
-0.0978415662179936 1:-0.460583335388651 2:-0.442878222567305 3:-0.136566516293011 4:-0.173192865280354 5:-0.200569293894965 
0.17281030487996 1:-0.518224472939585 2:-0.247866126025634 3:-0.31514099360122 4:-0.164258545650843 5:-0.109781064545523 
4.4943166056828 1:-0.579646117208363 2:-0.126675840462888 3:-0.300675543589743 4:-0.0879357663128782 5:-0.152992085873711 
-1.03304770938986 1:-0.557016098753073 2:0.100877885055674 3:-0.48566720891 4:-0.151337307021216 5:-0.0629028347642546 
-1.05223999056864 1:-0.650629759823647 2:0.0260379398329176 3:-0.32968158914467 4:-0.211921806631662 5:-0.0475772080212534 
-3.14715761420879 1:-0.442878222567305 2:-0.136566516293011 3:-0.173192865280354 4:-0.200569293894965 5:0.0632582481794332 
4.18616122856048 1:-0.247866126025634 2:-0.31514099360122 3:-0.164258545650843 4:-0.109781064545523 5:0.0632582481794332 
-5.92960408327845 1:-0.126675840462888 2:-0.300675543589743 3:-0.0879357663128782 4:-0.152992085873711 5:0.0467820084348738 
-3.79291058665042 1:0.100877885055674 2:-0.48566720891 3:-0.151337307021216 4:-0.0629028347642546 5:0.0629028347642546 
-3.92045266701769 1:0.0260379398329176 2:-0.32968158914467 3:-0.211921806631662 4:-0.0475772080212534 5:0.109781064545523 
-5.92960408327845 1:-0.158479587873994 2:-0.153602833933623 3:-0.286947043832179 4:0.0316281144562504 5:6.93889390390723E-18 
-3.48231468903068 1:-0.136566516293011 2:-0.173192865280354 3:-0.200569293894965 4:0.0632582481794332 5:-0.079298741060268 
5.92960408327845 1:-0.31514099360122 2:-0.164258545650843 3:-0.109781064545523 4:0.0632582481794332 5:-0.079298741060268 
-5.92960408327845 1:-0.300675543589743 2:-0.0879357663128782 3:-0.152992085873711 4:0.0467820084348738 5:-0.0467820084348738 
-2.03306370355386 1:-0.48566720891 2:-0.151337307021216 3:-0.0629028347642546 4:0.0629028347642546 5:-0.0470441048204286 
-5.92960408327845 1:-0.32968158914467 2:-0.211921806631662 3:-0.0475772080212534 4:0.109781064545523 5:-0.0309291362162656 
-5.92960408327845 1:-0.153602833933623 2:-0.286947043832179 3:0.0316281144562504 4:6.93889390390723E-18 5:0.0622038565242698 
0.896934881992198 1:-0.173192865280354 2:-0.200569293894965 3:0.0632582481794332 4:-0.079298741060268 5:0.2166097867758 
-5.92960408327845 1:-0.164258545650843 2:-0.109781064545523 3:0.0632582481794332 4:-0.079298741060268 5:0.246229728231308 
-5.92960408327845 1:-0.0879357663128782 2:-0.152992085873711 3:0.0467820084348738 4:-0.0467820084348738 5:0.138063739301414 
-5.92960408327845 1:-0.151337307021216 2:-0.0629028347642546 3:0.0629028347642546 4:-0.0470441048204286 5:0.153833123813838 
-5.92960408327845 1:-0.211921806631662 2:-0.0475772080212534 3:0.109781064545523 4:-0.0309291362162656 5:0.195187681867108 
-5.92960408327845 1:-0.286947043832179 2:0.0316281144562504 3:6.93889390390723E-18 4:0.0622038565242698 5:0.17872399566232 
-5.92960408327845 1:-0.200569293894965 2:0.0632582481794332 3:-0.079298741060268 4:0.2166097867758 5:0.0589297207579509 
5.92960408327845 1:-0.109781064545523 2:0.0632582481794332 3:-0.079298741060268 4:0.246229728231308 5:-0.105070826416785 
-5.92960408327845 1:-0.152992085873711 2:0.0467820084348738 3:-0.0467820084348738 4:0.138063739301414 5:-0.0605225383889785 
-5.92960408327845 1:-0.0629028347642546 2:0.0629028347642546 3:-0.0470441048204286 4:0.153833123813838 5:-0.0605225383889785 
2.59630154883224 1:-0.0475772080212534 2:0.109781064545523 3:-0.0309291362162656 4:0.195187681867108 5:-0.103407054582268 
-5.92960408327845 1:0.0316281144562504 2:6.93889390390723E-18 3:0.0622038565242698 4:0.17872399566232 5:-0.22524681202841 
-2.57373839676267 1:0.0632582481794332 2:-0.079298741060268 3:0.2166097867758 4:0.0589297207579509 5:-0.259499014652916 
-5.92960408327845 1:0.0467820084348738 2:-0.0467820084348738 3:0.138063739301414 4:-0.0605225383889785 5:-0.109169315368686 
-5.92960408327845 1:0.0629028347642546 2:-0.0470441048204286 3:0.153833123813838 4:-0.0605225383889785 5:-0.109169315368686 
5.92960408327845 1:0.109781064545523 2:-0.0309291362162656 3:0.195187681867108 4:-0.103407054582268 5:-0.251770362671846 
5.30616898228602 1:6.93889390390723E-18 2:0.0622038565242698 3:0.17872399566232 4:-0.22524681202841 5:-0.211043450222072 
-3.31702936148674 1:-0.079298741060268 2:0.2166097867758 3:0.0589297207579509 4:-0.259499014652916 5:-0.181713597423424 
3.32829683975451 1:-0.079298741060268 2:0.246229728231308 3:-0.105070826416785 4:-0.125118408933689 5:-0.164697992758657 
-5.92960408327845 1:-0.0467820084348738 2:0.138063739301414 3:-0.0605225383889785 4:-0.109169315368686 5:-0.21478236727662 
5.92960408327845 1:-0.0309291362162656 2:0.195187681867108 3:-0.103407054582268 4:-0.251770362671846 5:-0.0666473949848906 
4.72162527081613 1:0.0622038565242698 2:0.17872399566232 3:-0.22524681202841 4:-0.211043450222072 5:0 
0.360762419811292 1:0.2166097867758 2:0.0589297207579509 3:-0.259499014652916 4:-0.181713597423424 5:0.0674504529010215 
-5.92960408327845 1:0.138063739301414 2:-0.0605225383889785 3:-0.109169315368686 4:-0.21478236727662 5:0.03413528095296 
5.92960408327845 1:0.153833123813838 2:-0.0605225383889785 3:-0.109169315368686 4:-0.18064708632366 5:-0.0170156046647678 
1.48034056918373 1:0.195187681867108 2:-0.103407054582268 3:-0.251770362671846 4:-0.0666473949848906 5:-1.38777878078145E-17 
-5.2201575361009 1:0.17872399566232 2:-0.22524681202841 3:-0.211043450222072 4:0 5:-0.0169127907160177 
-5.92960408327845 1:0.0589297207579509 2:-0.259499014652916 3:-0.181713597423424 4:0.0674504529010215 5:-0.0674504529010215 
-5.92960408327845 1:-0.105070826416785 2:-0.125118408933689 3:-0.164697992758657 4:0.0835601857009083 5:-0.134920495459057 
-5.86788024651969 1:-0.0605225383889785 2:-0.109169315368686 3:-0.21478236727662 4:0.03413528095296 5:-0.0686919957678941 
-5.92960408327845 1:-0.0605225383889785 2:-0.109169315368686 3:-0.18064708632366 4:-0.0170156046647678 5:-0.0516763911031262 
-5.92960408327845 1:-0.103407054582268 2:-0.251770362671846 3:-0.0666473949848906 4:-1.38777878078145E-17 5:-0.138253204109926 
-5.92960408327845 1:-0.22524681202841 2:-0.211043450222072 3:0 4:-0.0169127907160177 5:-0.0513603097581483 
-5.92960408327845 1:-0.259499014652916 2:-0.181713597423424 3:0.0674504529010215 4:-0.0674504529010215 5:-0.0343447050933805 
-5.92960408327845 1:-0.125118408933689 2:-0.164697992758657 3:0.0835601857009083 4:-0.134920495459057 5:0.0343447050933805 
-0.437761752161785 1:-0.109169315368686 2:-0.21478236727662 3:0.03413528095296 4:-0.0686919957678941 5:0.0856047864839118 
-5.92960408327845 1:-0.109169315368686 2:-0.18064708632366 3:-0.0170156046647678 4:-0.0516763911031262 5:-0.0174396722888618 
-5.92960408327845 1:-0.211043450222072 2:0 3:-0.0169127907160177 4:-0.0513603097581483 5:-0.141754763093511 
5.92960408327845 1:-0.164697992758657 2:0.0835601857009083 3:-0.134920495459057 4:0.0343447050933805 5:-0.28733496682462 
0.669899662835603 1:-0.21478236727662 2:0.03413528095296 3:-0.0686919957678941 4:0.0856047864839118 5:-0.378583966306523 
5.92960408327845 1:-0.18064708632366 2:-0.0170156046647678 3:-0.0516763911031262 4:-0.0174396722888618 5:-0.373762159175317 
5.92960408327845 1:-0.0666473949848906 2:-1.38777878078145E-17 3:-0.138253204109926 4:0.0526484176260141 5:-0.312349903134923 
5.92960408327845 1:0 2:-0.0169127907160177 3:-0.0513603097581483 4:-0.141754763093511 5:-0.307053670055307 
5.92960408327845 1:0.0674504529010215 2:-0.0674504529010215 3:-0.0343447050933805 4:-0.252990261731239 5:-0.320241248501342 
5.92960408327845 1:0.0835601857009083 2:-0.134920495459057 3:0.0343447050933805 4:-0.28733496682462 5:-0.406372916558099 
5.92960408327845 1:0.03413528095296 2:-0.0686919957678941 3:0.0856047864839118 4:-0.378583966306523 5:-0.220828748234738 
5.92960408327845 1:-0.0170156046647678 2:-0.0516763911031262 3:-0.0174396722888618 4:-0.373762159175317 5:0.0199222075713053 
2.68375901045007 1:-1.38777878078145E-17 2:-0.138253204109926 3:0.0526484176260141 4:-0.312349903134923 5:-0.0391483073491688 
5.92960408327845 1:-0.0169127907160177 2:-0.0513603097581483 3:-0.141754763093511 4:-0.307053670055307 5:2.77555756156289E-17 
5.92960408327845 1:-0.0674504529010215 2:-0.0343447050933805 3:-0.252990261731239 4:-0.320241248501342 5:0.104066199374544 
1.97056466240737 1:-0.134920495459057 2:0.0343447050933805 3:-0.28733496682462 4:-0.406372916558099 5:0.32968158914467 
-4.36770471046022 1:-0.0686919957678941 2:0.0856047864839118 3:-0.378583966306523 4:-0.220828748234738 5:0.25917261288618 
-2.09083695828517 1:-0.0516763911031262 2:-0.0174396722888618 3:-0.373762159175317 4:0.0199222075713053 5:0.228621574515615 
5.92960408327845 1:-0.138253204109926 2:0.0526484176260141 3:-0.312349903134923 4:-0.0391483073491688 5:0.0777566208030622 
5.92960408327845 1:-0.0513603097581483 2:-0.141754763093511 3:-0.307053670055307 4:2.77555756156289E-17 5:0.25198845128838 
-3.833646312399 1:0.0343447050933805 2:-0.28733496682462 3:-0.406372916558099 4:0.32968158914467 5:0.277361218204934 
-4.17560098653372 1:0.0856047864839118 2:-0.378583966306523 3:-0.220828748234738 4:0.25917261288618 5:0.237195642882308 
1.91045110647643 1:-0.0174396722888618 2:-0.373762159175317 3:0.0199222075713053 4:0.228621574515615 5:0.0900096317512446 
3.20110362565752 1:0.0526484176260141 2:-0.312349903134923 3:-0.0391483073491688 4:0.0777566208030622 5:0.256301917392168 
0.447818709682958 1:-0.141754763093511 2:-0.307053670055307 3:2.77555756156289E-17 4:0.25198845128838 5:0.179488295850692 
-3.75514412547761 1:-0.252990261731239 2:-0.320241248501342 3:0.104066199374544 4:0.363527930781293 5:0.122862408881932 
-0.0837257909559307 1:-0.28733496682462 2:-0.406372916558099 3:0.32968158914467 4:0.277361218204934 5:0.0349886849299889 
-0.521878698862897 1:-0.378583966306523 2:-0.220828748234738 3:0.25917261288618 4:0.237195642882308 5:-0.0352087453371523 
2.01576325630478 1:-0.312349903134923 2:-0.0391483073491688 3:0.0777566208030622 4:0.256301917392168 5:-6.93889390390723E-18 
3.49083863758673 1:-0.307053670055307 2:2.77555756156289E-17 3:0.25198845128838 4:0.179488295850692 5:0.0516763911031262 
-1.32821193016571 1:-0.320241248501342 2:0.104066199374544 3:0.363527930781293 4:0.122862408881932 5:0.0171196762881922 
3.85747997143831 1:-0.406372916558099 2:0.32968158914467 3:0.277361218204934 4:0.0349886849299889 5:0.0173316860097458 
-1.39012211529183 1:-0.220828748234738 2:0.25917261288618 3:0.237195642882308 4:-0.0352087453371523 5:0.0352087453371523 
5.92960408327845 1:0.0199222075713053 2:0.228621574515615 3:0.0900096317512446 4:-6.93889390390723E-18 5:0.0352087453371523 
5.92960408327845 1:-0.0391483073491688 2:0.0777566208030622 3:0.256301917392168 4:-6.93889390390723E-18 5:0.0691160633919881 
5.92960408327845 1:2.77555756156289E-17 2:0.25198845128838 3:0.179488295850692 4:0.0516763911031262 5:-0.0343447050933805 
5.92960408327845 1:0.104066199374544 2:0.363527930781293 3:0.122862408881932 4:0.0171196762881922 5:-0.157982522430804 
5.92960408327845 1:0.32968158914467 2:0.277361218204934 3:0.0349886849299889 4:0.0173316860097458 5:-0.0173316860097458 
5.92960408327845 1:0.25917261288618 2:0.237195642882308 3:-0.0352087453371523 4:0.0352087453371523 5:0.103044458772774 
5.92960408327845 1:0.228621574515615 2:0.0900096317512446 3:-6.93889390390723E-18 4:0.0352087453371523 5:0.15317818728979 
-3.04221880355363 1:0.0777566208030622 2:0.256301917392168 3:-6.93889390390723E-18 4:0.0691160633919881 5:0.133313688097209 
-2.39164016280384 1:0.363527930781293 2:0.122862408881932 3:0.0171196762881922 4:-0.157982522430804 5:0.339696119854229 
5.92960408327845 1:0.0900096317512446 2:-6.93889390390723E-18 3:0.0352087453371523 4:0.15317818728979 5:0.160909721705056 
-5.92960408327845 1:0.256301917392168 2:-6.93889390390723E-18 3:0.0691160633919881 4:0.133313688097209 5:0.111658157505649 
-5.92960408327845 1:0.179488295850692 2:0.0516763911031262 3:-0.0343447050933805 4:0.20001780963597 5:0.125821557426358 
-5.92960408327845 1:0.122862408881932 2:0.0171196762881922 3:-0.157982522430804 4:0.339696119854229 5:0.0788519283292576 
-3.42322791832626 1:0.0349886849299889 2:0.0173316860097458 3:-0.0173316860097458 4:0.249339082091554 5:0 
5.92960408327845 1:-0.0352087453371523 2:0.0352087453371523 3:0.103044458772774 4:0.195362410063892 5:-0.0475772080212534 
-0.493679493511594 1:-6.93889390390723E-18 2:0.0352087453371523 3:0.15317818728979 4:0.160909721705056 5:-0.0473091546144302 
5.92960408327845 1:-6.93889390390723E-18 2:0.0691160633919881 3:0.133313688097209 4:0.111658157505649 5:-0.111658157505648 
-5.92960408327845 1:0.0516763911031262 2:-0.0343447050933805 3:0.20001780963597 4:0.125821557426358 5:-0.109781064545523 
-5.92960408327845 1:0.0171196762881922 2:-0.157982522430804 3:0.339696119854229 4:0.0788519283292576 5:-0.0312747203080042 
-5.92960408327845 1:0.0173316860097458 2:-0.0173316860097458 3:0.249339082091554 4:0 5:0.015858729943826 
-5.92960408327845 1:0.0352087453371523 2:0.103044458772774 3:0.195362410063892 4:-0.0475772080212534 5:0.109781064545523 
5.92960408327845 1:0.0352087453371523 2:0.15317818728979 3:0.160909721705056 4:-0.0473091546144302 5:1.38777878078145E-17 
-5.92960408327845 1:0.0691160633919881 2:0.133313688097209 3:0.111658157505649 4:-0.111658157505648 5:0.127251837655473 
-5.92960408327845 1:-0.0343447050933805 2:0.20001780963597 3:0.125821557426358 4:-0.109781064545523 5:0.140372170648768 
-5.92960408327845 1:-0.157982522430804 2:0.339696119854229 3:0.0788519283292576 4:-0.0312747203080042 5:0.107966047721434 
-5.92960408327845 1:-0.0173316860097458 2:0.249339082091554 3:0 4:0.015858729943826 5:0.198381411841645 
-5.92960408327845 1:0.103044458772774 2:0.195362410063892 3:-0.0475772080212534 4:0.109781064545523 5:0.12040817080495 
-5.92960408327845 1:0.15317818728979 2:0.160909721705056 3:-0.0473091546144302 4:1.38777878078145E-17 5:0.301264509051666 
-5.92960408327845 1:0.133313688097209 2:0.111658157505649 3:-0.111658157505648 4:0.127251837655473 5:0.151337307021216 
-5.92960408327845 1:0.20001780963597 2:0.125821557426358 3:-0.109781064545523 4:0.140372170648768 5:0.0302603849653301 
-5.92960408327845 1:0.339696119854229 2:0.0788519283292576 3:-0.0312747203080042 4:0.107966047721434 5:-0.107966047721434 
-5.92960408327845 1:0.249339082091554 2:0 3:0.015858729943826 4:0.198381411841645 5:-0.0445482880278064 
-5.92960408327845 1:0.195362410063892 2:-0.0475772080212534 3:0.109781064545523 4:0.12040817080495 5:0.0870243672661956 
-5.92960408327845 1:0.160909721705056 2:-0.0473091546144302 3:1.38777878078145E-17 4:0.301264509051666 5:0.111977265793911 
-5.92960408327845 1:0.111658157505649 2:-0.111658157505648 3:0.127251837655473 4:0.151337307021216 5:0.0870243672661956 
-5.92960408327845 1:0.125821557426358 2:-0.109781064545523 3:0.140372170648768 4:0.0302603849653301 5:0.230981160195896 
-5.92960408327845 1:0.0788519283292576 2:-0.0312747203080042 3:0.107966047721434 4:-0.107966047721434 5:0.298053474688418 
-5.92960408327845 1:0 2:0.015858729943826 3:0.198381411841645 4:-0.0445482880278064 5:0.0297774972996 
-5.92960408327845 1:-0.0475772080212534 2:0.109781064545523 3:0.12040817080495 4:0.0870243672661956 5:0.0284170800930025 
-5.92960408327845 1:-0.0473091546144302 2:1.38777878078145E-17 3:0.301264509051666 4:0.111977265793911 5:0 
-5.92960408327845 1:-0.111658157505648 2:0.127251837655473 3:0.151337307021216 4:0.0870243672661956 5:0 
-5.92960408327845 1:-0.109781064545523 2:0.140372170648768 3:0.0302603849653301 4:0.230981160195896 5:-0.215972768487327 
-5.92960408327845 1:-0.0312747203080042 2:0.107966047721434 3:-0.107966047721434 4:0.298053474688418 5:-0.282372434530239 
-5.92960408327845 1:0.015858729943826 2:0.198381411841645 3:-0.0445482880278064 4:0.0297774972996 5:-0.183610621113438 
-5.92960408327845 1:0.109781064545523 2:0.12040817080495 3:0.0870243672661956 4:0.0284170800930025 5:-0.298053474688418 
-5.92960408327845 1:0.127251837655473 2:0.151337307021216 3:0.0870243672661956 4:0 5:-0.301264509051666 
-3.38504712157981 1:0.140372170648768 2:0.0302603849653301 3:0.230981160195896 4:-0.215972768487327 5:-0.169691853757664 
-5.92960408327845 1:0.107966047721434 2:-0.107966047721434 3:0.298053474688418 4:-0.282372434530239 5:-0.111658157505648 
-5.92960408327845 1:0.198381411841645 2:-0.0445482880278064 3:0.0297774972996 4:-0.183610621113438 5:-0.162781813770611 
-5.92960408327845 1:0.12040817080495 2:0.0870243672661956 3:0.0284170800930025 4:-0.298053474688418 5:-0.128715015079002 
4.1179296464837 1:0.301264509051666 2:0.111977265793911 3:0 4:-0.397383044901751 5:-0.0802077328350443 
-5.92960408327845 1:0.151337307021216 2:0.0870243672661956 3:0 4:-0.301264509051666 5:-0.146923083826785 
-5.92960408327845 1:0.0302603849653301 2:0.230981160195896 3:-0.215972768487327 4:-0.169691853757664 5:-0.18064708632366 
-5.92960408327845 1:-0.107966047721434 2:0.298053474688418 3:-0.282372434530239 4:-0.111658157505648 5:-0.237638496826349 
-5.92960408327845 1:-0.0445482880278064 2:0.0297774972996 3:-0.183610621113438 4:-0.162781813770611 5:-0.0507396071616426 
-5.92960408327845 1:0.0870243672661956 2:0.0284170800930025 3:-0.298053474688418 4:-0.128715015079002 5:-0.22267245782877 
-3.73587561229785 1:0.111977265793911 2:0 3:-0.397383044901751 4:-0.0802077328350443 5:-0.383076837812855 
-2.86717846811273 1:0.0870243672661956 2:0 3:-0.301264509051666 4:-0.146923083826785 5:-0.43427161341968 
-2.44244458366807 1:0.298053474688418 2:-0.282372434530239 3:-0.111658157505648 4:-0.237638496826349 5:-0.524537123985206 
-0.653562717473364 1:0.0297774972996 2:-0.183610621113438 3:-0.162781813770611 4:-0.0507396071616426 5:-0.760091825183975 
2.34010058721258 1:0.0284170800930025 2:-0.298053474688418 3:-0.128715015079002 4:-0.22267245782877 5:-0.63799515772088 
-3.95452299004834 1:0 2:-0.397383044901751 3:-0.0802077328350443 4:-0.383076837812855 5:-0.510328675468328 
-5.92960408327845 1:0 2:-0.301264509051666 3:-0.146923083826785 4:-0.43427161341968 5:-0.310175877124682 
-4.83004568208181 1:-0.215972768487327 2:-0.169691853757664 3:-0.18064708632366 4:-0.520525620616185 5:-0.256581809232557 
-5.92960408327845 1:-0.282372434530239 2:-0.111658157505648 3:-0.237638496826349 4:-0.524537123985206 5:-0.245493036992031 
-1.29587504750677 1:-0.183610621113438 2:-0.162781813770611 3:-0.0507396071616426 4:-0.760091825183975 5:-0.233389988526551 
4.88220958031258 1:-0.298053474688418 2:-0.128715015079002 3:-0.22267245782877 4:-0.63799515772088 5:-0.307378217374062 
-4.38766365634155 1:-0.397383044901751 2:-0.0802077328350443 3:-0.383076837812855 4:-0.510328675468328 5:-0.257836068347248 
-5.22158879449537 1:-0.301264509051666 2:-0.146923083826785 3:-0.43427161341968 4:-0.310175877124682 5:-0.39886598975629 
0.413000236428876 1:-0.169691853757664 2:-0.18064708632366 3:-0.520525620616185 4:-0.256581809232557 5:-0.4614937463082 
-5.92960408327845 1:-0.0802077328350443 2:-0.383076837812855 3:-0.510328675468328 4:-0.257836068347248 5:-0.177375246854134 
-5.92960408327845 1:-0.146923083826785 2:-0.43427161341968 3:-0.310175877124682 4:-0.39886598975629 5:-0.236681062800435 
0.644504086160479 1:-0.18064708632366 2:-0.520525620616185 3:-0.256581809232557 4:-0.4614937463082 5:0.0262824311068186 
-1.9278394662397 1:-0.237638496826349 2:-0.524537123985206 3:-0.245493036992031 4:-0.347230601785797 5:-0.10766936444727 
1.22537234954671 1:-0.0507396071616426 2:-0.760091825183975 3:-0.233389988526551 4:-0.201821326674831 5:-0.245929061347999 
-1.2973063374588 1:-0.22267245782877 2:-0.63799515772088 3:-0.307378217374062 4:-0.101795157994402 5:-0.406534903788531 
-1.97765786269246 1:-0.383076837812855 2:-0.510328675468328 3:-0.257836068347248 4:-0.177375246854134 5:-0.515565455943415 
4.42291172289963 1:-0.43427161341968 2:-0.310175877124682 3:-0.39886598975629 4:-0.236681062800435 5:-0.381613660389327 
0.672672217855996 1:-0.520525620616185 2:-0.256581809232557 3:-0.4614937463082 4:0.0262824311068186 5:-0.547193570399665 
-0.946660197323945 1:-0.760091825183975 2:-0.233389988526551 3:-0.201821326674831 4:-0.245929061347999 5:-0.282244786849285 
2.29242404110252 1:-0.510328675468328 2:-0.257836068347248 3:-0.177375246854134 4:-0.515565455943415 5:-0.161840352543655 
4.24024583872962 1:-0.310175877124682 2:-0.39886598975629 3:-0.236681062800435 4:-0.381613660389327 5:-0.208884457364083 
-0.355823803487139 1:-0.256581809232557 2:-0.4614937463082 3:0.0262824311068186 4:-0.547193570399665 5:-0.309082708453308 
2.51898552886391 1:-0.245493036992031 2:-0.347230601785797 3:-0.10766936444727 4:-0.331740477319495 5:-0.433537150873972 
5.92960408327845 1:-0.233389988526551 2:-0.201821326674831 3:-0.245929061347999 4:-0.282244786849285 5:-0.363850788181154 
2.3421667263735 1:-0.307378217374062 2:-0.101795157994402 3:-0.406534903788531 4:-0.283611630224477 5:-0.227916042198348 
2.9393843920394 1:-0.257836068347248 2:-0.177375246854134 3:-0.515565455943415 4:-0.161840352543655 5:-0.207432538071147 
-5.92960408327845 1:-0.39886598975629 2:-0.236681062800435 3:-0.381613660389327 4:-0.208884457364083 5:-0.203785555994985 
1.46771140270629 1:-0.4614937463082 2:0.0262824311068186 3:-0.547193570399665 4:-0.309082708453308 5:-0.175914949359739 
5.92960408327845 1:-0.347230601785797 2:-0.10766936444727 3:-0.331740477319495 4:-0.433537150873972 5:-0.171044818424694 
5.92960408327845 1:-0.201821326674831 2:-0.245929061347999 3:-0.282244786849285 4:-0.363850788181154 5:-0.17824960579381 
5.92960408327845 1:-0.101795157994402 2:-0.406534903788531 3:-0.283611630224477 4:-0.227916042198348 5:-0.232451599397528 
4.64762448066006 1:-0.177375246854134 2:-0.515565455943415 3:-0.161840352543655 4:-0.207432538071147 5:-0.255318929375929 
-5.92960408327845 1:-0.236681062800435 2:-0.381613660389327 3:-0.208884457364083 4:-0.203785555994985 5:-0.211921806631662 
5.92960408327845 1:0.0262824311068186 2:-0.547193570399665 3:-0.309082708453308 4:-0.175914949359739 5:-0.0922850075632538 
4.98480383601607 1:-0.10766936444727 2:-0.331740477319495 3:-0.433537150873972 4:-0.171044818424694 5:-0.0231010253270224 
2.70639600964927 1:-0.245929061347999 2:-0.282244786849285 3:-0.363850788181154 4:-0.17824960579381 5:-0.0698830337618976 
5.92960408327845 1:-0.406534903788531 2:-0.283611630224477 3:-0.227916042198348 4:-0.232451599397528 5:-0.0792987410602666 
1.51029086702933 1:-0.515565455943415 2:-0.161840352543655 3:-0.207432538071147 4:-0.255318929375929 5:-0.112298203516841 
2.05897818346168 1:-0.381613660389327 2:-0.208884457364083 3:-0.203785555994985 4:-0.211921806631662 5:-0.120494573495067 
3.55400215987336 1:-0.331740477319495 2:-0.433537150873972 3:-0.171044818424694 4:-0.0231010253270224 5:-0.167276581929942 
2.45428672866874 1:-0.208884457364083 2:-0.203785555994985 3:-0.211921806631662 4:-0.120494573495067 5:0 
1.73295468692667 1:-0.433537150873972 2:-0.171044818424694 3:-0.0231010253270224 4:-0.167276581929942 5:0.0245174561475993 
3.91341485826757 1:-0.363850788181154 2:-0.17824960579381 3:-0.0698830337618976 4:-0.120494573495067 5:0.032642449798923 
5.92960408327845 1:-0.207432538071147 2:-0.255318929375929 3:-0.112298203516841 4:0 5:3.46944695195361E-18 
5.92960408327845 1:-0.203785555994985 2:-0.211921806631662 3:-0.120494573495067 4:0 5:0.00819636997822575 
5.92960408327845 1:-0.175914949359739 2:-0.0922850075632538 3:-0.136175613653246 4:-0.00822044158393365 5:0.0164168115621594 
5.92960408327845 1:-0.17824960579381 2:-0.0698830337618976 3:-0.120494573495067 4:0.032642449798923 5:-0.0162736408837579 
5.92960408327845 1:-0.232451599397528 2:-0.0792987410602666 3:-0.048680502614754 4:0.0244460798206973 5:-0.0162736408837579 
5.92960408327845 1:-0.255318929375929 2:-0.112298203516841 3:0 4:3.46944695195361E-18 5:0.00817243893693935 
5.92960408327845 1:-0.211921806631662 2:-0.120494573495067 3:0 4:0.00819636997822575 5:0.0325475568149677 
5.92960408327845 1:-0.0922850075632538 2:-0.136175613653246 3:-0.00822044158393365 4:0.0164168115621594 5:0.0244460798206973 
5.92960408327845 1:-0.0231010253270224 2:-0.167276581929942 3:0.0245174561475993 4:-0.0409825527277003 5:0.049107546379024 
5.92960408327845 1:-0.0698830337618976 2:-0.120494573495067 3:0.032642449798923 4:-0.0162736408837579 5:3.46944695195361E-18 
5.92960408327845 1:-0.0792987410602666 2:-0.048680502614754 3:0.0244460798206973 4:-0.0162736408837579 5:0.0162736408837579 
5.92960408327845 1:-0.112298203516841 2:0 3:3.46944695195361E-18 4:0.00817243893693935 5:0.032453213953808 
5.92960408327845 1:-0.120494573495067 2:0 3:0.00819636997822575 4:0.0325475568149677 5:0.00807809607577965 
5.92960408327845 1:-0.136175613653246 2:-0.00822044158393365 3:0.0164168115621594 4:0.0244460798206973 5:0 
5.92960408327845 1:-0.167276581929942 2:0.0245174561475993 3:-0.0409825527277003 4:0.049107546379024 5:-0.0244460798206973 
5.92960408327845 1:-0.120494573495067 2:0.032642449798923 3:-0.0162736408837579 4:3.46944695195361E-18 5:0.0162736408837579 
5.92960408327845 1:-0.048680502614754 2:0.0244460798206973 3:-0.0162736408837579 4:0.0162736408837579 5:0.0161795730700501 
5.92960408327845 1:0 2:3.46944695195361E-18 3:0.00817243893693935 4:0.032453213953808 5:-0.0161795730700501 
5.92960408327845 1:0 2:0.00819636997822575 3:0.0325475568149677 4:0.00807809607577965 5:-0.00807809607577965 
5.92960408327845 1:-0.00822044158393365 2:0.0164168115621594 3:0.0244460798206973 4:0 5:-0.0408628913828567 
5.92960408327845 1:0.0245174561475993 2:-0.0409825527277003 3:0.049107546379024 4:-0.0244460798206973 5:-0.0164168115621594 
5.92960408327845 1:0.032642449798923 2:-0.0162736408837579 3:3.46944695195361E-18 4:0.0162736408837579 5:-0.00812499365132373 
5.92960408327845 1:0.0244460798206973 2:-0.0162736408837579 3:0.0162736408837579 4:0.0161795730700501 5:-0.10687864765694 
5.92960408327845 1:3.46944695195361E-18 2:0.00817243893693935 3:0.032453213953808 4:-0.0161795730700501 5:-0.0823311809182784 
5.92960408327845 1:0.00819636997822575 2:0.0325475568149677 3:0.00807809607577965 4:-0.00807809607577965 5:-0.0489643683771271 
5.92960408327845 1:0.0164168115621594 2:0.0244460798206973 3:0 4:-0.0408628913828567 5:0.0489643683771271 
5.92960408327845 1:-0.0162736408837579 2:3.46944695195361E-18 3:0.0162736408837579 4:-0.00812499365132373 5:0.00812499365132373 
-5.92960408327845 1:-0.0162736408837579 2:0.0162736408837579 3:0.0161795730700501 4:-0.10687864765694 5:0.114933497380947 
-5.02314874477608 1:0.00817243893693935 2:0.032453213953808 3:-0.0161795730700501 4:-0.0823311809182784 5:0.12260609659317 
5.92960408327845 1:0.0244460798206973 2:0 3:-0.0408628913828567 4:0.0489643683771271 5:0.040159345231741 
5.92960408327845 1:0.032453213953808 2:-0.0161795730700501 3:-0.0823311809182784 4:0.12260609659317 5:0.047577208021252 
5.92960408327845 1:0.00807809607577965 2:-0.00807809607577965 3:-0.0489643683771271 4:0.0891237136088681 5:0.0474428026841415 
5.92960408327845 1:0 2:-0.0408628913828567 3:0.0489643683771271 4:0.040159345231741 5:0.0474428026841415 
4.81331789342906 1:-0.0244460798206973 2:-0.0164168115621594 3:0.0489643683771271 4:0.0481225322456228 5:0.0237545274150859 
5.92960408327845 1:0.0162736408837579 2:-0.00812499365132373 3:0.00812499365132373 4:0.079978536654979 5:-0.0158139310330054 
-5.92960408327845 1:0.0161795730700501 2:-0.10687864765694 3:0.114933497380947 4:0.0557441138609223 5:0 
-5.92960408327845 1:-0.0161795730700501 2:-0.0823311809182784 3:0.12260609659317 4:0.047577208021252 5:0.0156810401581798 
-5.92960408327845 1:-0.00807809607577965 2:-0.0489643683771271 3:0.0891237136088681 4:0.0474428026841415 5:1.73472347597681E-18 
-5.92960408327845 1:-0.0408628913828567 2:0.0489643683771271 3:0.040159345231741 4:0.0474428026841415 5:0.0156372381418649 
-5.92960408327845 1:-0.0164168115621594 2:0.0489643683771271 3:0.0481225322456228 4:0.0237545274150859 5:0.0313623263970388 
-5.92960408327845 1:-0.00812499365132373 2:0.00812499365132373 3:0.079978536654979 4:-0.0158139310330054 5:0.0549622383821742 
-5.92960408327845 1:-0.10687864765694 2:0.114933497380947 3:0.0557441138609223 4:0 5:0.0235546271993443 
-5.92960408327845 1:-0.0823311809182784 2:0.12260609659317 3:0.047577208021252 4:0.0156810401581798 5:-0.00782953894417042 
-5.92960408327845 1:-0.0489643683771271 2:0.0891237136088681 3:0.0474428026841415 4:1.73472347597681E-18 5:-0.0394796156702598 
-5.92960408327845 1:0.0489643683771271 2:0.040159345231741 3:0.0474428026841415 4:0.0156372381418649 5:-0.0551168538121247 
-5.92960408327845 1:0.0489643683771271 2:0.0481225322456228 3:0.0237545274150859 4:0.0313623263970388 5:0.0155503641485009 
-5.92960408327845 1:0.00812499365132373 2:0.079978536654979 3:-0.0158139310330054 4:0.0549622383821742 5:1.12757025938492E-17 
-5.92960408327845 1:0.114933497380947 2:0.0557441138609223 3:0 4:0.0235546271993443 5:-0.0314504246706027 
-5.92960408327845 1:0.12260609659317 2:0.047577208021252 3:0.0156810401581798 4:-0.00782953894417042 5:-0.0714692021160962 
-5.92960408327845 1:0.0891237136088681 2:0.0474428026841415 3:1.73472347597681E-18 4:-0.0394796156702598 5:-0.0319895864458364 
-5.92960408327845 1:0.040159345231741 2:0.0474428026841415 3:0.0156372381418649 4:-0.0551168538121247 5:-0.0159490935650016 
-5.92960408327845 1:0.0481225322456228 2:0.0237545274150859 3:0.0313623263970388 4:0.0155503641485009 5:-0.0866163115256272 
-5.92960408327845 1:0.079978536654979 2:-0.0158139310330054 3:0.0549622383821742 4:1.12757025938492E-17 5:-0.0788519283292562 
-5.92960408327845 1:0.0557441138609223 2:0 3:0.0235546271993443 4:-0.0314504246706027 5:-0.0478483163896639 
-5.92960408327845 1:0.047577208021252 2:0.0156810401581798 3:-0.00782953894417042 4:-0.0714692021160962 5:-0.0242344227940567 
-5.92960408327845 1:0.0474428026841415 2:1.73472347597681E-18 3:-0.0394796156702598 4:-0.0319895864458364 5:-0.00805484972400668 
-5.92960408327845 1:0.0474428026841415 2:0.0156372381418649 3:-0.0551168538121247 4:-0.0159490935650016 5:0.0710659473771262 
-5.92960408327845 1:0.0237545274150859 2:0.0313623263970388 3:0.0155503641485009 4:-0.0866163115256272 5:-0.0647209954955889 
-5.92960408327845 1:-0.0158139310330054 2:0.0549622383821742 3:1.12757025938492E-17 4:-0.0788519283292562 5:-0.0483999093262153 
-5.92960408327845 1:0 2:0.0235546271993443 3:-0.0314504246706027 4:-0.0478483163896639 5:-0.048680502614754 
-5.92960408327845 1:0.0156810401581798 2:-0.00782953894417042 3:-0.0714692021160962 4:-0.0242344227940567 5:0 
-5.92960408327845 1:1.73472347597681E-18 2:-0.0394796156702598 3:-0.0319895864458364 4:-0.00805484972400668 5:0.00805484972400668 
-5.92960408327845 1:0.0156372381418649 2:-0.0551168538121247 3:-0.0159490935650016 4:0.0710659473771262 5:-0.0710659473771263 
-5.92960408327845 1:0.0313623263970388 2:0.0155503641485009 3:-0.0866163115256272 4:-0.0647209954955889 5:-0.0412239903122701 
-5.92960408327845 1:0.0549622383821742 2:1.12757025938492E-17 3:-0.0788519283292562 4:-0.0483999093262153 5:0.0722895992732973 
-5.92960408327845 1:0.0235546271993443 2:-0.0314504246706027 3:-0.0478483163896639 4:-0.048680502614754 5:-0.0412239903122701 
-5.92960408327845 1:-0.00782953894417042 2:-0.0714692021160962 3:-0.0242344227940567 4:0 5:-0.184435815207703 
-5.92960408327845 1:-0.0394796156702598 2:-0.0319895864458364 3:-0.00805484972400668 4:0.00805484972400668 5:-0.278869737965228 
-4.77644342408618 1:-0.0551168538121247 2:-0.0159490935650016 3:0.0710659473771262 4:-0.0710659473771263 5:-0.30381026488652 
-5.92960408327845 1:0.0155503641485009 2:-0.0866163115256272 3:-0.0647209954955889 4:-0.0412239903122701 5:-0.188965245038204 
0.200052360475377 1:1.12757025938492E-17 2:-0.0788519283292562 3:-0.0483999093262153 4:0.0722895992732973 5:-0.390805392351914 
-5.92960408327845 1:-0.0714692021160962 2:-0.0242344227940567 3:0 4:-0.184435815207703 5:-0.253810121076905 
-5.92960408327845 1:-0.0319895864458364 2:-0.00805484972400668 3:0.00805484972400668 4:-0.278869737965228 5:-0.212221347361519 
5.92960408327845 1:-0.0159490935650016 2:0.0710659473771262 3:-0.0710659473771263 4:-0.30381026488652 5:-0.251665491712223 
-5.92960408327845 1:-0.0866163115256272 2:-0.0647209954955889 3:-0.0412239903122701 4:-0.188965245038204 5:-0.28997796816458 
-4.23812105168078 1:-0.0788519283292562 2:-0.0483999093262153 3:0.0722895992732973 4:-0.390805392351914 5:-0.227845728527009 
5.92960408327845 1:-0.0478483163896639 2:-0.048680502614754 3:-0.0412239903122701 4:-0.382080317889863 5:-0.126587688085985 
-1.46522302774321 1:-0.0242344227940567 2:0 3:-0.184435815207703 4:-0.253810121076905 5:-0.0769549046392439 
-1.08326215833326 1:-0.00805484972400668 2:0.00805484972400668 3:-0.278869737965228 4:-0.212221347361519 5:-0.0483441783911615 
3.4249511917871 1:0.0710659473771262 2:-0.0710659473771263 3:-0.30381026488652 4:-0.251665491712223 5:-0.0992677913689907 
-5.92960408327845 1:-0.0647209954955889 2:-0.0412239903122701 3:-0.188965245038204 4:-0.28997796816458 5:-0.0698553489570915 
5.92960408327845 1:-0.0483999093262153 2:0.0722895992732973 3:-0.390805392351914 4:-0.227845728527009 5:-0.0802652372951439 
2.90194574592728 1:0 2:-0.184435815207703 3:-0.253810121076905 4:-0.0769549046392439 5:-0.150253870449736 
-5.92960408327845 1:-0.0710659473771263 2:-0.30381026488652 3:-0.251665491712223 4:-0.0992677913689907 5:-0.0820295582512323 
-3.86289657380217 1:-0.0412239903122701 2:-0.188965245038204 3:-0.28997796816458 4:-0.0698553489570915 5:-0.0924543686161673 
1.79749537526765 1:0.0722895992732973 2:-0.390805392351914 3:-0.227845728527009 4:-0.0802652372951439 5:-0.0721712483569163 
5.81087652180252 1:-0.0412239903122701 2:-0.382080317889863 3:-0.126587688085985 4:-0.0808448499851611 5:-0.0309291362162656 
-5.82626338080371 1:-0.30381026488652 2:-0.251665491712223 3:-0.0992677913689907 4:-0.0820295582512323 5:-0.010424810364935 
-5.92960408327845 1:-0.188965245038204 2:-0.28997796816458 3:-0.0698553489570915 4:-0.0924543686161673 5:-0.0209668272316751 
-5.92960408327845 1:-0.390805392351914 2:-0.227845728527009 3:-0.0802652372951439 4:-0.0721712483569163 5:-0.0209668272316751 
-5.92960408327845 1:-0.253810121076905 2:-0.0769549046392439 3:-0.150253870449736 4:-0.010309618828274 5:0.0713824055721416 
-5.42568954133435 1:-0.212221347361519 2:-0.0483441783911615 3:-0.17091122138639 4:3.46944695195361E-18 5:-0.0523203709397347 
-2.98821553064066 1:-0.28997796816458 2:-0.0698553489570915 3:-0.0924543686161673 4:-0.0209668272316751 5:-0.0963442149913272 
4.85641142733957 1:-0.0769549046392439 2:-0.150253870449736 3:-0.010309618828274 4:0.0713824055721416 5:-0.219852118502292 
-5.73253188646989 1:-0.0808448499851611 2:-0.0309291362162656 3:6.93889390390723E-18 4:-0.149034502821011 5:0.0326107573827808 
-2.42850387041102 1:-0.150253870449736 2:-0.010309618828274 3:0.0713824055721416 4:-0.219852118502292 5:0.0324846007450263 
-5.92960408327845 1:-0.17091122138639 2:3.46944695195361E-18 3:-0.0523203709397347 4:-0.0749314667157368 5:0.0216144575787275 
-0.241303391881116 1:-0.010309618828274 2:0.0713824055721416 3:-0.219852118502292 4:0.0324846007450263 5:0.021448827924106 
5.92960408327845 1:-0.0209668272316751 2:-0.0963442149913272 3:0.0108701431662988 4:0.0108280922172418 5:0 
5.92960408327845 1:-0.0209668272316751 2:-0.0963442149913272 3:0.0108701431662988 4:0.0323594164453805 5:0.053114655379648 
4.70697066286699 1:6.93889390390723E-18 2:-0.149034502821011 3:0.0326107573827808 4:0.0215313242281387 5:0.0636177009020868 
-5.92960408327845 1:0.0713824055721416 2:-0.219852118502292 3:0.0324846007450263 4:0.021448827924106 5:0.0529138318446338 
5.92960408327845 1:-0.0523203709397347 2:-0.0749314667157368 3:0.0216144575787275 4:-0.0107863653614858 5:0.0851490251302255 
5.92960408327845 1:-0.0963442149913272 2:0.0108701431662988 3:0.0323594164453805 4:0.053114655379648 5:0.0105030455224389 
4.73710997373199 1:-0.149034502821011 2:0.0326107573827808 3:0.0215313242281387 4:0.0636177009020868 5:0 
-5.92960408327845 1:-0.219852118502292 2:0.0324846007450263 3:0.021448827924106 4:0.0529138318446338 5:-0.0105030455224389 
5.92960408327845 1:-0.0749314667157368 2:0.0216144575787275 3:-0.0107863653614858 4:0.0851490251302255 5:-0.0105030455224389 
5.92960408327845 1:0.0108280922172418 2:0 3:0.064103374498495 4:0.0105426051092916 5:-0.0105426051092916 
5.92960408327845 1:0.0215313242281387 2:0.0636177009020868 3:0 4:-0.0210456506317305 5:0.0210456506317305 
1.13458778660836 1:-0.0107863653614858 2:0.0851490251302255 3:-0.0105030455224389 4:-0.0105426051092916 5:-0.0105824638245199 
5.92960408327845 1:-0.0323594164453805 2:0.0854740718250284 3:-0.0105426051092916 4:0.0105426051092916 5:-0.0317476940075874 
5.92960408327845 1:0 2:0.064103374498495 3:0.0105426051092916 4:-0.0105426051092916 5:-0.0318681812129033 
5.92960408327845 1:0.0636177009020868 2:0 3:-0.0210456506317305 4:0.0210456506317305 5:-0.0851490251302255 
5.92960408327845 1:0.0851490251302255 2:-0.0105030455224389 3:-0.0105426051092916 4:-0.0105824638245199 5:-0.0643490028912169 
5.92960408327845 1:0.0854740718250284 2:-0.0105426051092916 3:0.0105426051092916 4:-0.0317476940075874 5:-0.0428982856001992 
5.92960408327845 1:0.064103374498495 2:0.0105426051092916 3:-0.0105426051092916 4:-0.0318681812129033 5:-0.0322351932855918 
5.92960408327845 1:0.0105030455224389 2:-0.0105030455224389 3:0.0105030455224389 4:-0.0529138318446338 5:-0.0430632855028335 
5.92960408327845 1:0 2:-0.0210456506317305 3:0.0210456506317305 4:-0.0851490251302255 5:-0.0216982353835406 
5.92960408327845 1:-0.0105030455224389 2:-0.0105426051092916 3:0.0315094323409667 4:-0.0956128068394618 5:0.0107863653614858 
5.92960408327845 1:-0.0105030455224389 2:-0.0105426051092916 3:-0.0105824638245199 4:-0.0643490028912169 5:0.0108280922172418 
5.92960408327845 1:-0.0105426051092916 2:0.0105426051092916 3:-0.0317476940075874 4:-0.0428982856001992 5:-0.0216982353835406 
5.92960408327845 1:0.0105426051092916 2:-0.0105426051092916 3:-0.0318681812129033 4:-0.0322351932855918 5:-0.0216982353835406 
5.92960408327845 1:-0.0105030455224389 2:0.0105030455224389 3:-0.0529138318446338 4:-0.0430632855028335 5:-0.0108701431662988 
2.24980186925815 1:0.0105426051092916 2:-0.0317476940075874 3:-0.0428982856001992 4:-0.0216982353835406 5:0.0324846007450263 
-5.92960408327845 1:0.0210456506317305 2:-0.0851490251302255 3:-0.0216982353835406 4:0.0216982353835406 5:0.0107863653614858 
-5.92960408327845 1:0.0315094323409667 2:-0.0956128068394618 3:0.0107863653614858 4:-0.0216144575787275 5:0.0216144575787275 
-5.92960408327845 1:-0.0105824638245199 2:-0.0643490028912169 3:0.0108280922172418 4:0 5:0.0428982856001993 
-5.92960408327845 1:-0.0317476940075874 2:-0.0428982856001992 3:-0.0216982353835406 4:0.0324846007450263 5:0.0321119202387135 
-5.92960408327845 1:-0.0318681812129033 2:-0.0322351932855918 3:-0.0216982353835406 4:0.0432295596116793 5:0.0319895864458364 
-5.92960408327845 1:-0.0529138318446338 2:-0.0430632855028335 3:-0.0108701431662988 4:0.0539334286691323 5:0.0212857173883834 
-5.92960408327845 1:-0.0851490251302255 2:-0.0216982353835406 3:0.0216982353835406 4:0.0107863653614858 5:0.0638596142463009 
-5.92960408327845 1:-0.0956128068394618 2:0.0107863653614858 3:-0.0216144575787275 4:0.0216144575787275 5:0.0743626597687398 
-5.92960408327845 1:-0.0643490028912169 2:0.0108280922172418 3:0 4:0.0428982856001993 5:0.0212050888982958 
-5.92960408327845 1:-0.0428982856001992 2:-0.0216982353835406 3:0.0324846007450263 4:0.0321119202387135 5:0.0212050888982958 
-5.92960408327845 1:-0.0322351932855918 2:-0.0216982353835406 3:0.0432295596116793 4:0.0319895864458364 5:0.0105824638245199 
-5.92960408327845 1:-0.0430632855028335 2:-0.0108701431662988 3:0.0539334286691323 4:0.0212857173883834 5:0.0316281144562504 
-5.92960408327845 1:-0.0216982353835406 2:0.0216982353835406 3:0.0107863653614858 4:0.0638596142463009 5:0.0209668272316751 
-5.92960408327845 1:0.0107863653614858 2:-0.0216144575787275 3:0.0216144575787275 4:0.0743626597687398 5:0.0104637817092362 
-5.92960408327845 1:0.0108280922172418 2:0 3:0.0428982856001993 4:0.0212050888982958 5:0.0419342427059017 
-5.92960408327845 1:-0.0216982353835406 2:0.0324846007450263 3:0.0321119202387135 4:0.0212050888982958 5:0.0523203709397347 
-5.92960408327845 1:-0.0216982353835406 2:0.0432295596116793 3:0.0319895864458364 4:0.0105824638245199 5:0.0523203709397347 
-5.92960408327845 1:-0.0108701431662988 2:0.0539334286691323 3:0.0212857173883834 4:0.0316281144562504 5:0.0104637817092362 
-5.92960408327845 1:0.0216982353835406 2:0.0107863653614858 3:0.0638596142463009 4:0.0209668272316751 5:-0.0104637817092362 
-5.92960408327845 1:-0.0216144575787275 2:0.0216144575787275 3:0.0743626597687398 4:0.0104637817092362 5:-0.0209668272316751 
-5.92960408327845 1:0 2:0.0428982856001993 3:0.0212050888982958 4:0.0419342427059017 5:0 
-5.92960408327845 1:0.0324846007450263 2:0.0321119202387135 3:0.0212050888982958 4:0.0523203709397347 5:-0.010386128233833 
-5.92960408327845 1:0.0432295596116793 2:0.0319895864458364 3:0.0105824638245199 4:0.0523203709397347 5:-0.0312747203080042 
-5.92960408327845 1:0.0539334286691323 2:0.0212857173883834 3:0.0316281144562504 4:0.0104637817092362 5:0.020810938598768 
-5.92960408327845 1:0.0107863653614858 2:0.0638596142463009 3:0.0209668272316751 4:-0.0104637817092362 5:-0.0743626597687398 
-5.92960408327845 1:0.0216144575787275 2:0.0743626597687398 3:0.0104637817092362 4:-0.0209668272316751 5:-0.0746459796077867 
-5.92960408327845 1:0.0428982856001993 2:0.0212050888982958 3:0.0419342427059017 4:0 5:-0.116865709421639 
-5.92960408327845 1:0.0321119202387135 2:0.0212050888982958 3:0.0523203709397347 4:-0.010386128233833 5:-0.106037617204397 
-5.92960408327845 1:0.0319895864458364 2:0.0105824638245199 3:0.0523203709397347 4:-0.0312747203080042 5:-0.0959771173474673 
5.92960408327845 1:0.0638596142463009 2:0.0209668272316751 3:-0.0104637817092362 4:-0.0743626597687398 5:-0.200815375775423 
5.92960408327845 1:0.0743626597687398 2:0.0104637817092362 3:-0.0209668272316751 4:-0.0746459796077867 5:-0.21325784370644 
5.92960408327845 1:0.0212050888982958 2:0.0419342427059017 3:0 4:-0.116865709421639 5:-0.225852970583192 
5.92960408327845 1:0.0212050888982958 2:0.0523203709397347 3:-0.010386128233833 4:-0.106037617204397 5:-0.236681062800434 
