svm_type epsilon_svr
kernel_type rbf
gamma 0.03125
nr_class 2
total_sv 830
rho 0.846771482488158
SV
9.76593548824309 1:10.8233043105447 2:12.6532479614857 3:-1.4558720170925 4:-4.96130154049161 5:1.36153621333972 
-1.33275268792353 1:11.1414701891637 2:12.3350820828668 3:-0.965138567618085 4:-6.2899281472431 5:2.73231272112349 
-30.6077646662153 1:10.3296811669457 2:14.4312800091321 3:-3.06133649388336 4:-7.14430550157246 5:3.85069969207368 
-32.2047236059989 1:12.49387366083 2:15.4901959985743 3:-5.55173278498313 4:-8.41446655791749 5:5.87400858050802 
2.24575993539163 1:13.5255005084276 2:15.7341823042842 3:-6.16569010640922 4:-6.6129678417034 5:3.56403562691336 
47.4554288086621 1:11.4573221136466 2:15.237698495524 3:-4.18360690475821 4:-8.01582869139366 5:4.72222288189488 
0.385278932880778 1:11.6744257993028 2:12.5713570858261 3:-2.63289387223491 4:-8.41446655791749 5:6.39412794908878 
-8.1951248143184 1:12.6982479118286 2:11.9553262153443 3:-2.88035578502046 4:-10.3158962285058 5:8.02290016388188 
16.9460191978274 1:13.305662683048 2:12.9439237834976 3:-4.72524816476263 4:-10.0670161881363 5:7.76048578126698 
-12.6632226438333 1:13.3893579261226 2:11.1436266204653 3:-4.07074978240336 4:-9.19180674505573 5:7.13559085356681 
6.55107890385512 1:12.5924649589951 2:10.219560946974 3:-4.42036624920534 4:-7.91812460476247 5:6.87158123694598 
9.55707662263471 1:13.1793583254049 2:8.20862366910322 3:-3.5164417063251 4:-8.97743195450491 5:7.91812460476249 
-3.82971614228331 1:12.8869030236732 2:6.27343949971964 3:-2.88761277362291 4:-9.01766303490881 5:9.82442520971212 
4.43383484954595 1:13.1793583254049 2:3.90013359916839 3:-2.46668835674948 4:-6.69467896306131 5:8.62519448259997 
-3.63293161716274 1:13.1793583254049 2:5.98098419798798 3:-2.61702343603041 4:-6.69467896306133 5:6.96359281413945 
-1.53272701952319 1:14.7264932876975 2:6.81616001622945 3:-4.60271549480435 4:-4.84633839366 5:5.38251123087081 
-5.32387863669304 1:16.27272974977 2:6.77216238805742 3:-7.04444822160475 4:-5.83823240663563 5:7.709328778596 
8.50902846541624 1:14.8817174189019 2:4.09049877662631 3:-5.17629153544714 4:-4.02945948591729 5:5.91214521186565 
2.25761977926426 1:15.1267675330649 2:2.72296534909107 3:-5.35585922132598 4:-4.27519804209497 5:5.34758458127229 
-1.98660434718743 1:10.9144469425068 2:4.33380164372623 3:-4.33380164372623 4:-4.8147012307656 5:5.34758458127229 
-11.7092987670391 1:13.0078376260711 2:1.99710809306202 3:-4.09049877662631 4:-3.92532991476735 5:4.45821326527405 
23.4620992742228 1:13.3339278634731 2:0.496341953155022 3:-4.13926851582251 4:-1.37882844856332 5:2.71522460436147 
-20.699069193889 1:14.4682794804057 2:-1.97440581957573 3:-3.68713599531263 4:-0.832538878413104 5:2.71522460436147 
-59.7652919830386 1:13.314870665313 2:0.485250279441218 3:-5.66154181488836 4:1.08579275882084 5:1.05930734974242 
64 1:10.1325535972389 2:0.250314515380423 3:-3.64292656266749 4:1.59881053841304 5:0 
-43.4298782683253 1:9.81316579258376 2:-0.490733449474412 3:-4.13926851582251 4:1.59881053841304 5:-0.262414382614895 
-64 1:10.1708895889825 2:-1.95221397024752 3:-4.18921613281771 4:1.88268572594836 5:0.262414382614895 
17.5497612276324 1:11.8551937946899 2:-1.97440581957573 3:-3.68713599531263 4:0.816878907742712 5:1.32822120082055 
-21.1974859082031 1:10.9144469425068 2:-0.485250279441218 3:-5.45203498996603 4:1.62879519947241 5:0.792048363609732 
8.20970886326661 1:11.3943352306837 2:-1.4558720170925 3:-4.96130154049161 4:1.62879519947241 5:0.792048363609732 
64 1:12.6532479614857 2:-1.4558720170925 3:-4.96130154049161 4:1.36153621333972 5:0.532883350506697 
64 1:12.3350820828668 2:-0.965138567618085 3:-6.2899281472431 4:2.73231272112349 5:-0.532883350506697 
-28.4295985542989 1:14.4312800091321 2:-3.06133649388336 3:-7.14430550157246 4:3.85069969207368 5:-1.33639615579815 
8.4128536487647 1:15.4901959985743 2:-5.55173278498313 3:-8.41446655791749 4:5.87400858050802 5:-1.59881053841304 
19.1745414127227 1:15.7341823042842 2:-6.16569010640922 3:-6.6129678417034 4:3.56403562691336 5:-0.529633980994837 
-10.1242980799208 1:15.237698495524 2:-4.18360690475821 3:-8.01582869139366 4:4.72222288189488 5:-0.264009616620831 
9.45425072244153 1:12.5713570858261 2:-2.63289387223491 3:-8.41446655791749 4:6.39412794908878 5:-1.04654336781649 
-12.4591664743537 1:11.9553262153443 2:-2.88035578502046 3:-10.3158962285058 4:8.02290016388188 5:-0.262414382614895 
12.4469915048032 1:12.9439237834976 2:-4.72524816476263 3:-10.0670161881363 4:7.76048578126698 5:0 
37.4776520949562 1:11.1436266204653 2:-4.07074978240336 3:-9.19180674505573 4:7.13559085356681 5:0.262414382614895 
-49.9455717296672 1:10.219560946974 2:-4.42036624920534 3:-7.91812460476247 4:6.87158123694598 5:0.264009616620831 
-19.6651158616231 1:8.20862366910322 2:-3.5164417063251 3:-8.97743195450491 4:7.91812460476249 5:0.796892967127527 
21.5164188470358 1:6.27343949971964 2:-2.88761277362291 3:-9.01766303490881 4:9.82442520971212 5:0.529633980994837 
-11.8000394497528 1:3.90013359916839 2:-2.46668835674948 3:-6.69467896306131 4:8.62519448259997 5:0.80179720158482 
22.4783856384598 1:5.98098419798798 2:-2.61702343603041 3:-6.69467896306133 4:6.96359281413945 5:0.26725898613269 
39.3855558906658 1:6.81616001622945 2:-4.60271549480435 3:-4.84633839366 4:5.38251123087081 5:-0.536172837210813 
10.3765876802445 1:6.77216238805742 2:-7.04444822160475 3:-5.83823240663563 4:7.709328778596 5:-1.59881053841304 
-64 1:4.09049877662631 2:-5.17629153544714 3:-4.02945948591729 4:5.91214521186565 5:-0.264009616620831 
45.2990935528527 1:2.72296534909107 2:-5.35585922132598 3:-4.27519804209497 4:5.34758458127229 5:-0.532883350506697 
57.9496075723378 1:4.33380164372623 2:-4.33380164372623 3:-4.8147012307656 4:5.34758458127229 5:-0.80179720158482 
64 1:1.99710809306202 2:-4.09049877662631 3:-3.92532991476735 4:4.45821326527405 5:-0.532883350506697 
64 1:0.496341953155022 2:-4.13926851582251 3:-1.37882844856332 4:2.71522460436147 5:-0.796892967127527 
64 1:-1.97440581957573 2:-3.68713599531263 3:-0.832538878413104 4:2.71522460436147 5:-0.264009616620831 
42.3670447394321 1:0.485250279441218 2:-5.66154181488836 3:1.08579275882084 4:1.05930734974242 5:-0.526423999235726 
64 1:0.250314515380423 2:-3.64292656266749 3:1.59881053841304 4:0 5:0 
-22.5092138784428 1:-0.490733449474412 2:-4.13926851582251 3:1.59881053841304 4:-0.262414382614895 5:0.262414382614895 
13.2982329311959 1:-1.95221397024752 2:-4.18921613281771 3:1.88268572594836 4:0.262414382614895 5:2.04411602425445 
-29.748688020862 1:-1.97440581957573 2:-3.68713599531263 3:0.816878907742712 4:1.32822120082055 5:3.99632999450197 
-2.77789772061674 1:-0.485250279441218 2:-5.45203498996603 3:1.62879519947241 4:0.792048363609732 5:3.75704868291293 
-15.1935502919923 1:-1.4558720170925 2:-4.96130154049161 3:1.62879519947241 4:0.792048363609732 5:5.40497612236246 
54.7311259029785 1:-1.4558720170925 2:-4.96130154049161 3:1.36153621333972 4:0.532883350506697 5:7.29578818825281 
-21.3773957219066 1:-0.965138567618085 2:-6.2899281472431 3:2.73231272112349 4:-0.532883350506697 5:9.58363549039929 
33.1380343369083 1:-3.06133649388336 2:-7.14430550157246 3:3.85069969207368 4:-1.33639615579815 5:10.5510184769974 
-16.8011408600028 1:-5.55173278498313 2:-8.41446655791749 3:5.87400858050802 4:-1.59881053841304 5:12.6293790693266 
11.3632518753175 1:-6.16569010640922 2:-6.6129678417034 3:3.56403562691336 4:-0.529633980994837 5:13.8060413930205 
-41.5458198083694 1:-4.18360690475821 2:-8.01582869139366 3:4.72222288189488 4:-0.264009616620831 5:11.5569925301493 
-21.0104295209808 1:-2.63289387223491 2:-8.41446655791749 3:6.39412794908878 4:-1.04654336781649 5:10.7375446686222 
13.937586424544 1:-2.88035578502046 2:-10.3158962285058 3:8.02290016388188 4:-0.262414382614895 5:8.78674252327176 
9.67961581173553 1:-4.72524816476263 2:-10.0670161881363 3:7.76048578126698 4:0 5:10.8851916714845 
8.37615481393292 1:-4.07074978240336 2:-9.19180674505573 3:7.13559085356681 4:0.262414382614895 5:10.2111206693864 
64 1:-4.42036624920534 2:-7.91812460476247 3:6.87158123694598 4:0.264009616620831 5:11.6969806937025 
-40.3733573450393 1:-3.5164417063251 2:-8.97743195450491 3:7.91812460476249 4:0.796892967127527 5:12.49387366083 
16.1938634992079 1:-2.88761277362291 2:-9.01766303490881 3:9.82442520971212 4:0.529633980994837 5:14.4243891803687 
21.153847446642 1:-2.46668835674948 2:-6.69467896306131 3:8.62519448259997 4:0.80179720158482 5:16.5367393663908 
-14.23897779312 1:-2.61702343603041 2:-6.69467896306133 3:6.96359281413945 4:0.26725898613269 5:18.9212936377586 
64 1:-4.60271549480435 2:-4.84633839366 3:5.38251123087081 4:-0.536172837210813 5:21.4778050837982 
4.64603985557967 1:-7.04444822160475 2:-5.83823240663563 3:7.709328778596 4:-1.59881053841304 5:22.0761653975142 
24.1614744639326 1:-5.17629153544714 2:-4.02945948591729 3:5.91214521186565 4:-0.264009616620831 5:22.9200947870378 
-45.3334985109333 1:-5.35585922132598 2:-4.27519804209497 3:5.34758458127229 4:-0.532883350506697 5:23.4529781375445 
4.4004641144125 1:-4.33380164372623 2:-4.8147012307656 3:5.34758458127229 4:-0.80179720158482 5:22.7743028002349 
-52.15953437678 1:-4.09049877662631 2:-3.92532991476735 3:4.45821326527405 4:-0.532883350506697 5:20.8786276777115 
-22.2349719234805 1:-4.13926851582251 2:-1.37882844856332 3:2.71522460436147 4:-0.796892967127527 5:21.8619779486158 
48.1531705177173 1:-3.68713599531263 2:-0.832538878413104 3:2.71522460436147 4:-0.264009616620831 5:21.3290945981091 
22.7000317732668 1:-5.66154181488836 2:1.08579275882084 3:1.05930734974242 4:-0.526423999235726 5:19.3396117264152 
-64 1:-3.64292656266749 2:1.59881053841304 3:0 4:0 5:16.7281738298674 
47.6704930234014 1:-4.13926851582251 2:1.59881053841304 3:-0.262414382614895 4:0.262414382614895 5:16.0103153671551 
35.2856182773837 1:-4.18921613281771 2:1.88268572594836 3:0.262414382614895 4:2.04411602425445 5:15.7390760389438 
17.4836715631401 1:-3.68713599531263 2:0.816878907742712 3:1.32822120082055 4:3.99632999450197 5:12.0139853726531 
-23.381182854087 1:-5.45203498996603 2:1.62879519947241 3:0.792048363609732 4:3.75704868291293 5:13.6773105957032 
-8.50595037934179 1:-4.96130154049161 2:1.62879519947241 3:0.792048363609732 4:5.40497612236246 5:12.3782159408358 
37.6871935455973 1:-4.96130154049161 2:1.36153621333972 3:0.532883350506697 4:7.29578818825281 5:11.0138278741811 
-15.690636197321 1:-6.2899281472431 2:2.73231272112349 3:-0.532883350506697 4:9.58363549039929 5:11.2949921873122 
7.84305777915234 1:-7.14430550157246 2:3.85069969207368 3:-1.33639615579815 4:10.5510184769974 5:12.8120395394489 
-3.81823720623904 1:-8.41446655791749 2:5.87400858050802 3:-1.59881053841304 4:12.6293790693266 5:12.5952259779852 
22.0780380643959 1:-6.6129678417034 2:3.56403562691336 3:-0.529633980994837 4:13.8060413930205 5:10.611801479488 
-0.464765505954263 1:-8.01582869139366 2:4.72222288189488 3:-0.264009616620831 4:11.5569925301493 5:14.6707481370472 
45.3022280214405 1:-8.41446655791749 2:6.39412794908878 3:-1.04654336781649 4:10.7375446686222 5:17.4710353339295 
31.0484881233807 1:-10.3158962285058 2:8.02290016388188 3:-0.262414382614895 4:8.78674252327176 5:21.0522474265055 
-42.1326577590853 1:-10.0670161881363 2:7.76048578126698 3:0 4:10.8851916714845 5:21.0222581642778 
8.97022845131291 1:-9.19180674505573 2:7.13559085356681 3:0.262414382614895 4:10.2111206693864 5:23.4083206033368 
-5.04016000883717 1:-7.91812460476247 2:6.87158123694598 3:0.264009616620831 4:11.6969806937025 5:24.3038048686294 
9.57110263093897 1:-8.97743195450491 2:7.91812460476249 3:0.796892967127527 4:12.49387366083 5:21.3879819945081 
2.57589615026862 1:-9.01766303490881 2:9.82442520971212 3:0.529633980994837 4:14.4243891803687 5:20.6473888049402 
0.295112716353175 1:-6.69467896306131 2:8.62519448259997 3:0.80179720158482 4:16.5367393663908 5:20.8620483882601 
-0.476583136848466 1:-6.69467896306133 2:6.96359281413945 3:0.26725898613269 4:18.9212936377586 5:16.6801183285451 
-9.00823492138401 1:-4.84633839366 2:5.38251123087081 3:-0.536172837210813 4:21.4778050837982 5:14.6597797197164 
3.78274255162337 1:-5.83823240663563 2:7.709328778596 3:-1.59881053841304 4:22.0761653975142 5:12.1661026847064 
-3.43426574916507 1:-4.02945948591729 2:5.91214521186565 3:-0.264009616620831 4:22.9200947870378 5:8.22944814717679 
17.4742035471535 1:-4.27519804209497 2:5.34758458127229 3:-0.532883350506697 4:23.4529781375445 5:6.11051824018296 
-8.99344254920232 1:-4.8147012307656 2:5.34758458127229 3:-0.80179720158482 4:22.7743028002349 5:9.17703733556454 
13.5663542606008 1:-3.92532991476735 2:4.45821326527405 3:-0.532883350506697 4:20.8786276777115 5:12.8241372158385 
7.49268306583451 1:-1.37882844856332 2:2.71522460436147 3:-0.796892967127527 4:21.8619779486158 5:11.5933250321487 
-7.74383082027996 1:-0.832538878413104 2:2.71522460436147 3:-0.264009616620831 4:21.3290945981091 5:13.5346291365622 
-0.752554756380161 1:1.08579275882084 2:1.05930734974242 3:-0.526423999235726 4:19.3396117264152 5:17.6091259055681 
2.34360654956097 1:1.59881053841304 2:0 3:0 4:16.7281738298674 5:17.6091259055681 
-0.919093182952618 1:1.59881053841304 2:-0.262414382614895 3:0.262414382614895 4:16.0103153671551 5:20.4119982655925 
-9.72197366299462 1:1.88268572594836 2:0.262414382614895 3:2.04411602425445 4:15.7390760389438 5:20.4119982655925 
17.914513823337 1:0.816878907742712 2:1.32822120082055 3:3.99632999450197 4:12.0139853726531 5:19.9572354905204 
21.0461634477621 1:1.62879519947241 2:0.792048363609732 3:3.75704868291293 4:13.6773105957032 5:16.4256889706949 
-31.2625369554161 1:1.62879519947241 2:0.792048363609732 3:5.40497612236246 4:12.3782159408358 5:17.7247836255624 
-3.22970129346165 1:1.36153621333972 2:0.532883350506697 3:7.29578818825281 4:11.0138278741811 5:19.7556213153537 
18.715564481894 1:2.73231272112349 2:-0.532883350506697 3:9.58363549039929 4:11.2949921873122 5:16.3762071591963 
-4.97380007474327 1:3.85069969207368 2:-1.33639615579815 3:10.5510184769974 4:12.8120395394489 5:14.8836741851367 
1.28732193101276 1:5.87400858050802 2:-1.59881053841304 3:12.6293790693266 4:12.5952259779852 5:15.0015331981562 
-11.3153035384803 1:3.56403562691336 2:-0.529633980994837 3:13.8060413930205 4:10.611801479488 5:17.0999823463689 
-3.74722914602559 1:4.72222288189488 2:-0.264009616620831 3:11.5569925301493 4:14.6707481370472 5:12.9260110390943 
1.02762588005562 1:6.39412794908878 2:-1.04654336781649 3:10.7375446686222 4:17.4710353339295 5:10.0765537852297 
5.77810422296622 1:8.02290016388188 2:-0.262414382614895 3:8.78674252327176 4:21.0522474265055 5:8.61861476162833 
-12.3120216674536 1:7.76048578126698 2:0 3:10.8851916714845 4:21.0222581642778 5:6.98229225390752 
-9.34806464274916 1:7.13559085356681 2:0.262414382614895 3:10.2111206693864 4:23.4083206033368 5:3.47621062592118 
-1.71443280904919 1:6.87158123694598 2:0.264009616620831 3:11.6969806937025 4:24.3038048686294 5:0 
21.3622234517305 1:7.91812460476249 2:0.796892967127527 3:12.49387366083 4:21.3879819945081 5:2.34810958495228 
-9.73317074659436 1:9.82442520971212 2:0.529633980994837 3:14.4243891803687 4:20.6473888049402 5:2.28628829595041 
-5.91330831436228 1:8.62519448259997 2:0.80179720158482 3:16.5367393663908 4:20.8620483882601 5:0.886346033130492 
2.56210951786325 1:6.96359281413945 2:0.26725898613269 3:18.9212936377586 4:16.6801183285451 5:1.15818725498151 
-30.3069763579126 1:5.38251123087081 2:-0.536172837210813 3:21.4778050837982 4:14.6597797197164 5:0.234121581490276 
9.56113027468475 1:7.709328778596 2:-1.59881053841304 3:22.0761653975142 4:12.1661026847064 5:0.24605985476569 
-22.4919975856177 1:5.91214521186565 2:-0.264009616620831 3:22.9200947870378 4:8.22944814717679 5:4.18624466771509 
-0.803719322745747 1:5.34758458127229 2:-0.532883350506697 3:23.4529781375445 4:6.11051824018296 5:7.91812460476251 
20.7779292769932 1:5.34758458127229 2:-0.80179720158482 3:22.7743028002349 4:9.17703733556454 5:4.65323248106362 
11.675202205223 1:4.45821326527405 2:-0.532883350506697 3:20.8786276777115 4:12.8241372158385 5:2.40002764037666 
-10.215237336563 1:2.71522460436147 2:-0.796892967127527 3:21.8619779486158 4:11.5933250321487 5:1.22344564170116 
21.8798000395851 1:2.71522460436147 2:-0.264009616620831 3:21.3290945981091 4:13.5346291365622 5:-0.717858462712329 
0.589810945298613 1:1.05930734974242 2:-0.526423999235726 3:19.3396117264152 4:17.6091259055681 5:-2.80287236002437 
-3.40146514881115 1:0 2:0 3:16.7281738298674 4:17.6091259055681 5:-0.717858462712329 
21.6295271045836 1:-0.262414382614895 2:0.262414382614895 3:16.0103153671551 4:20.4119982655925 5:-3.28812263946556 
-22.0839268125051 1:0.262414382614895 2:2.04411602425445 3:15.7390760389438 4:20.4119982655925 5:-3.38582672609675 
-3.12999643508371 1:1.32822120082055 2:3.99632999450197 3:12.0139853726531 4:19.9572354905204 5:-1.39357779432925 
0.969894960676222 1:0.792048363609732 2:3.75704868291293 3:13.6773105957032 4:16.4256889706949 5:-0.240606976587854 
10.801593765118 1:0.792048363609732 2:5.40497612236246 3:12.3782159408358 4:17.7247836255624 5:-2.86451814495301 
-0.481558019369345 1:0.532883350506697 2:7.29578818825281 3:11.0138278741811 4:19.7556213153537 5:-3.20151364311636 
-1.16563487170519 1:-0.532883350506697 2:9.58363549039929 3:11.2949921873122 4:16.3762071591963 5:-1.85822775172984 
-0.423495844734463 1:-1.33639615579815 2:10.5510184769974 3:12.8120395394489 4:14.8836741851367 5:-3.02848039044679 
-0.351583378007974 1:-1.59881053841304 2:12.6293790693266 3:12.5952259779852 4:15.0015331981562 5:-5.24983384667306 
2.50950238221148 1:-0.529633980994837 2:13.8060413930205 3:10.611801479488 4:17.0999823463689 5:-7.10633558254452 
1.43577339133893 1:-0.264009616620831 2:11.5569925301493 3:14.6707481370472 4:12.9260110390943 5:-5.00788643433179 
0.861854087419548 1:-1.04654336781649 2:10.7375446686222 3:17.4710353339295 4:10.0765537852297 5:-4.38121592816376 
-2.80182744389204 1:-0.262414382614895 2:8.78674252327176 3:21.0522474265055 4:8.61861476162833 5:-5.06099933550872 
5.37166831902872 1:0 2:10.8851916714845 3:21.0222581642778 4:6.98229225390752 5:-7.49024480683498 
4.18730686020579 1:0.262414382614895 2:10.2111206693864 3:23.4083206033368 4:3.47621062592118 5:-5.70385009703642 
0.651403570306897 1:0.264009616620831 2:11.6969806937025 3:24.3038048686294 4:0 5:-2.3608773193351 
-0.862830514496385 1:0.796892967127527 2:12.49387366083 3:21.3879819945081 4:2.34810958495228 5:-2.59005699729356 
-5.11786603175774 1:0.529633980994837 2:14.4243891803687 3:20.6473888049402 4:2.28628829595041 5:-5.45061644549691 
5.51139437299721 1:0.80179720158482 2:16.5367393663908 3:20.8620483882601 4:0.886346033130492 5:-6.87784856478575 
5.60079555461942 1:0.26725898613269 2:18.9212936377586 3:16.6801183285451 4:1.15818725498151 5:-7.19277249209793 
-1.69444447257373 1:-0.536172837210813 2:21.4778050837982 3:14.6597797197164 4:0.234121581490276 5:-4.16262396042431 
8.48280085032489 1:-1.59881053841304 2:22.0761653975142 3:12.1661026847064 4:0.24605985476569 5:-0.24605985476569 
4.99262765587519 1:-0.264009616620831 2:22.9200947870378 3:8.22944814717679 4:4.18624466771509 5:-2.16590605888638 
1.44889951143825 1:-0.532883350506697 2:23.4529781375445 3:6.11051824018296 4:7.91812460476251 5:-2.80287236002437 
-5.37682382513365 1:-0.80179720158482 2:22.7743028002349 3:9.17703733556454 4:4.65323248106362 5:0.231624272718101 
-2.25653099885016 1:-0.532883350506697 2:20.8786276777115 3:12.8241372158385 4:2.40002764037666 5:1.82887857123095 
-0.581301660726155 1:-0.796892967127527 2:21.8619779486158 3:11.5933250321487 4:1.22344564170116 5:3.252922482692 
-4.36801584472806 1:-0.264009616620831 2:21.3290945981091 3:13.5346291365622 4:-0.717858462712329 5:2.80287236002437 
-0.0797759295083319 1:-0.526423999235726 2:19.3396117264152 3:17.6091259055681 4:-2.80287236002437 5:1.8885344160374 
1.17894072169685 1:0 2:16.7281738298674 3:17.6091259055681 4:-0.717858462712329 5:1.42404391146105 
0.524998541843144 1:0.262414382614895 2:16.0103153671551 3:20.4119982655925 4:-3.28812263946556 5:1.20310874215352 
-0.486283712169633 1:2.04411602425445 2:15.7390760389438 3:20.4119982655925 4:-3.38582672609675 5:-1.91984620412069 
3.60945280418913 1:3.99632999450197 2:12.0139853726531 3:19.9572354905204 4:-1.39357779432925 5:0.235390539347735 
-1.87460072108821 1:3.75704868291293 2:13.6773105957032 3:16.4256889706949 4:-0.240606976587854 5:2.34810958495228 
-4.96533276986698 1:7.29578818825281 2:11.0138278741811 3:19.7556213153537 4:-3.20151364311636 5:2.08501389731204 
-4.99186920854909 1:9.58363549039929 2:11.2949921873122 3:16.3762071591963 4:-1.85822775172984 5:2.31062192773446 
8.24572358593939 1:10.5510184769974 2:12.8120395394489 3:14.8836741851367 4:-3.02848039044679 5:1.8885344160374 
-0.0441259276970253 1:12.6293790693266 2:12.5952259779852 3:15.0015331981562 4:-5.24983384667306 5:1.66599132380232 
-0.61134436894641 1:13.8060413930205 2:10.611801479488 3:17.0999823463689 4:-7.10633558254452 5:1.8885344160374 
-4.79085856220305 1:11.5569925301493 2:14.6707481370472 3:12.9260110390943 4:-5.00788643433179 5:1.8885344160374 
1.77546491779218 1:10.7375446686222 2:17.4710353339295 3:10.0765537852297 4:-4.38121592816376 5:1.43186974231204 
0.42631710842013 1:8.78674252327176 2:21.0522474265055 3:8.61861476162833 4:-5.06099933550872 5:1.67517260941197 
-1.19506062219047 1:10.8851916714845 2:21.0222581642778 3:6.98229225390752 4:-7.49024480683498 5:4.37089278854059 
-0.915588741295345 1:10.2111206693864 2:23.4083206033368 3:3.47621062592118 4:-5.70385009703642 5:4.11617388715264 
-1.20543603027527 1:12.49387366083 2:21.3879819945081 3:2.34810958495228 4:-2.59005699729356 5:1.19647920296431 
2.95340175121889 1:14.4243891803687 2:20.6473888049402 3:2.28628829595041 4:-5.45061644549691 5:2.92893761019877 
-4.108560590703 1:16.5367393663908 2:20.8620483882601 3:0.886346033130492 4:-6.87784856478575 5:4.62711446500066 
0.514488887451642 1:18.9212936377586 2:16.6801183285451 3:1.15818725498151 4:-7.19277249209793 5:5.79919469776868 
0.0967042515731817 1:21.4778050837982 2:14.6597797197164 3:0.234121581490276 4:-4.16262396042431 5:3.45643851167559 
0.372473624445027 1:22.0761653975142 2:12.1661026847064 3:0.24605985476569 4:-0.24605985476569 5:2.16590605888638 
1.4925039991431 1:22.9200947870378 2:8.22944814717679 3:4.18624466771509 4:-2.16590605888638 5:2.16590605888638 
-3.22769096966984 1:23.4529781375445 2:6.11051824018296 3:7.91812460476251 4:-2.80287236002437 5:1.42404391146105 
-0.929194908935294 1:22.7743028002349 2:9.17703733556454 3:4.65323248106362 4:0.231624272718101 5:-0.464490504576354 
-1.72654909578828 1:20.8786276777115 2:12.8241372158385 3:2.40002764037666 4:1.82887857123095 5:-2.06300015272123 
1.62355947858601 1:21.8619779486158 2:11.5933250321487 3:1.22344564170116 4:3.252922482692 5:-2.53506401997967 
1.45746089118732 1:19.3396117264152 2:17.6091259055681 3:-2.80287236002437 4:1.8885344160374 5:-0.934002625414365 
-2.13035758084238 1:16.7281738298674 2:17.6091259055681 3:-0.717858462712329 4:1.42404391146105 5:-0.469512120838012 
-4.91574124285941 1:16.0103153671551 2:20.4119982655925 3:-3.28812263946556 4:1.20310874215352 5:0.236673327910708 
0.716180748503876 1:15.7390760389438 2:20.4119982655925 3:-3.38582672609675 4:-1.91984620412069 5:0.729923874149918 
1.11809903020189 1:12.0139853726531 2:19.9572354905204 3:-1.39357779432925 4:0.235390539347735 5:-1.18992232997077 
6.51056165656429 1:13.6773105957032 2:16.4256889706949 3:-0.240606976587854 4:2.34810958495228 5:-2.34810958495228 
1.56664651114579 1:12.3782159408358 2:17.7247836255624 3:-2.86451814495301 4:3.55206994335777 5:-3.79953185614332 
2.54072029263545 1:11.0138278741811 2:19.7556213153537 3:-3.20151364311636 4:2.08501389731204 5:-5.03051183113961 
-4.90402650421102 1:11.2949921873122 2:16.3762071591963 3:-1.85822775172984 4:2.31062192773446 5:-3.27042780278806 
-10.3169344284373 1:12.8120395394489 2:14.8836741851367 3:-3.02848039044679 4:1.8885344160374 5:-1.17067595332507 
14.1685792407029 1:12.5952259779852 2:15.0015331981562 3:-5.24983384667306 4:1.66599132380232 5:-1.42404391146105 
-7.36611220881914 1:10.611801479488 2:17.0999823463689 3:-7.10633558254452 4:1.8885344160374 5:-1.8885344160374 
-6.00348278916624 1:14.6707481370472 2:12.9260110390943 3:-5.00788643433179 4:1.8885344160374 5:-1.17067595332507 
1.69831163916743 1:17.4710353339295 2:10.0765537852297 3:-4.38121592816376 4:1.43186974231204 5:-0.472063867258443 
-2.94464772973953 1:21.0522474265055 2:8.61861476162833 3:-5.06099933550872 4:1.67517260941197 5:-0.710034041793906 
-3.30593034171858 1:21.0222581642778 2:6.98229225390752 3:-7.49024480683498 4:4.37089278854059 5:-1.8885344160374 
-2.49014562624535 1:23.4083206033368 2:3.47621062592118 3:-5.70385009703642 4:4.11617388715264 5:-2.13048182837867 
-3.80365237600415 1:24.3038048686294 2:0 3:-2.3608773193351 4:1.43186974231204 5:-1.67517260941197 
-9.05066626747187 1:21.3879819945081 2:2.34810958495228 3:-2.59005699729356 4:1.19647920296431 5:-1.43978207006423 
20.6936883735811 1:20.6473888049402 2:2.28628829595041 3:-5.45061644549691 4:2.92893761019877 5:-1.68445566477295 
-10.4667206823537 1:20.8620483882601 2:0.886346033130492 3:-6.87784856478575 4:4.62711446500066 5:-2.86451814495301 
5.06220644529578 1:16.6801183285451 2:1.15818725498151 3:-7.19277249209793 4:5.79919469776868 5:-1.43978207006423 
-29.7386698137038 1:14.6597797197164 2:0.234121581490276 3:-4.16262396042431 4:3.45643851167559 5:-0.717858462712329 
-3.71152839039722 1:12.1661026847064 2:0.24605985476569 3:-0.24605985476569 4:2.16590605888638 5:-1.18992232997077 
-1.75294031439125 1:8.22944814717679 2:4.18624466771509 3:-2.16590605888638 4:2.16590605888638 5:-1.67517260941197 
-2.85815718301975 1:6.11051824018296 2:7.91812460476251 3:-2.80287236002437 4:1.42404391146105 5:-3.39844973103678 
-5.07408875097293 1:9.17703733556454 2:4.65323248106362 3:0.231624272718101 4:-0.464490504576354 5:-2.15396778561097 
-0.0194140655276441 1:12.8241372158385 2:2.40002764037666 3:1.82887857123095 4:-2.06300015272123 5:-1.67517260941197 
-3.20766138888114 1:11.5933250321487 2:1.22344564170116 3:3.252922482692 4:-2.53506401997967 5:-1.44778233686225 
-18.0265760137461 1:13.5346291365622 2:-0.717858462712329 3:2.80287236002437 4:-2.3229840718475 5:-1.70333392987803 
-50.1696492949239 1:17.6091259055681 2:-2.80287236002437 3:1.8885344160374 4:-0.934002625414365 5:-2.92893761019877 
10.8332515853791 1:17.6091259055681 2:-0.717858462712329 3:1.42404391146105 4:-0.469512120838012 5:-3.43689016312623 
2.95629901601852 1:20.4119982655925 2:-3.28812263946556 3:1.20310874215352 4:0.236673327910708 5:-4.73338787956301 
3.84626912626933 1:20.4119982655925 2:-3.38582672609675 3:-1.91984620412069 4:0.729923874149918 5:-3.25560339557227 
9.57405413532114 1:19.9572354905204 2:-1.39357779432925 3:0.235390539347735 4:-1.18992232997077 5:-1.97440581957573 
18.1498611764519 1:16.4256889706949 2:-0.240606976587854 3:2.34810958495228 4:-2.34810958495228 5:-1.97440581957573 
17.2340469312148 1:17.7247836255624 2:-2.86451814495301 3:3.55206994335777 4:-3.79953185614332 5:-1.77287669604316 
-4.05498586868075 1:19.7556213153537 2:-3.20151364311636 3:2.08501389731204 4:-5.03051183113961 5:-0.510940577848018 
-10.6900756149995 1:16.3762071591963 2:-1.85822775172984 3:2.31062192773446 4:-3.27042780278806 5:-2.75437492540305 
26.8289102142118 1:14.8836741851367 2:-3.02848039044679 3:1.8885344160374 4:-1.17067595332507 5:-4.4967145516523 
11.2406008135847 1:15.0015331981562 2:-5.24983384667306 3:1.66599132380232 4:-1.42404391146105 5:-4.04286570556081 
10.315211205907 1:17.0999823463689 2:-7.10633558254452 3:1.8885344160374 4:-1.8885344160374 5:-4.30849006993483 
-17.9133847607618 1:12.9260110390943 2:-5.00788643433179 3:1.8885344160374 4:-1.17067595332507 5:-4.4967145516523 
-2.89491381298416 1:10.0765537852297 2:-4.38121592816376 3:1.43186974231204 4:-0.472063867258443 5:-4.76072416827313 
5.29283302500076 1:8.61861476162833 2:-5.06099933550872 3:1.67517260941197 4:-0.710034041793906 5:-4.52275399373767 
19.0016710909487 1:6.98229225390752 2:-7.49024480683498 3:4.37089278854059 4:-1.8885344160374 5:-4.04286570556081 
-64 1:3.47621062592118 2:-5.70385009703642 3:4.11617388715264 4:-2.13048182837867 5:-3.5369086765987 
29.38078513832 1:0 2:-2.3608773193351 3:1.43186974231204 4:-1.67517260941197 5:-3.82323979049364 
-56.9112873047987 1:2.34810958495228 2:-2.59005699729356 3:1.19647920296431 4:-1.43978207006423 5:-4.09049877662633 
31.7135634295365 1:2.28628829595041 2:-5.45061644549691 3:2.92893761019877 4:-1.68445566477295 5:-3.84582518191761 
64 1:0.886346033130492 2:-6.87784856478575 3:4.62711446500066 4:-2.86451814495301 5:-4.13926851582254 
-6.07582612300415 1:1.15818725498151 2:-7.19277249209793 3:5.79919469776868 4:-1.43978207006423 5:-3.55761542611961 
64 1:0.234121581490276 2:-4.16262396042431 3:3.45643851167559 4:-0.717858462712329 5:-5.38753807828547 
64 1:0.24605985476569 2:-0.24605985476569 3:2.16590605888638 4:-1.18992232997077 5:-5.11525224473814 
11.0719909452311 1:4.18624466771509 2:-2.16590605888638 3:2.16590605888638 4:-1.67517260941197 5:-4.09049877662633 
28.1445855052832 1:7.91812460476251 2:-2.80287236002437 3:1.42404391146105 4:-3.39844973103678 5:-3.14084642516241 
-12.9791295377484 1:4.65323248106362 2:0.231624272718101 3:-0.464490504576354 4:-2.15396778561097 5:-4.11473903299573 
52.0419834428697 1:2.40002764037666 2:1.82887857123095 3:-2.06300015272123 4:-1.67517260941197 5:-4.35941262770445 
-19.3258639685172 1:1.22344564170116 2:3.252922482692 3:-2.53506401997967 4:-1.44778233686225 5:-3.84582518191761 
64 1:-0.717858462712329 2:2.80287236002437 3:-2.3229840718475 4:-1.70333392987803 5:-2.55541044723882 
64 1:-2.80287236002437 2:1.8885344160374 3:-0.934002625414365 4:-2.92893761019877 5:-1.54203588674937 
4.33142919414925 1:-0.717858462712329 2:1.42404391146105 3:-0.469512120838012 4:-3.43689016312623 5:-1.03408333382191 
2.10816058487709 1:-3.28812263946556 2:1.20310874215352 3:0.236673327910708 4:-4.73338787956301 5:0.262414382614873 
0.779618489677023 1:-3.38582672609675 2:-1.91984620412069 3:0.729923874149918 4:-3.25560339557227 5:0.259281057827954 
-64 1:-1.39357779432925 2:0.235390539347735 3:-1.18992232997077 4:-1.97440581957573 5:-1.54203588674937 
-64 1:-0.240606976587854 2:2.34810958495228 3:-2.34810958495228 4:-1.97440581957573 5:-1.02191651816859 
-16.0185886435582 1:-2.86451814495301 2:3.55206994335777 3:-3.79953185614332 4:-1.77287669604316 5:1.77287669604316 
-8.65397463758763 1:-3.20151364311636 2:2.08501389731204 3:-5.03051183113961 4:-0.510940577848018 5:1.0159398515122 
29.3450962483207 1:-1.85822775172984 2:2.31062192773446 3:-3.27042780278806 4:-2.75437492540305 5:1.52399665567371 
23.1567539175781 1:-3.02848039044679 2:1.8885344160374 3:-1.17067595332507 4:-4.4967145516523 5:4.25874437711684 
64 1:-5.24983384667306 2:1.66599132380232 3:-1.42404391146105 4:-4.04286570556081 5:6.61895192000297 
-38.2124245782331 1:-7.10633558254452 2:1.8885344160374 3:-1.8885344160374 4:-4.30849006993483 5:7.78470069585602 
-64 1:-5.00788643433179 2:1.8885344160374 3:-1.17067595332507 4:-4.4967145516523 5:7.91812460476247 
9.88310792597625 1:-4.38121592816376 2:1.43186974231204 3:-0.472063867258443 4:-4.76072416827313 5:6.61895192000297 
-64 1:-5.06099933550872 2:1.67517260941197 3:-0.710034041793906 4:-4.52275399373767 5:5.69977584888011 
-17.9597112913372 1:-7.49024480683498 2:4.37089278854059 3:-1.8885344160374 4:-4.04286570556081 5:5.69977584888011 
-2.3107457838245 1:-5.70385009703642 2:4.11617388715264 3:-2.13048182837867 4:-3.5369086765987 5:5.8977859959338 
9.26883348390814 1:-2.3608773193351 2:1.43186974231204 3:-1.67517260941197 4:-3.82323979049364 5:7.56141255262683 
64 1:-2.59005699729356 2:1.19647920296431 3:-1.43978207006423 4:-4.09049877662633 5:7.15183527050969 
20.7275362576241 1:-5.45061644549691 2:2.92893761019877 3:-1.68445566477295 4:-3.84582518191761 5:8.05195968198871 
19.2700120409286 1:-6.87784856478575 2:4.62711446500066 3:-2.86451814495301 4:-4.13926851582254 5:8.36817472743014 
-12.4945850118576 1:-7.19277249209793 2:5.79919469776868 3:-1.43978207006423 4:-3.55761542611961 5:7.29578818825281 
26.6423883784685 1:-4.16262396042431 2:3.45643851167559 3:-0.717858462712329 4:-5.38753807828547 5:8.41601846873226 
-5.74870675232508 1:-0.24605985476569 2:2.16590605888638 3:-1.18992232997077 4:-5.11525224473814 5:8.36817472743014 
-64 1:-2.16590605888638 2:2.16590605888638 3:-1.67517260941197 4:-4.09049877662633 5:6.92385864101981 
3.90761795121633 1:-2.80287236002437 2:1.42404391146105 3:-3.39844973103678 4:-3.14084642516241 5:6.30517457470892 
-8.0348889394171 1:0.231624272718101 2:-0.464490504576354 3:-2.15396778561097 4:-4.11473903299573 5:5.32455119532251 
25.9228651265282 1:1.82887857123095 2:-2.06300015272123 3:-1.67517260941197 4:-4.35941262770445 5:6.73319732318305 
-30.8292464608524 1:3.252922482692 2:-2.53506401997967 3:-1.44778233686225 4:-3.84582518191761 5:6.46428347210493 
12.8201946434163 1:2.80287236002437 2:-2.3229840718475 3:-1.70333392987803 4:-2.55541044723882 5:6.12696567389226 
63.5898882326779 1:1.8885344160374 2:-0.934002625414365 3:-2.92893761019877 4:-1.54203588674937 5:3.75704868291296 
-24.1741294889917 1:1.42404391146105 2:-0.469512120838012 3:-3.43689016312623 4:-1.03408333382191 5:5.63537161331893 
4.81542516677311 1:1.20310874215352 2:0.236673327910708 3:-4.73338787956301 4:0.262414382614873 5:4.47097349694814 
-10.6915742364537 1:-1.91984620412069 2:0.729923874149918 3:-3.25560339557227 4:0.259281057827954 5:3.95085412836735 
-64 1:0.235390539347735 2:-1.18992232997077 3:-1.97440581957573 4:-1.54203588674937 5:4.94048561778615 
39.3209657359584 1:2.34810958495228 2:-2.34810958495228 3:-1.97440581957573 4:-1.02191651816859 5:2.51107205830312 
-7.03019279419352 1:3.55206994335777 2:-3.79953185614332 3:-1.77287669604316 4:1.77287669604316 5:0.247461912785552 
-64 1:2.08501389731204 2:-5.03051183113961 3:-0.510940577848018 4:1.0159398515122 5:1.23738991800986 
-64 1:2.31062192773446 2:-3.27042780278806 3:-2.75437492540305 4:1.52399665567371 5:1.47232568207061 
-23.1105315280373 1:1.8885344160374 2:-1.17067595332507 3:-4.4967145516523 4:4.25874437711684 5:-0.479888288176866 
6.21526388754363 1:1.66599132380232 2:-1.42404391146105 3:-4.04286570556081 4:6.61895192000297 5:-3.06133649388336 
64 1:1.8885344160374 2:-1.8885344160374 3:-4.30849006993483 4:7.78470069585602 5:-5.95856899842437 
9.42130106876013 1:1.8885344160374 2:-1.17067595332507 3:-4.4967145516523 4:7.91812460476247 5:-7.91812460476247 
-11.311630232742 1:1.43186974231204 2:-0.472063867258443 3:-4.76072416827313 4:6.61895192000297 5:-4.29872641189322 
64 1:1.67517260941197 2:-0.710034041793906 3:-4.52275399373767 4:5.69977584888011 5:-2.88035578502046 
-64 1:4.37089278854059 2:-1.8885344160374 3:-4.04286570556081 4:5.69977584888011 5:-2.1421604227605 
36.8839301104479 1:4.11617388715264 2:-2.13048182837867 3:-3.5369086765987 4:5.8977859959338 5:-3.84157010444488 
-64 1:1.43186974231204 2:-1.67517260941197 3:-3.82323979049364 4:7.56141255262683 5:-5.73528085519519 
64 1:1.19647920296431 2:-1.43978207006423 3:-4.09049877662633 4:7.15183527050969 5:-5.05844458694535 
64 1:2.92893761019877 2:-1.68445566477295 3:-3.84582518191761 4:8.05195968198871 5:-5.95856899842437 
-14.626624150436 1:4.62711446500066 2:-2.86451814495301 3:-4.13926851582254 4:8.36817472743014 5:-5.22732830226773 
-19.2639339475494 1:5.79919469776868 2:-1.43978207006423 3:-3.55761542611961 4:7.29578818825281 5:-4.72524816476261 
1.63105672896072 1:3.45643851167559 2:-0.717858462712329 3:-5.38753807828547 4:8.41601846873226 5:-5.51083876294998 
-64 1:2.16590605888638 2:-1.18992232997077 3:-5.11525224473814 4:8.36817472743014 5:-5.99150253165526 
-64 1:2.16590605888638 2:-1.67517260941197 3:-4.09049877662633 4:6.92385864101981 5:-5.86455129127739 
-64 1:1.42404391146105 2:-3.39844973103678 3:-3.14084642516241 4:6.30517457470892 5:-2.91256252742182 
-29.3135377970841 1:-0.464490504576354 2:-2.15396778561097 3:-4.11473903299573 4:5.32455119532251 5:-2.20252848562792 
32.8226179768734 1:-2.06300015272123 2:-1.67517260941197 3:-4.35941262770445 4:6.73319732318305 5:-4.37089278854059 
-7.81007123228581 1:-2.53506401997967 2:-1.44778233686225 3:-3.84582518191761 4:6.46428347210493 5:-3.86294023561313 
-64 1:-2.3229840718475 2:-1.70333392987803 3:-2.55541044723882 4:6.12696567389226 5:-4.57574905606752 
-64 1:-0.934002625414365 2:-2.92893761019877 3:-1.54203588674937 4:3.75704868291296 5:-2.72296534909104 
13.483803538439 1:-0.469512120838012 2:-3.43689016312623 3:-1.03408333382191 4:5.63537161331893 5:-5.3745333025661 
-62.3958195720066 1:0.236673327910708 2:-4.73338787956301 3:0.262414382614873 4:4.47097349694814 5:-4.21013518619531 
-23.2925317870204 1:0.729923874149918 2:-3.25560339557227 3:0.259281057827954 4:3.95085412836735 5:-4.47097349694814 
64 1:-1.18992232997077 2:-1.97440581957573 3:-1.54203588674937 4:4.94048561778615 5:-5.73253398139588 
8.27982386212656 1:-2.34810958495228 2:-1.97440581957573 3:-1.02191651816859 4:2.51107205830312 5:-3.82323979049364 
42.4549751620166 1:-3.79953185614332 2:-1.77287669604316 3:1.77287669604316 4:0.247461912785552 5:-2.80287236002437 
-28.0434243200306 1:-5.03051183113961 2:-0.510940577848018 3:1.0159398515122 4:1.23738991800986 5:-1.99710809306199 
-64 1:-3.27042780278806 2:-2.75437492540305 3:1.52399665567371 4:1.47232568207061 5:-3.25560339557227 
-64 1:-1.17067595332507 2:-4.4967145516523 3:4.25874437711684 4:-0.479888288176866 5:-2.73858004896326 
64 1:-1.42404391146105 2:-4.04286570556081 3:6.61895192000297 4:-3.06133649388336 5:-2.51107205830312 
64 1:-1.8885344160374 2:-4.30849006993483 3:7.78470069585602 4:-5.95856899842437 5:-0.513963965241127 
-20.4547357883872 1:-1.17067595332507 2:-4.4967145516523 3:7.91812460476247 4:-7.91812460476247 5:1.04027603997672 
60.0442000322167 1:-0.472063867258443 2:-4.76072416827313 3:6.61895192000297 4:-4.29872641189322 5:-1.53296319812122 
-64 1:-0.710034041793906 2:-4.52275399373767 3:5.69977584888011 4:-2.88035578502046 5:-2.29299606462394 
-24.6645681367653 1:-1.8885344160374 2:-4.04286570556081 3:5.69977584888011 4:-2.1421604227605 5:-3.29360580949878 
-64 1:-2.13048182837867 2:-3.5369086765987 3:5.8977859959338 4:-3.84157010444488 5:-2.32022550810975 
64 1:-1.67517260941197 2:-3.82323979049364 3:7.56141255262683 4:-5.73528085519519 5:-2.09339068356433 
-64 1:-1.43978207006423 2:-4.09049877662633 3:7.15183527050969 4:-5.05844458694535 5:-1.03408333382191 
-32.8116421918883 1:-1.68445566477295 2:-3.84582518191761 3:8.05195968198871 4:-5.95856899842437 5:-1.03408333382191 
-4.59714566524785 1:-2.86451814495301 2:-4.13926851582254 3:8.36817472743014 4:-5.22732830226773 5:-2.3340842503591 
40.829688148228 1:-1.43978207006423 2:-3.55761542611961 3:7.29578818825281 4:-4.72524816476261 5:-5.02175501123086 
-36.2469604911415 1:-0.717858462712329 2:-5.38753807828547 3:8.41601846873226 4:-5.51083876294998 5:-3.45492689690405 
-25.699149644282 1:-1.18992232997077 2:-5.11525224473814 3:8.36817472743014 4:-5.99150253165526 5:-3.47621062592118 
-64 1:-1.67517260941197 2:-4.09049877662633 3:6.92385864101981 4:-5.86455129127739 5:-4.6921819627781 
31.0893166688547 1:-3.39844973103678 2:-3.14084642516241 3:6.30517457470892 4:-2.91256252742182 5:-4.49215047743339 
-64 1:-2.15396778561097 2:-4.11473903299573 3:5.32455119532251 4:-2.20252848562792 5:-5.90691558356262 
64 1:-1.67517260941197 2:-4.35941262770445 3:6.73319732318305 4:-4.37089278854059 5:-4.57574905606752 
-1.93345913500045 1:-1.44778233686225 2:-3.84582518191761 3:6.46428347210493 4:-3.86294023561313 5:-5.94371878518674 
-6.15478907712648 1:-1.70333392987803 2:-2.55541044723882 3:6.12696567389226 4:-4.57574905606752 5:-7.76600729270918 
20.5249842927059 1:-2.92893761019877 2:-1.54203588674937 3:3.75704868291296 4:-2.72296534909104 5:-9.69100130080567 
-1.48551866748942 1:-3.43689016312623 2:-1.03408333382191 3:5.63537161331893 4:-5.3745333025661 5:-10.8773118840746 
7.88916495168884 1:-4.73338787956301 2:0.262414382614873 3:4.47097349694814 4:-4.21013518619531 5:-8.91775627773659 
-13.1187017852945 1:-3.25560339557227 2:0.259281057827954 3:3.95085412836735 4:-4.47097349694814 5:-8.02290016388185 
-0.656611816507615 1:-1.97440581957573 2:-1.54203588674937 3:4.94048561778615 4:-5.73253398139588 5:-5.68515669388958 
-25.8654789877511 1:-1.97440581957573 2:-1.02191651816859 3:2.51107205830312 4:-3.82323979049364 5:-7.86486960337403 
-48.8923507975405 1:-1.77287669604316 2:1.77287669604316 3:0.247461912785552 4:-2.80287236002437 5:-6.519559983085 
-64 1:-0.510940577848018 2:1.0159398515122 3:1.23738991800986 4:-1.99710809306199 5:-6.90809191432993 
-20.7839413172443 1:-2.75437492540305 2:1.52399665567371 3:1.47232568207061 4:-3.25560339557227 5:-7.65884354693451 
16.5632342366281 1:-4.4967145516523 2:4.25874437711684 3:-0.479888288176866 4:-2.73858004896326 5:-9.4347796243456 
-23.5353817225155 1:-4.04286570556081 2:6.61895192000297 3:-3.06133649388336 4:-2.51107205830312 5:-8.54301953246264 
11.3897828871148 1:-4.30849006993483 2:7.78470069585602 3:-5.95856899842437 4:-0.513963965241127 5:-8.85887145694562 
-18.0438316735046 1:-4.4967145516523 2:7.91812460476247 3:-7.91812460476247 4:1.04027603997672 5:-11.0615408957909 
-64 1:-4.76072416827313 2:6.61895192000297 3:-4.29872641189322 4:-1.53296319812122 5:-10.5445175491819 
50.5259476806054 1:-4.52275399373767 2:5.69977584888011 3:-2.88035578502046 4:-2.29299606462394 5:-11.9737542922492 
-64 1:-4.04286570556081 2:5.69977584888011 3:-2.1421604227605 4:-3.29360580949878 5:-13.8302698166282 
-33.7272998834611 1:-3.5369086765987 2:5.8977859959338 3:-3.84157010444488 4:-2.32022550810975 5:-15.7938996711225 
-64 1:-3.82323979049364 2:7.56141255262683 3:-5.73528085519519 4:-2.09339068356433 5:-13.39680531501 
49.9601229159364 1:-4.09049877662633 2:7.15183527050969 3:-5.05844458694535 4:-1.03408333382191 5:-13.7322717723605 
21.6118208932386 1:-3.84582518191761 2:8.05195968198871 3:-5.95856899842437 4:-1.03408333382191 5:-12.3198075031999 
52.6725520119733 1:-4.13926851582254 2:8.36817472743014 3:-5.22732830226773 4:-2.3340842503591 5:-12.5827773729209 
-64 1:-3.55761542611961 2:7.29578818825281 3:-4.72524816476261 4:-5.02175501123086 5:-12.214583642413 
-22.5768350992316 1:-5.38753807828547 2:8.41601846873226 3:-5.51083876294998 4:-3.45492689690405 5:-14.6681629739052 
8.84223197899693 1:-5.11525224473814 2:8.36817472743014 3:-5.99150253165526 4:-3.47621062592118 5:-16.3740820669252 
14.6648078264736 1:-4.09049877662633 2:6.92385864101981 3:-5.86455129127739 4:-4.6921819627781 5:-16.4586096650357 
45.9556166635251 1:-3.14084642516241 2:6.30517457470892 3:-2.91256252742182 4:-4.49215047743339 5:-16.3740820669252 
9.54943967278342 1:-4.11473903299573 2:5.32455119532251 3:-2.20252848562792 4:-5.90691558356262 5:-12.9758924622988 
64 1:-4.35941262770445 2:6.73319732318305 3:-4.37089278854059 4:-4.57574905606752 5:-11.6505569071437 
5.70962391843581 1:-3.84582518191761 2:6.46428347210493 3:-3.86294023561313 4:-5.94371878518674 5:-10.4209251749556 
-15.6152131523791 1:-2.55541044723882 2:6.12696567389226 3:-4.57574905606752 4:-7.76600729270918 5:-7.61547914174372 
2.84042297056676 1:-1.54203588674937 2:3.75704868291296 3:-2.72296534909104 4:-9.69100130080567 5:-4.7179077695469 
5.70610966588301 1:-1.03408333382191 2:5.63537161331893 3:-5.3745333025661 4:-10.8773118840746 5:-2.40382408674389 
6.13617574641752 1:0.262414382614873 2:4.47097349694814 3:-4.21013518619531 4:-8.91775627773659 5:-6.53530466240557 
-15.212397045347 1:0.259281057827954 2:3.95085412836735 3:-4.47097349694814 4:-8.02290016388185 5:-9.0661063731055 
27.5914889892362 1:-1.54203588674937 2:4.94048561778615 3:-5.73253398139588 4:-5.68515669388958 5:-9.84311861285891 
18.2987210702523 1:-1.02191651816859 2:2.51107205830312 3:-3.82323979049364 4:-7.86486960337403 5:-6.16569010640919 
-1.2291510400692 1:1.77287669604316 2:0.247461912785552 3:-2.80287236002437 4:-6.519559983085 5:-9.92099008996368 
-3.5494140148394 1:1.0159398515122 2:1.23738991800986 3:-1.99710809306199 4:-6.90809191432993 5:-12.7944246748025 
9.06252791810725 1:1.52399665567371 2:1.47232568207061 3:-3.25560339557227 4:-7.65884354693451 5:-13.3290810973066 
0.634962100999738 1:4.25874437711684 2:-0.479888288176866 3:-2.73858004896326 4:-9.4347796243456 5:-10.8233043105447 
6.62000247485746 1:6.61895192000297 2:-3.06133649388336 3:-2.51107205830312 4:-8.54301953246264 5:-11.0495308716027 
1.54633838687932 1:7.78470069585602 2:-5.95856899842437 3:-0.513963965241127 4:-8.85887145694562 5:-10.3296811669457 
6.86539376284527 1:7.91812460476247 2:-7.91812460476247 3:1.04027603997672 4:-11.0615408957909 5:-7.98447977151406 
-9.30293921082851 1:6.61895192000297 2:-4.29872641189322 3:-1.53296319812122 4:-10.5445175491819 5:-7.58786104975395 
10.6239038231511 1:5.69977584888011 2:-2.88035578502046 3:-2.29299606462394 4:-11.9737542922492 5:-5.50475663309054 
-5.8614892987739 1:5.69977584888011 2:-2.1421604227605 3:-3.29360580949878 4:-13.8302698166282 5:-2.99632233774432 
2.81325658809039 1:5.8977859959338 2:-3.84157010444488 3:-2.32022550810975 4:-15.7938996711225 5:-0.382640785305322 
3.48747537118867 1:7.56141255262683 2:-5.73528085519519 3:-2.09339068356433 4:-13.39680531501 5:-1.48491210389188 
2.70756790094998 1:7.15183527050969 2:-5.05844458694535 3:-1.03408333382191 4:-13.7322717723605 5:-1.45995085702886 
-5.09258065522714 1:8.05195968198871 2:-5.95856899842437 3:-1.03408333382191 4:-12.3198075031999 5:-2.13630516155257 
-10.6799069759651 1:8.36817472743014 2:-5.22732830226773 3:-2.3340842503591 4:-12.5827773729209 5:-0.357446035829811 
64 1:7.29578818825281 2:-4.72524816476261 3:-5.02175501123086 4:-12.214583642413 5:2.17192496932364 
-10.887018319615 1:8.41601846873226 2:-5.51083876294998 3:-3.45492689690405 4:-14.6681629739052 5:3.35673476462688 
4.70192987856657 1:8.36817472743014 2:-5.99150253165526 3:-3.47621062592118 4:-16.3740820669252 5:5.69760529895387 
-1.39578026466158 1:6.92385864101981 2:-5.86455129127739 3:-4.6921819627781 4:-16.4586096650357 5:8.48215134003176 
-11.1451134874554 1:6.30517457470892 2:-2.91256252742182 3:-4.49215047743339 4:-16.3740820669252 5:7.09867674323532 
17.9413488651155 1:5.32455119532251 2:-2.20252848562792 3:-5.90691558356262 4:-12.9758924622988 5:5.79919469776868 
-46.5732487630938 1:6.73319732318305 2:-4.37089278854059 3:-4.57574905606752 4:-11.6505569071437 5:3.21846833714012 
-23.726726080406 1:6.46428347210493 2:-3.86294023561313 3:-5.94371878518674 4:-10.4209251749556 5:3.53279623417428 
-21.9048411703802 1:6.12696567389226 2:-4.57574905606752 3:-7.76600729270918 4:-7.61547914174372 5:3.47621062592123 
-34.3639909159845 1:3.75704868291296 2:-2.72296534909104 3:-9.69100130080567 4:-4.7179077695469 5:3.42141005311016 
-21.1149565550445 1:5.63537161331893 2:-5.3745333025661 3:-10.8773118840746 4:-2.40382408674389 5:3.71996869254096 
-8.22705927635598 1:4.47097349694814 2:-4.21013518619531 3:-8.91775627773659 4:-6.53530466240557 5:6.53530466240557 
-14.8878949710599 1:3.95085412836735 2:-4.47097349694814 3:-8.02290016388185 4:-9.0661063731055 5:9.0661063731055 
4.45804363894363 1:4.94048561778615 2:-5.73253398139588 3:-5.68515669388958 4:-9.84311861285891 5:7.66340570337447 
6.64469740790679 1:2.51107205830312 2:-3.82323979049364 3:-7.86486960337403 4:-6.16569010640919 5:5.52227910586822 
-11.7510588863398 1:0.247461912785552 2:-2.80287236002437 3:-6.519559983085 4:-9.92099008996368 5:6.74954877224305 
-9.6609735291815 1:1.23738991800986 2:-1.99710809306199 3:-6.90809191432993 4:-12.7944246748025 5:8.05195968198871 
0.101335900472361 1:1.47232568207061 2:-3.25560339557227 3:-7.65884354693451 4:-13.3290810973066 5:9.43727449426963 
15.3113398604353 1:-0.479888288176866 2:-2.73858004896326 3:-9.4347796243456 4:-10.8233043105447 5:7.50646798527925 
-7.05478663838327 1:-3.06133649388336 2:-2.51107205830312 3:-8.54301953246264 4:-11.0495308716027 5:6.40379074770254 
-1.01983910781229 1:-5.95856899842437 2:-0.513963965241127 3:-8.85887145694562 4:-10.3296811669457 5:5.29360751877985 
-4.07195207942285 1:-7.91812460476247 2:1.04027603997672 3:-11.0615408957909 4:-7.98447977151406 5:4.17547481070009 
2.47304629342229 1:-4.29872641189322 2:-1.53296319812122 3:-10.5445175491819 4:-7.58786104975395 5:3.04893221479006 
-3.55518714493076 1:-2.88035578502046 2:-2.29299606462394 3:-11.9737542922492 4:-5.50475663309054 5:1.9135010440261 
1.90799945412922 1:-2.1421604227605 2:-3.29360580949878 3:-13.8302698166282 4:-2.99632233774432 5:0.768682866629122 
2.17892140471505 1:-3.84157010444488 2:-2.32022550810975 3:-15.7938996711225 4:-0.382640785305322 5:-0.386042081323801 
0.150811892151911 1:-5.73528085519519 2:-2.09339068356433 3:-13.39680531501 4:-1.48491210389188 5:-1.93051551953869 
2.87767688104473 1:-5.05844458694535 2:-1.03408333382191 3:-13.7322717723605 4:-1.45995085702886 5:-2.67931765879368 
-0.305801921535054 1:-5.95856899842437 2:-1.03408333382191 3:-12.3198075031999 4:-2.13630516155257 5:-3.41542762343057 
-6.18607565026792 1:-5.22732830226773 2:-2.3340842503591 3:-12.5827773729209 4:-0.357446035829811 5:-4.13926851582254 
4.97655150276951 1:-4.72524816476261 2:-5.02175501123086 3:-12.214583642413 4:2.17192496932364 5:-5.64813559524482 
-0.0149005711150502 1:-5.51083876294998 2:-3.45492689690405 3:-14.6681629739052 4:3.35673476462688 5:-5.74795050516799 
3.21902044452975 1:-5.99150253165526 2:-3.47621062592118 3:-16.3740820669252 4:5.69760529895387 5:-6.93264913759681 
4.83953307680689 1:-5.86455129127739 2:-4.6921819627781 3:-16.4586096650357 4:8.48215134003176 5:-8.48215134003176 
0.104373360219436 1:-2.91256252742182 2:-4.49215047743339 3:-16.3740820669252 4:7.09867674323532 5:-10.0370545117563 
8.65776361674151 1:-2.20252848562792 2:-5.90691558356262 3:-12.9758924622988 4:5.79919469776868 5:-11.5983893955373 
4.00485824998414 1:-4.37089278854059 2:-4.57574905606752 3:-11.6505569071437 4:3.21846833714012 5:-11.584323177377 
-3.47749774391934 1:-3.86294023561313 2:-5.94371878518674 3:-10.4209251749556 4:3.53279623417428 5:-12.9486364359021 
-4.79256111427037 1:-4.57574905606752 2:-7.76600729270918 3:-7.61547914174372 4:3.47621062592123 5:-14.3131741434319 
-3.58375863160745 1:-2.72296534909104 2:-9.69100130080567 3:-4.7179077695469 4:3.42141005311016 5:-15.6786103860295 
5.5756597585091 1:-5.3745333025661 2:-10.8773118840746 3:-2.40382408674389 4:3.71996869254096 5:-17.0456219159604 
-26.1685688640381 1:-4.21013518619531 2:-8.91775627773659 3:-6.53530466240557 4:6.53530466240557 5:-16.9751081024662 
9.08141933905364 1:-4.47097349694814 2:-8.02290016388185 3:-9.0661063731055 4:9.0661063731055 5:-16.9067475528719 
-2.4223692775919 1:-5.73253398139588 2:-5.68515669388958 3:-9.84311861285891 4:7.66340570337447 5:-15.581530308137 
30.3210140251052 1:-3.82323979049364 2:-7.86486960337403 3:-6.16569010640919 4:5.52227910586822 5:-16.0963065625775 
2.36592728986523 1:-2.80287236002437 2:-6.519559983085 3:-9.92099008996368 4:6.74954877224305 5:-16.6331421766525 
0.51066370058507 1:-1.99710809306199 2:-6.90809191432993 3:-12.7944246748025 4:8.05195968198871 5:-14.7801619567804 
-5.04022070890698 1:-3.25560339557227 2:-7.65884354693451 3:-13.3290810973066 4:9.43727449426963 5:-12.9486364359021 
4.23408371507261 1:-2.73858004896326 2:-9.4347796243456 3:-10.8233043105447 4:7.50646798527925 5:-11.1365929419026 
-9.21209698026214 1:-2.51107205830312 2:-8.54301953246264 3:-11.0495308716027 4:6.40379074770254 5:-9.34216851622352 
-7.79360969420326 1:-0.513963965241127 2:-8.85887145694562 3:-10.3296811669457 4:5.29360751877985 5:-7.35226059695764 
-24.5203838497707 1:1.04027603997672 2:-11.0615408957909 3:-7.98447977151406 4:4.17547481070009 5:-5.38753807828543 
-7.40723332020836 1:-1.53296319812122 2:-10.5445175491819 3:-7.58786104975395 4:3.04893221479006 5:-3.44555093655017 
-6.65725153965597 1:-2.29299606462394 2:-11.9737542922492 3:-5.50475663309054 4:1.9135010440261 5:-1.52399665567371 
-7.21250565719487 1:-3.29360580949878 2:-13.8302698166282 3:-2.99632233774432 4:0.768682866629122 5:0.379298901713912 
-5.59205273141365 1:-2.32022550810975 2:-15.7938996711225 3:-0.382640785305322 4:-0.386042081323801 5:2.2663984635944 
38.6462707738214 1:-2.09339068356433 2:-13.39680531501 3:-1.48491210389188 4:-1.93051551953869 5:1.93051551953869 
-42.298599158742 1:-1.03408333382191 2:-13.7322717723605 3:-1.45995085702886 4:-2.67931765879368 5:1.93051551953869 
26.163263425785 1:-1.03408333382191 2:-12.3198075031999 3:-2.13630516155257 4:-3.41542762343057 5:0.782533751195657 
-4.32990873804657 1:-2.3340842503591 2:-12.5827773729209 3:-0.357446035829811 4:-4.13926851582254 5:1.93051551953869 
-13.5029895758279 1:-5.02175501123086 2:-12.214583642413 3:2.17192496932364 4:-5.64813559524482 5:3.84582518191756 
13.8430042063267 1:-3.45492689690405 2:-14.6681629739052 3:3.35673476462688 4:-5.74795050516799 5:5.38753807828543 
-8.04847784991684 1:-3.47621062592118 2:-16.3740820669252 3:5.69760529895387 4:-6.93264913759681 5:7.28717721406178 
-4.34485504631615 1:-4.6921819627781 2:-16.4586096650357 3:8.48215134003176 4:-8.48215134003176 5:7.05810742857071 
10.2411389064348 1:-4.49215047743339 2:-16.3740820669252 3:7.09867674323532 4:-10.0370545117563 5:6.81858617461617 
-6.93959808874843 1:-5.90691558356262 2:-12.9758924622988 3:5.79919469776868 4:-11.5983893955373 5:6.56787756439778 
-13.1446036622581 1:-4.57574905606752 2:-11.6505569071437 3:3.21846833714012 4:-11.584323177377 5:6.0795665442865 
28.5024149035067 1:-5.94371878518674 2:-10.4209251749556 3:3.53279623417428 4:-12.9486364359021 5:5.5700150198102 
-5.6000229060447 1:-7.76600729270918 2:-7.61547914174372 3:3.47621062592123 4:-14.3131741434319 5:5.03776881974205 
-1.77191157536119 1:-9.69100130080567 2:-4.7179077695469 3:3.42141005311016 4:-15.6786103860295 5:4.48123444163622 
5.28094259937052 1:-10.8773118840746 2:-2.40382408674389 3:3.71996869254096 4:-17.0456219159604 5:3.89866153923466 
9.17903422880238 1:-8.91775627773659 2:-6.53530466240557 3:6.53530466240557 4:-16.9751081024662 5:4.05335464370873 
2.66989484504381 1:-8.02290016388185 2:-9.0661063731055 3:9.0661063731055 4:-16.9067475528719 5:4.62217284262625 
-2.58365221328127 1:-5.68515669388958 2:-9.84311861285891 3:7.66340570337447 4:-15.581530308137 5:5.16601723963619 
-7.44008472945646 1:-7.86486960337403 2:-6.16569010640919 3:5.52227910586822 4:-16.0963065625775 5:7.12847652015911 
-4.64039680952121 1:-6.519559983085 2:-9.92099008996368 3:6.74954877224305 4:-16.6331421766525 5:7.10633558254454 
-1.70828575346738 1:-6.90809191432993 2:-12.7944246748025 3:8.05195968198871 4:-14.7801619567804 5:4.66954919661393 
0.325932372104625 1:-7.65884354693451 2:-13.3290810973066 3:9.43727449426963 4:-12.9486364359021 5:2.22763947111522 
-0.354196923977045 1:-9.4347796243456 2:-10.8233043105447 3:7.50646798527925 4:-11.1365929419026 5:2.38326090066352 
-16.0257457828396 1:-8.54301953246264 2:-11.0495308716027 3:6.40379074770254 4:-9.34216851622352 5:2.11892990699383 
21.1635284260136 1:-8.85887145694562 2:-10.3296811669457 3:5.29360751877985 4:-7.35226059695764 5:0.419611459360825 
-21.7853083470542 1:-11.0615408957909 2:-7.98447977151406 3:4.17547481070009 4:-5.38753807828543 5:0.407791242043931 
-5.42877816420219 1:-10.5445175491819 2:-7.58786104975395 3:3.04893221479006 4:-3.44555093655017 5:-1.62371988706855 
-1.59058183223843 1:-11.9737542922492 2:-5.50475663309054 3:1.9135010440261 4:-1.52399665567371 5:-2.80287236002432 
-1.94016744027284 1:-13.8302698166282 2:-2.99632233774432 3:0.768682866629122 4:0.379298901713912 5:-2.72740848666619 
-13.701321875758 1:-15.7938996711225 2:-0.382640785305322 3:-0.386042081323801 4:2.2663984635944 5:-2.65590285194679 
-34.3507450698671 1:-13.39680531501 2:-1.48491210389188 3:-1.93051551953869 4:1.93051551953869 5:0 
64 1:-13.7322717723605 2:-1.45995085702886 3:-2.67931765879368 4:1.93051551953869 5:-0.379298901713909 
-33.0983868724593 1:-12.3198075031999 2:-2.13630516155257 3:-3.41542762343057 4:0.782533751195657 5:1.14798176834303 
-9.00826838198699 1:-12.5827773729209 2:-0.357446035829811 3:-4.13926851582254 4:1.93051551953869 5:0.748802139254989 
-3.61059583009245 1:-12.214583642413 2:2.17192496932364 3:-5.64813559524482 4:3.84582518191756 5:-1.49771559696528 
-8.46691012828381 1:-14.6681629739052 2:3.35673476462688 3:-5.74795050516799 4:5.38753807828543 5:-0.729923874149917 
3.76752879965813 1:-16.3740820669252 2:5.69760529895387 3:-6.93264913759681 4:7.28717721406178 5:-1.80231041332726 
-0.717490902312629 1:-16.4586096650357 2:8.48215134003176 3:-8.48215134003176 4:7.05810742857071 5:-2.61028025642052 
-13.9332829773454 1:-16.3740820669252 2:7.09867674323532 3:-10.0370545117563 4:6.81858617461617 5:-2.28628829595041 
14.7203062300704 1:-12.9758924622988 2:5.79919469776868 3:-11.5983893955373 4:6.56787756439778 5:-3.15989860717023 
0.115241863738569 1:-11.6505569071437 2:3.21846833714012 3:-11.584323177377 4:6.0795665442865 5:0 
-11.447389176795 1:-10.4209251749556 2:3.53279623417428 3:-12.9486364359021 4:5.5700150198102 5:3.10342337399687 
-1.04185725949692 1:-7.61547914174372 2:3.47621062592123 3:-14.3131741434319 4:5.03776881974205 5:2.80287236002432 
8.99783846395339 1:-4.7179077695469 2:3.42141005311016 3:-15.6786103860295 4:4.48123444163622 5:2.07836059232922 
-12.2459471981058 1:-2.40382408674389 2:3.71996869254096 3:-17.0456219159604 4:3.89866153923466 5:3.77885608894 
-2.39799038428357 1:-6.53530466240557 2:6.53530466240557 3:-16.9751081024662 4:4.05335464370873 5:3.31051241579812 
-10.3524315097636 1:-9.0661063731055 2:9.0661063731055 3:-16.9067475528719 4:4.62217284262625 5:0 
24.9081690689914 1:-9.84311861285891 2:7.66340570337447 3:-15.581530308137 4:5.16601723963619 5:-2.07836059232922 
-14.5570001588285 1:-6.16569010640919 2:5.52227910586822 3:-16.0963065625775 4:7.12847652015911 5:-2.03931586418435 
-13.7371455097195 1:-9.92099008996368 2:6.74954877224305 3:-16.6331421766525 4:7.10633558254454 5:-2.96706706672205 
-18.5087608286844 1:-12.7944246748025 2:8.05195968198871 3:-14.7801619567804 4:4.66954919661393 5:-3.51136194163242 
4.73524791401087 1:-13.3290810973066 2:9.43727449426963 3:-12.9486364359021 4:2.22763947111522 5:-4.33514207947967 
-9.92700224813491 1:-10.8233043105447 2:7.50646798527925 3:-11.1365929419026 4:2.38326090066352 5:-3.51136194163242 
7.33167806538186 1:-11.0495308716027 2:6.40379074770254 3:-9.34216851622352 4:2.11892990699383 5:-2.33662183242127 
-5.81535615027048 1:-10.3296811669457 2:5.29360751877985 3:-7.35226059695764 4:0.419611459360825 5:-0.843316753686274 
-15.2965009637793 1:-7.98447977151406 2:4.17547481070009 3:-5.38753807828543 4:0.407791242043931 5:-4.2612043418965 
33.6256716368183 1:-7.58786104975395 2:3.04893221479006 3:-3.44555093655017 4:-1.62371988706855 5:-5.27063505160033 
-64 1:-5.50475663309054 2:1.9135010440261 3:-1.52399665567371 4:-2.80287236002432 5:-3.21846833714015 
64 1:-2.99632233774432 2:0.768682866629122 3:0.379298901713912 4:-2.72740848666619 5:-5.5700150198102 
56.9742428693098 1:-0.382640785305322 2:-0.386042081323801 3:2.2663984635944 4:-2.65590285194679 5:-8.86743995814543 
-64 1:-1.48491210389188 2:-1.93051551953869 3:1.93051551953869 4:0 5:-8.2974235064764 
30.8055973469112 1:-1.45995085702886 2:-2.67931765879368 3:1.93051551953869 4:-0.379298901713909 5:-8.14730428272097 
27.2427947881267 1:-2.13630516155257 2:-3.41542762343057 3:0.782533751195657 4:1.14798176834303 5:-8.75699867539133 
-16.012137224985 1:-0.357446035829811 2:-4.13926851582254 3:1.93051551953869 4:0.748802139254989 5:-9.73742508736439 
-26.0823108028924 1:2.17192496932364 2:-5.64813559524482 3:3.84582518191756 4:-1.49771559696528 5:-10.2662341897148 
20.8857218988071 1:3.35673476462688 2:-5.74795050516799 3:5.38753807828543 4:-0.729923874149917 5:-11.7639497866801 
-10.9288377511099 1:5.69760529895387 2:-6.93264913759681 3:7.28717721406178 4:-1.80231041332726 5:-9.87541537064269 
-4.99216044265852 1:8.48215134003176 2:-8.48215134003176 3:7.05810742857071 4:-2.61028025642052 5:-10.1255408167507 
9.39163417410625 1:7.09867674323532 2:-10.0370545117563 3:6.81858617461617 4:-2.28628829595041 5:-11.3356864058485 
-12.9834621302707 1:5.79919469776868 2:-11.5983893955373 3:6.56787756439778 4:-3.15989860717023 5:-7.34828299488583 
-2.10633089756536 1:3.21846833714012 2:-11.584323177377 3:6.0795665442865 4:0 5:-9.34999434707455 
-40.5658684910807 1:3.53279623417428 2:-12.9486364359021 3:5.5700150198102 4:3.10342337399687 5:-13.2491874498746 
45.0779731024218 1:3.47621062592123 2:-14.3131741434319 3:5.03776881974205 4:2.80287236002432 5:-13.8060413930205 
5.6843048541089 1:3.42141005311016 2:-15.6786103860295 3:4.48123444163622 4:2.07836059232922 5:-11.8226168945233 
-14.2765534121767 1:3.71996869254096 2:-17.0456219159604 3:3.89866153923466 4:3.77885608894 5:-11.4345663110876 
-1.7522329864475 1:6.53530466240557 2:-16.9751081024662 3:4.05335464370873 4:3.31051241579812 5:-12.8941479061974 
6.70220741376516 1:9.0661063731055 2:-16.9067475528719 3:4.62217284262625 4:0 5:-13.0542614126298 
-32.7542824601992 1:7.66340570337447 2:-15.581530308137 3:5.16601723963619 4:-2.07836059232922 5:-14.2312832677723 
-21.6620113358106 1:5.52227910586822 2:-16.0963065625775 3:7.12847652015911 4:-2.03931586418435 5:-17.1935299284523 
35.3439332009189 1:6.74954877224305 2:-16.6331421766525 3:7.10633558254454 4:-2.96706706672205 5:-16.3126281891314 
16.53501868957 1:8.05195968198871 2:-14.7801619567804 3:4.66954919661393 4:-3.51136194163242 5:-12.6465256569773 
0.719371379615217 1:9.43727449426963 2:-12.9486364359021 3:2.22763947111522 4:-4.33514207947967 5:-8.44923064569105 
-5.59102842245971 1:7.50646798527925 2:-11.1365929419026 3:2.38326090066352 4:-3.51136194163242 5:-8.56290025983675 
12.4182291364973 1:6.40379074770254 2:-9.34216851622352 3:2.11892990699383 4:-2.33662183242127 5:-8.93380618670759 
-2.79904056339429 1:5.29360751877985 2:-7.35226059695764 3:0.419611459360825 4:-0.843316753686274 5:-7.91812460476249 
-20.4772769300875 1:4.17547481070009 2:-5.38753807828543 3:0.407791242043931 4:-4.2612043418965 5:-3.7381727621332 
-6.21838162095121 1:3.04893221479006 2:-3.44555093655017 3:-1.62371988706855 4:-5.27063505160033 5:-0.46951212083797 
-2.82606630404025 1:1.9135010440261 2:-1.52399665567371 3:-2.80287236002432 4:-3.21846833714015 5:-4.45219435483682 
-14.2578650918585 1:0.768682866629122 2:0.379298901713912 3:-2.72740848666619 4:-5.5700150198102 5:-2.34810958495229 
-11.2126086417921 1:-0.386042081323801 2:2.2663984635944 3:-2.65590285194679 4:-8.86743995814543 5:-2.46824644770307 
24.4398465194489 1:-1.93051551953869 2:1.93051551953869 3:0 4:-8.2974235064764 5:-6.12696567389228 
-29.5992653087478 1:-2.67931765879368 2:1.93051551953869 3:-0.379298901713909 4:-8.14730428272097 5:-3.84157010444488 
27.7897635013901 1:-3.41542762343057 2:0.782533751195657 3:1.14798176834303 4:-8.75699867539133 5:-3.61117461348844 
-22.5338680572803 1:-4.13926851582254 2:1.93051551953869 3:0.748802139254989 4:-9.73742508736439 5:-4.13926851582252 
19.3739096473424 1:-5.64813559524482 2:3.84582518191756 3:-1.49771559696528 4:-10.2662341897148 5:-2.22763947111524 
-8.77859677094471 1:-5.74795050516799 2:5.38753807828543 3:-0.729923874149917 4:-11.7639497866801 5:-2.48235837250324 
7.66066746079203 1:-6.93264913759681 2:7.28717721406178 3:-1.80231041332726 4:-9.87541537064269 5:-5.66739050497736 
-17.0205419956658 1:-8.48215134003176 2:7.05810742857071 3:-2.61028025642052 4:-10.1255408167507 5:-4.33380164372623 
12.2521626334414 1:-10.0370545117563 2:6.81858617461617 3:-2.28628829595041 4:-11.3356864058485 5:-4.26644122218622 
3.55610839100103 1:-11.5983893955373 2:6.56787756439778 3:-3.15989860717023 4:-7.34828299488583 5:-6.81616001622944 
0.474501551167075 1:-11.584323177377 2:6.0795665442865 3:0 4:-9.34999434707455 5:-8.25913155849358 
5.01717647361988 1:-12.9486364359021 2:5.5700150198102 3:3.10342337399687 4:-13.2491874498746 5:-6.86432546077167 
2.08457161425588 1:-14.3131741434319 2:5.03776881974205 3:2.80287236002432 4:-13.8060413930205 5:-2.7496173586359 
-10.2550546245281 1:-15.6786103860295 2:4.48123444163622 3:2.07836059232922 4:-11.8226168945233 5:-3.60963453482765 
13.9898508268876 1:-17.0456219159604 2:3.89866153923466 3:3.77885608894 4:-11.4345663110876 5:-4.98463726450977 
-6.44215507486441 1:-16.9751081024662 2:4.05335464370873 3:3.31051241579812 4:-12.8941479061974 5:-3.34237554869496 
9.78818457739673 1:-16.9067475528719 2:4.62217284262625 3:0 4:-13.0542614126298 5:-0.567713289169047 
-10.3226195416087 1:-15.581530308137 2:5.16601723963619 3:-2.07836059232922 4:-14.2312832677723 5:0.877392430750512 
9.9883271057289 1:-16.0963065625775 2:7.12847652015911 3:-2.03931586418435 4:-17.1935299284523 5:1.22344564170116 
-0.384072578072746 1:-16.6331421766525 2:7.10633558254454 3:-2.96706706672205 4:-16.3126281891314 5:4.54380389229518 
4.16133139774608 1:-14.7801619567804 2:4.66954919661393 3:-3.51136194163242 4:-12.6465256569773 5:2.38029146726249 
-7.37821345311401 1:-12.9486364359021 2:2.22763947111522 3:-4.33514207947967 4:-8.44923064569105 5:1.99383299421876 
27.0948166679785 1:-11.1365929419026 2:2.38326090066352 3:-3.51136194163242 4:-8.56290025983675 5:1.90630060494963 
-25.4696356471367 1:-9.34216851622352 2:2.11892990699383 3:-2.33662183242127 4:-8.93380618670759 5:1.57942671832318 
8.02521674677298 1:-7.35226059695764 2:0.419611459360825 3:-0.843316753686274 4:-7.91812460476249 5:-1.8261316974316 
-22.1784463294071 1:-5.38753807828543 2:0.407791242043931 3:-4.2612043418965 4:-3.7381727621332 5:-3.55761542611961 
-17.9689741704182 1:-3.44555093655017 2:-1.62371988706855 3:-5.27063505160033 4:-0.46951212083797 5:-4.47097349694814 
15.2638518364647 1:-1.52399665567371 2:-2.80287236002432 3:-3.21846833714015 4:-4.45219435483682 5:-2.02033860882871 
-61.8079837179283 1:0.379298901713912 2:-2.72740848666619 3:-5.5700150198102 4:-2.34810958495229 5:-2.73858004896326 
34.3202888541234 1:2.2663984635944 2:-2.65590285194679 3:-8.86743995814543 4:-2.46824644770307 5:-1.81522623444559 
25.6694433659339 1:1.93051551953869 2:0 3:-8.2974235064764 4:-6.12696567389228 5:0.262414382614895 
-24.6554594056084 1:1.93051551953869 2:-0.379298901713909 3:-8.14730428272097 4:-3.84157010444488 5:-2.05621589148892 
-17.4925108822304 1:0.782533751195657 2:1.14798176834303 3:-8.75699867539133 4:-3.61117461348844 5:-2.05621589148892 
-11.8144222132582 1:1.93051551953869 2:0.748802139254989 3:-9.73742508736439 4:-4.13926851582252 5:-1.03408333382187 
-17.3938320777163 1:3.84582518191756 2:-1.49771559696528 3:-10.2662341897148 4:-2.22763947111524 5:-1.28880223520986 
8.9528764040176 1:5.38753807828543 2:-0.729923874149917 3:-11.7639497866801 4:-2.48235837250324 5:-1.03408333382187 
-23.3661326846188 1:7.28717721406178 2:-1.80231041332726 3:-9.87541537064269 4:-5.66739050497736 5:1.04027603997674 
30.9462350864007 1:7.05810742857071 2:-2.61028025642052 3:-10.1255408167507 4:-4.33380164372623 5:1.57942671832318 
12.6989782694696 1:6.81858617461617 2:-2.28628829595041 3:-11.3356864058485 4:-4.26644122218622 5:4.01172232079823 
47.0616861683196 1:6.56787756439778 2:-3.15989860717023 3:-7.34828299488583 4:-6.81616001622944 5:5.33546723111966 
-8.2076101035402 1:6.0795665442865 2:0 3:-9.34999434707455 4:-8.25913155849358 5:6.52667315125914 
-1.63497980847651 1:5.5700150198102 2:3.10342337399687 3:-13.2491874498746 4:-6.86432546077167 5:6.60960655938367 
-6.09237842995484 1:5.03776881974205 2:2.80287236002432 3:-13.8060413930205 4:-2.7496173586359 5:4.0617850908264 
0.538279693241374 1:4.48123444163622 2:2.07836059232922 3:-11.8226168945233 4:-3.60963453482765 5:4.92180226701815 
-1.94673279560625 1:3.89866153923466 2:3.77885608894 3:-11.4345663110876 4:-4.98463726450977 5:6.01872059833164 
6.04688191193472 1:4.05335464370873 2:3.31051241579812 3:-12.8941479061974 4:-3.34237554869496 5:4.40168289843739 
0.281103824790212 1:4.62217284262625 2:0 3:-13.0542614126298 4:-0.567713289169047 5:4.6043116668901 
-2.46273538992482 1:5.16601723963619 2:-2.07836059232922 3:-14.2312832677723 4:0.877392430750512 5:5.17954455579923 
-1.51385300528984 1:7.12847652015911 2:-2.03931586418435 3:-17.1935299284523 4:1.22344564170116 5:6.95242125184239 
-5.64806767812056 1:7.10633558254454 2:-2.96706706672205 3:-16.3126281891314 4:4.54380389229518 5:4.11311407468857 
12.4545625148116 1:4.66954919661393 2:-3.51136194163242 3:-12.6465256569773 4:2.38029146726249 5:3.87525889920166 
18.5589994563689 1:2.22763947111522 2:-4.33514207947967 3:-8.44923064569105 4:1.99383299421876 5:2.17192496932364 
-53.572099940001 1:2.38326090066352 2:-3.51136194163242 3:-8.56290025983675 4:1.90630060494963 5:0.265624364374006 
2.58146317466691 1:2.11892990699383 2:-2.33662183242127 3:-8.93380618670759 4:1.57942671832318 5:-2.9409629316629 
64 1:0.419611459360825 2:-0.843316753686274 3:-7.91812460476249 4:-1.8261316974316 5:-1.62879519947241 
64 1:0.407791242043931 2:-4.2612043418965 3:-3.7381727621332 4:-3.55761542611961 5:-2.45121498774064 
-23.9044695212632 1:-1.62371988706855 2:-5.27063505160033 3:-0.46951212083797 4:-4.47097349694814 5:-1.05930734974242 
-64 1:-2.80287236002432 2:-3.21846833714015 3:-4.45219435483682 4:-2.02033860882871 5:-1.57942671832318 
-54.7287783418729 1:-2.72740848666619 2:-5.5700150198102 3:-2.34810958495229 4:-2.73858004896326 5:-2.9229617659251 
-31.2669376377135 1:-2.65590285194679 2:-8.86743995814543 3:-2.46824644770307 4:-1.81522623444559 5:-1.61867610932753 
1.72548237468882 1:0 2:-8.2974235064764 3:-6.12696567389228 4:0.262414382614895 5:-2.14510010856326 
26.0148640677734 1:-0.379298901713909 2:-8.14730428272097 3:-3.84157010444488 4:-2.05621589148892 5:-2.15842918046725 
7.21315321595016 1:1.14798176834303 2:-8.75699867539133 3:-3.61117461348844 4:-2.05621589148892 5:-1.88268572594836 
-33.155474649781 1:0.748802139254989 2:-9.73742508736439 3:-4.13926851582252 4:-1.03408333382187 5:-3.54166572224563 
-10.051790687262 1:-1.49771559696528 2:-10.2662341897148 3:-2.22763947111524 4:-1.28880223520986 5:-4.40168289843739 
16.4322693625083 1:-0.729923874149917 2:-11.7639497866801 3:-2.48235837250324 4:-1.03408333382187 5:-3.82645000952826 
29.5671815510322 1:-1.80231041332726 2:-9.87541537064269 3:-5.66739050497736 4:1.04027603997674 5:-5.47004362013996 
12.0699651323461 1:-2.61028025642052 2:-10.1255408167507 3:-4.33380164372623 4:1.57942671832318 5:-5.79919469776866 
-19.8446165149064 1:-2.28628829595041 2:-11.3356864058485 3:-4.26644122218622 4:4.01172232079823 5:-6.60960655938367 
0.654554978718696 1:-3.15989860717023 2:-7.34828299488583 3:-6.81616001622944 4:5.33546723111966 5:-5.33546723111966 
21.9208321365746 1:0 2:-9.34999434707455 3:-8.25913155849358 4:6.52667315125914 5:-6.82111121593727 
18.1629546899912 1:3.10342337399687 2:-13.2491874498746 3:-6.86432546077167 4:6.60960655938367 5:-5.72626529659999 
50.8607584176145 1:2.80287236002432 2:-13.8060413930205 3:-2.7496173586359 4:4.0617850908264 5:-4.34656937810902 
64 1:2.07836059232922 2:-11.8226168945233 3:-3.60963453482765 4:4.92180226701815 5:-5.50475663309054 
-25.892979566159 1:3.77885608894 2:-11.4345663110876 3:-4.98463726450977 4:6.01872059833164 5:-4.86053334335013 
-64 1:3.31051241579812 2:-12.8941479061974 3:-3.34237554869496 4:4.40168289843739 5:-4.69218196277812 
-42.1446580393516 1:0 2:-13.0542614126298 3:-0.567713289169047 4:4.6043116668901 5:-5.47004362013996 
40.4105216675141 1:-2.07836059232922 2:-14.2312832677723 3:0.877392430750512 4:5.17954455579923 5:-4.89097573205042 
-6.87758929728673 1:-2.03931586418435 2:-17.1935299284523 3:1.22344564170116 4:6.95242125184239 5:-4.6043116668901 
5.04860047428999 1:-2.96706706672205 2:-16.3126281891314 3:4.54380389229518 4:4.11311407468857 5:-4.11311407468857 
-23.1088325452781 1:-3.51136194163242 2:-12.6465256569773 3:2.38029146726249 4:3.87525889920166 5:-4.16575796354239 
43.7751363481701 1:-4.33514207947967 2:-8.44923064569105 3:1.99383299421876 4:2.17192496932364 5:-4.16575796354239 
-21.7172615944797 1:-3.51136194163242 2:-8.56290025983675 3:1.90630060494963 4:0.265624364374006 5:-3.87525889920166 
18.9417135897034 1:-2.33662183242127 2:-8.93380618670759 3:1.57942671832318 4:-2.9409629316629 5:-1.12082215916349 
-16.7657209968075 1:-0.843316753686274 2:-7.91812460476249 3:-1.8261316974316 4:-1.62879519947241 5:0.549747191121774 
64 1:-4.2612043418965 2:-3.7381727621332 3:-3.55761542611961 4:-2.45121498774064 5:0 
64 1:-5.27063505160033 2:-0.46951212083797 3:-4.47097349694814 4:-1.05930734974242 5:-2.48235837250321 
64 1:-3.21846833714015 2:-4.45219435483682 3:-2.02033860882871 4:-1.57942671832318 5:-2.76714265978584 
-37.3980661666368 1:-5.5700150198102 2:-2.34810958495229 3:-2.73858004896326 4:-2.9229617659251 5:0.27400373660289 
56.42747774949 1:-8.86743995814543 2:-2.46824644770307 3:-1.81522623444559 4:-1.61867610932753 5:0.546289570150216 
5.60965361018348 1:-8.2974235064764 2:-6.12696567389228 3:0.262414382614895 4:-2.14510010856326 5:1.35305174495353 
-17.9155590650031 1:-8.14730428272097 2:-3.84157010444488 3:-2.05621589148892 4:-2.15842918046725 5:1.0926223622616 
-64 1:-8.75699867539133 2:-3.61117461348844 3:-2.05621589148892 4:-1.88268572594836 5:0.546289570150216 
64 1:-9.73742508736439 2:-4.13926851582252 3:-1.03408333382187 4:-3.54166572224563 5:1.12082215916349 
-31.6179503686102 1:-10.2662341897148 2:-2.22763947111524 3:-1.28880223520986 4:-4.40168289843739 5:2.80287236002434 
-2.13408519434519 1:-11.7639497866801 2:-2.48235837250324 3:-1.03408333382187 4:-3.82645000952826 5:3.30002601029253 
-16.5151552838503 1:-9.87541537064269 2:-5.66739050497736 3:1.04027603997674 4:-5.47004362013996 5:5.98098419798798 
20.7747456679354 1:-10.1255408167507 2:-4.33380164372623 3:1.57942671832318 4:-5.79919469776866 5:7.07287683806193 
1.13718261679708 1:-11.3356864058485 2:-4.26644122218622 3:4.01172232079823 4:-6.60960655938367 5:5.31310884294691 
9.70234882147102 1:-7.34828299488583 2:-6.81616001622944 3:5.33546723111966 4:-5.33546723111966 5:3.01524172300991 
5.83146971700746 1:-9.34999434707455 2:-8.25913155849358 3:6.52667315125914 4:-6.82111121593727 5:6.05693698654974 
9.44320859356156 1:-13.2491874498746 2:-6.86432546077167 3:6.60960655938367 4:-5.72626529659999 5:7.47869979495326 
-16.8588356274814 1:-13.8060413930205 2:-2.7496173586359 3:4.0617850908264 4:-4.34656937810902 5:6.6129678417034 
-13.967024188935 1:-11.8226168945233 2:-3.60963453482765 3:4.92180226701815 4:-5.50475663309054 5:7.02875328876422 
-16.0150092533961 1:-11.4345663110876 2:-4.98463726450977 3:6.01872059833164 4:-4.86053334335013 5:6.11944607415218 
36.8220970988218 1:-12.8941479061974 2:-3.34237554869496 3:4.40168289843739 4:-4.69218196277812 5:4.95302027353093 
-1.15720731054735 1:-13.0542614126298 2:-0.567713289169047 3:4.6043116668901 4:-5.47004362013996 5:3.09337142436508 
-19.4477308968139 1:-14.2312832677723 2:0.877392430750512 3:5.17954455579923 4:-4.89097573205042 5:4.63323344326934 
11.5447367510131 1:-17.1935299284523 2:1.22344564170116 3:6.95242125184239 4:-4.6043116668901 5:4.86053334335013 
5.97074355013065 1:-16.3126281891314 2:4.54380389229518 3:4.11311407468857 4:-4.11311407468857 5:4.11311407468857 
10.788747791288 1:-12.6465256569773 2:2.38029146726249 3:3.87525889920166 4:-4.16575796354239 5:4.69218196277812 
-9.14643603514924 1:-8.44923064569105 2:1.99383299421876 3:2.17192496932364 4:-4.16575796354239 5:6.48598347165215 
49.5374435897481 1:-8.56290025983675 2:1.90630060494963 3:0.265624364374006 4:-3.87525889920166 5:5.43576623225925 
22.6652126096422 1:-8.93380618670759 2:1.57942671832318 3:-2.9409629316629 4:-1.12082215916349 5:4.5757490560675 
8.33528507456708 1:-7.91812460476249 2:-1.8261316974316 3:-1.62879519947241 4:0.549747191121774 5:4.90228779884425 
-37.4131974958136 1:-3.7381727621332 2:-3.55761542611961 3:-2.45121498774064 4:0 5:7.91812460476247 
-10.5770353044815 1:-0.46951212083797 2:-4.47097349694814 3:-1.05930734974242 4:-2.48235837250321 5:9.86097978859508 
-2.19907402687215 1:-4.45219435483682 2:-2.02033860882871 3:-1.57942671832318 4:-2.76714265978584 5:11.4821602316759 
64 1:-2.34810958495229 2:-2.73858004896326 3:-2.9229617659251 4:0.27400373660289 5:7.96362429272761 
-46.5793397935196 1:-2.46824644770307 2:-1.81522623444559 3:-1.61867610932753 4:0.546289570150216 5:8.81360887005513 
-33.3756277064158 1:-6.12696567389228 2:0.262414382614895 3:-2.14510010856326 4:1.35305174495353 5:8.00684669525182 
-51.7974855525028 1:-3.84157010444488 2:-2.05621589148892 3:-2.15842918046725 4:1.0926223622616 5:8.54301953246264 
64 1:-3.61117461348844 2:-2.05621589148892 3:-1.88268572594836 4:0.546289570150216 5:7.69133845918029 
39.3990820459426 1:-4.13926851582252 2:-1.03408333382187 3:-3.54166572224563 4:1.12082215916349 5:9.63564189472423 
-22.041548045114 1:-2.22763947111524 2:-1.28880223520986 3:-4.40168289843739 4:2.80287236002434 5:8.36817472743012 
2.43851038669114 1:-2.48235837250324 2:-1.03408333382187 3:-3.82645000952826 4:3.30002601029253 5:6.84573806558517 
14.9644660398924 1:-5.66739050497736 2:1.04027603997674 3:-5.47004362013996 4:5.98098419798798 5:4.57574905606752 
-10.5065630205316 1:-4.33380164372623 2:1.57942671832318 3:-5.79919469776866 4:7.07287683806193 5:3.84157010444488 
-54.0558700727032 1:-4.26644122218622 2:4.01172232079823 3:-6.60960655938367 4:5.31310884294691 5:4.73338787956303 
-7.7907009949926 1:-6.81616001622944 2:5.33546723111966 3:-5.33546723111966 4:3.01524172300991 5:6.16179561255463 
25.5216013750352 1:-8.25913155849358 2:6.52667315125914 3:-6.82111121593727 4:6.05693698654974 5:3.69311183958629 
-34.8308800639539 1:-6.86432546077167 2:6.60960655938367 3:-5.72626529659999 4:7.47869979495326 5:1.44778233686229 
-58.1858120946375 1:-2.7496173586359 2:4.0617850908264 3:-4.34656937810902 4:6.6129678417034 5:0.729923874149963 
64 1:-3.60963453482765 2:4.92180226701815 3:-5.50475663309054 4:7.02875328876422 5:0.496341953155022 
15.4096328980179 1:-4.98463726450977 2:6.01872059833164 3:-4.86053334335013 4:6.11944607415218 5:1.94130410441351 
47.7055800135943 1:-3.34237554869496 2:4.40168289843739 3:-4.69218196277812 4:4.95302027353093 5:4.6796473070333 
18.3172227123779 1:-0.567713289169047 2:4.6043116668901 3:-5.47004362013996 4:3.09337142436508 5:6.53929615619915 
24.2761657945216 1:0.877392430750512 2:5.17954455579923 3:-4.89097573205042 4:4.63323344326934 5:4.8848567537817 
-25.8570759037605 1:1.22344564170116 2:6.95242125184239 3:-4.6043116668901 4:4.86053334335013 5:5.51083876295 
7.06824277203031 1:4.54380389229518 2:4.11311407468857 3:-4.11311407468857 4:4.11311407468857 5:8.52432814065687 
-8.91165534275734 1:2.38029146726249 2:3.87525889920166 3:-4.16575796354239 4:4.69218196277812 5:10.6227772888696 
-3.24497566210978 1:1.99383299421876 2:2.17192496932364 3:-4.16575796354239 4:6.48598347165215 5:6.73052663178284 
1.52643960245432 1:1.90630060494963 2:0.265624364374006 3:-3.87525889920166 4:5.43576623225925 5:9.17703733556456 
11.8088650815583 1:1.57942671832318 2:-2.9409629316629 3:-1.12082215916349 4:4.5757490560675 5:7.91812460476249 
-11.4041630641707 1:-1.8261316974316 2:-1.62879519947241 3:0.549747191121774 4:4.90228779884425 5:3.9614609053624 
28.2980279610518 1:-3.55761542611961 2:-2.45121498774064 3:0 4:7.91812460476247 5:0 
30.8607674672023 1:-4.47097349694814 2:-1.05930734974242 3:-2.48235837250321 4:9.86097978859508 5:-2.80287236002434 
-1.87871878063776 1:-2.02033860882871 2:-1.57942671832318 3:-2.76714265978584 4:11.4821602316759 5:-2.02033860882869 
-64 1:-2.73858004896326 2:-2.9229617659251 3:0.27400373660289 4:7.96362429272761 5:-0.457156307448336 
-64 1:-1.81522623444559 2:-1.61867610932753 3:0.546289570150216 4:8.81360887005513 5:-2.04144648199771 
45.2362567109778 1:0.262414382614895 2:-2.14510010856326 3:1.35305174495353 4:8.00684669525182 5:-3.94030403765828 
64 1:-2.05621589148892 2:-2.15842918046725 3:1.0926223622616 4:8.54301953246264 5:-2.04144648199771 
36.3241081296473 1:-2.05621589148892 2:-1.88268572594836 3:0.546289570150216 4:7.69133845918029 5:0.676836268249836 
20.1080030365703 1:-1.03408333382187 2:-3.54166572224563 3:1.12082215916349 4:9.63564189472423 5:-0.445434142625012 
-47.5102889246785 1:-1.28880223520986 2:-4.40168289843739 3:2.80287236002434 4:8.36817472743012 5:-0.676836268249836 
38.2496984164183 1:-1.03408333382187 2:-3.82645000952826 3:3.30002601029253 4:6.84573806558517 5:-1.84834056940131 
6.33118962006093 1:1.04027603997674 2:-5.47004362013996 3:5.98098419798798 4:4.57574905606752 5:-2.34810958495228 
21.5988517669916 1:1.57942671832318 2:-5.79919469776866 3:7.07287683806193 4:3.84157010444488 5:-1.63904161881694 
-25.9224460437278 1:4.01172232079823 2:-6.60960655938367 3:5.31310884294691 4:4.73338787956303 5:0.469512120837967 
23.3125129514352 1:5.33546723111966 2:-5.33546723111966 3:3.01524172300991 4:6.16179561255463 5:1.13399257569817 
15.0620681060153 1:6.52667315125914 2:-6.82111121593727 3:6.05693698654974 4:3.69311183958629 5:1.39357779432925 
3.14976141525054 1:6.60960655938367 2:-5.72626529659999 3:7.47869979495326 4:1.44778233686229 5:2.98049816260466 
1.78126374042126 1:4.0617850908264 2:-4.34656937810902 3:6.6129678417034 4:0.729923874149963 5:5.43576623225925 
22.2627725637573 1:4.92180226701815 2:-5.50475663309054 3:7.02875328876422 4:0.496341953155022 5:8.4901105535041 
-11.8267458180642 1:6.01872059833164 2:-4.86053334335013 3:6.11944607415218 4:1.94130410441351 5:8.77969286037332 
-2.74534881155994 1:4.40168289843739 2:-4.69218196277812 3:4.95302027353093 4:4.6796473070333 5:9.22148917996768 
4.44082078409639 1:4.6043116668901 2:-5.47004362013996 3:3.09337142436508 4:6.53929615619915 5:11.069829749369 
1.2364918367659 1:5.17954455579923 2:-4.89097573205042 3:4.63323344326934 4:4.8848567537817 5:10.6053392447926 
7.34996819453969 1:6.95242125184239 2:-4.6043116668901 3:4.86053334335013 4:5.51083876295 5:7.23775379926801 
-11.8004558364676 1:4.11311407468857 2:-4.11311407468857 3:4.11311407468857 4:8.52432814065687 5:3.31051241579812 
10.4849592342222 1:3.87525889920166 2:-4.16575796354239 3:4.69218196277812 4:10.6227772888696 5:1.60868198934545 
2.05357880848249 1:2.17192496932364 2:-4.16575796354239 3:6.48598347165215 4:6.73052663178284 5:4.87570697007769 
3.26257746565144 1:0.265624364374006 2:-3.87525889920166 3:5.43576623225925 4:9.17703733556456 5:3.95085412836735 
8.1879579896495 1:-2.9409629316629 2:-1.12082215916349 3:4.5757490560675 4:7.91812460476249 5:7.05810742857071 
-0.987640524577786 1:-1.62879519947241 2:0.549747191121774 3:4.90228779884425 4:3.9614609053624 5:10.4417069463698 
-62.8794858636956 1:-2.45121498774064 2:0 3:7.91812460476247 4:0 5:12.49387366083 
-27.9184951013087 1:-1.05930734974242 2:-2.48235837250321 3:9.86097978859508 4:-2.80287236002434 5:13.917917572291 
20.7571890931086 1:-1.57942671832318 2:-2.76714265978584 3:11.4821602316759 4:-2.02033860882869 5:11.4473302930135 
64 1:-2.9229617659251 2:0.27400373660289 3:7.96362429272761 4:-0.457156307448336 5:12.49387366083 
26.7666676361448 1:-1.61867610932753 2:0.546289570150216 3:8.81360887005513 4:-2.04144648199771 5:14.9762320333332 
5.78155870792771 1:-2.14510010856326 2:1.35305174495353 3:8.00684669525182 4:-3.94030403765828 5:18.8056051085324 
25.9262417669401 1:-2.15842918046725 2:1.0926223622616 3:8.54301953246264 4:-2.04144648199771 5:18.4524426592544 
31.2949884247483 1:-1.88268572594836 2:0.546289570150216 3:7.69133845918029 4:0.676836268249836 5:16.2447378389135 
-64 1:-3.54166572224563 2:1.12082215916349 3:9.63564189472423 4:-0.445434142625012 5:16.2447378389135 
29.7514484768725 1:-4.40168289843739 2:2.80287236002434 3:8.36817472743012 4:-0.676836268249836 5:18.1364630651228 
-41.9875283778615 1:-3.82645000952826 2:3.30002601029253 3:6.84573806558517 4:-1.84834056940131 5:21.2303431710126 
27.0949675499862 1:-5.47004362013996 2:5.98098419798798 3:4.57574905606752 4:-2.34810958495228 5:21.6019205955633 
-43.8121510792272 1:-5.79919469776866 2:7.07287683806193 3:3.84157010444488 4:-1.63904161881694 5:21.1220323073864 
50.6606941785949 1:-6.60960655938367 2:5.31310884294691 3:4.73338787956303 4:0.469512120837967 5:20.7608310501746 
-51.8916692436369 1:-5.33546723111966 2:3.01524172300991 3:6.16179561255463 4:1.13399257569817 5:19.2205213026925 
-30.2036293529294 1:-6.82111121593727 2:6.05693698654974 3:3.69311183958629 4:1.39357779432925 5:19.253811010611 
2.16807799528702 1:-5.72626529659999 2:7.47869979495326 3:1.44778233686229 4:2.98049816260466 5:17.9035639702463 
4.93144426296886 1:-4.34656937810902 2:6.6129678417034 3:0.729923874149963 4:5.43576623225925 5:18.1731526408374 
-60.3072018594715 1:-5.50475663309054 2:7.02875328876422 3:0.496341953155022 4:8.4901105535041 5:17.4736204970715 
14.5418689693183 1:-4.86053334335013 2:6.11944607415218 3:1.94130410441351 4:8.77969286037332 5:14.9439064284241 
-38.8866232497161 1:-4.69218196277812 2:4.95302027353093 3:4.6796473070333 4:9.22148917996768 5:13.5201812055622 
-20.6659150882146 1:-5.47004362013996 2:3.09337142436508 3:6.53929615619915 4:11.069829749369 5:9.69100130080567 
7.40167863808803 1:-4.89097573205042 2:4.63323344326934 3:4.8848567537817 4:10.6053392447926 5:10.8339474788838 
23.5253946533166 1:-4.6043116668901 2:4.86053334335013 3:5.51083876295 4:7.23775379926801 5:13.6219747017989 
10.9969338178016 1:-4.11311407468857 2:4.11311407468857 3:8.52432814065687 4:3.31051241579812 5:16.1230589013799 
-16.1720713520743 1:-4.16575796354239 2:4.69218196277812 3:10.6227772888696 4:1.60868198934545 5:15.1731913196237 
-8.60134773828018 1:-4.16575796354239 2:6.48598347165215 3:6.73052663178284 4:4.87570697007769 5:14.0046154871042 
-7.1049649328715 1:-3.87525889920166 2:5.43576623225925 3:9.17703733556456 4:3.95085412836735 5:12.1145747591161 
-7.99714505655537 1:-1.12082215916349 2:4.5757490560675 3:7.91812460476249 4:7.05810742857071 5:9.40050223646494 
-20.5473694228055 1:0.549747191121774 2:4.90228779884425 3:3.9614609053624 4:10.4417069463698 5:8.26695738934462 
29.0548230627075 1:0 2:7.91812460476247 3:0 4:12.49387366083 5:10.2477967246998 
-7.88900216746946 1:-2.48235837250321 2:9.86097978859508 3:-2.80287236002434 4:13.917917572291 5:9.69100130080562 
-15.4596610627787 1:-2.76714265978584 2:11.4821602316759 3:-2.02033860882869 4:11.4473302930135 5:11.9609903103233 
-26.2775769752328 1:0.27400373660289 2:7.96362429272761 3:-0.457156307448336 4:12.49387366083 5:13.0078376260711 
-2.74382504852133 1:0.546289570150216 2:8.81360887005513 3:-2.04144648199771 4:14.9762320333332 5:12.2464117480444 
-17.7183551158197 1:1.35305174495353 2:8.00684669525182 3:-3.94030403765828 4:18.8056051085324 5:8.28373847463468 
-3.61780055330964 1:1.0926223622616 2:8.54301953246264 3:-2.04144648199771 4:18.4524426592544 5:5.95078105826361 
-20.1877965378417 1:0.546289570150216 2:7.69133845918029 3:0.676836268249836 4:16.2447378389135 5:8.6309334252169 
4.01074391836218 1:1.12082215916349 2:9.63564189472423 3:-0.445434142625012 4:16.2447378389135 5:-19.4976603216055 
-2.02938503739242 1:2.80287236002434 2:8.36817472743012 3:-0.676836268249836 4:18.1364630651228 5:-18.5936193725712 
-6.06850947765972 1:3.30002601029253 2:6.84573806558517 3:-1.84834056940131 4:21.2303431710126 5:-18.0456064458131 
-4.74809828670205 1:5.98098419798798 2:4.57574905606752 3:-2.34810958495228 4:21.6019205955633 5:-19.253811010611 
1.36579291021029 1:7.07287683806193 2:3.84157010444488 3:-1.63904161881694 4:21.1220323073864 5:-21.3613136189754 
4.71156423871783 1:5.31310884294691 2:4.73338787956303 3:0.469512120837967 4:20.7608310501746 5:-21.7049866734588 
-3.68965670838654 1:3.01524172300991 2:6.16179561255463 3:1.13399257569817 4:19.2205213026925 5:-23.4494275143001 
1.01812728530779 1:6.05693698654974 2:3.69311183958629 3:1.39357779432925 4:19.253811010611 5:-23.576326415139 
-1.8163007836962 1:7.47869979495326 2:1.44778233686229 3:2.98049816260466 4:17.9035639702463 5:-21.6019205955632 
-1.52753692880823 1:6.6129678417034 2:0.729923874149963 3:5.43576623225925 4:18.1731526408374 5:-24.5849026020123 
3.16973100543064 1:7.02875328876422 2:0.496341953155022 3:8.4901105535041 4:17.4736204970715 5:-27.2153867927752 
-2.49948735960078 1:6.11944607415218 2:1.94130410441351 3:8.77969286037332 4:14.9439064284241 5:-26.923816124013 
-0.433879001401748 1:4.95302027353093 2:4.6796473070333 3:9.22148917996768 4:13.5201812055622 5:-26.9042943459541 
3.7979374165529 1:3.09337142436508 2:6.53929615619915 3:11.069829749369 4:9.69100130080567 5:-22.9147988357856 
2.83036690174146 1:4.63323344326934 2:4.8848567537817 3:10.6053392447926 4:10.8339474788838 5:-23.5697685520551 
6.22867898609065 1:4.86053334335013 2:5.51083876295 3:7.23775379926801 4:13.6219747017989 5:-24.3734591709549 
-0.498078766612555 1:4.11311407468857 2:8.52432814065687 3:3.31051241579812 4:16.1230589013799 5:-25.1713816256597 
3.16852059276527 1:4.69218196277812 2:10.6227772888696 3:1.60868198934545 4:15.1731913196237 5:-25.8626147110894 
-3.00983903404166 1:6.48598347165215 2:6.73052663178284 3:4.87570697007769 4:14.0046154871042 5:-23.8882088915137 
-5.97828413134602 1:5.43576623225925 2:9.17703733556456 3:3.95085412836735 4:12.1145747591161 5:-22.2802195623679 
-3.25892977400149 1:4.5757490560675 2:7.91812460476249 3:7.05810742857071 4:9.40050223646494 5:-22.8703596262105 
-7.91301015636987 1:4.90228779884425 2:3.9614609053624 3:10.4417069463698 4:8.26695738934462 5:-23.6572006437063 
2.98306538025636 1:7.91812460476247 2:0 3:12.49387366083 4:10.2477967246998 5:-25.6380399790615 
1.95179222112188 1:9.86097978859508 2:-2.80287236002434 3:13.917917572291 4:9.69100130080562 5:-25.5833246926724 
-4.57522212202379 1:11.4821602316759 2:-2.02033860882869 3:11.4473302930135 4:11.9609903103233 5:-27.5016563299063 
-0.241741844291144 1:7.96362429272761 2:-0.457156307448336 3:12.49387366083 4:13.0078376260711 5:-29.8482806650101 
0.0778953120654709 1:8.81360887005513 2:-2.04144648199771 3:14.9762320333332 4:12.2464117480444 5:-31.3619122972002 
2.83421996371471 1:8.00684669525182 2:-3.94030403765828 3:18.8056051085324 4:8.28373847463468 5:-29.3297545433291 
-6.99821449979538 1:8.54301953246264 2:-2.04144648199771 3:18.4524426592544 4:5.95078105826361 5:-26.5453841402785 
-7.80525561061596 1:7.69133845918029 2:0.676836268249836 3:16.2447378389135 4:8.6309334252169 5:-29.600919428893 
-9.51527359342445 1:9.63564189472423 2:-0.445434142625012 3:16.2447378389135 4:-19.4976603216055 5:-1.22344564170118 
1.36352695068428 1:8.36817472743012 2:-0.676836268249836 3:18.1364630651228 4:-18.5936193725712 5:-5.11525224473814 
-5.04557280489191 1:6.84573806558517 2:-1.84834056940131 3:21.2303431710126 4:-18.0456064458131 5:-8.71501757189002 
1.78661940036967 1:4.57574905606752 2:-2.34810958495228 3:21.6019205955633 4:-19.253811010611 5:-6.65659965488712 
-14.481429627586 1:3.84157010444488 2:-1.63904161881694 3:21.1220323073864 4:-21.3613136189754 5:-3.23692931433217 
5.90970976046988 1:4.73338787956303 2:0.469512120837967 3:20.7608310501746 4:-21.7049866734588 5:-3.47621062592121 
-3.26982864004851 1:6.16179561255463 2:1.13399257569817 3:19.2205213026925 4:-23.4494275143001 5:-3.3325063410192 
5.05175987459741 1:3.69311183958629 2:1.39357779432925 3:19.253811010611 4:-23.576326415139 5:-1.80445026936427 
-4.55007078459311 1:1.44778233686229 2:2.98049816260466 3:17.9035639702463 4:-21.6019205955632 5:-2.48235837250324 
-5.39537949257459 1:0.729923874149963 2:5.43576623225925 3:18.1731526408374 4:-24.5849026020123 5:-1.5063746435876 
-10.1671693961498 1:0.496341953155022 2:8.4901105535041 3:17.4736204970715 4:-27.2153867927752 5:-0.254718901387996 
16.0683987700394 1:1.94130410441351 2:8.77969286037332 3:14.9439064284241 4:-26.923816124013 5:-0.513963965241104 
-9.63206432217021 1:4.6796473070333 2:9.22148917996768 3:13.5201812055622 4:-26.9042943459541 5:0 
-1.87316658957157 1:6.53929615619915 2:11.069829749369 3:9.69100130080567 4:-22.9147988357856 5:-0.992716323301113 
-3.35440603592577 1:4.8848567537817 2:10.6053392447926 3:10.8339474788838 4:-23.5697685520551 5:-1.23037826972936 
-0.26944794434928 1:5.51083876295 2:7.23775379926801 3:13.6219747017989 4:-24.3734591709549 5:-0.987075402629434 
1.48869948934269 1:8.52432814065687 2:3.31051241579812 3:16.1230589013799 4:-25.1713816256597 5:-2.26639846359438 
1.29760168240872 1:10.6227772888696 2:1.60868198934545 3:15.1731913196237 4:-25.8626147110894 5:-1.02191651816861 
1.8674071417713 1:6.73052663178284 2:4.87570697007769 3:14.0046154871042 4:-23.8882088915137 5:-4.30849006993483 
0.101622827084782 1:9.17703733556456 2:3.95085412836735 3:12.1145747591161 4:-22.2802195623679 5:-6.97396898147833 
1.1055585742532 1:7.91812460476249 2:7.05810742857071 3:9.40050223646494 4:-22.8703596262105 5:-5.51809696438583 
0.644457366682555 1:3.9614609053624 2:10.4417069463698 3:8.26695738934462 4:-23.6572006437063 5:-4.46495958733659 
1.31543217974143 1:0 2:12.49387366083 3:10.2477967246998 4:-25.6380399790615 5:-3.91521239621482 
-2.8606734796196 1:-2.80287236002434 2:13.917917572291 3:9.69100130080562 4:-25.5833246926724 5:-3.68713599531263 
3.19029323506598 1:-2.02033860882869 2:11.4473302930135 3:11.9609903103233 4:-27.5016563299063 5:-4.51967487372573 
-8.58871934621029 1:-0.457156307448336 2:12.49387366083 3:13.0078376260711 4:-29.8482806650101 5:-4.26644122218622 
3.36622440270116 1:-2.04144648199771 2:14.9762320333332 3:12.2464117480444 4:-31.3619122972002 5:-4.5757490560675 
0.921044013190962 1:-3.94030403765828 2:18.8056051085324 3:8.28373847463468 4:-29.3297545433291 5:-4.86053334335013 
0.672065721561813 1:-2.04144648199771 2:18.4524426592544 3:5.95078105826361 4:-26.5453841402785 5:-8.60671465244569 
4.55134434757111 1:0.676836268249836 2:16.2447378389135 3:8.6309334252169 4:-29.600919428893 5:-9.75344480285045 
-1.51262934442611 1:-0.445434142625012 2:16.2447378389135 3:-19.4976603216055 4:-1.22344564170118 5:-10.3158962285058 
2.79356795582495 1:-0.676836268249836 2:18.1364630651228 3:-18.5936193725712 4:-5.11525224473814 5:-8.22944814717676 
2.8055964754098 1:-1.84834056940131 2:21.2303431710126 3:-18.0456064458131 4:-8.71501757189002 5:-6.65002142885358 
2.74795622815849 1:-2.34810958495228 2:21.6019205955633 3:-19.253811010611 4:-6.65659965488712 5:-8.83359634368721 
10.3893273007928 1:-1.63904161881694 2:21.1220323073864 3:-21.3613136189754 4:-3.23692931433217 5:-11.8099312077994 
-9.08789524326773 1:0.469512120837967 2:20.7608310501746 3:-21.7049866734588 4:-3.47621062592121 5:-9.82044833610551 
-8.76655459347399 1:1.13399257569817 2:19.2205213026925 3:-23.4494275143001 4:-3.3325063410192 5:-6.60595687257197 
12.3310306237284 1:1.39357779432925 2:19.253811010611 3:-23.576326415139 4:-1.80445026936427 5:-7.44691439598111 
8.10199753574037 1:2.98049816260466 2:17.9035639702463 3:-21.6019205955632 4:-2.48235837250324 5:-8.43208857000357 
2.71262050117332 1:5.43576623225925 2:18.1731526408374 3:-24.5849026020123 4:-1.5063746435876 5:-8.43208857000357 
